FANN_FLO_2.1
num_layers=3
learning_rate=0.700000
connection_rate=1.000000
network_type=0
learning_momentum=0.000000
training_algorithm=2
train_error_function=1
train_stop_function=0
cascade_output_change_fraction=0.010000
quickprop_decay=-0.000100
quickprop_mu=1.750000
rprop_increase_factor=1.200000
rprop_decrease_factor=0.500000
rprop_delta_min=0.000000
rprop_delta_max=50.000000
rprop_delta_zero=0.100000
cascade_output_stagnation_epochs=12
cascade_candidate_change_fraction=0.010000
cascade_candidate_stagnation_epochs=12
cascade_max_out_epochs=150
cascade_max_cand_epochs=150
cascade_num_candidate_groups=2
bit_fail_limit=3.49999994039535522461e-01
cascade_candidate_limit=1.00000000000000000000e+03
cascade_weight_multiplier=4.00000005960464477539e-01
cascade_activation_functions_count=10
cascade_activation_functions=3 5 7 8 10 11 14 15 16 17 
cascade_activation_steepnesses_count=4
cascade_activation_steepnesses=2.50000000000000000000e-01 5.00000000000000000000e-01 7.50000000000000000000e-01 1.00000000000000000000e+00 
layer_sizes=785 31 11 
scale_included=0
neurons (num_inputs, activation_function, activation_steepness)=(0, 0, 0.00000000000000000000e+00) (0, 0, 0.00000000000000000000e+00) (0, 0, 0.00000000000000000000e+00) (0, 0, 0.00000000000000000000e+00) (0, 0, 0.00000000000000000000e+00) (0, 0, 0.00000000000000000000e+00) (0, 0, 0.00000000000000000000e+00) (0, 0, 0.00000000000000000000e+00) (0, 0, 0.00000000000000000000e+00) (0, 0, 0.00000000000000000000e+00) (0, 0, 0.00000000000000000000e+00) (0, 0, 0.00000000000000000000e+00) (0, 0, 0.00000000000000000000e+00) (0, 0, 0.00000000000000000000e+00) (0, 0, 0.00000000000000000000e+00) (0, 0, 0.00000000000000000000e+00) (0, 0, 0.00000000000000000000e+00) (0, 0, 0.00000000000000000000e+00) (0, 0, 0.00000000000000000000e+00) (0, 0, 0.00000000000000000000e+00) (0, 0, 0.00000000000000000000e+00) (0, 0, 0.00000000000000000000e+00) (0, 0, 0.00000000000000000000e+00) (0, 0, 0.00000000000000000000e+00) (0, 0, 0.00000000000000000000e+00) (0, 0, 0.00000000000000000000e+00) (0, 0, 0.00000000000000000000e+00) (0, 0, 0.00000000000000000000e+00) (0, 0, 0.00000000000000000000e+00) (0, 0, 0.00000000000000000000e+00) (0, 0, 0.00000000000000000000e+00) (0, 0, 0.00000000000000000000e+00) (0, 0, 0.00000000000000000000e+00) (0, 0, 0.00000000000000000000e+00) (0, 0, 0.00000000000000000000e+00) (0, 0, 0.00000000000000000000e+00) (0, 0, 0.00000000000000000000e+00) (0, 0, 0.00000000000000000000e+00) (0, 0, 0.00000000000000000000e+00) (0, 0, 0.00000000000000000000e+00) (0, 0, 0.00000000000000000000e+00) (0, 0, 0.00000000000000000000e+00) (0, 0, 0.00000000000000000000e+00) (0, 0, 0.00000000000000000000e+00) (0, 0, 0.00000000000000000000e+00) (0, 0, 0.00000000000000000000e+00) (0, 0, 0.00000000000000000000e+00) (0, 0, 0.00000000000000000000e+00) (0, 0, 0.00000000000000000000e+00) (0, 0, 0.00000000000000000000e+00) (0, 0, 0.00000000000000000000e+00) (0, 0, 0.00000000000000000000e+00) (0, 0, 0.00000000000000000000e+00) (0, 0, 0.00000000000000000000e+00) (0, 0, 0.00000000000000000000e+00) (0, 0, 0.00000000000000000000e+00) (0, 0, 0.00000000000000000000e+00) (0, 0, 0.00000000000000000000e+00) (0, 0, 0.00000000000000000000e+00) (0, 0, 0.00000000000000000000e+00) (0, 0, 0.00000000000000000000e+00) (0, 0, 0.00000000000000000000e+00) (0, 0, 0.00000000000000000000e+00) (0, 0, 0.00000000000000000000e+00) (0, 0, 0.00000000000000000000e+00) (0, 0, 0.00000000000000000000e+00) (0, 0, 0.00000000000000000000e+00) (0, 0, 0.00000000000000000000e+00) (0, 0, 0.00000000000000000000e+00) (0, 0, 0.00000000000000000000e+00) (0, 0, 0.00000000000000000000e+00) (0, 0, 0.00000000000000000000e+00) (0, 0, 0.00000000000000000000e+00) (0, 0, 0.00000000000000000000e+00) (0, 0, 0.00000000000000000000e+00) (0, 0, 0.00000000000000000000e+00) (0, 0, 0.00000000000000000000e+00) (0, 0, 0.00000000000000000000e+00) (0, 0, 0.00000000000000000000e+00) (0, 0, 0.00000000000000000000e+00) (0, 0, 0.00000000000000000000e+00) (0, 0, 0.00000000000000000000e+00) (0, 0, 0.00000000000000000000e+00) (0, 0, 0.00000000000000000000e+00) (0, 0, 0.00000000000000000000e+00) (0, 0, 0.00000000000000000000e+00) (0, 0, 0.00000000000000000000e+00) (0, 0, 0.00000000000000000000e+00) (0, 0, 0.00000000000000000000e+00) (0, 0, 0.00000000000000000000e+00) (0, 0, 0.00000000000000000000e+00) (0, 0, 0.00000000000000000000e+00) (0, 0, 0.00000000000000000000e+00) (0, 0, 0.00000000000000000000e+00) (0, 0, 0.00000000000000000000e+00) (0, 0, 0.00000000000000000000e+00) (0, 0, 0.00000000000000000000e+00) (0, 0, 0.00000000000000000000e+00) (0, 0, 0.00000000000000000000e+00) (0, 0, 0.00000000000000000000e+00) (0, 0, 0.00000000000000000000e+00) (0, 0, 0.00000000000000000000e+00) (0, 0, 0.00000000000000000000e+00) (0, 0, 0.00000000000000000000e+00) (0, 0, 0.00000000000000000000e+00) (0, 0, 0.00000000000000000000e+00) (0, 0, 0.00000000000000000000e+00) (0, 0, 0.00000000000000000000e+00) (0, 0, 0.00000000000000000000e+00) (0, 0, 0.00000000000000000000e+00) (0, 0, 0.00000000000000000000e+00) (0, 0, 0.00000000000000000000e+00) (0, 0, 0.00000000000000000000e+00) (0, 0, 0.00000000000000000000e+00) (0, 0, 0.00000000000000000000e+00) (0, 0, 0.00000000000000000000e+00) (0, 0, 0.00000000000000000000e+00) (0, 0, 0.00000000000000000000e+00) (0, 0, 0.00000000000000000000e+00) (0, 0, 0.00000000000000000000e+00) (0, 0, 0.00000000000000000000e+00) (0, 0, 0.00000000000000000000e+00) (0, 0, 0.00000000000000000000e+00) (0, 0, 0.00000000000000000000e+00) (0, 0, 0.00000000000000000000e+00) (0, 0, 0.00000000000000000000e+00) (0, 0, 0.00000000000000000000e+00) (0, 0, 0.00000000000000000000e+00) (0, 0, 0.00000000000000000000e+00) (0, 0, 0.00000000000000000000e+00) (0, 0, 0.00000000000000000000e+00) (0, 0, 0.00000000000000000000e+00) (0, 0, 0.00000000000000000000e+00) (0, 0, 0.00000000000000000000e+00) (0, 0, 0.00000000000000000000e+00) (0, 0, 0.00000000000000000000e+00) (0, 0, 0.00000000000000000000e+00) (0, 0, 0.00000000000000000000e+00) (0, 0, 0.00000000000000000000e+00) (0, 0, 0.00000000000000000000e+00) (0, 0, 0.00000000000000000000e+00) (0, 0, 0.00000000000000000000e+00) (0, 0, 0.00000000000000000000e+00) (0, 0, 0.00000000000000000000e+00) (0, 0, 0.00000000000000000000e+00) (0, 0, 0.00000000000000000000e+00) (0, 0, 0.00000000000000000000e+00) (0, 0, 0.00000000000000000000e+00) (0, 0, 0.00000000000000000000e+00) (0, 0, 0.00000000000000000000e+00) (0, 0, 0.00000000000000000000e+00) (0, 0, 0.00000000000000000000e+00) (0, 0, 0.00000000000000000000e+00) (0, 0, 0.00000000000000000000e+00) (0, 0, 0.00000000000000000000e+00) (0, 0, 0.00000000000000000000e+00) (0, 0, 0.00000000000000000000e+00) (0, 0, 0.00000000000000000000e+00) (0, 0, 0.00000000000000000000e+00) (0, 0, 0.00000000000000000000e+00) (0, 0, 0.00000000000000000000e+00) (0, 0, 0.00000000000000000000e+00) (0, 0, 0.00000000000000000000e+00) (0, 0, 0.00000000000000000000e+00) (0, 0, 0.00000000000000000000e+00) (0, 0, 0.00000000000000000000e+00) (0, 0, 0.00000000000000000000e+00) (0, 0, 0.00000000000000000000e+00) (0, 0, 0.00000000000000000000e+00) (0, 0, 0.00000000000000000000e+00) (0, 0, 0.00000000000000000000e+00) (0, 0, 0.00000000000000000000e+00) (0, 0, 0.00000000000000000000e+00) (0, 0, 0.00000000000000000000e+00) (0, 0, 0.00000000000000000000e+00) (0, 0, 0.00000000000000000000e+00) (0, 0, 0.00000000000000000000e+00) (0, 0, 0.00000000000000000000e+00) (0, 0, 0.00000000000000000000e+00) (0, 0, 0.00000000000000000000e+00) (0, 0, 0.00000000000000000000e+00) (0, 0, 0.00000000000000000000e+00) (0, 0, 0.00000000000000000000e+00) (0, 0, 0.00000000000000000000e+00) (0, 0, 0.00000000000000000000e+00) (0, 0, 0.00000000000000000000e+00) (0, 0, 0.00000000000000000000e+00) (0, 0, 0.00000000000000000000e+00) (0, 0, 0.00000000000000000000e+00) (0, 0, 0.00000000000000000000e+00) (0, 0, 0.00000000000000000000e+00) (0, 0, 0.00000000000000000000e+00) (0, 0, 0.00000000000000000000e+00) (0, 0, 0.00000000000000000000e+00) (0, 0, 0.00000000000000000000e+00) (0, 0, 0.00000000000000000000e+00) (0, 0, 0.00000000000000000000e+00) (0, 0, 0.00000000000000000000e+00) (0, 0, 0.00000000000000000000e+00) (0, 0, 0.00000000000000000000e+00) (0, 0, 0.00000000000000000000e+00) (0, 0, 0.00000000000000000000e+00) (0, 0, 0.00000000000000000000e+00) (0, 0, 0.00000000000000000000e+00) (0, 0, 0.00000000000000000000e+00) (0, 0, 0.00000000000000000000e+00) (0, 0, 0.00000000000000000000e+00) (0, 0, 0.00000000000000000000e+00) (0, 0, 0.00000000000000000000e+00) (0, 0, 0.00000000000000000000e+00) (0, 0, 0.00000000000000000000e+00) (0, 0, 0.00000000000000000000e+00) (0, 0, 0.00000000000000000000e+00) (0, 0, 0.00000000000000000000e+00) (0, 0, 0.00000000000000000000e+00) (0, 0, 0.00000000000000000000e+00) (0, 0, 0.00000000000000000000e+00) (0, 0, 0.00000000000000000000e+00) (0, 0, 0.00000000000000000000e+00) (0, 0, 0.00000000000000000000e+00) (0, 0, 0.00000000000000000000e+00) (0, 0, 0.00000000000000000000e+00) (0, 0, 0.00000000000000000000e+00) (0, 0, 0.00000000000000000000e+00) (0, 0, 0.00000000000000000000e+00) (0, 0, 0.00000000000000000000e+00) (0, 0, 0.00000000000000000000e+00) (0, 0, 0.00000000000000000000e+00) (0, 0, 0.00000000000000000000e+00) (0, 0, 0.00000000000000000000e+00) (0, 0, 0.00000000000000000000e+00) (0, 0, 0.00000000000000000000e+00) (0, 0, 0.00000000000000000000e+00) (0, 0, 0.00000000000000000000e+00) (0, 0, 0.00000000000000000000e+00) (0, 0, 0.00000000000000000000e+00) (0, 0, 0.00000000000000000000e+00) (0, 0, 0.00000000000000000000e+00) (0, 0, 0.00000000000000000000e+00) (0, 0, 0.00000000000000000000e+00) (0, 0, 0.00000000000000000000e+00) (0, 0, 0.00000000000000000000e+00) (0, 0, 0.00000000000000000000e+00) (0, 0, 0.00000000000000000000e+00) (0, 0, 0.00000000000000000000e+00) (0, 0, 0.00000000000000000000e+00) (0, 0, 0.00000000000000000000e+00) (0, 0, 0.00000000000000000000e+00) (0, 0, 0.00000000000000000000e+00) (0, 0, 0.00000000000000000000e+00) (0, 0, 0.00000000000000000000e+00) (0, 0, 0.00000000000000000000e+00) (0, 0, 0.00000000000000000000e+00) (0, 0, 0.00000000000000000000e+00) (0, 0, 0.00000000000000000000e+00) (0, 0, 0.00000000000000000000e+00) (0, 0, 0.00000000000000000000e+00) (0, 0, 0.00000000000000000000e+00) (0, 0, 0.00000000000000000000e+00) (0, 0, 0.00000000000000000000e+00) (0, 0, 0.00000000000000000000e+00) (0, 0, 0.00000000000000000000e+00) (0, 0, 0.00000000000000000000e+00) (0, 0, 0.00000000000000000000e+00) (0, 0, 0.00000000000000000000e+00) (0, 0, 0.00000000000000000000e+00) (0, 0, 0.00000000000000000000e+00) (0, 0, 0.00000000000000000000e+00) (0, 0, 0.00000000000000000000e+00) (0, 0, 0.00000000000000000000e+00) (0, 0, 0.00000000000000000000e+00) (0, 0, 0.00000000000000000000e+00) (0, 0, 0.00000000000000000000e+00) (0, 0, 0.00000000000000000000e+00) (0, 0, 0.00000000000000000000e+00) (0, 0, 0.00000000000000000000e+00) (0, 0, 0.00000000000000000000e+00) (0, 0, 0.00000000000000000000e+00) (0, 0, 0.00000000000000000000e+00) (0, 0, 0.00000000000000000000e+00) (0, 0, 0.00000000000000000000e+00) (0, 0, 0.00000000000000000000e+00) (0, 0, 0.00000000000000000000e+00) (0, 0, 0.00000000000000000000e+00) (0, 0, 0.00000000000000000000e+00) (0, 0, 0.00000000000000000000e+00) (0, 0, 0.00000000000000000000e+00) (0, 0, 0.00000000000000000000e+00) (0, 0, 0.00000000000000000000e+00) (0, 0, 0.00000000000000000000e+00) (0, 0, 0.00000000000000000000e+00) (0, 0, 0.00000000000000000000e+00) (0, 0, 0.00000000000000000000e+00) (0, 0, 0.00000000000000000000e+00) (0, 0, 0.00000000000000000000e+00) (0, 0, 0.00000000000000000000e+00) (0, 0, 0.00000000000000000000e+00) (0, 0, 0.00000000000000000000e+00) (0, 0, 0.00000000000000000000e+00) (0, 0, 0.00000000000000000000e+00) (0, 0, 0.00000000000000000000e+00) (0, 0, 0.00000000000000000000e+00) (0, 0, 0.00000000000000000000e+00) (0, 0, 0.00000000000000000000e+00) (0, 0, 0.00000000000000000000e+00) (0, 0, 0.00000000000000000000e+00) (0, 0, 0.00000000000000000000e+00) (0, 0, 0.00000000000000000000e+00) (0, 0, 0.00000000000000000000e+00) (0, 0, 0.00000000000000000000e+00) (0, 0, 0.00000000000000000000e+00) (0, 0, 0.00000000000000000000e+00) (0, 0, 0.00000000000000000000e+00) (0, 0, 0.00000000000000000000e+00) (0, 0, 0.00000000000000000000e+00) (0, 0, 0.00000000000000000000e+00) (0, 0, 0.00000000000000000000e+00) (0, 0, 0.00000000000000000000e+00) (0, 0, 0.00000000000000000000e+00) (0, 0, 0.00000000000000000000e+00) (0, 0, 0.00000000000000000000e+00) (0, 0, 0.00000000000000000000e+00) (0, 0, 0.00000000000000000000e+00) (0, 0, 0.00000000000000000000e+00) (0, 0, 0.00000000000000000000e+00) (0, 0, 0.00000000000000000000e+00) (0, 0, 0.00000000000000000000e+00) (0, 0, 0.00000000000000000000e+00) (0, 0, 0.00000000000000000000e+00) (0, 0, 0.00000000000000000000e+00) (0, 0, 0.00000000000000000000e+00) (0, 0, 0.00000000000000000000e+00) (0, 0, 0.00000000000000000000e+00) (0, 0, 0.00000000000000000000e+00) (0, 0, 0.00000000000000000000e+00) (0, 0, 0.00000000000000000000e+00) (0, 0, 0.00000000000000000000e+00) (0, 0, 0.00000000000000000000e+00) (0, 0, 0.00000000000000000000e+00) (0, 0, 0.00000000000000000000e+00) (0, 0, 0.00000000000000000000e+00) (0, 0, 0.00000000000000000000e+00) (0, 0, 0.00000000000000000000e+00) (0, 0, 0.00000000000000000000e+00) (0, 0, 0.00000000000000000000e+00) (0, 0, 0.00000000000000000000e+00) (0, 0, 0.00000000000000000000e+00) (0, 0, 0.00000000000000000000e+00) (0, 0, 0.00000000000000000000e+00) (0, 0, 0.00000000000000000000e+00) (0, 0, 0.00000000000000000000e+00) (0, 0, 0.00000000000000000000e+00) (0, 0, 0.00000000000000000000e+00) (0, 0, 0.00000000000000000000e+00) (0, 0, 0.00000000000000000000e+00) (0, 0, 0.00000000000000000000e+00) (0, 0, 0.00000000000000000000e+00) (0, 0, 0.00000000000000000000e+00) (0, 0, 0.00000000000000000000e+00) (0, 0, 0.00000000000000000000e+00) (0, 0, 0.00000000000000000000e+00) (0, 0, 0.00000000000000000000e+00) (0, 0, 0.00000000000000000000e+00) (0, 0, 0.00000000000000000000e+00) (0, 0, 0.00000000000000000000e+00) (0, 0, 0.00000000000000000000e+00) (0, 0, 0.00000000000000000000e+00) (0, 0, 0.00000000000000000000e+00) (0, 0, 0.00000000000000000000e+00) (0, 0, 0.00000000000000000000e+00) (0, 0, 0.00000000000000000000e+00) (0, 0, 0.00000000000000000000e+00) (0, 0, 0.00000000000000000000e+00) (0, 0, 0.00000000000000000000e+00) (0, 0, 0.00000000000000000000e+00) (0, 0, 0.00000000000000000000e+00) (0, 0, 0.00000000000000000000e+00) (0, 0, 0.00000000000000000000e+00) (0, 0, 0.00000000000000000000e+00) (0, 0, 0.00000000000000000000e+00) (0, 0, 0.00000000000000000000e+00) (0, 0, 0.00000000000000000000e+00) (0, 0, 0.00000000000000000000e+00) (0, 0, 0.00000000000000000000e+00) (0, 0, 0.00000000000000000000e+00) (0, 0, 0.00000000000000000000e+00) (0, 0, 0.00000000000000000000e+00) (0, 0, 0.00000000000000000000e+00) (0, 0, 0.00000000000000000000e+00) (0, 0, 0.00000000000000000000e+00) (0, 0, 0.00000000000000000000e+00) (0, 0, 0.00000000000000000000e+00) (0, 0, 0.00000000000000000000e+00) (0, 0, 0.00000000000000000000e+00) (0, 0, 0.00000000000000000000e+00) (0, 0, 0.00000000000000000000e+00) (0, 0, 0.00000000000000000000e+00) (0, 0, 0.00000000000000000000e+00) (0, 0, 0.00000000000000000000e+00) (0, 0, 0.00000000000000000000e+00) (0, 0, 0.00000000000000000000e+00) (0, 0, 0.00000000000000000000e+00) (0, 0, 0.00000000000000000000e+00) (0, 0, 0.00000000000000000000e+00) (0, 0, 0.00000000000000000000e+00) (0, 0, 0.00000000000000000000e+00) (0, 0, 0.00000000000000000000e+00) (0, 0, 0.00000000000000000000e+00) (0, 0, 0.00000000000000000000e+00) (0, 0, 0.00000000000000000000e+00) (0, 0, 0.00000000000000000000e+00) (0, 0, 0.00000000000000000000e+00) (0, 0, 0.00000000000000000000e+00) (0, 0, 0.00000000000000000000e+00) (0, 0, 0.00000000000000000000e+00) (0, 0, 0.00000000000000000000e+00) (0, 0, 0.00000000000000000000e+00) (0, 0, 0.00000000000000000000e+00) (0, 0, 0.00000000000000000000e+00) (0, 0, 0.00000000000000000000e+00) (0, 0, 0.00000000000000000000e+00) (0, 0, 0.00000000000000000000e+00) (0, 0, 0.00000000000000000000e+00) (0, 0, 0.00000000000000000000e+00) (0, 0, 0.00000000000000000000e+00) (0, 0, 0.00000000000000000000e+00) (0, 0, 0.00000000000000000000e+00) (0, 0, 0.00000000000000000000e+00) (0, 0, 0.00000000000000000000e+00) (0, 0, 0.00000000000000000000e+00) (0, 0, 0.00000000000000000000e+00) (0, 0, 0.00000000000000000000e+00) (0, 0, 0.00000000000000000000e+00) (0, 0, 0.00000000000000000000e+00) (0, 0, 0.00000000000000000000e+00) (0, 0, 0.00000000000000000000e+00) (0, 0, 0.00000000000000000000e+00) (0, 0, 0.00000000000000000000e+00) (0, 0, 0.00000000000000000000e+00) (0, 0, 0.00000000000000000000e+00) (0, 0, 0.00000000000000000000e+00) (0, 0, 0.00000000000000000000e+00) (0, 0, 0.00000000000000000000e+00) (0, 0, 0.00000000000000000000e+00) (0, 0, 0.00000000000000000000e+00) (0, 0, 0.00000000000000000000e+00) (0, 0, 0.00000000000000000000e+00) (0, 0, 0.00000000000000000000e+00) (0, 0, 0.00000000000000000000e+00) (0, 0, 0.00000000000000000000e+00) (0, 0, 0.00000000000000000000e+00) (0, 0, 0.00000000000000000000e+00) (0, 0, 0.00000000000000000000e+00) (0, 0, 0.00000000000000000000e+00) (0, 0, 0.00000000000000000000e+00) (0, 0, 0.00000000000000000000e+00) (0, 0, 0.00000000000000000000e+00) (0, 0, 0.00000000000000000000e+00) (0, 0, 0.00000000000000000000e+00) (0, 0, 0.00000000000000000000e+00) (0, 0, 0.00000000000000000000e+00) (0, 0, 0.00000000000000000000e+00) (0, 0, 0.00000000000000000000e+00) (0, 0, 0.00000000000000000000e+00) (0, 0, 0.00000000000000000000e+00) (0, 0, 0.00000000000000000000e+00) (0, 0, 0.00000000000000000000e+00) (0, 0, 0.00000000000000000000e+00) (0, 0, 0.00000000000000000000e+00) (0, 0, 0.00000000000000000000e+00) (0, 0, 0.00000000000000000000e+00) (0, 0, 0.00000000000000000000e+00) (0, 0, 0.00000000000000000000e+00) (0, 0, 0.00000000000000000000e+00) (0, 0, 0.00000000000000000000e+00) (0, 0, 0.00000000000000000000e+00) (0, 0, 0.00000000000000000000e+00) (0, 0, 0.00000000000000000000e+00) (0, 0, 0.00000000000000000000e+00) (0, 0, 0.00000000000000000000e+00) (0, 0, 0.00000000000000000000e+00) (0, 0, 0.00000000000000000000e+00) (0, 0, 0.00000000000000000000e+00) (0, 0, 0.00000000000000000000e+00) (0, 0, 0.00000000000000000000e+00) (0, 0, 0.00000000000000000000e+00) (0, 0, 0.00000000000000000000e+00) (0, 0, 0.00000000000000000000e+00) (0, 0, 0.00000000000000000000e+00) (0, 0, 0.00000000000000000000e+00) (0, 0, 0.00000000000000000000e+00) (0, 0, 0.00000000000000000000e+00) (0, 0, 0.00000000000000000000e+00) (0, 0, 0.00000000000000000000e+00) (0, 0, 0.00000000000000000000e+00) (0, 0, 0.00000000000000000000e+00) (0, 0, 0.00000000000000000000e+00) (0, 0, 0.00000000000000000000e+00) (0, 0, 0.00000000000000000000e+00) (0, 0, 0.00000000000000000000e+00) (0, 0, 0.00000000000000000000e+00) (0, 0, 0.00000000000000000000e+00) (0, 0, 0.00000000000000000000e+00) (0, 0, 0.00000000000000000000e+00) (0, 0, 0.00000000000000000000e+00) (0, 0, 0.00000000000000000000e+00) (0, 0, 0.00000000000000000000e+00) (0, 0, 0.00000000000000000000e+00) (0, 0, 0.00000000000000000000e+00) (0, 0, 0.00000000000000000000e+00) (0, 0, 0.00000000000000000000e+00) (0, 0, 0.00000000000000000000e+00) (0, 0, 0.00000000000000000000e+00) (0, 0, 0.00000000000000000000e+00) (0, 0, 0.00000000000000000000e+00) (0, 0, 0.00000000000000000000e+00) (0, 0, 0.00000000000000000000e+00) (0, 0, 0.00000000000000000000e+00) (0, 0, 0.00000000000000000000e+00) (0, 0, 0.00000000000000000000e+00) (0, 0, 0.00000000000000000000e+00) (0, 0, 0.00000000000000000000e+00) (0, 0, 0.00000000000000000000e+00) (0, 0, 0.00000000000000000000e+00) (0, 0, 0.00000000000000000000e+00) (0, 0, 0.00000000000000000000e+00) (0, 0, 0.00000000000000000000e+00) (0, 0, 0.00000000000000000000e+00) (0, 0, 0.00000000000000000000e+00) (0, 0, 0.00000000000000000000e+00) (0, 0, 0.00000000000000000000e+00) (0, 0, 0.00000000000000000000e+00) (0, 0, 0.00000000000000000000e+00) (0, 0, 0.00000000000000000000e+00) (0, 0, 0.00000000000000000000e+00) (0, 0, 0.00000000000000000000e+00) (0, 0, 0.00000000000000000000e+00) (0, 0, 0.00000000000000000000e+00) (0, 0, 0.00000000000000000000e+00) (0, 0, 0.00000000000000000000e+00) (0, 0, 0.00000000000000000000e+00) (0, 0, 0.00000000000000000000e+00) (0, 0, 0.00000000000000000000e+00) (0, 0, 0.00000000000000000000e+00) (0, 0, 0.00000000000000000000e+00) (0, 0, 0.00000000000000000000e+00) (0, 0, 0.00000000000000000000e+00) (0, 0, 0.00000000000000000000e+00) (0, 0, 0.00000000000000000000e+00) (0, 0, 0.00000000000000000000e+00) (0, 0, 0.00000000000000000000e+00) (0, 0, 0.00000000000000000000e+00) (0, 0, 0.00000000000000000000e+00) (0, 0, 0.00000000000000000000e+00) (0, 0, 0.00000000000000000000e+00) (0, 0, 0.00000000000000000000e+00) (0, 0, 0.00000000000000000000e+00) (0, 0, 0.00000000000000000000e+00) (0, 0, 0.00000000000000000000e+00) (0, 0, 0.00000000000000000000e+00) (0, 0, 0.00000000000000000000e+00) (0, 0, 0.00000000000000000000e+00) (0, 0, 0.00000000000000000000e+00) (0, 0, 0.00000000000000000000e+00) (0, 0, 0.00000000000000000000e+00) (0, 0, 0.00000000000000000000e+00) (0, 0, 0.00000000000000000000e+00) (0, 0, 0.00000000000000000000e+00) (0, 0, 0.00000000000000000000e+00) (0, 0, 0.00000000000000000000e+00) (0, 0, 0.00000000000000000000e+00) (0, 0, 0.00000000000000000000e+00) (0, 0, 0.00000000000000000000e+00) (0, 0, 0.00000000000000000000e+00) (0, 0, 0.00000000000000000000e+00) (0, 0, 0.00000000000000000000e+00) (0, 0, 0.00000000000000000000e+00) (0, 0, 0.00000000000000000000e+00) (0, 0, 0.00000000000000000000e+00) (0, 0, 0.00000000000000000000e+00) (0, 0, 0.00000000000000000000e+00) (0, 0, 0.00000000000000000000e+00) (0, 0, 0.00000000000000000000e+00) (0, 0, 0.00000000000000000000e+00) (0, 0, 0.00000000000000000000e+00) (0, 0, 0.00000000000000000000e+00) (0, 0, 0.00000000000000000000e+00) (0, 0, 0.00000000000000000000e+00) (0, 0, 0.00000000000000000000e+00) (0, 0, 0.00000000000000000000e+00) (0, 0, 0.00000000000000000000e+00) (0, 0, 0.00000000000000000000e+00) (0, 0, 0.00000000000000000000e+00) (0, 0, 0.00000000000000000000e+00) (0, 0, 0.00000000000000000000e+00) (0, 0, 0.00000000000000000000e+00) (0, 0, 0.00000000000000000000e+00) (0, 0, 0.00000000000000000000e+00) (0, 0, 0.00000000000000000000e+00) (0, 0, 0.00000000000000000000e+00) (0, 0, 0.00000000000000000000e+00) (0, 0, 0.00000000000000000000e+00) (0, 0, 0.00000000000000000000e+00) (0, 0, 0.00000000000000000000e+00) (0, 0, 0.00000000000000000000e+00) (0, 0, 0.00000000000000000000e+00) (0, 0, 0.00000000000000000000e+00) (0, 0, 0.00000000000000000000e+00) (0, 0, 0.00000000000000000000e+00) (0, 0, 0.00000000000000000000e+00) (0, 0, 0.00000000000000000000e+00) (0, 0, 0.00000000000000000000e+00) (0, 0, 0.00000000000000000000e+00) (0, 0, 0.00000000000000000000e+00) (0, 0, 0.00000000000000000000e+00) (0, 0, 0.00000000000000000000e+00) (0, 0, 0.00000000000000000000e+00) (0, 0, 0.00000000000000000000e+00) (0, 0, 0.00000000000000000000e+00) (0, 0, 0.00000000000000000000e+00) (0, 0, 0.00000000000000000000e+00) (0, 0, 0.00000000000000000000e+00) (0, 0, 0.00000000000000000000e+00) (0, 0, 0.00000000000000000000e+00) (0, 0, 0.00000000000000000000e+00) (0, 0, 0.00000000000000000000e+00) (0, 0, 0.00000000000000000000e+00) (0, 0, 0.00000000000000000000e+00) (0, 0, 0.00000000000000000000e+00) (0, 0, 0.00000000000000000000e+00) (0, 0, 0.00000000000000000000e+00) (0, 0, 0.00000000000000000000e+00) (0, 0, 0.00000000000000000000e+00) (0, 0, 0.00000000000000000000e+00) (0, 0, 0.00000000000000000000e+00) (0, 0, 0.00000000000000000000e+00) (0, 0, 0.00000000000000000000e+00) (0, 0, 0.00000000000000000000e+00) (0, 0, 0.00000000000000000000e+00) (0, 0, 0.00000000000000000000e+00) (0, 0, 0.00000000000000000000e+00) (0, 0, 0.00000000000000000000e+00) (0, 0, 0.00000000000000000000e+00) (0, 0, 0.00000000000000000000e+00) (0, 0, 0.00000000000000000000e+00) (0, 0, 0.00000000000000000000e+00) (0, 0, 0.00000000000000000000e+00) (0, 0, 0.00000000000000000000e+00) (0, 0, 0.00000000000000000000e+00) (0, 0, 0.00000000000000000000e+00) (0, 0, 0.00000000000000000000e+00) (0, 0, 0.00000000000000000000e+00) (0, 0, 0.00000000000000000000e+00) (0, 0, 0.00000000000000000000e+00) (0, 0, 0.00000000000000000000e+00) (0, 0, 0.00000000000000000000e+00) (0, 0, 0.00000000000000000000e+00) (0, 0, 0.00000000000000000000e+00) (0, 0, 0.00000000000000000000e+00) (0, 0, 0.00000000000000000000e+00) (0, 0, 0.00000000000000000000e+00) (0, 0, 0.00000000000000000000e+00) (0, 0, 0.00000000000000000000e+00) (0, 0, 0.00000000000000000000e+00) (0, 0, 0.00000000000000000000e+00) (0, 0, 0.00000000000000000000e+00) (0, 0, 0.00000000000000000000e+00) (0, 0, 0.00000000000000000000e+00) (0, 0, 0.00000000000000000000e+00) (0, 0, 0.00000000000000000000e+00) (0, 0, 0.00000000000000000000e+00) (0, 0, 0.00000000000000000000e+00) (0, 0, 0.00000000000000000000e+00) (0, 0, 0.00000000000000000000e+00) (0, 0, 0.00000000000000000000e+00) (0, 0, 0.00000000000000000000e+00) (0, 0, 0.00000000000000000000e+00) (0, 0, 0.00000000000000000000e+00) (0, 0, 0.00000000000000000000e+00) (0, 0, 0.00000000000000000000e+00) (0, 0, 0.00000000000000000000e+00) (0, 0, 0.00000000000000000000e+00) (0, 0, 0.00000000000000000000e+00) (0, 0, 0.00000000000000000000e+00) (0, 0, 0.00000000000000000000e+00) (0, 0, 0.00000000000000000000e+00) (0, 0, 0.00000000000000000000e+00) (0, 0, 0.00000000000000000000e+00) (0, 0, 0.00000000000000000000e+00) (0, 0, 0.00000000000000000000e+00) (0, 0, 0.00000000000000000000e+00) (0, 0, 0.00000000000000000000e+00) (0, 0, 0.00000000000000000000e+00) (0, 0, 0.00000000000000000000e+00) (0, 0, 0.00000000000000000000e+00) (0, 0, 0.00000000000000000000e+00) (0, 0, 0.00000000000000000000e+00) (0, 0, 0.00000000000000000000e+00) (0, 0, 0.00000000000000000000e+00) (0, 0, 0.00000000000000000000e+00) (0, 0, 0.00000000000000000000e+00) (0, 0, 0.00000000000000000000e+00) (0, 0, 0.00000000000000000000e+00) (0, 0, 0.00000000000000000000e+00) (0, 0, 0.00000000000000000000e+00) (0, 0, 0.00000000000000000000e+00) (0, 0, 0.00000000000000000000e+00) (0, 0, 0.00000000000000000000e+00) (0, 0, 0.00000000000000000000e+00) (0, 0, 0.00000000000000000000e+00) (0, 0, 0.00000000000000000000e+00) (0, 0, 0.00000000000000000000e+00) (0, 0, 0.00000000000000000000e+00) (0, 0, 0.00000000000000000000e+00) (0, 0, 0.00000000000000000000e+00) (0, 0, 0.00000000000000000000e+00) (0, 0, 0.00000000000000000000e+00) (0, 0, 0.00000000000000000000e+00) (0, 0, 0.00000000000000000000e+00) (0, 0, 0.00000000000000000000e+00) (0, 0, 0.00000000000000000000e+00) (0, 0, 0.00000000000000000000e+00) (0, 0, 0.00000000000000000000e+00) (0, 0, 0.00000000000000000000e+00) (0, 0, 0.00000000000000000000e+00) (0, 0, 0.00000000000000000000e+00) (0, 0, 0.00000000000000000000e+00) (0, 0, 0.00000000000000000000e+00) (0, 0, 0.00000000000000000000e+00) (0, 0, 0.00000000000000000000e+00) (0, 0, 0.00000000000000000000e+00) (0, 0, 0.00000000000000000000e+00) (0, 0, 0.00000000000000000000e+00) (0, 0, 0.00000000000000000000e+00) (0, 0, 0.00000000000000000000e+00) (0, 0, 0.00000000000000000000e+00) (0, 0, 0.00000000000000000000e+00) (0, 0, 0.00000000000000000000e+00) (0, 0, 0.00000000000000000000e+00) (0, 0, 0.00000000000000000000e+00) (0, 0, 0.00000000000000000000e+00) (0, 0, 0.00000000000000000000e+00) (0, 0, 0.00000000000000000000e+00) (0, 0, 0.00000000000000000000e+00) (0, 0, 0.00000000000000000000e+00) (0, 0, 0.00000000000000000000e+00) (0, 0, 0.00000000000000000000e+00) (0, 0, 0.00000000000000000000e+00) (0, 0, 0.00000000000000000000e+00) (0, 0, 0.00000000000000000000e+00) (0, 0, 0.00000000000000000000e+00) (0, 0, 0.00000000000000000000e+00) (0, 0, 0.00000000000000000000e+00) (0, 0, 0.00000000000000000000e+00) (0, 0, 0.00000000000000000000e+00) (0, 0, 0.00000000000000000000e+00) (0, 0, 0.00000000000000000000e+00) (0, 0, 0.00000000000000000000e+00) (0, 0, 0.00000000000000000000e+00) (0, 0, 0.00000000000000000000e+00) (0, 0, 0.00000000000000000000e+00) (0, 0, 0.00000000000000000000e+00) (0, 0, 0.00000000000000000000e+00) (0, 0, 0.00000000000000000000e+00) (0, 0, 0.00000000000000000000e+00) (0, 0, 0.00000000000000000000e+00) (0, 0, 0.00000000000000000000e+00) (0, 0, 0.00000000000000000000e+00) (0, 0, 0.00000000000000000000e+00) (0, 0, 0.00000000000000000000e+00) (0, 0, 0.00000000000000000000e+00) (0, 0, 0.00000000000000000000e+00) (0, 0, 0.00000000000000000000e+00) (0, 0, 0.00000000000000000000e+00) (0, 0, 0.00000000000000000000e+00) (0, 0, 0.00000000000000000000e+00) (0, 0, 0.00000000000000000000e+00) (0, 0, 0.00000000000000000000e+00) (0, 0, 0.00000000000000000000e+00) (0, 0, 0.00000000000000000000e+00) (0, 0, 0.00000000000000000000e+00) (0, 0, 0.00000000000000000000e+00) (0, 0, 0.00000000000000000000e+00) (0, 0, 0.00000000000000000000e+00) (0, 0, 0.00000000000000000000e+00) (785, 4, 5.00000000000000000000e-01) (785, 4, 5.00000000000000000000e-01) (785, 4, 5.00000000000000000000e-01) (785, 4, 5.00000000000000000000e-01) (785, 4, 5.00000000000000000000e-01) (785, 4, 5.00000000000000000000e-01) (785, 4, 5.00000000000000000000e-01) (785, 4, 5.00000000000000000000e-01) (785, 4, 5.00000000000000000000e-01) (785, 4, 5.00000000000000000000e-01) (785, 4, 5.00000000000000000000e-01) (785, 4, 5.00000000000000000000e-01) (785, 4, 5.00000000000000000000e-01) (785, 4, 5.00000000000000000000e-01) (785, 4, 5.00000000000000000000e-01) (785, 4, 5.00000000000000000000e-01) (785, 4, 5.00000000000000000000e-01) (785, 4, 5.00000000000000000000e-01) (785, 4, 5.00000000000000000000e-01) (785, 4, 5.00000000000000000000e-01) (785, 4, 5.00000000000000000000e-01) (785, 4, 5.00000000000000000000e-01) (785, 4, 5.00000000000000000000e-01) (785, 4, 5.00000000000000000000e-01) (785, 4, 5.00000000000000000000e-01) (785, 4, 5.00000000000000000000e-01) (785, 4, 5.00000000000000000000e-01) (785, 4, 5.00000000000000000000e-01) (785, 4, 5.00000000000000000000e-01) (785, 4, 5.00000000000000000000e-01) (0, 0, 0.00000000000000000000e+00) (31, 3, 5.00000000000000000000e-01) (31, 3, 5.00000000000000000000e-01) (31, 3, 5.00000000000000000000e-01) (31, 3, 5.00000000000000000000e-01) (31, 3, 5.00000000000000000000e-01) (31, 3, 5.00000000000000000000e-01) (31, 3, 5.00000000000000000000e-01) (31, 3, 5.00000000000000000000e-01) (31, 3, 5.00000000000000000000e-01) (31, 3, 5.00000000000000000000e-01) (0, 3, 0.00000000000000000000e+00) 
connections (connected_to_neuron, weight)=(0, 1.50000000000000000000e+03) (1, 1.50000000000000000000e+03) (2, 1.50000000000000000000e+03) (3, 1.50000000000000000000e+03) (4, 1.50000000000000000000e+03) (5, 1.50000000000000000000e+03) (6, 1.50000000000000000000e+03) (7, 1.50000000000000000000e+03) (8, 1.50000000000000000000e+03) (9, 1.50000000000000000000e+03) (10, 1.50000000000000000000e+03) (11, 1.50000000000000000000e+03) (12, 1.49952001953125000000e+03) (13, 1.49952001953125000000e+03) (14, 1.40447998046875000000e+03) (15, 1.40447998046875000000e+03) (16, 1.50000000000000000000e+03) (17, 1.50000000000000000000e+03) (18, 1.50000000000000000000e+03) (19, 1.50000000000000000000e+03) (20, 1.50000000000000000000e+03) (21, 1.50000000000000000000e+03) (22, 1.50000000000000000000e+03) (23, 1.50000000000000000000e+03) (24, 1.50000000000000000000e+03) (25, 1.50000000000000000000e+03) (26, 1.50000000000000000000e+03) (27, 1.50000000000000000000e+03) (28, 1.50000000000000000000e+03) (29, 1.50000000000000000000e+03) (30, 1.50000000000000000000e+03) (31, 1.50000000000000000000e+03) (32, 1.50000000000000000000e+03) (33, 1.50000000000000000000e+03) (34, 1.44080004882812500000e+03) (35, 1.50000000000000000000e+03) (36, 1.50000000000000000000e+03) (37, 1.50000000000000000000e+03) (38, 1.50000000000000000000e+03) (39, 1.50000000000000000000e+03) (40, 1.50000000000000000000e+03) (41, 1.50000000000000000000e+03) (42, 1.50000000000000000000e+03) (43, 2.69142150878906250000e+02) (44, 1.50000000000000000000e+03) (45, 1.50000000000000000000e+03) (46, 1.50000000000000000000e+03) (47, 1.50000000000000000000e+03) (48, 1.50000000000000000000e+03) (49, 1.50000000000000000000e+03) (50, 1.50000000000000000000e+03) (51, 1.50000000000000000000e+03) (52, 1.50000000000000000000e+03) (53, 1.50000000000000000000e+03) (54, 1.50000000000000000000e+03) (55, 1.50000000000000000000e+03) (56, 1.50000000000000000000e+03) (57, 1.50000000000000000000e+03) (58, 7.15800048828125000000e+02) (59, -1.50000000000000000000e+03) (60, -1.41800024414062500000e+03) (61, 1.50000000000000000000e+03) (62, 1.50000000000000000000e+03) (63, 1.50000000000000000000e+03) (64, 1.50000000000000000000e+03) (65, 1.50000000000000000000e+03) (66, 1.50000000000000000000e+03) (67, 1.50000000000000000000e+03) (68, 1.50000000000000000000e+03) (69, 1.50000000000000000000e+03) (70, 1.50000000000000000000e+03) (71, 1.50000000000000000000e+03) (72, 1.50000000000000000000e+03) (73, 1.50000000000000000000e+03) (74, 1.50000000000000000000e+03) (75, 1.50000000000000000000e+03) (76, 1.50000000000000000000e+03) (77, 1.50000000000000000000e+03) (78, 1.50000000000000000000e+03) (79, 1.50000000000000000000e+03) (80, 1.50000000000000000000e+03) (81, 1.50000000000000000000e+03) (82, 1.50000000000000000000e+03) (83, 1.50000000000000000000e+03) (84, 1.50000000000000000000e+03) (85, 1.50000000000000000000e+03) (86, -1.50000000000000000000e+03) (87, -1.50000000000000000000e+03) (88, -1.50000000000000000000e+03) (89, 1.50000000000000000000e+03) (90, 1.50000000000000000000e+03) (91, 1.50000000000000000000e+03) (92, 1.50000000000000000000e+03) (93, 1.50000000000000000000e+03) (94, 1.50000000000000000000e+03) (95, 1.50000000000000000000e+03) (96, 1.50000000000000000000e+03) (97, 1.50000000000000000000e+03) (98, 1.50000000000000000000e+03) (99, 1.50000000000000000000e+03) (100, 1.50000000000000000000e+03) (101, 1.50000000000000000000e+03) (102, 1.50000000000000000000e+03) (103, 1.50000000000000000000e+03) (104, 1.50000000000000000000e+03) (105, 1.50000000000000000000e+03) (106, 1.50000000000000000000e+03) (107, 1.50000000000000000000e+03) (108, 1.50000000000000000000e+03) (109, 1.50000000000000000000e+03) (110, 1.50000000000000000000e+03) (111, 1.50000000000000000000e+03) (112, 1.50000000000000000000e+03) (113, 1.40800048828125000000e+02) (114, -1.50000000000000000000e+03) (115, 1.50000000000000000000e+03) (116, 1.50000000000000000000e+03) (117, 1.50000000000000000000e+03) (118, 1.50000000000000000000e+03) (119, 1.50000000000000000000e+03) (120, 1.50000000000000000000e+03) (121, 1.50000000000000000000e+03) (122, 1.50000000000000000000e+03) (123, 1.50000000000000000000e+03) (124, 1.50000000000000000000e+03) (125, 1.50000000000000000000e+03) (126, 1.50000000000000000000e+03) (127, 1.50000000000000000000e+03) (128, 1.50000000000000000000e+03) (129, 1.50000000000000000000e+03) (130, -5.58558898925781250000e+02) (131, -1.46371203613281250000e+03) (132, -1.50000000000000000000e+03) (133, -1.50000000000000000000e+03) (134, -1.50000000000000000000e+03) (135, -1.50000000000000000000e+03) (136, -1.50000000000000000000e+03) (137, -1.50000000000000000000e+03) (138, 1.50000000000000000000e+03) (139, 1.50000000000000000000e+03) (140, 1.50000000000000000000e+03) (141, 1.50000000000000000000e+03) (142, 1.50000000000000000000e+03) (143, 1.50000000000000000000e+03) (144, 1.50000000000000000000e+03) (145, 1.50000000000000000000e+03) (146, 1.50000000000000000000e+03) (147, 1.50000000000000000000e+03) (148, 1.50000000000000000000e+03) (149, 1.50000000000000000000e+03) (150, 1.50000000000000000000e+03) (151, 1.50000000000000000000e+03) (152, 1.50000000000000000000e+03) (153, 1.50000000000000000000e+03) (154, 1.50000000000000000000e+03) (155, 1.50000000000000000000e+03) (156, 1.50000000000000000000e+03) (157, 1.50000000000000000000e+03) (158, 1.50000000000000000000e+03) (159, -1.43512792968750000000e+03) (160, -1.50000000000000000000e+03) (161, -1.50000000000000000000e+03) (162, -1.50000000000000000000e+03) (163, -1.50000000000000000000e+03) (164, -1.50000000000000000000e+03) (165, -1.50000000000000000000e+03) (166, -1.50000000000000000000e+03) (167, 1.50000000000000000000e+03) (168, 1.50000000000000000000e+03) (169, 1.35742407226562500000e+03) (170, 4.11642608642578125000e+02) (171, 1.50000000000000000000e+03) (172, 1.50000000000000000000e+03) (173, 1.50000000000000000000e+03) (174, 1.50000000000000000000e+03) (175, 1.50000000000000000000e+03) (176, 1.50000000000000000000e+03) (177, 1.50000000000000000000e+03) (178, 1.50000000000000000000e+03) (179, 1.50000000000000000000e+03) (180, 1.50000000000000000000e+03) (181, 1.50000000000000000000e+03) (182, 1.50000000000000000000e+03) (183, 1.50000000000000000000e+03) (184, 1.50000000000000000000e+03) (185, 1.50000000000000000000e+03) (186, 1.50000000000000000000e+03) (187, -1.96878097534179687500e+02) (188, -1.43102282714843750000e+03) (189, -1.50000000000000000000e+03) (190, -1.50000000000000000000e+03) (191, -1.50000000000000000000e+03) (192, -1.50000000000000000000e+03) (193, -1.50000000000000000000e+03) (194, -1.50000000000000000000e+03) (195, -1.50000000000000000000e+03) (196, 1.50000000000000000000e+03) (197, -1.50000000000000000000e+03) (198, 1.50000000000000000000e+03) (199, 1.50000000000000000000e+03) (200, 1.50000000000000000000e+03) (201, 1.50000000000000000000e+03) (202, 1.50000000000000000000e+03) (203, 1.50000000000000000000e+03) (204, 1.50000000000000000000e+03) (205, 1.50000000000000000000e+03) (206, 1.50000000000000000000e+03) (207, 1.50000000000000000000e+03) (208, 1.50000000000000000000e+03) (209, 1.50000000000000000000e+03) (210, 1.50000000000000000000e+03) (211, 1.50000000000000000000e+03) (212, 1.45846081542968750000e+03) (213, 1.49403881835937500000e+03) (214, 1.49705993652343750000e+03) (215, 3.73939910888671875000e+02) (216, 1.50000000000000000000e+03) (217, 8.38321960449218750000e+02) (218, -1.50000000000000000000e+03) (219, -1.50000000000000000000e+03) (220, -1.50000000000000000000e+03) (221, -1.50000000000000000000e+03) (222, -1.50000000000000000000e+03) (223, -1.50000000000000000000e+03) (224, -1.50000000000000000000e+03) (225, 1.50000000000000000000e+03) (226, 1.50000000000000000000e+03) (227, 1.50000000000000000000e+03) (228, 1.50000000000000000000e+03) (229, 1.50000000000000000000e+03) (230, 1.50000000000000000000e+03) (231, 1.50000000000000000000e+03) (232, 1.50000000000000000000e+03) (233, 1.50000000000000000000e+03) (234, 1.50000000000000000000e+03) (235, 1.50000000000000000000e+03) (236, 1.45846081542968750000e+03) (237, 1.45484973144531250000e+03) (238, -4.07775306701660156250e+00) (239, -1.71110321044921875000e+02) (240, 2.04177124023437500000e+02) (241, 1.15286743164062500000e+03) (242, 1.50000000000000000000e+03) (243, 1.50000000000000000000e+03) (244, 1.50000000000000000000e+03) (245, 1.50000000000000000000e+03) (246, 6.19616943359375000000e+02) (247, -1.50000000000000000000e+03) (248, -1.50000000000000000000e+03) (249, -1.50000000000000000000e+03) (250, -1.50000000000000000000e+03) (251, -1.50000000000000000000e+03) (252, 1.50000000000000000000e+03) (253, 1.32214404296875000000e+03) (254, 1.50000000000000000000e+03) (255, 1.50000000000000000000e+03) (256, 1.50000000000000000000e+03) (257, 1.50000000000000000000e+03) (258, 1.50000000000000000000e+03) (259, 1.50000000000000000000e+03) (260, 1.50000000000000000000e+03) (261, 1.50000000000000000000e+03) (262, 1.50000000000000000000e+03) (263, -1.07617822265625000000e+03) (264, 1.41393041992187500000e+03) (265, -1.28038720703125000000e+03) (266, -1.50000000000000000000e+03) (267, -7.03320739746093750000e+02) (268, 4.63989868164062500000e+02) (269, 1.50000000000000000000e+03) (270, 1.50000000000000000000e+03) (271, 1.50000000000000000000e+03) (272, 1.50000000000000000000e+03) (273, 1.50000000000000000000e+03) (274, 1.50000000000000000000e+03) (275, -1.50000000000000000000e+03) (276, -1.50000000000000000000e+03) (277, -1.50000000000000000000e+03) (278, -1.50000000000000000000e+03) (279, -1.50000000000000000000e+03) (280, 1.50000000000000000000e+03) (281, 1.50000000000000000000e+03) (282, 1.50000000000000000000e+03) (283, 1.50000000000000000000e+03) (284, 1.50000000000000000000e+03) (285, 1.50000000000000000000e+03) (286, 1.50000000000000000000e+03) (287, 1.50000000000000000000e+03) (288, 7.99741455078125000000e+02) (289, 7.58171813964843750000e+02) (290, -1.42162072753906250000e+03) (291, -1.50000000000000000000e+03) (292, -1.50000000000000000000e+03) (293, -1.50000000000000000000e+03) (294, -1.50000000000000000000e+03) (295, -1.43952001953125000000e+03) (296, 1.50000000000000000000e+03) (297, 1.50000000000000000000e+03) (298, 1.50000000000000000000e+03) (299, 1.50000000000000000000e+03) (300, 1.50000000000000000000e+03) (301, 1.50000000000000000000e+03) (302, 1.50000000000000000000e+03) (303, 1.50000000000000000000e+03) (304, -1.50000000000000000000e+03) (305, -1.50000000000000000000e+03) (306, -1.50000000000000000000e+03) (307, 7.36185180664062500000e+02) (308, 1.37529125976562500000e+03) (309, 1.50000000000000000000e+03) (310, 1.50000000000000000000e+03) (311, 1.50000000000000000000e+03) (312, 1.50000000000000000000e+03) (313, 1.50000000000000000000e+03) (314, 5.01979370117187500000e+02) (315, 1.48859936523437500000e+03) (316, -1.50000000000000000000e+03) (317, -1.48310900878906250000e+03) (318, -1.50000000000000000000e+03) (319, -1.50000000000000000000e+03) (320, -1.50000000000000000000e+03) (321, -1.50000000000000000000e+03) (322, -1.50000000000000000000e+03) (323, 1.26703955078125000000e+03) (324, 1.50000000000000000000e+03) (325, 1.50000000000000000000e+03) (326, 1.50000000000000000000e+03) (327, 1.50000000000000000000e+03) (328, 1.50000000000000000000e+03) (329, 1.50000000000000000000e+03) (330, 1.50000000000000000000e+03) (331, 1.50000000000000000000e+03) (332, 1.50000000000000000000e+03) (333, -1.50000000000000000000e+03) (334, -1.50000000000000000000e+03) (335, -1.50000000000000000000e+03) (336, 1.50000000000000000000e+03) (337, 1.50000000000000000000e+03) (338, 1.50000000000000000000e+03) (339, 1.50000000000000000000e+03) (340, 1.50000000000000000000e+03) (341, 8.83157043457031250000e+02) (342, 8.18632202148437500000e+02) (343, -1.23603417968750000000e+03) (344, -1.50000000000000000000e+03) (345, -1.50000000000000000000e+03) (346, -1.50000000000000000000e+03) (347, -1.50000000000000000000e+03) (348, -1.50000000000000000000e+03) (349, -1.50000000000000000000e+03) (350, -1.43952001953125000000e+03) (351, 1.50000000000000000000e+03) (352, 1.50000000000000000000e+03) (353, 1.50000000000000000000e+03) (354, 1.50000000000000000000e+03) (355, 1.50000000000000000000e+03) (356, 1.50000000000000000000e+03) (357, 1.50000000000000000000e+03) (358, 1.50000000000000000000e+03) (359, 1.50000000000000000000e+03) (360, 1.50000000000000000000e+03) (361, 1.50000000000000000000e+03) (362, 1.71521469116210937500e+02) (363, -1.50000000000000000000e+03) (364, -1.50000000000000000000e+03) (365, 1.50000000000000000000e+03) (366, 1.50000000000000000000e+03) (367, 1.50000000000000000000e+03) (368, -1.50000000000000000000e+03) (369, -7.11864562988281250000e+02) (370, -1.05678271484375000000e+03) (371, -1.33377661132812500000e+03) (372, -1.50000000000000000000e+03) (373, -1.50000000000000000000e+03) (374, -1.50000000000000000000e+03) (375, -1.50000000000000000000e+03) (376, -1.50000000000000000000e+03) (377, 7.39835388183593750000e+02) (378, 1.49419799804687500000e+03) (379, 1.50000000000000000000e+03) (380, 1.50000000000000000000e+03) (381, 1.50000000000000000000e+03) (382, 1.50000000000000000000e+03) (383, 1.50000000000000000000e+03) (384, 1.50000000000000000000e+03) (385, 1.50000000000000000000e+03) (386, 1.50000000000000000000e+03) (387, 1.50000000000000000000e+03) (388, 1.50000000000000000000e+03) (389, 1.50000000000000000000e+03) (390, 1.47766088867187500000e+03) (391, 1.50000000000000000000e+03) (392, -1.47112731933593750000e+03) (393, 1.19080004882812500000e+03) (394, 1.50000000000000000000e+03) (395, 1.50000000000000000000e+03) (396, -1.50000000000000000000e+03) (397, -3.83118652343750000000e+02) (398, -2.64333282470703125000e+02) (399, -1.23604736328125000000e+03) (400, -1.50000000000000000000e+03) (401, -1.50000000000000000000e+03) (402, -1.50000000000000000000e+03) (403, -1.50000000000000000000e+03) (404, 1.49869250488281250000e+03) (405, 1.50000000000000000000e+03) (406, 1.50000000000000000000e+03) (407, 1.50000000000000000000e+03) (408, 1.50000000000000000000e+03) (409, 1.50000000000000000000e+03) (410, 2.08769073486328125000e+02) (411, -1.43306384277343750000e+03) (412, -5.61107849121093750000e+02) (413, 1.50000000000000000000e+03) (414, 1.50000000000000000000e+03) (415, 1.50000000000000000000e+03) (416, 1.50000000000000000000e+03) (417, 1.50000000000000000000e+03) (418, 1.50000000000000000000e+03) (419, 1.50000000000000000000e+03) (420, -1.44035192871093750000e+03) (421, -1.50000000000000000000e+03) (422, 1.50000000000000000000e+03) (423, 8.79124938964843750000e+02) (424, -1.44659436035156250000e+03) (425, 1.18736804199218750000e+03) (426, 1.50000000000000000000e+03) (427, 1.44647497558593750000e+03) (428, -1.27486389160156250000e+03) (429, -1.50000000000000000000e+03) (430, -1.49463159179687500000e+03) (431, 1.50000000000000000000e+03) (432, 1.50000000000000000000e+03) (433, 1.50000000000000000000e+03) (434, 1.50000000000000000000e+03) (435, 1.50000000000000000000e+03) (436, 1.50000000000000000000e+03) (437, 1.50000000000000000000e+03) (438, -2.36885772705078125000e+02) (439, -1.50000000000000000000e+03) (440, -1.50000000000000000000e+03) (441, -1.31255468750000000000e+03) (442, 1.50000000000000000000e+03) (443, 1.50000000000000000000e+03) (444, 1.50000000000000000000e+03) (445, 1.50000000000000000000e+03) (446, 1.50000000000000000000e+03) (447, 1.50000000000000000000e+03) (448, 1.50000000000000000000e+03) (449, 2.90800048828125000000e+02) (450, 1.50000000000000000000e+03) (451, 1.50000000000000000000e+03) (452, 1.12982568359375000000e+03) (453, 1.50000000000000000000e+03) (454, 1.50000000000000000000e+03) (455, 1.50000000000000000000e+03) (456, 1.50000000000000000000e+03) (457, 1.50000000000000000000e+03) (458, 1.50000000000000000000e+03) (459, 1.50000000000000000000e+03) (460, 1.50000000000000000000e+03) (461, 1.50000000000000000000e+03) (462, 1.50000000000000000000e+03) (463, 1.50000000000000000000e+03) (464, 1.50000000000000000000e+03) (465, 1.48440002441406250000e+03) (466, 1.49957556152343750000e+03) (467, -1.31651611328125000000e+03) (468, -3.42229888916015625000e+02) (469, -3.87656478881835937500e+01) (470, 1.50000000000000000000e+03) (471, 1.50000000000000000000e+03) (472, 1.50000000000000000000e+03) (473, 1.50000000000000000000e+03) (474, 1.50000000000000000000e+03) (475, 1.50000000000000000000e+03) (476, 1.50000000000000000000e+03) (477, -1.50000000000000000000e+03) (478, 1.50000000000000000000e+03) (479, 1.50000000000000000000e+03) (480, 1.50000000000000000000e+03) (481, 1.50000000000000000000e+03) (482, 1.50000000000000000000e+03) (483, 1.50000000000000000000e+03) (484, 1.50000000000000000000e+03) (485, 1.50000000000000000000e+03) (486, 1.50000000000000000000e+03) (487, 1.50000000000000000000e+03) (488, 1.50000000000000000000e+03) (489, 1.50000000000000000000e+03) (490, 1.50000000000000000000e+03) (491, 1.50000000000000000000e+03) (492, 1.50000000000000000000e+03) (493, 1.48440002441406250000e+03) (494, 1.48616015625000000000e+03) (495, 1.49973254394531250000e+03) (496, 1.33494897460937500000e+03) (497, 5.61602539062500000000e+02) (498, 1.50000000000000000000e+03) (499, 1.50000000000000000000e+03) (500, 1.50000000000000000000e+03) (501, 1.50000000000000000000e+03) (502, 1.47766088867187500000e+03) (503, 1.48876794433593750000e+03) (504, -1.50000000000000000000e+03) (505, 1.50000000000000000000e+03) (506, 1.50000000000000000000e+03) (507, 1.50000000000000000000e+03) (508, 1.50000000000000000000e+03) (509, 1.48440002441406250000e+03) (510, 1.49952001953125000000e+03) (511, 1.50000000000000000000e+03) (512, 1.50000000000000000000e+03) (513, 1.50000000000000000000e+03) (514, 1.50000000000000000000e+03) (515, 1.50000000000000000000e+03) (516, 1.50000000000000000000e+03) (517, 1.50000000000000000000e+03) (518, 1.50000000000000000000e+03) (519, 1.50000000000000000000e+03) (520, 1.50000000000000000000e+03) (521, 1.49952001953125000000e+03) (522, 1.48440002441406250000e+03) (523, 1.49887329101562500000e+03) (524, 1.45709802246093750000e+03) (525, 1.50000000000000000000e+03) (526, 1.50000000000000000000e+03) (527, 1.50000000000000000000e+03) (528, 1.50000000000000000000e+03) (529, 1.50000000000000000000e+03) (530, 1.49326086425781250000e+03) (531, 1.29080004882812500000e+03) (532, -1.50000000000000000000e+03) (533, 1.50000000000000000000e+03) (534, 1.50000000000000000000e+03) (535, 1.50000000000000000000e+03) (536, 1.50000000000000000000e+03) (537, 1.48440002441406250000e+03) (538, 1.49983227539062500000e+03) (539, 1.50000000000000000000e+03) (540, 1.50000000000000000000e+03) (541, 1.50000000000000000000e+03) (542, 1.50000000000000000000e+03) (543, 1.50000000000000000000e+03) (544, 1.50000000000000000000e+03) (545, 9.53871826171875000000e+02) (546, 1.26185766601562500000e+03) (547, 1.49999987792968750000e+03) (548, 1.50000000000000000000e+03) (549, 1.49952001953125000000e+03) (550, 1.48440002441406250000e+03) (551, 1.48440002441406250000e+03) (552, 1.49979260253906250000e+03) (553, 1.50000000000000000000e+03) (554, 1.50000000000000000000e+03) (555, 1.50000000000000000000e+03) (556, 1.50000000000000000000e+03) (557, 1.50000000000000000000e+03) (558, 1.49979260253906250000e+03) (559, -1.50000000000000000000e+03) (560, 1.50000000000000000000e+03) (561, 1.34080004882812500000e+03) (562, 1.50000000000000000000e+03) (563, 1.50000000000000000000e+03) (564, 1.50000000000000000000e+03) (565, 1.49952001953125000000e+03) (566, 1.48440002441406250000e+03) (567, 1.50000000000000000000e+03) (568, 1.50000000000000000000e+03) (569, 1.50000000000000000000e+03) (570, 1.50000000000000000000e+03) (571, 6.99299316406250000000e+02) (572, -5.14616882324218750000e+02) (573, -1.49565344238281250000e+03) (574, -1.49997167968750000000e+03) (575, 1.50000000000000000000e+03) (576, 1.50000000000000000000e+03) (577, 1.49952001953125000000e+03) (578, 1.48792614746093750000e+03) (579, 1.49979260253906250000e+03) (580, 1.49979260253906250000e+03) (581, 1.50000000000000000000e+03) (582, 1.49326086425781250000e+03) (583, 1.49326086425781250000e+03) (584, 1.50000000000000000000e+03) (585, 1.50000000000000000000e+03) (586, 1.50000000000000000000e+03) (587, -1.50000000000000000000e+03) (588, -1.50000000000000000000e+03) (589, 1.50000000000000000000e+03) (590, 1.50000000000000000000e+03) (591, 1.50000000000000000000e+03) (592, 1.50000000000000000000e+03) (593, 1.50000000000000000000e+03) (594, 1.50000000000000000000e+03) (595, 1.50000000000000000000e+03) (596, 1.50000000000000000000e+03) (597, 1.54990600585937500000e+02) (598, 1.34309777832031250000e+03) (599, 1.49532226562500000000e+03) (600, 1.46568896484375000000e+03) (601, 1.49968237304687500000e+03) (602, 1.49999963378906250000e+03) (603, 1.50000000000000000000e+03) (604, 1.50000000000000000000e+03) (605, 1.46524926757812500000e+03) (606, 1.44470153808593750000e+03) (607, 1.47713037109375000000e+03) (608, 1.49262524414062500000e+03) (609, 1.49191296386718750000e+03) (610, 1.49326086425781250000e+03) (611, 1.49326086425781250000e+03) (612, 1.50000000000000000000e+03) (613, 1.50000000000000000000e+03) (614, 1.47766088867187500000e+03) (615, -1.50000000000000000000e+03) (616, -1.50000000000000000000e+03) (617, 1.50000000000000000000e+03) (618, 1.50000000000000000000e+03) (619, 1.50000000000000000000e+03) (620, 1.50000000000000000000e+03) (621, 1.50000000000000000000e+03) (622, 1.50000000000000000000e+03) (623, 1.50000000000000000000e+03) (624, 1.50000000000000000000e+03) (625, 1.50000000000000000000e+03) (626, 1.44218225097656250000e+03) (627, 1.46744238281250000000e+03) (628, 1.50000000000000000000e+03) (629, 1.50000000000000000000e+03) (630, 1.50000000000000000000e+03) (631, 1.47585180664062500000e+03) (632, 7.13318420410156250000e+02) (633, 4.68574401855468750000e+02) (634, 9.94118041992187500000e+01) (635, 5.58277770996093750000e+02) (636, 3.33028808593750000000e+02) (637, 1.30820056152343750000e+03) (638, 1.49326086425781250000e+03) (639, 1.49326086425781250000e+03) (640, 1.49326086425781250000e+03) (641, 1.49326086425781250000e+03) (642, -1.50000000000000000000e+03) (643, -1.50000000000000000000e+03) (644, 1.50000000000000000000e+03) (645, 1.50000000000000000000e+03) (646, 1.50000000000000000000e+03) (647, 1.50000000000000000000e+03) (648, 1.50000000000000000000e+03) (649, 1.50000000000000000000e+03) (650, 1.50000000000000000000e+03) (651, 1.50000000000000000000e+03) (652, 1.50000000000000000000e+03) (653, 1.48683984375000000000e+03) (654, 1.50000000000000000000e+03) (655, 1.50000000000000000000e+03) (656, 1.50000000000000000000e+03) (657, 1.50000000000000000000e+03) (658, 1.50000000000000000000e+03) (659, 1.36642431640625000000e+03) (660, 6.10798400878906250000e+02) (661, 3.93864624023437500000e+02) (662, -4.29138610839843750000e+02) (663, -5.99084289550781250000e+02) (664, -1.50000000000000000000e+03) (665, 8.41261352539062500000e+02) (666, 1.10660009765625000000e+03) (667, 1.14980004882812500000e+03) (668, 1.09980004882812500000e+03) (669, 1.50000000000000000000e+03) (670, -1.50000000000000000000e+03) (671, 1.50000000000000000000e+03) (672, 1.50000000000000000000e+03) (673, 1.50000000000000000000e+03) (674, 1.47390100097656250000e+03) (675, -1.49710815429687500000e+03) (676, 1.50000000000000000000e+03) (677, 1.49975329589843750000e+03) (678, 1.07662414550781250000e+02) (679, -9.85712280273437500000e+02) (680, 4.27892883300781250000e+02) (681, -5.60264221191406250000e+02) (682, 1.50000000000000000000e+03) (683, 1.50000000000000000000e+03) (684, 1.50000000000000000000e+03) (685, 1.50000000000000000000e+03) (686, 1.50000000000000000000e+03) (687, 1.50000000000000000000e+03) (688, 1.50000000000000000000e+03) (689, 1.50000000000000000000e+03) (690, 2.46731994628906250000e+02) (691, -9.53424377441406250000e+02) (692, -1.50000000000000000000e+03) (693, -1.50000000000000000000e+03) (694, -1.50000000000000000000e+03) (695, -1.50000000000000000000e+03) (696, -1.50000000000000000000e+03) (697, 1.50000000000000000000e+03) (698, 1.50000000000000000000e+03) (699, 1.50000000000000000000e+03) (700, 1.50000000000000000000e+03) (701, 1.50000000000000000000e+03) (702, -1.50000000000000000000e+03) (703, -3.45170593261718750000e+02) (704, 1.50000000000000000000e+03) (705, 1.29845227050781250000e+03) (706, 1.15652697753906250000e+03) (707, -1.50000000000000000000e+03) (708, -1.50000000000000000000e+03) (709, -1.50000000000000000000e+03) (710, -1.50000000000000000000e+03) (711, 1.50000000000000000000e+03) (712, 1.50000000000000000000e+03) (713, 1.50000000000000000000e+03) (714, 1.50000000000000000000e+03) (715, 1.50000000000000000000e+03) (716, 1.50000000000000000000e+03) (717, 1.50000000000000000000e+03) (718, 1.50000000000000000000e+03) (719, 1.44268811035156250000e+03) (720, 9.40800048828125000000e+02) (721, 1.45736572265625000000e+02) (722, -1.50000000000000000000e+03) (723, -1.50000000000000000000e+03) (724, -1.50000000000000000000e+03) (725, 1.50000000000000000000e+03) (726, 1.50000000000000000000e+03) (727, 1.50000000000000000000e+03) (728, 1.50000000000000000000e+03) (729, 1.50000000000000000000e+03) (730, 1.50000000000000000000e+03) (731, -1.50000000000000000000e+03) (732, -1.50000000000000000000e+03) (733, -1.50000000000000000000e+03) (734, -1.50000000000000000000e+03) (735, -1.50000000000000000000e+03) (736, 1.46637780761718750000e+03) (737, -6.35357910156250000000e+02) (738, 1.49832006835937500000e+03) (739, 1.50000000000000000000e+03) (740, 1.50000000000000000000e+03) (741, 1.50000000000000000000e+03) (742, 1.50000000000000000000e+03) (743, 1.50000000000000000000e+03) (744, 1.50000000000000000000e+03) (745, 1.50000000000000000000e+03) (746, 1.50000000000000000000e+03) (747, 1.50000000000000000000e+03) (748, 1.50000000000000000000e+03) (749, 1.45675756835937500000e+03) (750, 1.50000000000000000000e+03) (751, 1.50000000000000000000e+03) (752, 4.75000061035156250000e+02) (753, 1.50000000000000000000e+03) (754, 1.50000000000000000000e+03) (755, 1.50000000000000000000e+03) (756, 1.50000000000000000000e+03) (757, 1.50000000000000000000e+03) (758, 1.50000000000000000000e+03) (759, 1.50000000000000000000e+03) (760, 1.12853857421875000000e+03) (761, 1.14331396484375000000e+03) (762, 1.19080004882812500000e+03) (763, 4.56600036621093750000e+02) (764, 1.50000000000000000000e+03) (765, 1.50000000000000000000e+03) (766, 1.50000000000000000000e+03) (767, 1.50000000000000000000e+03) (768, 1.50000000000000000000e+03) (769, 1.50000000000000000000e+03) (770, 1.50000000000000000000e+03) (771, 1.50000000000000000000e+03) (772, 1.50000000000000000000e+03) (773, 1.50000000000000000000e+03) (774, 1.50000000000000000000e+03) (775, 1.50000000000000000000e+03) (776, 1.22500000000000000000e+03) (777, 3.35329833984375000000e+02) (778, 1.50000000000000000000e+03) (779, 1.50000000000000000000e+03) (780, 1.50000000000000000000e+03) (781, 1.50000000000000000000e+03) (782, 1.50000000000000000000e+03) (783, 1.50000000000000000000e+03) (784, -1.49097265625000000000e+03) (0, 1.50000000000000000000e+03) (1, 1.50000000000000000000e+03) (2, 1.50000000000000000000e+03) (3, 1.50000000000000000000e+03) (4, 1.50000000000000000000e+03) (5, 1.50000000000000000000e+03) (6, 1.50000000000000000000e+03) (7, 1.50000000000000000000e+03) (8, 1.50000000000000000000e+03) (9, 1.50000000000000000000e+03) (10, 1.50000000000000000000e+03) (11, 1.50000000000000000000e+03) (12, 1.50000000000000000000e+03) (13, -1.48500000000000000000e+03) (14, -1.47500000000000000000e+03) (15, -1.47500000000000000000e+03) (16, 1.50000000000000000000e+03) (17, 1.50000000000000000000e+03) (18, 1.50000000000000000000e+03) (19, 1.50000000000000000000e+03) (20, 1.50000000000000000000e+03) (21, 1.50000000000000000000e+03) (22, 1.50000000000000000000e+03) (23, 1.50000000000000000000e+03) (24, 1.50000000000000000000e+03) (25, 1.50000000000000000000e+03) (26, 1.50000000000000000000e+03) (27, 1.50000000000000000000e+03) (28, 1.50000000000000000000e+03) (29, 1.50000000000000000000e+03) (30, 1.50000000000000000000e+03) (31, 1.50000000000000000000e+03) (32, 5.34199951171875000000e+02) (33, 6.41540527343750000000e-01) (34, -5.65800048828125000000e+02) (35, -5.15800048828125000000e+02) (36, 1.50000000000000000000e+03) (37, 1.50000000000000000000e+03) (38, 1.50000000000000000000e+03) (39, 1.50000000000000000000e+03) (40, 1.50000000000000000000e+03) (41, 9.87854309082031250000e+02) (42, -1.50000000000000000000e+03) (43, -1.50000000000000000000e+03) (44, -1.50000000000000000000e+03) (45, -1.45393518066406250000e+03) (46, 1.50000000000000000000e+03) (47, 1.50000000000000000000e+03) (48, 1.50000000000000000000e+03) (49, 1.50000000000000000000e+03) (50, 9.11611755371093750000e+02) (51, -1.50000000000000000000e+03) (52, 1.50000000000000000000e+03) (53, 1.50000000000000000000e+03) (54, 1.50000000000000000000e+03) (55, 1.50000000000000000000e+03) (56, 1.50000000000000000000e+03) (57, 1.50000000000000000000e+03) (58, 1.28334808349609375000e+02) (59, -1.50000000000000000000e+03) (60, -1.45146362304687500000e+03) (61, 1.50000000000000000000e+03) (62, 1.50000000000000000000e+03) (63, -6.93227539062500000000e+02) (64, 1.50000000000000000000e+03) (65, 1.50000000000000000000e+03) (66, 1.50000000000000000000e+03) (67, 1.50000000000000000000e+03) (68, 1.50000000000000000000e+03) (69, 1.50000000000000000000e+03) (70, 1.50000000000000000000e+03) (71, 1.50000000000000000000e+03) (72, 1.50000000000000000000e+03) (73, 1.50000000000000000000e+03) (74, 1.50000000000000000000e+03) (75, 1.50000000000000000000e+03) (76, 1.50000000000000000000e+03) (77, 1.50000000000000000000e+03) (78, 1.50000000000000000000e+03) (79, 1.50000000000000000000e+03) (80, 1.50000000000000000000e+03) (81, -1.50000000000000000000e+03) (82, 1.50000000000000000000e+03) (83, 1.50000000000000000000e+03) (84, 1.50000000000000000000e+03) (85, 1.50000000000000000000e+03) (86, -1.50000000000000000000e+03) (87, -1.50000000000000000000e+03) (88, 8.41999511718750000000e+01) (89, 1.50000000000000000000e+03) (90, 1.50000000000000000000e+03) (91, -1.31658630371093750000e+03) (92, -1.30253540039062500000e+03) (93, -1.41709143066406250000e+03) (94, -1.47743737792968750000e+03) (95, -1.49981201171875000000e+03) (96, -1.49949536132812500000e+03) (97, -1.19217578125000000000e+03) (98, -1.47580639648437500000e+03) (99, -1.42573632812500000000e+03) (100, 1.49979260253906250000e+03) (101, 1.50000000000000000000e+03) (102, 1.50000000000000000000e+03) (103, 1.50000000000000000000e+03) (104, 1.50000000000000000000e+03) (105, 1.50000000000000000000e+03) (106, 1.50000000000000000000e+03) (107, 1.50000000000000000000e+03) (108, 1.50000000000000000000e+03) (109, 1.50000000000000000000e+03) (110, 1.50000000000000000000e+03) (111, 1.50000000000000000000e+03) (112, 1.50000000000000000000e+03) (113, -7.15799987792968750000e+02) (114, -1.50000000000000000000e+03) (115, -1.50000000000000000000e+03) (116, 1.50000000000000000000e+03) (117, -7.29055786132812500000e+01) (118, -8.75979309082031250000e+02) (119, -9.41779357910156250000e+02) (120, -1.34856860351562500000e+03) (121, -1.42137597656250000000e+03) (122, -1.44500000000000000000e+03) (123, -1.47500000000000000000e+03) (124, -1.44500000000000000000e+03) (125, -1.42137597656250000000e+03) (126, -1.42137597656250000000e+03) (127, -1.42137597656250000000e+03) (128, -1.42137597656250000000e+03) (129, -1.45282568359375000000e+03) (130, 1.49806970214843750000e+03) (131, 1.50000000000000000000e+03) (132, 1.50000000000000000000e+03) (133, 1.50000000000000000000e+03) (134, 7.35800048828125000000e+02) (135, 1.87820617675781250000e+02) (136, 4.40800048828125000000e+02) (137, -1.06244592285156250000e+03) (138, -1.36753869628906250000e+03) (139, 1.50000000000000000000e+03) (140, 1.50000000000000000000e+03) (141, 1.50000000000000000000e+03) (142, 2.84199951171875000000e+02) (143, -1.50000000000000000000e+03) (144, 1.50000000000000000000e+03) (145, 1.50000000000000000000e+03) (146, 1.50000000000000000000e+03) (147, -9.67958908081054687500e+01) (148, -1.43028796386718750000e+03) (149, -1.42137597656250000000e+03) (150, -1.47500000000000000000e+03) (151, -1.47500000000000000000e+03) (152, -1.47500000000000000000e+03) (153, -1.42137597656250000000e+03) (154, -1.45282568359375000000e+03) (155, -1.45282568359375000000e+03) (156, -1.49867309570312500000e+03) (157, -1.49875927734375000000e+03) (158, -1.49825122070312500000e+03) (159, -1.36523205566406250000e+03) (160, -1.46877770996093750000e+03) (161, 1.28080236816406250000e+03) (162, -1.50000000000000000000e+03) (163, -1.50000000000000000000e+03) (164, -1.50000000000000000000e+03) (165, -1.50000000000000000000e+03) (166, -1.50000000000000000000e+03) (167, 1.50000000000000000000e+03) (168, 1.50000000000000000000e+03) (169, -1.43000000000000000000e+03) (170, 3.24394073486328125000e+02) (171, -5.49916748046875000000e+02) (172, 1.50000000000000000000e+03) (173, 1.50000000000000000000e+03) (174, -3.22684234619140625000e+02) (175, 1.00538165283203125000e+03) (176, -7.23526306152343750000e+02) (177, -1.47500000000000000000e+03) (178, -1.47500000000000000000e+03) (179, -1.47500000000000000000e+03) (180, -1.42137597656250000000e+03) (181, -1.45282568359375000000e+03) (182, -1.48149853515625000000e+03) (183, -1.46760986328125000000e+03) (184, -1.43191503906250000000e+03) (185, -1.44011865234375000000e+03) (186, -1.47604833984375000000e+03) (187, -1.47441003417968750000e+03) (188, -1.47394750976562500000e+03) (189, -1.47427807617187500000e+03) (190, -1.50000000000000000000e+03) (191, -1.50000000000000000000e+03) (192, -1.50000000000000000000e+03) (193, -1.50000000000000000000e+03) (194, -1.50000000000000000000e+03) (195, -1.50000000000000000000e+03) (196, 1.50000000000000000000e+03) (197, -5.97222229003906250000e+02) (198, 1.50000000000000000000e+03) (199, -1.46229687500000000000e+03) (200, -2.12012954711914062500e+02) (201, -5.62315795898437500000e+02) (202, -1.40038177490234375000e+02) (203, 3.48419265747070312500e+01) (204, -4.61734832763671875000e+02) (205, -2.06784484863281250000e+02) (206, -1.03639208984375000000e+03) (207, -1.48704003906250000000e+03) (208, -7.61562744140625000000e+02) (209, -6.59605651855468750000e+02) (210, -9.69511032104492187500e+01) (211, -2.83841278076171875000e+02) (212, -1.20751599121093750000e+03) (213, -1.47738647460937500000e+03) (214, -1.48704003906250000000e+03) (215, -1.48704003906250000000e+03) (216, -1.49563891601562500000e+03) (217, -1.43073498535156250000e+03) (218, -1.50000000000000000000e+03) (219, -1.50000000000000000000e+03) (220, -1.50000000000000000000e+03) (221, -1.50000000000000000000e+03) (222, -1.50000000000000000000e+03) (223, -1.50000000000000000000e+03) (224, -1.50000000000000000000e+03) (225, -1.50000000000000000000e+03) (226, 1.49998486328125000000e+03) (227, -1.97777282714843750000e+02) (228, -7.18887634277343750000e+02) (229, -3.60575286865234375000e+02) (230, -1.05003601074218750000e+03) (231, 8.46836730957031250000e+02) (232, 9.47074157714843750000e+02) (233, 7.73247985839843750000e+02) (234, 1.47665075683593750000e+03) (235, 1.49933666992187500000e+03) (236, 1.47599230957031250000e+03) (237, 8.31453002929687500000e+02) (238, -8.20132385253906250000e+02) (239, 1.15358447265625000000e+03) (240, -1.47554479980468750000e+03) (241, -1.48704003906250000000e+03) (242, -1.47500000000000000000e+03) (243, -1.47500000000000000000e+03) (244, -1.47500000000000000000e+03) (245, -1.48697778320312500000e+03) (246, -1.50000000000000000000e+03) (247, -1.50000000000000000000e+03) (248, -1.50000000000000000000e+03) (249, -1.50000000000000000000e+03) (250, -1.50000000000000000000e+03) (251, -1.50000000000000000000e+03) (252, -1.50000000000000000000e+03) (253, 1.49991357421875000000e+03) (254, 9.39923095703125000000e+02) (255, -1.49994555664062500000e+03) (256, -1.49974804687500000000e+03) (257, -1.36074572753906250000e+03) (258, 4.40259185791015625000e+02) (259, 1.46699621582031250000e+03) (260, 1.44396105957031250000e+03) (261, 1.49594995117187500000e+03) (262, 1.36619592285156250000e+03) (263, 1.49971862792968750000e+03) (264, 1.49990258789062500000e+03) (265, 1.49213305664062500000e+03) (266, 2.80446758270263671875e+01) (267, -1.45957055664062500000e+03) (268, -1.49548571777343750000e+03) (269, -1.48704003906250000000e+03) (270, -1.47500000000000000000e+03) (271, -1.47500000000000000000e+03) (272, -1.37058374023437500000e+03) (273, -1.36119091796875000000e+03) (274, -1.50000000000000000000e+03) (275, -1.50000000000000000000e+03) (276, -1.50000000000000000000e+03) (277, -1.50000000000000000000e+03) (278, -1.50000000000000000000e+03) (279, -1.50000000000000000000e+03) (280, -1.50000000000000000000e+03) (281, -1.11444055175781250000e+03) (282, 1.49315185546875000000e+03) (283, -1.50000000000000000000e+03) (284, -1.48704003906250000000e+03) (285, 1.49665185546875000000e+03) (286, 1.49570666503906250000e+03) (287, 1.49952844238281250000e+03) (288, 1.02833325195312500000e+03) (289, 9.14264160156250000000e+02) (290, 1.30124267578125000000e+03) (291, 1.49901269531250000000e+03) (292, 1.49999914550781250000e+03) (293, -5.52167663574218750000e+01) (294, -1.49222399902343750000e+03) (295, -1.45282568359375000000e+03) (296, -8.25849914550781250000e+02) (297, -1.45924145507812500000e+03) (298, -1.49657678222656250000e+03) (299, -1.04553845214843750000e+03) (300, 1.39896667480468750000e+03) (301, 1.50000000000000000000e+03) (302, 1.49999755859375000000e+03) (303, -1.50000000000000000000e+03) (304, -1.50000000000000000000e+03) (305, -1.50000000000000000000e+03) (306, -1.50000000000000000000e+03) (307, -1.50000000000000000000e+03) (308, -2.00904327392578125000e+02) (309, 1.50000000000000000000e+03) (310, 1.49997314453125000000e+03) (311, -4.05214416503906250000e+02) (312, 1.49997119140625000000e+03) (313, 1.50000000000000000000e+03) (314, 1.50000000000000000000e+03) (315, 1.50000000000000000000e+03) (316, 1.48947290039062500000e+03) (317, 9.54760925292968750000e+02) (318, 9.84814880371093750000e+02) (319, 1.43541931152343750000e+03) (320, 1.45846081542968750000e+03) (321, 1.71517219543457031250e+01) (322, -1.45282568359375000000e+03) (323, 1.44672973632812500000e+03) (324, 1.50000000000000000000e+03) (325, 1.50000000000000000000e+03) (326, 1.50000000000000000000e+03) (327, 1.50000000000000000000e+03) (328, 1.50000000000000000000e+03) (329, 1.50000000000000000000e+03) (330, 1.50000000000000000000e+03) (331, 1.49915698242187500000e+03) (332, -1.50000000000000000000e+03) (333, -1.50000000000000000000e+03) (334, -1.50000000000000000000e+03) (335, -1.50000000000000000000e+03) (336, -7.74506530761718750000e+02) (337, 1.50000000000000000000e+03) (338, 1.50000000000000000000e+03) (339, 1.49968945312500000000e+03) (340, 1.50000000000000000000e+03) (341, 1.50000000000000000000e+03) (342, 1.50000000000000000000e+03) (343, 1.50000000000000000000e+03) (344, 1.49989648437500000000e+03) (345, 5.00597595214843750000e+02) (346, 6.75390197753906250000e+02) (347, 1.46436621093750000000e+03) (348, 5.32868347167968750000e+02) (349, -2.66056854248046875000e+02) (350, -1.28552575683593750000e+03) (351, 1.50000000000000000000e+03) (352, 1.50000000000000000000e+03) (353, 1.50000000000000000000e+03) (354, 1.50000000000000000000e+03) (355, 1.50000000000000000000e+03) (356, 1.50000000000000000000e+03) (357, 1.50000000000000000000e+03) (358, 1.50000000000000000000e+03) (359, 1.49999609375000000000e+03) (360, 4.09431945800781250000e+02) (361, -1.50000000000000000000e+03) (362, -1.50000000000000000000e+03) (363, -1.50000000000000000000e+03) (364, 1.34199951171875000000e+02) (365, 1.50000000000000000000e+03) (366, 1.50000000000000000000e+03) (367, 1.50000000000000000000e+03) (368, 1.50000000000000000000e+03) (369, 1.01208074951171875000e+03) (370, 1.50000000000000000000e+03) (371, 1.50000000000000000000e+03) (372, 1.50000000000000000000e+03) (373, 6.99325012207031250000e+02) (374, 8.61760925292968750000e+02) (375, 1.46469335937500000000e+03) (376, -1.35650390625000000000e+03) (377, -1.49170483398437500000e+03) (378, -8.91550903320312500000e+02) (379, 1.50000000000000000000e+03) (380, 1.50000000000000000000e+03) (381, 1.50000000000000000000e+03) (382, 1.50000000000000000000e+03) (383, 1.50000000000000000000e+03) (384, 1.50000000000000000000e+03) (385, 1.50000000000000000000e+03) (386, 1.50000000000000000000e+03) (387, 1.50000000000000000000e+03) (388, 1.49328942871093750000e+03) (389, -1.50000000000000000000e+03) (390, -1.50000000000000000000e+03) (391, -1.50000000000000000000e+03) (392, -1.47672656250000000000e+03) (393, 1.50000000000000000000e+03) (394, 1.50000000000000000000e+03) (395, 1.50000000000000000000e+03) (396, 1.50000000000000000000e+03) (397, 1.50000000000000000000e+03) (398, 1.50000000000000000000e+03) (399, 1.50000000000000000000e+03) (400, 1.50000000000000000000e+03) (401, -1.45282568359375000000e+03) (402, -1.42137597656250000000e+03) (403, -1.35198925781250000000e+03) (404, -1.48884997558593750000e+03) (405, -1.44284631347656250000e+03) (406, -7.02421264648437500000e+01) (407, 1.50000000000000000000e+03) (408, 1.50000000000000000000e+03) (409, 1.50000000000000000000e+03) (410, 1.50000000000000000000e+03) (411, 1.49989648437500000000e+03) (412, 1.17750878906250000000e+03) (413, 1.36460156250000000000e+03) (414, 1.50000000000000000000e+03) (415, 1.50000000000000000000e+03) (416, 1.01629797363281250000e+03) (417, -1.47500000000000000000e+03) (418, -1.50000000000000000000e+03) (419, -1.50000000000000000000e+03) (420, -2.59410797119140625000e+02) (421, -1.50000000000000000000e+03) (422, -3.57116790771484375000e+02) (423, 1.47400134277343750000e+03) (424, 2.31824066162109375000e+02) (425, -1.40907006835937500000e+03) (426, 1.50000000000000000000e+03) (427, 1.50000000000000000000e+03) (428, 1.50000000000000000000e+03) (429, -9.57071838378906250000e+02) (430, -1.48527307128906250000e+03) (431, -8.09727294921875000000e+02) (432, 6.65401611328125000000e+02) (433, -9.49165832519531250000e+02) (434, 7.64892822265625000000e+02) (435, 1.50000000000000000000e+03) (436, 1.50000000000000000000e+03) (437, 1.50000000000000000000e+03) (438, 1.42943591308593750000e+03) (439, 4.66607025146484375000e+02) (440, -6.71328735351562500000e+02) (441, 8.26493957519531250000e+02) (442, 1.35006066894531250000e+03) (443, -6.30322570800781250000e+01) (444, -1.45282568359375000000e+03) (445, -1.50000000000000000000e+03) (446, -1.50000000000000000000e+03) (447, -1.50000000000000000000e+03) (448, 1.50000000000000000000e+03) (449, -5.12234863281250000000e+02) (450, -1.50000000000000000000e+03) (451, -1.44934960937500000000e+03) (452, -1.50000000000000000000e+03) (453, -1.47752075195312500000e+03) (454, 1.48303698730468750000e+03) (455, 1.50000000000000000000e+03) (456, 1.50000000000000000000e+03) (457, 1.50000000000000000000e+03) (458, 1.50000000000000000000e+03) (459, 1.50000000000000000000e+03) (460, 1.50000000000000000000e+03) (461, 1.50000000000000000000e+03) (462, 1.50000000000000000000e+03) (463, 1.50000000000000000000e+03) (464, 1.50000000000000000000e+03) (465, 1.49971203613281250000e+03) (466, 1.49995727539062500000e+03) (467, -1.48704003906250000000e+03) (468, 8.86548278808593750000e+02) (469, -1.50000000000000000000e+03) (470, -1.42137597656250000000e+03) (471, -1.45282568359375000000e+03) (472, -1.47500000000000000000e+03) (473, -1.47500000000000000000e+03) (474, -1.50000000000000000000e+03) (475, -1.45817285156250000000e+03) (476, 1.50000000000000000000e+03) (477, -1.50000000000000000000e+03) (478, -1.94163543701171875000e+02) (479, -1.50000000000000000000e+03) (480, -1.50000000000000000000e+03) (481, -1.50000000000000000000e+03) (482, -1.47500000000000000000e+03) (483, 1.25043798828125000000e+03) (484, 1.50000000000000000000e+03) (485, 1.50000000000000000000e+03) (486, 1.50000000000000000000e+03) (487, 1.50000000000000000000e+03) (488, 1.50000000000000000000e+03) (489, 1.50000000000000000000e+03) (490, 1.50000000000000000000e+03) (491, 1.50000000000000000000e+03) (492, 1.48983837890625000000e+03) (493, 1.48738903808593750000e+03) (494, -8.65022277832031250000e+02) (495, 7.14117675781250000000e+02) (496, -1.47500000000000000000e+03) (497, -1.50000000000000000000e+03) (498, -1.47500000000000000000e+03) (499, -1.48704003906250000000e+03) (500, -1.47500000000000000000e+03) (501, -1.47500000000000000000e+03) (502, -1.50000000000000000000e+03) (503, -1.50000000000000000000e+03) (504, 1.50000000000000000000e+03) (505, -1.49676000976562500000e+03) (506, -1.50000000000000000000e+03) (507, -1.50000000000000000000e+03) (508, -1.50000000000000000000e+03) (509, -1.50000000000000000000e+03) (510, -1.50000000000000000000e+03) (511, -1.47500000000000000000e+03) (512, -1.32044616699218750000e+03) (513, 1.50000000000000000000e+03) (514, 1.50000000000000000000e+03) (515, 1.50000000000000000000e+03) (516, 1.50000000000000000000e+03) (517, 1.50000000000000000000e+03) (518, 1.49952001953125000000e+03) (519, 1.42699023437500000000e+03) (520, 1.30949230957031250000e+03) (521, -1.48704003906250000000e+03) (522, -8.37543273925781250000e+02) (523, -1.47500000000000000000e+03) (524, -1.47500000000000000000e+03) (525, -1.47500000000000000000e+03) (526, -1.47500000000000000000e+03) (527, -1.47500000000000000000e+03) (528, -1.47500000000000000000e+03) (529, -1.47500000000000000000e+03) (530, -1.47500000000000000000e+03) (531, -1.50000000000000000000e+03) (532, -8.65800048828125000000e+02) (533, -1.50000000000000000000e+03) (534, -1.50000000000000000000e+03) (535, -1.47500000000000000000e+03) (536, -1.50000000000000000000e+03) (537, -1.50000000000000000000e+03) (538, -1.50000000000000000000e+03) (539, -1.47500000000000000000e+03) (540, -1.47500000000000000000e+03) (541, -1.45282568359375000000e+03) (542, 1.49979260253906250000e+03) (543, 1.50000000000000000000e+03) (544, 1.47025793457031250000e+03) (545, 2.23372116088867187500e+01) (546, 4.39519714355468750000e+02) (547, -1.15859851074218750000e+03) (548, -1.47554479980468750000e+03) (549, -1.42137597656250000000e+03) (550, -1.42137597656250000000e+03) (551, -1.42137597656250000000e+03) (552, -1.47500000000000000000e+03) (553, -1.47500000000000000000e+03) (554, -1.47500000000000000000e+03) (555, -1.47500000000000000000e+03) (556, -1.47500000000000000000e+03) (557, -1.47500000000000000000e+03) (558, -1.47500000000000000000e+03) (559, -1.50000000000000000000e+03) (560, 1.50000000000000000000e+03) (561, 1.24080004882812500000e+03) (562, -1.47500000000000000000e+03) (563, -1.47500000000000000000e+03) (564, -1.47500000000000000000e+03) (565, -1.47500000000000000000e+03) (566, -1.50000000000000000000e+03) (567, -1.50000000000000000000e+03) (568, -1.50000000000000000000e+03) (569, -1.47500000000000000000e+03) (570, -1.42137597656250000000e+03) (571, -1.45282568359375000000e+03) (572, -1.38080993652343750000e+03) (573, -1.05322106933593750000e+03) (574, 3.21327941894531250000e+02) (575, -1.35559960937500000000e+03) (576, -8.99110351562500000000e+02) (577, -4.49372161865234375000e+02) (578, -1.42137597656250000000e+03) (579, -1.42137597656250000000e+03) (580, -1.47500000000000000000e+03) (581, -1.47500000000000000000e+03) (582, -1.47500000000000000000e+03) (583, -1.47500000000000000000e+03) (584, -1.47500000000000000000e+03) (585, -1.47500000000000000000e+03) (586, -1.47500000000000000000e+03) (587, -8.65800048828125000000e+02) (588, 1.50000000000000000000e+03) (589, 2.90800048828125000000e+02) (590, -3.14775939941406250000e+02) (591, -1.42137597656250000000e+03) (592, -1.47500000000000000000e+03) (593, -1.47500000000000000000e+03) (594, -1.50000000000000000000e+03) (595, -1.50000000000000000000e+03) (596, -1.50000000000000000000e+03) (597, -1.47500000000000000000e+03) (598, -1.47500000000000000000e+03) (599, -1.48704003906250000000e+03) (600, 2.67180709838867187500e+01) (601, 9.46809204101562500000e+02) (602, 2.36968872070312500000e+02) (603, -4.47302337646484375000e+02) (604, 1.86189575195312500000e+02) (605, -5.58135803222656250000e+02) (606, -1.49702966308593750000e+03) (607, -1.47500000000000000000e+03) (608, -1.47500000000000000000e+03) (609, -1.47500000000000000000e+03) (610, -1.47500000000000000000e+03) (611, -1.47500000000000000000e+03) (612, -1.47500000000000000000e+03) (613, -1.47500000000000000000e+03) (614, -1.47500000000000000000e+03) (615, -1.50000000000000000000e+03) (616, 1.50000000000000000000e+03) (617, 1.50000000000000000000e+03) (618, -5.35759353637695312500e+01) (619, -9.23551574707031250000e+02) (620, -1.49935900878906250000e+03) (621, -4.47406005859375000000e+02) (622, -1.47500000000000000000e+03) (623, -1.47500000000000000000e+03) (624, -1.50000000000000000000e+03) (625, -1.50000000000000000000e+03) (626, -1.50000000000000000000e+03) (627, -1.50000000000000000000e+03) (628, -1.46686962890625000000e+03) (629, -1.42596740722656250000e+03) (630, -1.41617858886718750000e+03) (631, -1.32620764160156250000e+03) (632, -1.42599792480468750000e+03) (633, -1.44542590332031250000e+03) (634, -1.50000000000000000000e+03) (635, -1.50000000000000000000e+03) (636, -1.47500000000000000000e+03) (637, -1.47500000000000000000e+03) (638, -1.47500000000000000000e+03) (639, -1.49022521972656250000e+03) (640, -1.37228125000000000000e+03) (641, -1.47592651367187500000e+03) (642, -1.50000000000000000000e+03) (643, -1.50000000000000000000e+03) (644, 1.50000000000000000000e+03) (645, 1.50000000000000000000e+03) (646, -1.48819628906250000000e+03) (647, -1.49985070800781250000e+03) (648, -1.47503869628906250000e+03) (649, -1.47505432128906250000e+03) (650, -2.46569976806640625000e+02) (651, 8.58683532714843750000e+02) (652, -1.30105590820312500000e+03) (653, -1.47383703613281250000e+03) (654, -1.48206286621093750000e+03) (655, -1.48616296386718750000e+03) (656, -1.48032385253906250000e+03) (657, -1.47932580566406250000e+03) (658, -1.44519360351562500000e+03) (659, -1.49635156250000000000e+03) (660, -1.49763244628906250000e+03) (661, -1.49445837402343750000e+03) (662, -1.50000000000000000000e+03) (663, -1.49964782714843750000e+03) (664, -1.49980236816406250000e+03) (665, -4.08522338867187500000e+02) (666, 1.50000000000000000000e+03) (667, 5.09335205078125000000e+02) (668, -5.21262939453125000000e+02) (669, -1.50000000000000000000e+03) (670, -1.50000000000000000000e+03) (671, 1.50000000000000000000e+03) (672, 1.50000000000000000000e+03) (673, 1.50000000000000000000e+03) (674, -1.45983288574218750000e+03) (675, -1.49132019042968750000e+03) (676, -1.01557543945312500000e+03) (677, 1.41846899414062500000e+03) (678, 1.47223010253906250000e+03) (679, 1.49997888183593750000e+03) (680, 1.49998303222656250000e+03) (681, 1.49724487304687500000e+03) (682, 7.56732666015625000000e+02) (683, -3.76575775146484375000e+02) (684, 9.23966064453125000000e+01) (685, -1.49986572265625000000e+03) (686, -1.33488684082031250000e+03) (687, -1.50000000000000000000e+03) (688, 1.01694268798828125000e+03) (689, 1.49970495605468750000e+03) (690, -7.84908691406250000000e+02) (691, 1.50000000000000000000e+03) (692, 1.50000000000000000000e+03) (693, 1.50000000000000000000e+03) (694, 1.50000000000000000000e+03) (695, 1.50000000000000000000e+03) (696, -1.50000000000000000000e+03) (697, -1.50000000000000000000e+03) (698, -1.50000000000000000000e+03) (699, 1.50000000000000000000e+03) (700, 1.50000000000000000000e+03) (701, 1.50000000000000000000e+03) (702, -1.14500000000000000000e+03) (703, -1.11637182617187500000e+03) (704, 1.50000000000000000000e+03) (705, 1.50000000000000000000e+03) (706, 1.50000000000000000000e+03) (707, 1.50000000000000000000e+03) (708, 1.49853613281250000000e+03) (709, 1.36594689941406250000e+03) (710, 1.02145050048828125000e+03) (711, -1.44480053710937500000e+03) (712, 1.50000000000000000000e+03) (713, 3.71349487304687500000e+02) (714, 1.50000000000000000000e+03) (715, 1.50000000000000000000e+03) (716, 1.50000000000000000000e+03) (717, 1.50000000000000000000e+03) (718, 1.50000000000000000000e+03) (719, 1.50000000000000000000e+03) (720, 1.50000000000000000000e+03) (721, 4.61881591796875000000e+02) (722, -8.00182006835937500000e+02) (723, 5.83628173828125000000e+02) (724, -1.49998828125000000000e+03) (725, -1.50000000000000000000e+03) (726, -1.50000000000000000000e+03) (727, 1.50000000000000000000e+03) (728, 1.50000000000000000000e+03) (729, 1.50000000000000000000e+03) (730, 1.50000000000000000000e+03) (731, 1.24580004882812500000e+03) (732, 1.50000000000000000000e+03) (733, 1.49999670410156250000e+03) (734, 1.49999975585937500000e+03) (735, 1.49997460937500000000e+03) (736, 1.48114819335937500000e+03) (737, 1.45662731933593750000e+03) (738, 1.35108666992187500000e+03) (739, 1.49175244140625000000e+03) (740, 1.49037609863281250000e+03) (741, 1.50000000000000000000e+03) (742, 1.50000000000000000000e+03) (743, 1.50000000000000000000e+03) (744, 1.50000000000000000000e+03) (745, 1.50000000000000000000e+03) (746, 1.50000000000000000000e+03) (747, 1.50000000000000000000e+03) (748, 1.50000000000000000000e+03) (749, -1.76863159179687500000e+02) (750, -3.00508666992187500000e+02) (751, 1.50000000000000000000e+03) (752, 6.84199951171875000000e+02) (753, 1.36605114746093750000e+03) (754, 1.50000000000000000000e+03) (755, 1.50000000000000000000e+03) (756, 1.50000000000000000000e+03) (757, 1.50000000000000000000e+03) (758, 1.50000000000000000000e+03) (759, 1.50000000000000000000e+03) (760, -1.50000000000000000000e+03) (761, -8.93399963378906250000e+02) (762, -4.51386108398437500000e+01) (763, 2.90800048828125000000e+02) (764, 2.90800048828125000000e+02) (765, 1.33195642089843750000e+03) (766, -1.50000000000000000000e+03) (767, 1.49997094726562500000e+03) (768, 1.50000000000000000000e+03) (769, 1.50000000000000000000e+03) (770, 1.50000000000000000000e+03) (771, 1.50000000000000000000e+03) (772, 1.50000000000000000000e+03) (773, 1.50000000000000000000e+03) (774, 1.50000000000000000000e+03) (775, -2.54460205078125000000e+02) (776, -1.48500000000000000000e+03) (777, -1.36580004882812500000e+03) (778, -1.46856323242187500000e+03) (779, 1.50000000000000000000e+03) (780, 1.50000000000000000000e+03) (781, 1.50000000000000000000e+03) (782, 1.50000000000000000000e+03) (783, 1.50000000000000000000e+03) (784, 1.00724426269531250000e+02) (0, 1.50000000000000000000e+03) (1, 1.50000000000000000000e+03) (2, 1.50000000000000000000e+03) (3, 1.50000000000000000000e+03) (4, 1.50000000000000000000e+03) (5, 1.50000000000000000000e+03) (6, 1.50000000000000000000e+03) (7, 1.50000000000000000000e+03) (8, 1.50000000000000000000e+03) (9, 1.50000000000000000000e+03) (10, 1.50000000000000000000e+03) (11, 1.50000000000000000000e+03) (12, -1.41800781250000000000e+03) (13, 1.48500000000000000000e+03) (14, 1.50000000000000000000e+03) (15, 1.50000000000000000000e+03) (16, 1.50000000000000000000e+03) (17, 1.50000000000000000000e+03) (18, 1.50000000000000000000e+03) (19, 1.50000000000000000000e+03) (20, 1.50000000000000000000e+03) (21, 1.50000000000000000000e+03) (22, 1.50000000000000000000e+03) (23, 1.50000000000000000000e+03) (24, 1.50000000000000000000e+03) (25, 1.50000000000000000000e+03) (26, 1.50000000000000000000e+03) (27, 1.50000000000000000000e+03) (28, 1.50000000000000000000e+03) (29, 1.50000000000000000000e+03) (30, 1.50000000000000000000e+03) (31, 1.50000000000000000000e+03) (32, 1.50000000000000000000e+03) (33, 7.83734252929687500000e+02) (34, -1.12550537109375000000e+03) (35, -1.01446685791015625000e+03) (36, 1.49960974121093750000e+03) (37, -3.35048065185546875000e+02) (38, -1.42917089843750000000e+03) (39, -1.42915686035156250000e+03) (40, -1.46596643066406250000e+03) (41, -1.42896044921875000000e+03) (42, 1.20925378417968750000e+03) (43, -1.49877429199218750000e+03) (44, 1.50000000000000000000e+03) (45, 1.49495080566406250000e+03) (46, -1.41638842773437500000e+03) (47, -1.48287634277343750000e+03) (48, -1.48759301757812500000e+03) (49, -1.50000000000000000000e+03) (50, -1.50000000000000000000e+03) (51, -1.50000000000000000000e+03) (52, 1.50000000000000000000e+03) (53, 1.50000000000000000000e+03) (54, 1.50000000000000000000e+03) (55, 1.50000000000000000000e+03) (56, 1.50000000000000000000e+03) (57, 1.50000000000000000000e+03) (58, -5.91999511718750000000e+01) (59, 1.50000000000000000000e+03) (60, 1.49428137207031250000e+03) (61, 1.50000000000000000000e+03) (62, -1.24082104492187500000e+03) (63, -1.24286047363281250000e+03) (64, -1.48285021972656250000e+03) (65, -1.46140747070312500000e+03) (66, -8.32599182128906250000e+02) (67, 1.27980833053588867188e+01) (68, 5.07771392822265625000e+02) (69, -2.77828674316406250000e+02) (70, -1.38453442382812500000e+03) (71, -1.25027270507812500000e+03) (72, -1.45121215820312500000e+03) (73, -5.84636230468750000000e+02) (74, -8.92770690917968750000e+02) (75, -9.88272521972656250000e+02) (76, -1.50000000000000000000e+03) (77, -1.50000000000000000000e+03) (78, -1.50000000000000000000e+03) (79, -1.50000000000000000000e+03) (80, 3.13864715576171875000e+02) (81, 1.50000000000000000000e+03) (82, 1.50000000000000000000e+03) (83, 1.50000000000000000000e+03) (84, 1.50000000000000000000e+03) (85, 1.50000000000000000000e+03) (86, -1.50000000000000000000e+03) (87, 1.50000000000000000000e+03) (88, 1.49958068847656250000e+03) (89, -1.49964782714843750000e+03) (90, -1.49561926269531250000e+03) (91, 1.20931738281250000000e+03) (92, 8.97093627929687500000e+02) (93, -4.81829528808593750000e+02) (94, -1.49791992187500000000e+03) (95, -1.49850561523437500000e+03) (96, -1.49998913574218750000e+03) (97, -1.49999987792968750000e+03) (98, -1.49999987792968750000e+03) (99, -7.50581481933593750000e+02) (100, -3.22268432617187500000e+02) (101, -1.50000000000000000000e+03) (102, -5.30229553222656250000e+02) (103, -1.91957740783691406250e+01) (104, 5.51534484863281250000e+02) (105, 1.29360400390625000000e+03) (106, 1.50000000000000000000e+03) (107, 1.50000000000000000000e+03) (108, 1.50000000000000000000e+03) (109, 1.50000000000000000000e+03) (110, 1.50000000000000000000e+03) (111, 1.50000000000000000000e+03) (112, 1.50000000000000000000e+03) (113, -1.50000000000000000000e+03) (114, -1.50000000000000000000e+03) (115, -1.50000000000000000000e+03) (116, -1.50000000000000000000e+03) (117, -1.49804663085937500000e+03) (118, -1.49978088378906250000e+03) (119, -1.49976452636718750000e+03) (120, -1.49837219238281250000e+03) (121, -1.49978088378906250000e+03) (122, -1.49969567871093750000e+03) (123, -1.49824731445312500000e+03) (124, -1.47500000000000000000e+03) (125, -1.47500000000000000000e+03) (126, -1.50000000000000000000e+03) (127, -1.50000000000000000000e+03) (128, -1.50000000000000000000e+03) (129, -1.45693994140625000000e+03) (130, -1.28142541503906250000e+03) (131, 1.24950614929199218750e+02) (132, 1.50000000000000000000e+03) (133, 1.50000000000000000000e+03) (134, 1.50000000000000000000e+03) (135, 1.50000000000000000000e+03) (136, 1.50000000000000000000e+03) (137, 1.50000000000000000000e+03) (138, -1.50000000000000000000e+03) (139, 1.28341333007812500000e+03) (140, 1.50000000000000000000e+03) (141, 1.50000000000000000000e+03) (142, -1.49359301757812500000e+03) (143, -1.50000000000000000000e+03) (144, -1.49999865722656250000e+03) (145, -1.47500000000000000000e+03) (146, -1.49936901855468750000e+03) (147, -1.49987316894531250000e+03) (148, -1.49978088378906250000e+03) (149, -1.49547839355468750000e+03) (150, -1.47500000000000000000e+03) (151, -1.47500000000000000000e+03) (152, -1.50000000000000000000e+03) (153, -1.50000000000000000000e+03) (154, -1.50000000000000000000e+03) (155, -1.50000000000000000000e+03) (156, -1.50000000000000000000e+03) (157, -1.50000000000000000000e+03) (158, -1.50000000000000000000e+03) (159, -1.49986181640625000000e+03) (160, 1.50000000000000000000e+03) (161, 1.50000000000000000000e+03) (162, 1.50000000000000000000e+03) (163, 1.50000000000000000000e+03) (164, 1.50000000000000000000e+03) (165, 1.50000000000000000000e+03) (166, 1.49913928222656250000e+03) (167, 1.50000000000000000000e+03) (168, 1.50000000000000000000e+03) (169, -1.49999987792968750000e+03) (170, 1.50000000000000000000e+03) (171, -1.50000000000000000000e+03) (172, -1.50000000000000000000e+03) (173, -1.49999584960937500000e+03) (174, -1.49999987792968750000e+03) (175, -1.49513952636718750000e+03) (176, -1.47500000000000000000e+03) (177, -1.47500000000000000000e+03) (178, -1.47500000000000000000e+03) (179, -1.47500000000000000000e+03) (180, -1.50000000000000000000e+03) (181, -1.50000000000000000000e+03) (182, -1.50000000000000000000e+03) (183, -1.50000000000000000000e+03) (184, -1.50000000000000000000e+03) (185, -1.50000000000000000000e+03) (186, -1.41027917480468750000e+03) (187, -1.42353161621093750000e+03) (188, -8.01897277832031250000e+02) (189, 1.50000000000000000000e+03) (190, 1.50000000000000000000e+03) (191, 1.50000000000000000000e+03) (192, 1.50000000000000000000e+03) (193, 1.50000000000000000000e+03) (194, 1.50000000000000000000e+03) (195, 1.50000000000000000000e+03) (196, 1.50000000000000000000e+03) (197, -1.47442431640625000000e+03) (198, 1.50000000000000000000e+03) (199, -1.50000000000000000000e+03) (200, -1.47500000000000000000e+03) (201, -1.50000000000000000000e+03) (202, -1.49999987792968750000e+03) (203, -1.50000000000000000000e+03) (204, -1.50000000000000000000e+03) (205, -1.50000000000000000000e+03) (206, -1.45879992675781250000e+03) (207, -1.48883874511718750000e+03) (208, -1.47410742187500000000e+03) (209, -1.49813232421875000000e+03) (210, -1.49549523925781250000e+03) (211, -1.49874157714843750000e+03) (212, -1.47678918457031250000e+03) (213, 4.66288238525390625000e+02) (214, -1.48414660644531250000e+03) (215, -1.45366271972656250000e+03) (216, -1.50000000000000000000e+03) (217, -1.12701733398437500000e+03) (218, -1.41475280761718750000e+03) (219, 1.50000000000000000000e+03) (220, 1.50000000000000000000e+03) (221, 1.50000000000000000000e+03) (222, 1.49985278320312500000e+03) (223, 1.50000000000000000000e+03) (224, 1.50000000000000000000e+03) (225, 1.50000000000000000000e+03) (226, 1.50000000000000000000e+03) (227, -1.50000000000000000000e+03) (228, -1.50000000000000000000e+03) (229, -1.50000000000000000000e+03) (230, -1.50000000000000000000e+03) (231, -1.50000000000000000000e+03) (232, -1.50000000000000000000e+03) (233, -1.50000000000000000000e+03) (234, -1.49994335937500000000e+03) (235, -1.48113891601562500000e+03) (236, -1.49833691406250000000e+03) (237, 9.41190109252929687500e+01) (238, 1.44190600585937500000e+03) (239, -1.44939160156250000000e+03) (240, -1.14193798828125000000e+03) (241, 1.22613342285156250000e+03) (242, -1.50000000000000000000e+03) (243, -1.47840002441406250000e+03) (244, -1.50000000000000000000e+03) (245, -1.50000000000000000000e+03) (246, -1.47814575195312500000e+03) (247, -3.00386871337890625000e+02) (248, 1.49973156738281250000e+03) (249, 1.50000000000000000000e+03) (250, 1.50000000000000000000e+03) (251, -1.50000000000000000000e+03) (252, -1.17576477050781250000e+02) (253, 1.50000000000000000000e+03) (254, 1.49999841308593750000e+03) (255, -1.50000000000000000000e+03) (256, -1.50000000000000000000e+03) (257, -1.50000000000000000000e+03) (258, -1.50000000000000000000e+03) (259, -1.50000000000000000000e+03) (260, -1.50000000000000000000e+03) (261, -1.49613085937500000000e+03) (262, -8.99956787109375000000e+02) (263, 4.50124481201171875000e+02) (264, 1.50000000000000000000e+03) (265, 1.50000000000000000000e+03) (266, -4.32373199462890625000e+02) (267, 1.39111413574218750000e+03) (268, 1.49995776367187500000e+03) (269, 1.32026330566406250000e+03) (270, -1.50000000000000000000e+03) (271, -1.50000000000000000000e+03) (272, -1.50000000000000000000e+03) (273, -1.50000000000000000000e+03) (274, -1.25169006347656250000e+03) (275, -1.49992517089843750000e+03) (276, 1.50000000000000000000e+03) (277, 1.50000000000000000000e+03) (278, 1.50000000000000000000e+03) (279, 7.78709716796875000000e+01) (280, 7.53184082031250000000e+02) (281, 8.21419616699218750000e+02) (282, 1.50000000000000000000e+03) (283, 1.38464746093750000000e+03) (284, -1.50000000000000000000e+03) (285, -1.50000000000000000000e+03) (286, -1.50000000000000000000e+03) (287, -1.42398669433593750000e+03) (288, 1.09960644531250000000e+03) (289, 1.50000000000000000000e+03) (290, 1.50000000000000000000e+03) (291, 1.50000000000000000000e+03) (292, 1.50000000000000000000e+03) (293, 1.50000000000000000000e+03) (294, -1.50000000000000000000e+03) (295, -1.49926977539062500000e+03) (296, -1.50000000000000000000e+03) (297, -1.50000000000000000000e+03) (298, -1.50000000000000000000e+03) (299, -1.50000000000000000000e+03) (300, -1.50000000000000000000e+03) (301, -1.50000000000000000000e+03) (302, -1.24718981933593750000e+03) (303, -1.49999035644531250000e+03) (304, -1.49999707031250000000e+03) (305, 1.50000000000000000000e+03) (306, 1.50000000000000000000e+03) (307, -1.50000000000000000000e+03) (308, 1.13261364746093750000e+03) (309, 1.47569116210937500000e+03) (310, 1.50000000000000000000e+03) (311, 1.12873571777343750000e+03) (312, -1.50000000000000000000e+03) (313, -4.84592864990234375000e+02) (314, -1.73369216918945312500e+02) (315, 1.50000000000000000000e+03) (316, 1.50000000000000000000e+03) (317, 1.50000000000000000000e+03) (318, 1.50000000000000000000e+03) (319, 1.50000000000000000000e+03) (320, 1.42430200195312500000e+03) (321, -1.50000000000000000000e+03) (322, -1.50000000000000000000e+03) (323, -1.50000000000000000000e+03) (324, -1.50000000000000000000e+03) (325, -1.50000000000000000000e+03) (326, -1.50000000000000000000e+03) (327, -1.50000000000000000000e+03) (328, -1.50000000000000000000e+03) (329, -1.49999365234375000000e+03) (330, -1.49998925781250000000e+03) (331, -1.49998803710937500000e+03) (332, -1.50000000000000000000e+03) (333, -1.50000000000000000000e+03) (334, -1.50000000000000000000e+03) (335, -1.50000000000000000000e+03) (336, 1.49955200195312500000e+03) (337, 1.44201428222656250000e+03) (338, 1.50000000000000000000e+03) (339, 5.83012451171875000000e+02) (340, 9.74687500000000000000e+02) (341, 1.49999975585937500000e+03) (342, 1.50000000000000000000e+03) (343, 1.50000000000000000000e+03) (344, 1.50000000000000000000e+03) (345, 1.50000000000000000000e+03) (346, 1.50000000000000000000e+03) (347, 1.28767541503906250000e+03) (348, -1.50000000000000000000e+03) (349, -1.50000000000000000000e+03) (350, -1.50000000000000000000e+03) (351, -1.50000000000000000000e+03) (352, -1.50000000000000000000e+03) (353, -1.50000000000000000000e+03) (354, -1.50000000000000000000e+03) (355, -1.49756982421875000000e+03) (356, -1.49998242187500000000e+03) (357, -1.49998596191406250000e+03) (358, -1.49998596191406250000e+03) (359, -1.49998852539062500000e+03) (360, -1.33209985351562500000e+03) (361, -1.50000000000000000000e+03) (362, -1.50000000000000000000e+03) (363, -1.50000000000000000000e+03) (364, -1.47112915039062500000e+03) (365, 2.02762573242187500000e+02) (366, 1.50000000000000000000e+03) (367, -1.37238635253906250000e+03) (368, 1.49999975585937500000e+03) (369, 1.50000000000000000000e+03) (370, 1.50000000000000000000e+03) (371, 1.50000000000000000000e+03) (372, 1.50000000000000000000e+03) (373, 1.50000000000000000000e+03) (374, 1.50000000000000000000e+03) (375, -1.50000000000000000000e+03) (376, -1.50000000000000000000e+03) (377, -1.50000000000000000000e+03) (378, -1.50000000000000000000e+03) (379, -1.50000000000000000000e+03) (380, -1.50000000000000000000e+03) (381, -1.50000000000000000000e+03) (382, -1.49699401855468750000e+03) (383, -1.50000000000000000000e+03) (384, -1.49998181152343750000e+03) (385, -1.49998010253906250000e+03) (386, -1.49997900390625000000e+03) (387, -1.14968383789062500000e+03) (388, -1.49999182128906250000e+03) (389, -1.49278161621093750000e+03) (390, 1.49541784667968750000e+03) (391, -1.46102014160156250000e+03) (392, 1.50000000000000000000e+03) (393, -1.49999365234375000000e+03) (394, 3.65991973876953125000e+02) (395, -1.50000000000000000000e+03) (396, 1.50000000000000000000e+03) (397, 1.50000000000000000000e+03) (398, 1.50000000000000000000e+03) (399, 1.50000000000000000000e+03) (400, 1.50000000000000000000e+03) (401, 1.50000000000000000000e+03) (402, 1.50000000000000000000e+03) (403, -1.50000000000000000000e+03) (404, -1.50000000000000000000e+03) (405, -1.50000000000000000000e+03) (406, -1.50000000000000000000e+03) (407, -1.50000000000000000000e+03) (408, -1.50000000000000000000e+03) (409, -1.50000000000000000000e+03) (410, -8.27672912597656250000e+02) (411, 1.49993151855468750000e+03) (412, 1.50000000000000000000e+03) (413, 1.50000000000000000000e+03) (414, 1.50000000000000000000e+03) (415, 1.50000000000000000000e+03) (416, 1.50000000000000000000e+03) (417, -1.28846533203125000000e+03) (418, 1.50000000000000000000e+03) (419, 1.50000000000000000000e+03) (420, 1.50000000000000000000e+03) (421, -1.50000000000000000000e+03) (422, -1.49998913574218750000e+03) (423, -1.50000000000000000000e+03) (424, 1.50000000000000000000e+03) (425, 1.50000000000000000000e+03) (426, 1.50000000000000000000e+03) (427, 1.50000000000000000000e+03) (428, 1.50000000000000000000e+03) (429, 1.50000000000000000000e+03) (430, 1.37829309082031250000e+03) (431, -1.50000000000000000000e+03) (432, -1.50000000000000000000e+03) (433, -1.50000000000000000000e+03) (434, -1.50000000000000000000e+03) (435, -1.50000000000000000000e+03) (436, -1.50000000000000000000e+03) (437, 1.20736889648437500000e+03) (438, 1.50000000000000000000e+03) (439, 1.50000000000000000000e+03) (440, 1.50000000000000000000e+03) (441, 1.50000000000000000000e+03) (442, 1.50000000000000000000e+03) (443, 1.50000000000000000000e+03) (444, 1.50000000000000000000e+03) (445, 1.50000000000000000000e+03) (446, 1.50000000000000000000e+03) (447, 1.50000000000000000000e+03) (448, -1.50000000000000000000e+03) (449, -1.50000000000000000000e+03) (450, -1.50000000000000000000e+03) (451, -1.50000000000000000000e+03) (452, -1.49650146484375000000e+03) (453, 1.50000000000000000000e+03) (454, 1.50000000000000000000e+03) (455, 1.50000000000000000000e+03) (456, 1.50000000000000000000e+03) (457, -9.62823730468750000000e+02) (458, -1.29202160644531250000e+03) (459, -1.49999841308593750000e+03) (460, -1.50000000000000000000e+03) (461, -1.50000000000000000000e+03) (462, -1.50000000000000000000e+03) (463, -1.48244079589843750000e+03) (464, -1.50000000000000000000e+03) (465, 1.49101452636718750000e+03) (466, 3.03168792724609375000e+02) (467, -2.41932678222656250000e+02) (468, 