FANN_FLO_2.1
num_layers=3
learning_rate=0.700000
connection_rate=1.000000
network_type=0
learning_momentum=0.000000
training_algorithm=2
train_error_function=1
train_stop_function=0
cascade_output_change_fraction=0.010000
quickprop_decay=-0.000100
quickprop_mu=1.750000
rprop_increase_factor=1.200000
rprop_decrease_factor=0.500000
rprop_delta_min=0.000000
rprop_delta_max=50.000000
rprop_delta_zero=0.100000
cascade_output_stagnation_epochs=12
cascade_candidate_change_fraction=0.010000
cascade_candidate_stagnation_epochs=12
cascade_max_out_epochs=150
cascade_max_cand_epochs=150
cascade_num_candidate_groups=2
bit_fail_limit=3.49999994039535522461e-01
cascade_candidate_limit=1.00000000000000000000e+03
cascade_weight_multiplier=4.00000005960464477539e-01
cascade_activation_functions_count=10
cascade_activation_functions=3 5 7 8 10 11 14 15 16 17 
cascade_activation_steepnesses_count=4
cascade_activation_steepnesses=2.50000000000000000000e-01 5.00000000000000000000e-01 7.50000000000000000000e-01 1.00000000000000000000e+00 
layer_sizes=785 46 11 
scale_included=0
neurons (num_inputs, activation_function, activation_steepness)=(0, 0, 0.00000000000000000000e+00) (0, 0, 0.00000000000000000000e+00) (0, 0, 0.00000000000000000000e+00) (0, 0, 0.00000000000000000000e+00) (0, 0, 0.00000000000000000000e+00) (0, 0, 0.00000000000000000000e+00) (0, 0, 0.00000000000000000000e+00) (0, 0, 0.00000000000000000000e+00) (0, 0, 0.00000000000000000000e+00) (0, 0, 0.00000000000000000000e+00) (0, 0, 0.00000000000000000000e+00) (0, 0, 0.00000000000000000000e+00) (0, 0, 0.00000000000000000000e+00) (0, 0, 0.00000000000000000000e+00) (0, 0, 0.00000000000000000000e+00) (0, 0, 0.00000000000000000000e+00) (0, 0, 0.00000000000000000000e+00) (0, 0, 0.00000000000000000000e+00) (0, 0, 0.00000000000000000000e+00) (0, 0, 0.00000000000000000000e+00) (0, 0, 0.00000000000000000000e+00) (0, 0, 0.00000000000000000000e+00) (0, 0, 0.00000000000000000000e+00) (0, 0, 0.00000000000000000000e+00) (0, 0, 0.00000000000000000000e+00) (0, 0, 0.00000000000000000000e+00) (0, 0, 0.00000000000000000000e+00) (0, 0, 0.00000000000000000000e+00) (0, 0, 0.00000000000000000000e+00) (0, 0, 0.00000000000000000000e+00) (0, 0, 0.00000000000000000000e+00) (0, 0, 0.00000000000000000000e+00) (0, 0, 0.00000000000000000000e+00) (0, 0, 0.00000000000000000000e+00) (0, 0, 0.00000000000000000000e+00) (0, 0, 0.00000000000000000000e+00) (0, 0, 0.00000000000000000000e+00) (0, 0, 0.00000000000000000000e+00) (0, 0, 0.00000000000000000000e+00) (0, 0, 0.00000000000000000000e+00) (0, 0, 0.00000000000000000000e+00) (0, 0, 0.00000000000000000000e+00) (0, 0, 0.00000000000000000000e+00) (0, 0, 0.00000000000000000000e+00) (0, 0, 0.00000000000000000000e+00) (0, 0, 0.00000000000000000000e+00) (0, 0, 0.00000000000000000000e+00) (0, 0, 0.00000000000000000000e+00) (0, 0, 0.00000000000000000000e+00) (0, 0, 0.00000000000000000000e+00) (0, 0, 0.00000000000000000000e+00) (0, 0, 0.00000000000000000000e+00) (0, 0, 0.00000000000000000000e+00) (0, 0, 0.00000000000000000000e+00) (0, 0, 0.00000000000000000000e+00) (0, 0, 0.00000000000000000000e+00) (0, 0, 0.00000000000000000000e+00) (0, 0, 0.00000000000000000000e+00) (0, 0, 0.00000000000000000000e+00) (0, 0, 0.00000000000000000000e+00) (0, 0, 0.00000000000000000000e+00) (0, 0, 0.00000000000000000000e+00) (0, 0, 0.00000000000000000000e+00) (0, 0, 0.00000000000000000000e+00) (0, 0, 0.00000000000000000000e+00) (0, 0, 0.00000000000000000000e+00) (0, 0, 0.00000000000000000000e+00) (0, 0, 0.00000000000000000000e+00) (0, 0, 0.00000000000000000000e+00) (0, 0, 0.00000000000000000000e+00) (0, 0, 0.00000000000000000000e+00) (0, 0, 0.00000000000000000000e+00) (0, 0, 0.00000000000000000000e+00) (0, 0, 0.00000000000000000000e+00) (0, 0, 0.00000000000000000000e+00) (0, 0, 0.00000000000000000000e+00) (0, 0, 0.00000000000000000000e+00) (0, 0, 0.00000000000000000000e+00) (0, 0, 0.00000000000000000000e+00) (0, 0, 0.00000000000000000000e+00) (0, 0, 0.00000000000000000000e+00) (0, 0, 0.00000000000000000000e+00) (0, 0, 0.00000000000000000000e+00) (0, 0, 0.00000000000000000000e+00) (0, 0, 0.00000000000000000000e+00) (0, 0, 0.00000000000000000000e+00) (0, 0, 0.00000000000000000000e+00) (0, 0, 0.00000000000000000000e+00) (0, 0, 0.00000000000000000000e+00) (0, 0, 0.00000000000000000000e+00) (0, 0, 0.00000000000000000000e+00) (0, 0, 0.00000000000000000000e+00) (0, 0, 0.00000000000000000000e+00) (0, 0, 0.00000000000000000000e+00) (0, 0, 0.00000000000000000000e+00) (0, 0, 0.00000000000000000000e+00) (0, 0, 0.00000000000000000000e+00) (0, 0, 0.00000000000000000000e+00) (0, 0, 0.00000000000000000000e+00) (0, 0, 0.00000000000000000000e+00) (0, 0, 0.00000000000000000000e+00) (0, 0, 0.00000000000000000000e+00) (0, 0, 0.00000000000000000000e+00) (0, 0, 0.00000000000000000000e+00) (0, 0, 0.00000000000000000000e+00) (0, 0, 0.00000000000000000000e+00) (0, 0, 0.00000000000000000000e+00) (0, 0, 0.00000000000000000000e+00) (0, 0, 0.00000000000000000000e+00) (0, 0, 0.00000000000000000000e+00) (0, 0, 0.00000000000000000000e+00) (0, 0, 0.00000000000000000000e+00) (0, 0, 0.00000000000000000000e+00) (0, 0, 0.00000000000000000000e+00) (0, 0, 0.00000000000000000000e+00) (0, 0, 0.00000000000000000000e+00) (0, 0, 0.00000000000000000000e+00) (0, 0, 0.00000000000000000000e+00) (0, 0, 0.00000000000000000000e+00) (0, 0, 0.00000000000000000000e+00) (0, 0, 0.00000000000000000000e+00) (0, 0, 0.00000000000000000000e+00) (0, 0, 0.00000000000000000000e+00) (0, 0, 0.00000000000000000000e+00) (0, 0, 0.00000000000000000000e+00) (0, 0, 0.00000000000000000000e+00) (0, 0, 0.00000000000000000000e+00) (0, 0, 0.00000000000000000000e+00) (0, 0, 0.00000000000000000000e+00) (0, 0, 0.00000000000000000000e+00) (0, 0, 0.00000000000000000000e+00) (0, 0, 0.00000000000000000000e+00) (0, 0, 0.00000000000000000000e+00) (0, 0, 0.00000000000000000000e+00) (0, 0, 0.00000000000000000000e+00) (0, 0, 0.00000000000000000000e+00) (0, 0, 0.00000000000000000000e+00) (0, 0, 0.00000000000000000000e+00) (0, 0, 0.00000000000000000000e+00) (0, 0, 0.00000000000000000000e+00) (0, 0, 0.00000000000000000000e+00) (0, 0, 0.00000000000000000000e+00) (0, 0, 0.00000000000000000000e+00) (0, 0, 0.00000000000000000000e+00) (0, 0, 0.00000000000000000000e+00) (0, 0, 0.00000000000000000000e+00) (0, 0, 0.00000000000000000000e+00) (0, 0, 0.00000000000000000000e+00) (0, 0, 0.00000000000000000000e+00) (0, 0, 0.00000000000000000000e+00) (0, 0, 0.00000000000000000000e+00) (0, 0, 0.00000000000000000000e+00) (0, 0, 0.00000000000000000000e+00) (0, 0, 0.00000000000000000000e+00) (0, 0, 0.00000000000000000000e+00) (0, 0, 0.00000000000000000000e+00) (0, 0, 0.00000000000000000000e+00) (0, 0, 0.00000000000000000000e+00) (0, 0, 0.00000000000000000000e+00) (0, 0, 0.00000000000000000000e+00) (0, 0, 0.00000000000000000000e+00) (0, 0, 0.00000000000000000000e+00) (0, 0, 0.00000000000000000000e+00) (0, 0, 0.00000000000000000000e+00) (0, 0, 0.00000000000000000000e+00) (0, 0, 0.00000000000000000000e+00) (0, 0, 0.00000000000000000000e+00) (0, 0, 0.00000000000000000000e+00) (0, 0, 0.00000000000000000000e+00) (0, 0, 0.00000000000000000000e+00) (0, 0, 0.00000000000000000000e+00) (0, 0, 0.00000000000000000000e+00) (0, 0, 0.00000000000000000000e+00) (0, 0, 0.00000000000000000000e+00) (0, 0, 0.00000000000000000000e+00) (0, 0, 0.00000000000000000000e+00) (0, 0, 0.00000000000000000000e+00) (0, 0, 0.00000000000000000000e+00) (0, 0, 0.00000000000000000000e+00) (0, 0, 0.00000000000000000000e+00) (0, 0, 0.00000000000000000000e+00) (0, 0, 0.00000000000000000000e+00) (0, 0, 0.00000000000000000000e+00) (0, 0, 0.00000000000000000000e+00) (0, 0, 0.00000000000000000000e+00) (0, 0, 0.00000000000000000000e+00) (0, 0, 0.00000000000000000000e+00) (0, 0, 0.00000000000000000000e+00) (0, 0, 0.00000000000000000000e+00) (0, 0, 0.00000000000000000000e+00) (0, 0, 0.00000000000000000000e+00) (0, 0, 0.00000000000000000000e+00) (0, 0, 0.00000000000000000000e+00) (0, 0, 0.00000000000000000000e+00) (0, 0, 0.00000000000000000000e+00) (0, 0, 0.00000000000000000000e+00) (0, 0, 0.00000000000000000000e+00) (0, 0, 0.00000000000000000000e+00) (0, 0, 0.00000000000000000000e+00) (0, 0, 0.00000000000000000000e+00) (0, 0, 0.00000000000000000000e+00) (0, 0, 0.00000000000000000000e+00) (0, 0, 0.00000000000000000000e+00) (0, 0, 0.00000000000000000000e+00) (0, 0, 0.00000000000000000000e+00) (0, 0, 0.00000000000000000000e+00) (0, 0, 0.00000000000000000000e+00) (0, 0, 0.00000000000000000000e+00) (0, 0, 0.00000000000000000000e+00) (0, 0, 0.00000000000000000000e+00) (0, 0, 0.00000000000000000000e+00) (0, 0, 0.00000000000000000000e+00) (0, 0, 0.00000000000000000000e+00) (0, 0, 0.00000000000000000000e+00) (0, 0, 0.00000000000000000000e+00) (0, 0, 0.00000000000000000000e+00) (0, 0, 0.00000000000000000000e+00) (0, 0, 0.00000000000000000000e+00) (0, 0, 0.00000000000000000000e+00) (0, 0, 0.00000000000000000000e+00) (0, 0, 0.00000000000000000000e+00) (0, 0, 0.00000000000000000000e+00) (0, 0, 0.00000000000000000000e+00) (0, 0, 0.00000000000000000000e+00) (0, 0, 0.00000000000000000000e+00) (0, 0, 0.00000000000000000000e+00) (0, 0, 0.00000000000000000000e+00) (0, 0, 0.00000000000000000000e+00) (0, 0, 0.00000000000000000000e+00) (0, 0, 0.00000000000000000000e+00) (0, 0, 0.00000000000000000000e+00) (0, 0, 0.00000000000000000000e+00) (0, 0, 0.00000000000000000000e+00) (0, 0, 0.00000000000000000000e+00) (0, 0, 0.00000000000000000000e+00) (0, 0, 0.00000000000000000000e+00) (0, 0, 0.00000000000000000000e+00) (0, 0, 0.00000000000000000000e+00) (0, 0, 0.00000000000000000000e+00) (0, 0, 0.00000000000000000000e+00) (0, 0, 0.00000000000000000000e+00) (0, 0, 0.00000000000000000000e+00) (0, 0, 0.00000000000000000000e+00) (0, 0, 0.00000000000000000000e+00) (0, 0, 0.00000000000000000000e+00) (0, 0, 0.00000000000000000000e+00) (0, 0, 0.00000000000000000000e+00) (0, 0, 0.00000000000000000000e+00) (0, 0, 0.00000000000000000000e+00) (0, 0, 0.00000000000000000000e+00) (0, 0, 0.00000000000000000000e+00) (0, 0, 0.00000000000000000000e+00) (0, 0, 0.00000000000000000000e+00) (0, 0, 0.00000000000000000000e+00) (0, 0, 0.00000000000000000000e+00) (0, 0, 0.00000000000000000000e+00) (0, 0, 0.00000000000000000000e+00) (0, 0, 0.00000000000000000000e+00) (0, 0, 0.00000000000000000000e+00) (0, 0, 0.00000000000000000000e+00) (0, 0, 0.00000000000000000000e+00) (0, 0, 0.00000000000000000000e+00) (0, 0, 0.00000000000000000000e+00) (0, 0, 0.00000000000000000000e+00) (0, 0, 0.00000000000000000000e+00) (0, 0, 0.00000000000000000000e+00) (0, 0, 0.00000000000000000000e+00) (0, 0, 0.00000000000000000000e+00) (0, 0, 0.00000000000000000000e+00) (0, 0, 0.00000000000000000000e+00) (0, 0, 0.00000000000000000000e+00) (0, 0, 0.00000000000000000000e+00) (0, 0, 0.00000000000000000000e+00) (0, 0, 0.00000000000000000000e+00) (0, 0, 0.00000000000000000000e+00) (0, 0, 0.00000000000000000000e+00) (0, 0, 0.00000000000000000000e+00) (0, 0, 0.00000000000000000000e+00) (0, 0, 0.00000000000000000000e+00) (0, 0, 0.00000000000000000000e+00) (0, 0, 0.00000000000000000000e+00) (0, 0, 0.00000000000000000000e+00) (0, 0, 0.00000000000000000000e+00) (0, 0, 0.00000000000000000000e+00) (0, 0, 0.00000000000000000000e+00) (0, 0, 0.00000000000000000000e+00) (0, 0, 0.00000000000000000000e+00) (0, 0, 0.00000000000000000000e+00) (0, 0, 0.00000000000000000000e+00) (0, 0, 0.00000000000000000000e+00) (0, 0, 0.00000000000000000000e+00) (0, 0, 0.00000000000000000000e+00) (0, 0, 0.00000000000000000000e+00) (0, 0, 0.00000000000000000000e+00) (0, 0, 0.00000000000000000000e+00) (0, 0, 0.00000000000000000000e+00) (0, 0, 0.00000000000000000000e+00) (0, 0, 0.00000000000000000000e+00) (0, 0, 0.00000000000000000000e+00) (0, 0, 0.00000000000000000000e+00) (0, 0, 0.00000000000000000000e+00) (0, 0, 0.00000000000000000000e+00) (0, 0, 0.00000000000000000000e+00) (0, 0, 0.00000000000000000000e+00) (0, 0, 0.00000000000000000000e+00) (0, 0, 0.00000000000000000000e+00) (0, 0, 0.00000000000000000000e+00) (0, 0, 0.00000000000000000000e+00) (0, 0, 0.00000000000000000000e+00) (0, 0, 0.00000000000000000000e+00) (0, 0, 0.00000000000000000000e+00) (0, 0, 0.00000000000000000000e+00) (0, 0, 0.00000000000000000000e+00) (0, 0, 0.00000000000000000000e+00) (0, 0, 0.00000000000000000000e+00) (0, 0, 0.00000000000000000000e+00) (0, 0, 0.00000000000000000000e+00) (0, 0, 0.00000000000000000000e+00) (0, 0, 0.00000000000000000000e+00) (0, 0, 0.00000000000000000000e+00) (0, 0, 0.00000000000000000000e+00) (0, 0, 0.00000000000000000000e+00) (0, 0, 0.00000000000000000000e+00) (0, 0, 0.00000000000000000000e+00) (0, 0, 0.00000000000000000000e+00) (0, 0, 0.00000000000000000000e+00) (0, 0, 0.00000000000000000000e+00) (0, 0, 0.00000000000000000000e+00) (0, 0, 0.00000000000000000000e+00) (0, 0, 0.00000000000000000000e+00) (0, 0, 0.00000000000000000000e+00) (0, 0, 0.00000000000000000000e+00) (0, 0, 0.00000000000000000000e+00) (0, 0, 0.00000000000000000000e+00) (0, 0, 0.00000000000000000000e+00) (0, 0, 0.00000000000000000000e+00) (0, 0, 0.00000000000000000000e+00) (0, 0, 0.00000000000000000000e+00) (0, 0, 0.00000000000000000000e+00) (0, 0, 0.00000000000000000000e+00) (0, 0, 0.00000000000000000000e+00) (0, 0, 0.00000000000000000000e+00) (0, 0, 0.00000000000000000000e+00) (0, 0, 0.00000000000000000000e+00) (0, 0, 0.00000000000000000000e+00) (0, 0, 0.00000000000000000000e+00) (0, 0, 0.00000000000000000000e+00) (0, 0, 0.00000000000000000000e+00) (0, 0, 0.00000000000000000000e+00) (0, 0, 0.00000000000000000000e+00) (0, 0, 0.00000000000000000000e+00) (0, 0, 0.00000000000000000000e+00) (0, 0, 0.00000000000000000000e+00) (0, 0, 0.00000000000000000000e+00) (0, 0, 0.00000000000000000000e+00) (0, 0, 0.00000000000000000000e+00) (0, 0, 0.00000000000000000000e+00) (0, 0, 0.00000000000000000000e+00) (0, 0, 0.00000000000000000000e+00) (0, 0, 0.00000000000000000000e+00) (0, 0, 0.00000000000000000000e+00) (0, 0, 0.00000000000000000000e+00) (0, 0, 0.00000000000000000000e+00) (0, 0, 0.00000000000000000000e+00) (0, 0, 0.00000000000000000000e+00) (0, 0, 0.00000000000000000000e+00) (0, 0, 0.00000000000000000000e+00) (0, 0, 0.00000000000000000000e+00) (0, 0, 0.00000000000000000000e+00) (0, 0, 0.00000000000000000000e+00) (0, 0, 0.00000000000000000000e+00) (0, 0, 0.00000000000000000000e+00) (0, 0, 0.00000000000000000000e+00) (0, 0, 0.00000000000000000000e+00) (0, 0, 0.00000000000000000000e+00) (0, 0, 0.00000000000000000000e+00) (0, 0, 0.00000000000000000000e+00) (0, 0, 0.00000000000000000000e+00) (0, 0, 0.00000000000000000000e+00) (0, 0, 0.00000000000000000000e+00) (0, 0, 0.00000000000000000000e+00) (0, 0, 0.00000000000000000000e+00) (0, 0, 0.00000000000000000000e+00) (0, 0, 0.00000000000000000000e+00) (0, 0, 0.00000000000000000000e+00) (0, 0, 0.00000000000000000000e+00) (0, 0, 0.00000000000000000000e+00) (0, 0, 0.00000000000000000000e+00) (0, 0, 0.00000000000000000000e+00) (0, 0, 0.00000000000000000000e+00) (0, 0, 0.00000000000000000000e+00) (0, 0, 0.00000000000000000000e+00) (0, 0, 0.00000000000000000000e+00) (0, 0, 0.00000000000000000000e+00) (0, 0, 0.00000000000000000000e+00) (0, 0, 0.00000000000000000000e+00) (0, 0, 0.00000000000000000000e+00) (0, 0, 0.00000000000000000000e+00) (0, 0, 0.00000000000000000000e+00) (0, 0, 0.00000000000000000000e+00) (0, 0, 0.00000000000000000000e+00) (0, 0, 0.00000000000000000000e+00) (0, 0, 0.00000000000000000000e+00) (0, 0, 0.00000000000000000000e+00) (0, 0, 0.00000000000000000000e+00) (0, 0, 0.00000000000000000000e+00) (0, 0, 0.00000000000000000000e+00) (0, 0, 0.00000000000000000000e+00) (0, 0, 0.00000000000000000000e+00) (0, 0, 0.00000000000000000000e+00) (0, 0, 0.00000000000000000000e+00) (0, 0, 0.00000000000000000000e+00) (0, 0, 0.00000000000000000000e+00) (0, 0, 0.00000000000000000000e+00) (0, 0, 0.00000000000000000000e+00) (0, 0, 0.00000000000000000000e+00) (0, 0, 0.00000000000000000000e+00) (0, 0, 0.00000000000000000000e+00) (0, 0, 0.00000000000000000000e+00) (0, 0, 0.00000000000000000000e+00) (0, 0, 0.00000000000000000000e+00) (0, 0, 0.00000000000000000000e+00) (0, 0, 0.00000000000000000000e+00) (0, 0, 0.00000000000000000000e+00) (0, 0, 0.00000000000000000000e+00) (0, 0, 0.00000000000000000000e+00) (0, 0, 0.00000000000000000000e+00) (0, 0, 0.00000000000000000000e+00) (0, 0, 0.00000000000000000000e+00) (0, 0, 0.00000000000000000000e+00) (0, 0, 0.00000000000000000000e+00) (0, 0, 0.00000000000000000000e+00) (0, 0, 0.00000000000000000000e+00) (0, 0, 0.00000000000000000000e+00) (0, 0, 0.00000000000000000000e+00) (0, 0, 0.00000000000000000000e+00) (0, 0, 0.00000000000000000000e+00) (0, 0, 0.00000000000000000000e+00) (0, 0, 0.00000000000000000000e+00) (0, 0, 0.00000000000000000000e+00) (0, 0, 0.00000000000000000000e+00) (0, 0, 0.00000000000000000000e+00) (0, 0, 0.00000000000000000000e+00) (0, 0, 0.00000000000000000000e+00) (0, 0, 0.00000000000000000000e+00) (0, 0, 0.00000000000000000000e+00) (0, 0, 0.00000000000000000000e+00) (0, 0, 0.00000000000000000000e+00) (0, 0, 0.00000000000000000000e+00) (0, 0, 0.00000000000000000000e+00) (0, 0, 0.00000000000000000000e+00) (0, 0, 0.00000000000000000000e+00) (0, 0, 0.00000000000000000000e+00) (0, 0, 0.00000000000000000000e+00) (0, 0, 0.00000000000000000000e+00) (0, 0, 0.00000000000000000000e+00) (0, 0, 0.00000000000000000000e+00) (0, 0, 0.00000000000000000000e+00) (0, 0, 0.00000000000000000000e+00) (0, 0, 0.00000000000000000000e+00) (0, 0, 0.00000000000000000000e+00) (0, 0, 0.00000000000000000000e+00) (0, 0, 0.00000000000000000000e+00) (0, 0, 0.00000000000000000000e+00) (0, 0, 0.00000000000000000000e+00) (0, 0, 0.00000000000000000000e+00) (0, 0, 0.00000000000000000000e+00) (0, 0, 0.00000000000000000000e+00) (0, 0, 0.00000000000000000000e+00) (0, 0, 0.00000000000000000000e+00) (0, 0, 0.00000000000000000000e+00) (0, 0, 0.00000000000000000000e+00) (0, 0, 0.00000000000000000000e+00) (0, 0, 0.00000000000000000000e+00) (0, 0, 0.00000000000000000000e+00) (0, 0, 0.00000000000000000000e+00) (0, 0, 0.00000000000000000000e+00) (0, 0, 0.00000000000000000000e+00) (0, 0, 0.00000000000000000000e+00) (0, 0, 0.00000000000000000000e+00) (0, 0, 0.00000000000000000000e+00) (0, 0, 0.00000000000000000000e+00) (0, 0, 0.00000000000000000000e+00) (0, 0, 0.00000000000000000000e+00) (0, 0, 0.00000000000000000000e+00) (0, 0, 0.00000000000000000000e+00) (0, 0, 0.00000000000000000000e+00) (0, 0, 0.00000000000000000000e+00) (0, 0, 0.00000000000000000000e+00) (0, 0, 0.00000000000000000000e+00) (0, 0, 0.00000000000000000000e+00) (0, 0, 0.00000000000000000000e+00) (0, 0, 0.00000000000000000000e+00) (0, 0, 0.00000000000000000000e+00) (0, 0, 0.00000000000000000000e+00) (0, 0, 0.00000000000000000000e+00) (0, 0, 0.00000000000000000000e+00) (0, 0, 0.00000000000000000000e+00) (0, 0, 0.00000000000000000000e+00) (0, 0, 0.00000000000000000000e+00) (0, 0, 0.00000000000000000000e+00) (0, 0, 0.00000000000000000000e+00) (0, 0, 0.00000000000000000000e+00) (0, 0, 0.00000000000000000000e+00) (0, 0, 0.00000000000000000000e+00) (0, 0, 0.00000000000000000000e+00) (0, 0, 0.00000000000000000000e+00) (0, 0, 0.00000000000000000000e+00) (0, 0, 0.00000000000000000000e+00) (0, 0, 0.00000000000000000000e+00) (0, 0, 0.00000000000000000000e+00) (0, 0, 0.00000000000000000000e+00) (0, 0, 0.00000000000000000000e+00) (0, 0, 0.00000000000000000000e+00) (0, 0, 0.00000000000000000000e+00) (0, 0, 0.00000000000000000000e+00) (0, 0, 0.00000000000000000000e+00) (0, 0, 0.00000000000000000000e+00) (0, 0, 0.00000000000000000000e+00) (0, 0, 0.00000000000000000000e+00) (0, 0, 0.00000000000000000000e+00) (0, 0, 0.00000000000000000000e+00) (0, 0, 0.00000000000000000000e+00) (0, 0, 0.00000000000000000000e+00) (0, 0, 0.00000000000000000000e+00) (0, 0, 0.00000000000000000000e+00) (0, 0, 0.00000000000000000000e+00) (0, 0, 0.00000000000000000000e+00) (0, 0, 0.00000000000000000000e+00) (0, 0, 0.00000000000000000000e+00) (0, 0, 0.00000000000000000000e+00) (0, 0, 0.00000000000000000000e+00) (0, 0, 0.00000000000000000000e+00) (0, 0, 0.00000000000000000000e+00) (0, 0, 0.00000000000000000000e+00) (0, 0, 0.00000000000000000000e+00) (0, 0, 0.00000000000000000000e+00) (0, 0, 0.00000000000000000000e+00) (0, 0, 0.00000000000000000000e+00) (0, 0, 0.00000000000000000000e+00) (0, 0, 0.00000000000000000000e+00) (0, 0, 0.00000000000000000000e+00) (0, 0, 0.00000000000000000000e+00) (0, 0, 0.00000000000000000000e+00) (0, 0, 0.00000000000000000000e+00) (0, 0, 0.00000000000000000000e+00) (0, 0, 0.00000000000000000000e+00) (0, 0, 0.00000000000000000000e+00) (0, 0, 0.00000000000000000000e+00) (0, 0, 0.00000000000000000000e+00) (0, 0, 0.00000000000000000000e+00) (0, 0, 0.00000000000000000000e+00) (0, 0, 0.00000000000000000000e+00) (0, 0, 0.00000000000000000000e+00) (0, 0, 0.00000000000000000000e+00) (0, 0, 0.00000000000000000000e+00) (0, 0, 0.00000000000000000000e+00) (0, 0, 0.00000000000000000000e+00) (0, 0, 0.00000000000000000000e+00) (0, 0, 0.00000000000000000000e+00) (0, 0, 0.00000000000000000000e+00) (0, 0, 0.00000000000000000000e+00) (0, 0, 0.00000000000000000000e+00) (0, 0, 0.00000000000000000000e+00) (0, 0, 0.00000000000000000000e+00) (0, 0, 0.00000000000000000000e+00) (0, 0, 0.00000000000000000000e+00) (0, 0, 0.00000000000000000000e+00) (0, 0, 0.00000000000000000000e+00) (0, 0, 0.00000000000000000000e+00) (0, 0, 0.00000000000000000000e+00) (0, 0, 0.00000000000000000000e+00) (0, 0, 0.00000000000000000000e+00) (0, 0, 0.00000000000000000000e+00) (0, 0, 0.00000000000000000000e+00) (0, 0, 0.00000000000000000000e+00) (0, 0, 0.00000000000000000000e+00) (0, 0, 0.00000000000000000000e+00) (0, 0, 0.00000000000000000000e+00) (0, 0, 0.00000000000000000000e+00) (0, 0, 0.00000000000000000000e+00) (0, 0, 0.00000000000000000000e+00) (0, 0, 0.00000000000000000000e+00) (0, 0, 0.00000000000000000000e+00) (0, 0, 0.00000000000000000000e+00) (0, 0, 0.00000000000000000000e+00) (0, 0, 0.00000000000000000000e+00) (0, 0, 0.00000000000000000000e+00) (0, 0, 0.00000000000000000000e+00) (0, 0, 0.00000000000000000000e+00) (0, 0, 0.00000000000000000000e+00) (0, 0, 0.00000000000000000000e+00) (0, 0, 0.00000000000000000000e+00) (0, 0, 0.00000000000000000000e+00) (0, 0, 0.00000000000000000000e+00) (0, 0, 0.00000000000000000000e+00) (0, 0, 0.00000000000000000000e+00) (0, 0, 0.00000000000000000000e+00) (0, 0, 0.00000000000000000000e+00) (0, 0, 0.00000000000000000000e+00) (0, 0, 0.00000000000000000000e+00) (0, 0, 0.00000000000000000000e+00) (0, 0, 0.00000000000000000000e+00) (0, 0, 0.00000000000000000000e+00) (0, 0, 0.00000000000000000000e+00) (0, 0, 0.00000000000000000000e+00) (0, 0, 0.00000000000000000000e+00) (0, 0, 0.00000000000000000000e+00) (0, 0, 0.00000000000000000000e+00) (0, 0, 0.00000000000000000000e+00) (0, 0, 0.00000000000000000000e+00) (0, 0, 0.00000000000000000000e+00) (0, 0, 0.00000000000000000000e+00) (0, 0, 0.00000000000000000000e+00) (0, 0, 0.00000000000000000000e+00) (0, 0, 0.00000000000000000000e+00) (0, 0, 0.00000000000000000000e+00) (0, 0, 0.00000000000000000000e+00) (0, 0, 0.00000000000000000000e+00) (0, 0, 0.00000000000000000000e+00) (0, 0, 0.00000000000000000000e+00) (0, 0, 0.00000000000000000000e+00) (0, 0, 0.00000000000000000000e+00) (0, 0, 0.00000000000000000000e+00) (0, 0, 0.00000000000000000000e+00) (0, 0, 0.00000000000000000000e+00) (0, 0, 0.00000000000000000000e+00) (0, 0, 0.00000000000000000000e+00) (0, 0, 0.00000000000000000000e+00) (0, 0, 0.00000000000000000000e+00) (0, 0, 0.00000000000000000000e+00) (0, 0, 0.00000000000000000000e+00) (0, 0, 0.00000000000000000000e+00) (0, 0, 0.00000000000000000000e+00) (0, 0, 0.00000000000000000000e+00) (0, 0, 0.00000000000000000000e+00) (0, 0, 0.00000000000000000000e+00) (0, 0, 0.00000000000000000000e+00) (0, 0, 0.00000000000000000000e+00) (0, 0, 0.00000000000000000000e+00) (0, 0, 0.00000000000000000000e+00) (0, 0, 0.00000000000000000000e+00) (0, 0, 0.00000000000000000000e+00) (0, 0, 0.00000000000000000000e+00) (0, 0, 0.00000000000000000000e+00) (0, 0, 0.00000000000000000000e+00) (0, 0, 0.00000000000000000000e+00) (0, 0, 0.00000000000000000000e+00) (0, 0, 0.00000000000000000000e+00) (0, 0, 0.00000000000000000000e+00) (0, 0, 0.00000000000000000000e+00) (0, 0, 0.00000000000000000000e+00) (0, 0, 0.00000000000000000000e+00) (0, 0, 0.00000000000000000000e+00) (0, 0, 0.00000000000000000000e+00) (0, 0, 0.00000000000000000000e+00) (0, 0, 0.00000000000000000000e+00) (0, 0, 0.00000000000000000000e+00) (0, 0, 0.00000000000000000000e+00) (0, 0, 0.00000000000000000000e+00) (0, 0, 0.00000000000000000000e+00) (0, 0, 0.00000000000000000000e+00) (0, 0, 0.00000000000000000000e+00) (0, 0, 0.00000000000000000000e+00) (0, 0, 0.00000000000000000000e+00) (0, 0, 0.00000000000000000000e+00) (0, 0, 0.00000000000000000000e+00) (0, 0, 0.00000000000000000000e+00) (0, 0, 0.00000000000000000000e+00) (0, 0, 0.00000000000000000000e+00) (0, 0, 0.00000000000000000000e+00) (0, 0, 0.00000000000000000000e+00) (0, 0, 0.00000000000000000000e+00) (0, 0, 0.00000000000000000000e+00) (0, 0, 0.00000000000000000000e+00) (0, 0, 0.00000000000000000000e+00) (0, 0, 0.00000000000000000000e+00) (0, 0, 0.00000000000000000000e+00) (0, 0, 0.00000000000000000000e+00) (0, 0, 0.00000000000000000000e+00) (0, 0, 0.00000000000000000000e+00) (0, 0, 0.00000000000000000000e+00) (0, 0, 0.00000000000000000000e+00) (0, 0, 0.00000000000000000000e+00) (0, 0, 0.00000000000000000000e+00) (0, 0, 0.00000000000000000000e+00) (0, 0, 0.00000000000000000000e+00) (0, 0, 0.00000000000000000000e+00) (0, 0, 0.00000000000000000000e+00) (0, 0, 0.00000000000000000000e+00) (0, 0, 0.00000000000000000000e+00) (0, 0, 0.00000000000000000000e+00) (0, 0, 0.00000000000000000000e+00) (0, 0, 0.00000000000000000000e+00) (0, 0, 0.00000000000000000000e+00) (0, 0, 0.00000000000000000000e+00) (0, 0, 0.00000000000000000000e+00) (0, 0, 0.00000000000000000000e+00) (0, 0, 0.00000000000000000000e+00) (0, 0, 0.00000000000000000000e+00) (0, 0, 0.00000000000000000000e+00) (0, 0, 0.00000000000000000000e+00) (0, 0, 0.00000000000000000000e+00) (0, 0, 0.00000000000000000000e+00) (0, 0, 0.00000000000000000000e+00) (0, 0, 0.00000000000000000000e+00) (0, 0, 0.00000000000000000000e+00) (0, 0, 0.00000000000000000000e+00) (0, 0, 0.00000000000000000000e+00) (0, 0, 0.00000000000000000000e+00) (0, 0, 0.00000000000000000000e+00) (0, 0, 0.00000000000000000000e+00) (0, 0, 0.00000000000000000000e+00) (0, 0, 0.00000000000000000000e+00) (0, 0, 0.00000000000000000000e+00) (0, 0, 0.00000000000000000000e+00) (0, 0, 0.00000000000000000000e+00) (0, 0, 0.00000000000000000000e+00) (0, 0, 0.00000000000000000000e+00) (0, 0, 0.00000000000000000000e+00) (0, 0, 0.00000000000000000000e+00) (0, 0, 0.00000000000000000000e+00) (0, 0, 0.00000000000000000000e+00) (0, 0, 0.00000000000000000000e+00) (0, 0, 0.00000000000000000000e+00) (0, 0, 0.00000000000000000000e+00) (0, 0, 0.00000000000000000000e+00) (0, 0, 0.00000000000000000000e+00) (0, 0, 0.00000000000000000000e+00) (0, 0, 0.00000000000000000000e+00) (0, 0, 0.00000000000000000000e+00) (0, 0, 0.00000000000000000000e+00) (0, 0, 0.00000000000000000000e+00) (0, 0, 0.00000000000000000000e+00) (0, 0, 0.00000000000000000000e+00) (0, 0, 0.00000000000000000000e+00) (0, 0, 0.00000000000000000000e+00) (0, 0, 0.00000000000000000000e+00) (0, 0, 0.00000000000000000000e+00) (0, 0, 0.00000000000000000000e+00) (0, 0, 0.00000000000000000000e+00) (0, 0, 0.00000000000000000000e+00) (0, 0, 0.00000000000000000000e+00) (0, 0, 0.00000000000000000000e+00) (0, 0, 0.00000000000000000000e+00) (0, 0, 0.00000000000000000000e+00) (0, 0, 0.00000000000000000000e+00) (0, 0, 0.00000000000000000000e+00) (0, 0, 0.00000000000000000000e+00) (0, 0, 0.00000000000000000000e+00) (0, 0, 0.00000000000000000000e+00) (0, 0, 0.00000000000000000000e+00) (0, 0, 0.00000000000000000000e+00) (0, 0, 0.00000000000000000000e+00) (0, 0, 0.00000000000000000000e+00) (0, 0, 0.00000000000000000000e+00) (0, 0, 0.00000000000000000000e+00) (0, 0, 0.00000000000000000000e+00) (0, 0, 0.00000000000000000000e+00) (0, 0, 0.00000000000000000000e+00) (0, 0, 0.00000000000000000000e+00) (0, 0, 0.00000000000000000000e+00) (0, 0, 0.00000000000000000000e+00) (0, 0, 0.00000000000000000000e+00) (0, 0, 0.00000000000000000000e+00) (0, 0, 0.00000000000000000000e+00) (0, 0, 0.00000000000000000000e+00) (0, 0, 0.00000000000000000000e+00) (0, 0, 0.00000000000000000000e+00) (0, 0, 0.00000000000000000000e+00) (0, 0, 0.00000000000000000000e+00) (0, 0, 0.00000000000000000000e+00) (0, 0, 0.00000000000000000000e+00) (0, 0, 0.00000000000000000000e+00) (0, 0, 0.00000000000000000000e+00) (0, 0, 0.00000000000000000000e+00) (0, 0, 0.00000000000000000000e+00) (0, 0, 0.00000000000000000000e+00) (0, 0, 0.00000000000000000000e+00) (0, 0, 0.00000000000000000000e+00) (0, 0, 0.00000000000000000000e+00) (0, 0, 0.00000000000000000000e+00) (0, 0, 0.00000000000000000000e+00) (0, 0, 0.00000000000000000000e+00) (0, 0, 0.00000000000000000000e+00) (785, 4, 5.00000000000000000000e-01) (785, 4, 5.00000000000000000000e-01) (785, 4, 5.00000000000000000000e-01) (785, 4, 5.00000000000000000000e-01) (785, 4, 5.00000000000000000000e-01) (785, 4, 5.00000000000000000000e-01) (785, 4, 5.00000000000000000000e-01) (785, 4, 5.00000000000000000000e-01) (785, 4, 5.00000000000000000000e-01) (785, 4, 5.00000000000000000000e-01) (785, 4, 5.00000000000000000000e-01) (785, 4, 5.00000000000000000000e-01) (785, 4, 5.00000000000000000000e-01) (785, 4, 5.00000000000000000000e-01) (785, 4, 5.00000000000000000000e-01) (785, 4, 5.00000000000000000000e-01) (785, 4, 5.00000000000000000000e-01) (785, 4, 5.00000000000000000000e-01) (785, 4, 5.00000000000000000000e-01) (785, 4, 5.00000000000000000000e-01) (785, 4, 5.00000000000000000000e-01) (785, 4, 5.00000000000000000000e-01) (785, 4, 5.00000000000000000000e-01) (785, 4, 5.00000000000000000000e-01) (785, 4, 5.00000000000000000000e-01) (785, 4, 5.00000000000000000000e-01) (785, 4, 5.00000000000000000000e-01) (785, 4, 5.00000000000000000000e-01) (785, 4, 5.00000000000000000000e-01) (785, 4, 5.00000000000000000000e-01) (785, 4, 5.00000000000000000000e-01) (785, 4, 5.00000000000000000000e-01) (785, 4, 5.00000000000000000000e-01) (785, 4, 5.00000000000000000000e-01) (785, 4, 5.00000000000000000000e-01) (785, 4, 5.00000000000000000000e-01) (785, 4, 5.00000000000000000000e-01) (785, 4, 5.00000000000000000000e-01) (785, 4, 5.00000000000000000000e-01) (785, 4, 5.00000000000000000000e-01) (785, 4, 5.00000000000000000000e-01) (785, 4, 5.00000000000000000000e-01) (785, 4, 5.00000000000000000000e-01) (785, 4, 5.00000000000000000000e-01) (785, 4, 5.00000000000000000000e-01) (0, 0, 0.00000000000000000000e+00) (46, 3, 5.00000000000000000000e-01) (46, 3, 5.00000000000000000000e-01) (46, 3, 5.00000000000000000000e-01) (46, 3, 5.00000000000000000000e-01) (46, 3, 5.00000000000000000000e-01) (46, 3, 5.00000000000000000000e-01) (46, 3, 5.00000000000000000000e-01) (46, 3, 5.00000000000000000000e-01) (46, 3, 5.00000000000000000000e-01) (46, 3, 5.00000000000000000000e-01) (0, 3, 0.00000000000000000000e+00) 
connections (connected_to_neuron, weight)=(0, 1.50000000000000000000e+03) (1, 1.50000000000000000000e+03) (2, 1.50000000000000000000e+03) (3, 1.50000000000000000000e+03) (4, 1.50000000000000000000e+03) (5, 1.50000000000000000000e+03) (6, 1.50000000000000000000e+03) (7, 1.50000000000000000000e+03) (8, 1.50000000000000000000e+03) (9, 1.50000000000000000000e+03) (10, 1.50000000000000000000e+03) (11, 1.50000000000000000000e+03) (12, 1.50000000000000000000e+03) (13, 1.39122338867187500000e+03) (14, -1.45000000000000000000e+03) (15, -1.45000000000000000000e+03) (16, 1.50000000000000000000e+03) (17, 1.50000000000000000000e+03) (18, 1.50000000000000000000e+03) (19, 1.50000000000000000000e+03) (20, 1.50000000000000000000e+03) (21, 1.50000000000000000000e+03) (22, 1.50000000000000000000e+03) (23, 1.50000000000000000000e+03) (24, 1.50000000000000000000e+03) (25, 1.50000000000000000000e+03) (26, 1.50000000000000000000e+03) (27, 1.50000000000000000000e+03) (28, 1.50000000000000000000e+03) (29, 1.50000000000000000000e+03) (30, 1.50000000000000000000e+03) (31, 1.50000000000000000000e+03) (32, 1.50000000000000000000e+03) (33, 1.50000000000000000000e+03) (34, 1.50000000000000000000e+03) (35, 1.50000000000000000000e+03) (36, 1.50000000000000000000e+03) (37, 1.50000000000000000000e+03) (38, 1.50000000000000000000e+03) (39, -1.45596520996093750000e+03) (40, -1.50000000000000000000e+03) (41, -1.16982238769531250000e+03) (42, 1.50000000000000000000e+03) (43, 7.58566772460937500000e+02) (44, -1.10850732421875000000e+03) (45, -1.09167114257812500000e+02) (46, 1.50000000000000000000e+03) (47, 1.50000000000000000000e+03) (48, 1.50000000000000000000e+03) (49, 1.50000000000000000000e+03) (50, 1.50000000000000000000e+03) (51, 1.50000000000000000000e+03) (52, 1.50000000000000000000e+03) (53, 1.50000000000000000000e+03) (54, 1.50000000000000000000e+03) (55, 1.50000000000000000000e+03) (56, 1.50000000000000000000e+03) (57, 1.50000000000000000000e+03) (58, 1.50000000000000000000e+03) (59, -1.50000000000000000000e+03) (60, -2.27938537597656250000e+02) (61, 1.50000000000000000000e+03) (62, 1.50000000000000000000e+03) (63, -6.43399902343750000000e+02) (64, 1.39080004882812500000e+03) (65, 1.50000000000000000000e+03) (66, 1.50000000000000000000e+03) (67, 1.50000000000000000000e+03) (68, 1.50000000000000000000e+03) (69, 1.50000000000000000000e+03) (70, 1.50000000000000000000e+03) (71, 1.50000000000000000000e+03) (72, 1.50000000000000000000e+03) (73, 1.50000000000000000000e+03) (74, 1.50000000000000000000e+03) (75, 1.50000000000000000000e+03) (76, 1.50000000000000000000e+03) (77, 1.50000000000000000000e+03) (78, 1.50000000000000000000e+03) (79, 1.50000000000000000000e+03) (80, 1.50000000000000000000e+03) (81, 6.84199951171875000000e+02) (82, 1.50000000000000000000e+03) (83, 1.50000000000000000000e+03) (84, 1.50000000000000000000e+03) (85, 1.50000000000000000000e+03) (86, -1.49032543945312500000e+03) (87, -1.50000000000000000000e+03) (88, -7.93399963378906250000e+02) (89, 1.50000000000000000000e+03) (90, 1.50000000000000000000e+03) (91, 1.50000000000000000000e+03) (92, 1.50000000000000000000e+03) (93, 1.50000000000000000000e+03) (94, 1.50000000000000000000e+03) (95, 1.50000000000000000000e+03) (96, 1.50000000000000000000e+03) (97, 1.50000000000000000000e+03) (98, 1.50000000000000000000e+03) (99, 1.20260119628906250000e+03) (100, 9.25853027343750000000e+02) (101, 1.50000000000000000000e+03) (102, 1.50000000000000000000e+03) (103, 1.50000000000000000000e+03) (104, 1.50000000000000000000e+03) (105, 1.50000000000000000000e+03) (106, 1.50000000000000000000e+03) (107, 1.50000000000000000000e+03) (108, 1.50000000000000000000e+03) (109, 1.50000000000000000000e+03) (110, 1.50000000000000000000e+03) (111, 1.50000000000000000000e+03) (112, 1.50000000000000000000e+03) (113, -1.50000000000000000000e+03) (114, 4.37953826904296875000e+02) (115, 1.50000000000000000000e+03) (116, 1.03294616699218750000e+03) (117, 1.50000000000000000000e+03) (118, 1.50000000000000000000e+03) (119, 1.50000000000000000000e+03) (120, 1.50000000000000000000e+03) (121, 1.49749633789062500000e+03) (122, 1.45397363281250000000e+03) (123, 8.60816833496093750000e+02) (124, -4.02138610839843750000e+02) (125, -1.16348852539062500000e+03) (126, 1.82526855468750000000e+01) (127, 1.34833251953125000000e+02) (128, 2.75171997070312500000e+02) (129, 1.00784680175781250000e+03) (130, 1.35752050781250000000e+03) (131, 1.50000000000000000000e+03) (132, 1.50000000000000000000e+03) (133, 1.50000000000000000000e+03) (134, 1.20659411621093750000e+03) (135, 1.50000000000000000000e+03) (136, 1.50000000000000000000e+03) (137, 1.50000000000000000000e+03) (138, 1.50000000000000000000e+03) (139, 1.50000000000000000000e+03) (140, 1.50000000000000000000e+03) (141, 1.50000000000000000000e+03) (142, 1.50000000000000000000e+03) (143, -1.43025427246093750000e+03) (144, 1.39002441406250000000e+03) (145, 1.50000000000000000000e+03) (146, 1.00074597167968750000e+03) (147, 1.50000000000000000000e+03) (148, 1.21286621093750000000e+03) (149, 1.21286621093750000000e+03) (150, 1.22669787597656250000e+03) (151, 7.27085754394531250000e+02) (152, -8.31872253417968750000e+02) (153, -1.50000000000000000000e+03) (154, -1.50000000000000000000e+03) (155, -1.50000000000000000000e+03) (156, -1.50000000000000000000e+03) (157, -1.50000000000000000000e+03) (158, -1.50000000000000000000e+03) (159, -3.82632507324218750000e+02) (160, 1.50000000000000000000e+03) (161, 1.30326818847656250000e+03) (162, 6.03587585449218750000e+02) (163, 9.42279235839843750000e+02) (164, 1.50000000000000000000e+03) (165, 1.50000000000000000000e+03) (166, 1.50000000000000000000e+03) (167, 1.19741333007812500000e+02) (168, 1.50000000000000000000e+03) (169, -1.50000000000000000000e+03) (170, 1.50000000000000000000e+03) (171, 1.50000000000000000000e+03) (172, 1.39523193359375000000e+03) (173, 4.58392547607421875000e+02) (174, 1.08241162109375000000e+03) (175, 1.19881481933593750000e+03) (176, 1.02238110351562500000e+03) (177, 1.44156140136718750000e+03) (178, 6.81069885253906250000e+02) (179, 3.48913024902343750000e+02) (180, -7.35253906250000000000e+02) (181, -1.50000000000000000000e+03) (182, -1.46959997558593750000e+03) (183, -1.44731970214843750000e+03) (184, -1.46453674316406250000e+03) (185, -1.50000000000000000000e+03) (186, -1.50000000000000000000e+03) (187, -1.39339794921875000000e+03) (188, -1.48946789550781250000e+03) (189, -4.64667419433593750000e+02) (190, -7.34062438964843750000e+02) (191, 9.64172058105468750000e+02) (192, 1.50000000000000000000e+03) (193, 1.50000000000000000000e+03) (194, 1.50000000000000000000e+03) (195, -1.28046008300781250000e+03) (196, 1.50000000000000000000e+03) (197, -1.50000000000000000000e+03) (198, 1.50000000000000000000e+03) (199, 1.50000000000000000000e+03) (200, 1.50000000000000000000e+03) (201, 1.27464807128906250000e+03) (202, 9.41953857421875000000e+02) (203, 1.26644372558593750000e+03) (204, 1.48500000000000000000e+03) (205, 1.12334729003906250000e+03) (206, 6.94164428710937500000e+02) (207, 7.07793395996093750000e+02) (208, -8.08829406738281250000e+02) (209, -1.20975817871093750000e+03) (210, -1.01605480957031250000e+03) (211, -1.47462377929687500000e+03) (212, -1.50000000000000000000e+03) (213, -1.50000000000000000000e+03) (214, -1.50000000000000000000e+03) (215, -1.45372143554687500000e+03) (216, -1.49992272949218750000e+03) (217, -1.48802282714843750000e+03) (218, 7.16952133178710937500e+01) (219, 1.16453942871093750000e+03) (220, 1.50000000000000000000e+03) (221, 1.50000000000000000000e+03) (222, 1.50000000000000000000e+03) (223, -1.50000000000000000000e+03) (224, -1.50000000000000000000e+03) (225, 1.50000000000000000000e+03) (226, 1.50000000000000000000e+03) (227, 1.50000000000000000000e+03) (228, 1.50000000000000000000e+03) (229, 1.50000000000000000000e+03) (230, 1.50000000000000000000e+03) (231, 1.50000000000000000000e+03) (232, 1.49223669433593750000e+03) (233, 1.24813916015625000000e+03) (234, 8.84842712402343750000e+02) (235, -7.52415039062500000000e+02) (236, 8.09340759277343750000e+02) (237, -1.15636462402343750000e+03) (238, -7.22373046875000000000e+02) (239, -1.48022424316406250000e+03) (240, -1.50000000000000000000e+03) (241, -1.50000000000000000000e+03) (242, -1.50000000000000000000e+03) (243, -1.46593603515625000000e+03) (244, -1.49450097656250000000e+03) (245, -1.45855322265625000000e+03) (246, -7.26226318359375000000e+02) (247, 1.50000000000000000000e+03) (248, 1.50000000000000000000e+03) (249, 1.50000000000000000000e+03) (250, 1.50000000000000000000e+03) (251, 1.50000000000000000000e+03) (252, 1.50000000000000000000e+03) (253, 1.50000000000000000000e+03) (254, -1.50000000000000000000e+03) (255, 1.50000000000000000000e+03) (256, 1.50000000000000000000e+03) (257, 1.50000000000000000000e+03) (258, 1.50000000000000000000e+03) (259, 1.50000000000000000000e+03) (260, 1.33607653808593750000e+03) (261, 1.38392932128906250000e+03) (262, -1.84996292114257812500e+02) (263, 1.32688317871093750000e+03) (264, 7.10104797363281250000e+02) (265, -6.81373413085937500000e+02) (266, -1.09759362792968750000e+03) (267, -1.32318127441406250000e+03) (268, -1.50000000000000000000e+03) (269, -1.50000000000000000000e+03) (270, -1.50000000000000000000e+03) (271, -1.50000000000000000000e+03) (272, -7.26127563476562500000e+02) (273, -4.19895111083984375000e+02) (274, -1.03276843261718750000e+03) (275, -6.91715942382812500000e+02) (276, 1.50000000000000000000e+03) (277, 1.50000000000000000000e+03) (278, 1.50000000000000000000e+03) (279, 1.50000000000000000000e+03) (280, 1.50000000000000000000e+03) (281, 1.50000000000000000000e+03) (282, -1.50000000000000000000e+03) (283, 1.50000000000000000000e+03) (284, 1.50000000000000000000e+03) (285, 1.50000000000000000000e+03) (286, 1.50000000000000000000e+03) (287, 1.45743188476562500000e+03) (288, 9.90989013671875000000e+02) (289, 2.85094726562500000000e+02) (290, 1.03287658691406250000e+03) (291, 1.49099230957031250000e+03) (292, 5.58482421875000000000e+02) (293, -1.25766821289062500000e+03) (294, 1.84708160400390625000e+02) (295, 2.06674926757812500000e+02) (296, -6.16452209472656250000e+02) (297, -1.50000000000000000000e+03) (298, -1.50000000000000000000e+03) (299, -1.50000000000000000000e+03) (300, -1.50000000000000000000e+03) (301, -1.50000000000000000000e+03) (302, -1.50000000000000000000e+03) (303, -1.50000000000000000000e+03) (304, -5.45061340332031250000e+02) (305, 1.50000000000000000000e+03) (306, 1.50000000000000000000e+03) (307, 1.50000000000000000000e+03) (308, 1.50000000000000000000e+03) (309, -1.50000000000000000000e+03) (310, 1.50000000000000000000e+03) (311, 1.50000000000000000000e+03) (312, 1.50000000000000000000e+03) (313, 1.50000000000000000000e+03) (314, -6.86720153808593750000e+02) (315, -1.37998327636718750000e+03) (316, 1.46810192871093750000e+03) (317, 1.39863476562500000000e+03) (318, 1.28415722656250000000e+03) (319, 1.00529284667968750000e+03) (320, -1.33910290527343750000e+03) (321, 1.48500000000000000000e+03) (322, 1.50000000000000000000e+03) (323, 1.50000000000000000000e+03) (324, 1.50000000000000000000e+03) (325, 1.46031225585937500000e+03) (326, -1.04517077636718750000e+03) (327, -1.50000000000000000000e+03) (328, -1.50000000000000000000e+03) (329, -1.50000000000000000000e+03) (330, -1.50000000000000000000e+03) (331, -1.50000000000000000000e+03) (332, -1.50000000000000000000e+03) (333, 1.50000000000000000000e+03) (334, 1.50000000000000000000e+03) (335, 1.50000000000000000000e+03) (336, 1.50000000000000000000e+03) (337, 7.34199951171875000000e+02) (338, 1.50000000000000000000e+03) (339, 1.50000000000000000000e+03) (340, 1.50000000000000000000e+03) (341, -1.13950366210937500000e+03) (342, -1.50000000000000000000e+03) (343, -1.50000000000000000000e+03) (344, 1.49388708496093750000e+03) (345, 9.93521057128906250000e+02) (346, -1.41279370117187500000e+03) (347, -1.50000000000000000000e+03) (348, 1.01714666748046875000e+03) (349, 1.50000000000000000000e+03) (350, 1.50000000000000000000e+03) (351, 1.50000000000000000000e+03) (352, 1.50000000000000000000e+03) (353, 1.50000000000000000000e+03) (354, 1.32500878906250000000e+03) (355, -1.49429064941406250000e+03) (356, -1.48019995117187500000e+03) (357, -1.50000000000000000000e+03) (358, -1.50000000000000000000e+03) (359, -1.50000000000000000000e+03) (360, -1.50000000000000000000e+03) (361, -1.27958959960937500000e+03) (362, 1.50000000000000000000e+03) (363, 1.50000000000000000000e+03) (364, 3.61600097656250000000e+02) (365, -1.50000000000000000000e+03) (366, 9.56300354003906250000e+01) (367, 1.50000000000000000000e+03) (368, 1.50000000000000000000e+03) (369, -1.50000000000000000000e+03) (370, -1.50000000000000000000e+03) (371, -1.50000000000000000000e+03) (372, -1.49998852539062500000e+03) (373, -1.50000000000000000000e+03) (374, -1.50000000000000000000e+03) (375, -1.50000000000000000000e+03) (376, 1.48752038574218750000e+03) (377, 1.50000000000000000000e+03) (378, 1.50000000000000000000e+03) (379, 1.50000000000000000000e+03) (380, 1.50000000000000000000e+03) (381, 1.50000000000000000000e+03) (382, 1.28457604980468750000e+03) (383, 4.82510925292968750000e+02) (384, -1.69694213867187500000e+02) (385, -1.44117565917968750000e+03) (386, -1.50000000000000000000e+03) (387, -1.50000000000000000000e+03) (388, -1.50000000000000000000e+03) (389, -3.28161437988281250000e+02) (390, 1.50000000000000000000e+03) (391, 2.89593383789062500000e+02) (392, -5.52795166015625000000e+02) (393, 1.50000000000000000000e+03) (394, 1.50000000000000000000e+03) (395, 1.50000000000000000000e+03) (396, 1.50000000000000000000e+03) (397, -1.50000000000000000000e+03) (398, -1.50000000000000000000e+03) (399, -1.50000000000000000000e+03) (400, -1.50000000000000000000e+03) (401, -1.50000000000000000000e+03) (402, -1.50000000000000000000e+03) (403, -1.49822900390625000000e+03) (404, 1.50000000000000000000e+03) (405, 1.50000000000000000000e+03) (406, 1.50000000000000000000e+03) (407, 1.50000000000000000000e+03) (408, 1.50000000000000000000e+03) (409, 1.50000000000000000000e+03) (410, 4.10434539794921875000e+02) (411, -1.50000000000000000000e+03) (412, 4.03561925888061523438e+00) (413, -1.30811535644531250000e+03) (414, -1.50000000000000000000e+03) (415, -1.50000000000000000000e+03) (416, -1.50000000000000000000e+03) (417, 6.22938537597656250000e+02) (418, 1.50000000000000000000e+03) (419, 3.03925170898437500000e+02) (420, 7.88738586425781250000e+02) (421, -1.50000000000000000000e+03) (422, -1.84631042480468750000e+01) (423, 1.50000000000000000000e+03) (424, -1.30822607421875000000e+03) (425, -1.50000000000000000000e+03) (426, -1.50000000000000000000e+03) (427, -1.50000000000000000000e+03) (428, -1.50000000000000000000e+03) (429, -1.50000000000000000000e+03) (430, -1.50000000000000000000e+03) (431, 1.49458068847656250000e+03) (432, 1.50000000000000000000e+03) (433, 1.50000000000000000000e+03) (434, 1.50000000000000000000e+03) (435, 1.50000000000000000000e+03) (436, 1.50000000000000000000e+03) (437, 1.35759094238281250000e+03) (438, -1.50000000000000000000e+03) (439, -1.50000000000000000000e+03) (440, -1.38979223632812500000e+03) (441, -6.49839843750000000000e+02) (442, -1.50000000000000000000e+03) (443, -1.50000000000000000000e+03) (444, -1.50000000000000000000e+03) (445, 1.50000000000000000000e+03) (446, 1.50000000000000000000e+03) (447, 1.50000000000000000000e+03) (448, 1.50000000000000000000e+03) (449, -1.50000000000000000000e+03) (450, -8.61050048828125000000e+02) (451, 1.50000000000000000000e+03) (452, -1.50000000000000000000e+03) (453, -1.50000000000000000000e+03) (454, -1.50000000000000000000e+03) (455, -1.50000000000000000000e+03) (456, -1.50000000000000000000e+03) (457, -1.50000000000000000000e+03) (458, -1.50000000000000000000e+03) (459, 1.49860229492187500000e+03) (460, 1.50000000000000000000e+03) (461, 1.50000000000000000000e+03) (462, 1.50000000000000000000e+03) (463, 1.50000000000000000000e+03) (464, 1.50000000000000000000e+03) (465, 5.07610351562500000000e+02) (466, -1.50000000000000000000e+03) (467, -1.50000000000000000000e+03) (468, -1.25579223632812500000e+03) (469, -1.25442907714843750000e+03) (470, -1.50000000000000000000e+03) (471, -1.50000000000000000000e+03) (472, -1.50000000000000000000e+03) (473, 1.50000000000000000000e+03) (474, 1.50000000000000000000e+03) (475, 2.97675292968750000000e+02) (476, 1.50000000000000000000e+03) (477, -1.50000000000000000000e+03) (478, 1.50000000000000000000e+03) (479, 1.50000000000000000000e+03) (480, -1.27112207031250000000e+03) (481, -1.50000000000000000000e+03) (482, -1.50000000000000000000e+03) (483, -1.50000000000000000000e+03) (484, -1.50000000000000000000e+03) (485, -1.50000000000000000000e+03) (486, -1.50000000000000000000e+03) (487, 1.48539123535156250000e+03) (488, 1.50000000000000000000e+03) (489, 1.50000000000000000000e+03) (490, 1.50000000000000000000e+03) (491, 1.50000000000000000000e+03) (492, 1.46108312988281250000e+03) (493, -1.50000000000000000000e+03) (494, -1.50000000000000000000e+03) (495, -2.11232910156250000000e+02) (496, -9.89434082031250000000e+02) (497, -1.50000000000000000000e+03) (498, -1.50000000000000000000e+03) (499, -1.50000000000000000000e+03) (500, -1.50000000000000000000e+03) (501, 1.50000000000000000000e+03) (502, 1.50000000000000000000e+03) (503, -1.50000000000000000000e+03) (504, 1.50000000000000000000e+03) (505, -1.50000000000000000000e+03) (506, 1.43186145019531250000e+03) (507, 1.50000000000000000000e+03) (508, -1.31476513671875000000e+03) (509, -1.50000000000000000000e+03) (510, -1.50000000000000000000e+03) (511, -1.50000000000000000000e+03) (512, -1.50000000000000000000e+03) (513, -1.50000000000000000000e+03) (514, -1.50000000000000000000e+03) (515, -1.50000000000000000000e+03) (516, 1.48706750488281250000e+03) (517, 1.50000000000000000000e+03) (518, 1.48264501953125000000e+03) (519, 1.45039953613281250000e+03) (520, -4.91651687622070312500e+01) (521, -6.79094970703125000000e+02) (522, 1.58456359863281250000e+02) (523, -5.43794433593750000000e+02) (524, -1.43900000000000000000e+03) (525, -1.50000000000000000000e+03) (526, -1.50000000000000000000e+03) (527, 6.02884582519531250000e+02) (528, 5.01928894042968750000e+02) (529, 9.76491088867187500000e+02) (530, 1.30930151367187500000e+03) (531, -6.22565551757812500000e+02) (532, 1.50000000000000000000e+03) (533, -1.50000000000000000000e+03) (534, -1.50000000000000000000e+03) (535, 1.50000000000000000000e+03) (536, -1.50000000000000000000e+03) (537, -1.50000000000000000000e+03) (538, -1.50000000000000000000e+03) (539, -1.33860827636718750000e+03) (540, -1.36993420410156250000e+03) (541, -1.50000000000000000000e+03) (542, -1.50000000000000000000e+03) (543, -1.50000000000000000000e+03) (544, -1.37681420898437500000e+03) (545, 1.15091149902343750000e+03) (546, 1.33494165039062500000e+03) (547, 1.32238000488281250000e+03) (548, 1.28615185546875000000e+03) (549, 4.37904071807861328125e+00) (550, 1.06501660156250000000e+03) (551, 2.90113037109375000000e+02) (552, -1.00680651855468750000e+03) (553, -8.57834289550781250000e+02) (554, 1.41419250488281250000e+02) (555, 1.13399877929687500000e+03) (556, -5.59212158203125000000e+02) (557, 1.32054748535156250000e+02) (558, 5.01202453613281250000e+02) (559, 1.04604833984375000000e+03) (560, 1.50000000000000000000e+03) (561, -1.50000000000000000000e+03) (562, -1.50000000000000000000e+03) (563, 1.50000000000000000000e+03) (564, -1.50000000000000000000e+03) (565, -1.50000000000000000000e+03) (566, -1.50000000000000000000e+03) (567, -8.13748107910156250000e+02) (568, -5.39468017578125000000e+02) (569, -1.48447326660156250000e+03) (570, -1.50000000000000000000e+03) (571, -1.30121337890625000000e+03) (572, 9.86867065429687500000e+02) (573, 1.26826855468750000000e+03) (574, 1.46202612304687500000e+03) (575, 1.03422619628906250000e+03) (576, 4.16048919677734375000e+02) (577, 7.23931152343750000000e+02) (578, 5.81007568359375000000e+02) (579, 6.11276428222656250000e+02) (580, -7.91972637176513671875e+00) (581, 7.89414138793945312500e+01) (582, 7.66961730957031250000e+02) (583, 5.01928894042968750000e+02) (584, 1.47650903320312500000e+03) (585, 1.43239135742187500000e+03) (586, -6.59550659179687500000e+02) (587, 1.50000000000000000000e+03) (588, 2.29483337402343750000e+02) (589, -1.06580004882812500000e+03) (590, -1.50000000000000000000e+03) (591, 1.50000000000000000000e+03) (592, -7.30261352539062500000e+02) (593, -1.50000000000000000000e+03) (594, -1.38093115234375000000e+03) (595, -7.78691101074218750000e+02) (596, -3.55808319091796875000e+02) (597, -1.96067337036132812500e+02) (598, -1.35415332031250000000e+03) (599, -1.50000000000000000000e+03) (600, -1.45694006347656250000e+03) (601, -3.86846160888671875000e+02) (602, -1.41797778320312500000e+03) (603, 1.10083374023437500000e+03) (604, 5.07145416259765625000e+02) (605, 3.48913024902343750000e+02) (606, -2.23619094848632812500e+02) (607, 2.82483245849609375000e+02) (608, 8.22247680664062500000e+02) (609, 8.23381652832031250000e+02) (610, 8.18945495605468750000e+02) (611, 9.27097717285156250000e+02) (612, 2.33810607910156250000e+02) (613, -1.47733850097656250000e+03) (614, -1.50000000000000000000e+03) (615, -9.65800048828125000000e+02) (616, 2.29483337402343750000e+02) (617, -1.50000000000000000000e+03) (618, 1.72116027832031250000e+02) (619, 1.50000000000000000000e+03) (620, 6.83999633789062500000e+01) (621, -9.80840759277343750000e+02) (622, -1.41562854003906250000e+03) (623, -1.29827416992187500000e+03) (624, -1.40219128417968750000e+03) (625, -1.44702685546875000000e+03) (626, -1.46703320312500000000e+03) (627, -1.45908276367187500000e+03) (628, -1.41866784667968750000e+03) (629, -1.47953735351562500000e+03) (630, -1.50000000000000000000e+03) (631, -1.50000000000000000000e+03) (632, -1.50000000000000000000e+03) (633, -1.50000000000000000000e+03) (634, -1.49781298828125000000e+03) (635, -1.49730444335937500000e+03) (636, 1.29670446777343750000e+03) (637, 6.22974121093750000000e+02) (638, -1.50000000000000000000e+03) (639, -7.60629272460937500000e+01) (640, 1.44277172851562500000e+03) (641, -1.50000000000000000000e+03) (642, -1.50000000000000000000e+03) (643, -9.65800048828125000000e+02) (644, 1.50000000000000000000e+03) (645, 1.50000000000000000000e+03) (646, -1.50000000000000000000e+03) (647, 1.50000000000000000000e+03) (648, 1.50000000000000000000e+03) (649, -1.49588757324218750000e+03) (650, -8.14448547363281250000e+02) (651, -1.28337658691406250000e+03) (652, -6.09269470214843750000e+02) (653, -5.19747009277343750000e+02) (654, -7.70669616699218750000e+02) (655, -1.41013647460937500000e+03) (656, -1.50000000000000000000e+03) (657, -1.50000000000000000000e+03) (658, -1.50000000000000000000e+03) (659, -1.50000000000000000000e+03) (660, -1.48704003906250000000e+03) (661, -1.47088488769531250000e+03) (662, 1.38289416503906250000e+03) (663, 1.50000000000000000000e+03) (664, 1.49164123535156250000e+03) (665, -1.41183197021484375000e+02) (666, -1.50000000000000000000e+03) (667, -1.36551550292968750000e+03) (668, 1.50000000000000000000e+03) (669, -1.50000000000000000000e+03) (670, -1.50000000000000000000e+03) (671, 1.50000000000000000000e+03) (672, 1.50000000000000000000e+03) (673, 1.50000000000000000000e+03) (674, -1.50000000000000000000e+03) (675, -1.50000000000000000000e+03) (676, 9.61806884765625000000e+02) (677, 1.50000000000000000000e+03) (678, -7.76076354980468750000e+01) (679, -4.11884033203125000000e+02) (680, -1.21980871582031250000e+03) (681, -1.25294128417968750000e+03) (682, -1.03532617187500000000e+03) (683, -1.18553625488281250000e+03) (684, -1.07699499511718750000e+03) (685, -8.65940780639648437500e+01) (686, 1.00535870361328125000e+03) (687, 1.50000000000000000000e+03) (688, 1.50000000000000000000e+03) (689, 1.50000000000000000000e+03) (690, 1.50000000000000000000e+03) (691, 1.50000000000000000000e+03) (692, 1.50000000000000000000e+03) (693, 1.50000000000000000000e+03) (694, -1.50000000000000000000e+03) (695, -1.49113159179687500000e+03) (696, -6.41739868164062500000e+02) (697, -1.49328149414062500000e+03) (698, -9.15800048828125000000e+02) (699, 1.50000000000000000000e+03) (700, 1.50000000000000000000e+03) (701, 1.50000000000000000000e+03) (702, -1.50000000000000000000e+03) (703, -1.50000000000000000000e+03) (704, -1.50000000000000000000e+03) (705, 1.50000000000000000000e+03) (706, 1.50000000000000000000e+03) (707, 1.50000000000000000000e+03) (708, 1.50000000000000000000e+03) (709, 1.50000000000000000000e+03) (710, 1.50000000000000000000e+03) (711, 1.50000000000000000000e+03) (712, 1.50000000000000000000e+03) (713, 1.50000000000000000000e+03) (714, 1.50000000000000000000e+03) (715, 1.50000000000000000000e+03) (716, 1.50000000000000000000e+03) (717, 1.50000000000000000000e+03) (718, 1.50000000000000000000e+03) (719, 1.50000000000000000000e+03) (720, 1.50000000000000000000e+03) (721, 1.50000000000000000000e+03) (722, 1.50000000000000000000e+03) (723, 1.24332861328125000000e+03) (724, 8.04734008789062500000e+02) (725, -1.50000000000000000000e+03) (726, -1.50000000000000000000e+03) (727, 1.50000000000000000000e+03) (728, 1.50000000000000000000e+03) (729, 1.50000000000000000000e+03) (730, 1.50000000000000000000e+03) (731, -1.50000000000000000000e+03) (732, -2.86935089111328125000e+02) (733, 1.50000000000000000000e+03) (734, 1.50000000000000000000e+03) (735, 1.50000000000000000000e+03) (736, 1.50000000000000000000e+03) (737, 1.50000000000000000000e+03) (738, 1.50000000000000000000e+03) (739, 1.50000000000000000000e+03) (740, 1.50000000000000000000e+03) (741, 1.50000000000000000000e+03) (742, 1.50000000000000000000e+03) (743, 1.50000000000000000000e+03) (744, 1.50000000000000000000e+03) (745, 1.50000000000000000000e+03) (746, 1.50000000000000000000e+03) (747, 1.50000000000000000000e+03) (748, 1.50000000000000000000e+03) (749, 1.50000000000000000000e+03) (750, 1.50000000000000000000e+03) (751, 1.50000000000000000000e+03) (752, 1.36050817871093750000e+03) (753, 1.50000000000000000000e+03) (754, 1.50000000000000000000e+03) (755, 1.50000000000000000000e+03) (756, 1.50000000000000000000e+03) (757, 1.50000000000000000000e+03) (758, 1.50000000000000000000e+03) (759, 1.50000000000000000000e+03) (760, 1.50000000000000000000e+03) (761, 1.50000000000000000000e+03) (762, 1.50000000000000000000e+03) (763, 1.50000000000000000000e+03) (764, 1.50000000000000000000e+03) (765, 1.50000000000000000000e+03) (766, 1.50000000000000000000e+03) (767, 1.50000000000000000000e+03) (768, 1.50000000000000000000e+03) (769, 1.50000000000000000000e+03) (770, 1.50000000000000000000e+03) (771, 1.50000000000000000000e+03) (772, 1.50000000000000000000e+03) (773, 1.50000000000000000000e+03) (774, 1.50000000000000000000e+03) (775, 1.50000000000000000000e+03) (776, 1.50000000000000000000e+03) (777, 1.50000000000000000000e+03) (778, 1.50000000000000000000e+03) (779, 1.50000000000000000000e+03) (780, 1.50000000000000000000e+03) (781, 1.50000000000000000000e+03) (782, 1.50000000000000000000e+03) (783, 1.50000000000000000000e+03) (784, -1.50158176422119140625e+01) (0, 1.50000000000000000000e+03) (1, 1.50000000000000000000e+03) (2, 1.50000000000000000000e+03) (3, 1.50000000000000000000e+03) (4, 1.50000000000000000000e+03) (5, 1.50000000000000000000e+03) (6, 1.50000000000000000000e+03) (7, 1.50000000000000000000e+03) (8, 1.50000000000000000000e+03) (9, 1.50000000000000000000e+03) (10, 1.50000000000000000000e+03) (11, 1.50000000000000000000e+03) (12, -1.50000000000000000000e+03) (13, -8.12535339355468750000e+02) (14, 1.50000000000000000000e+03) (15, 1.50000000000000000000e+03) (16, 1.50000000000000000000e+03) (17, 1.50000000000000000000e+03) (18, 1.50000000000000000000e+03) (19, 1.50000000000000000000e+03) (20, 1.50000000000000000000e+03) (21, 1.50000000000000000000e+03) (22, 1.50000000000000000000e+03) (23, 1.50000000000000000000e+03) (24, 1.50000000000000000000e+03) (25, 1.50000000000000000000e+03) (26, 1.50000000000000000000e+03) (27, 1.50000000000000000000e+03) (28, 1.50000000000000000000e+03) (29, 1.50000000000000000000e+03) (30, 1.50000000000000000000e+03) (31, 1.50000000000000000000e+03) (32, -1.50000000000000000000e+03) (33, -1.31722583007812500000e+03) (34, -1.44310900878906250000e+03) (35, -1.49705578613281250000e+03) (36, -1.50000000000000000000e+03) (37, -1.50000000000000000000e+03) (38, -1.50000000000000000000e+03) (39, -1.50000000000000000000e+03) (40, -1.50000000000000000000e+03) (41, -1.50000000000000000000e+03) (42, -1.32895092773437500000e+03) (43, -9.31077453613281250000e+02) (44, -3.10062133789062500000e+02) (45, -1.34502648925781250000e+03) (46, -1.50000000000000000000e+03) (47, -1.50000000000000000000e+03) (48, -1.50000000000000000000e+03) (49, -1.50000000000000000000e+03) (50, -1.50000000000000000000e+03) (51, -1.50000000000000000000e+03) (52, 1.50000000000000000000e+03) (53, 1.50000000000000000000e+03) (54, 1.50000000000000000000e+03) (55, 1.50000000000000000000e+03) (56, 1.50000000000000000000e+03) (57, 1.50000000000000000000e+03) (58, -1.50000000000000000000e+03) (59, -1.50000000000000000000e+03) (60, -1.50000000000000000000e+03) (61, -1.23551196289062500000e+03) (62, -1.45001586914062500000e+03) (63, -1.50000000000000000000e+03) (64, -1.50000000000000000000e+03) (65, -8.54230224609375000000e+02) (66, -1.50000000000000000000e+03) (67, -1.50000000000000000000e+03) (68, -1.43989514160156250000e+03) (69, -7.24305603027343750000e+02) (70, -6.78565856933593750000e+02) (71, 2.16963562011718750000e+02) (72, 4.99952819824218750000e+02) (73, -2.79503173828125000000e+02) (74, -1.06259179687500000000e+03) (75, -1.12604394531250000000e+03) (76, -1.48914318847656250000e+03) (77, -1.50000000000000000000e+03) (78, -1.50000000000000000000e+03) (79, -1.50000000000000000000e+03) (80, -1.13020544433593750000e+03) (81, 1.50000000000000000000e+03) (82, 1.50000000000000000000e+03) (83, 1.50000000000000000000e+03) (84, 1.50000000000000000000e+03) (85, 1.50000000000000000000e+03) (86, 1.50000000000000000000e+03) (87, -1.50000000000000000000e+03) (88, 4.17895996093750000000e+02) (89, 1.50000000000000000000e+03) (90, 1.06421630859375000000e+03) (91, -4.81942596435546875000e+02) (92, 6.80860168457031250000e+02) (93, 1.46933996582031250000e+03) (94, 6.39252014160156250000e+02) (95, 4.95385467529296875000e+02) (96, 8.12667358398437500000e+02) (97, 9.43220336914062500000e+02) (98, 8.46942199707031250000e+02) (99, 6.82731811523437500000e+02) (100, 4.04116516113281250000e+02) (101, 3.54116516113281250000e+02) (102, 5.21053710937500000000e+02) (103, 8.67707092285156250000e+02) (104, 9.13902282714843750000e+02) (105, 8.36185546875000000000e+02) (106, 8.45393371582031250000e+02) (107, 2.30432067871093750000e+02) (108, -1.50000000000000000000e+03) (109, 1.23094970703125000000e+03) (110, -9.09771301269531250000e+02) (111, 1.50000000000000000000e+03) (112, 1.50000000000000000000e+03) (113, 1.50000000000000000000e+03) (114, 1.50000000000000000000e+03) (115, -1.50000000000000000000e+03) (116, 1.45223999023437500000e+03) (117, 1.50000000000000000000e+03) (118, 1.50000000000000000000e+03) (119, 1.50000000000000000000e+03) (120, 1.50000000000000000000e+03) (121, 1.48200000000000000000e+03) (122, 1.48154772949218750000e+03) (123, 1.49526708984375000000e+03) (124, 1.40295117187500000000e+03) (125, 1.44581860351562500000e+03) (126, 1.44222119140625000000e+03) (127, 1.44222119140625000000e+03) (128, 1.47807666015625000000e+03) (129, -2.04725250244140625000e+02) (130, 1.07186303710937500000e+03) (131, 1.49780676269531250000e+03) (132, 1.50000000000000000000e+03) (133, 1.50000000000000000000e+03) (134, 1.49197070312500000000e+03) (135, 1.50000000000000000000e+03) (136, 1.50000000000000000000e+03) (137, 1.50000000000000000000e+03) (138, 1.49587329101562500000e+03) (139, -1.50000000000000000000e+03) (140, 1.50000000000000000000e+03) (141, 1.50000000000000000000e+03) (142, 1.01723620605468750000e+03) (143, 9.41024353027343750000e+02) (144, 1.50000000000000000000e+03) (145, 1.50000000000000000000e+03) (146, 1.50000000000000000000e+03) (147, 1.50000000000000000000e+03) (148, 1.50000000000000000000e+03) (149, 1.50000000000000000000e+03) (150, 1.50000000000000000000e+03) (151, 1.50000000000000000000e+03) (152, 1.45921044921875000000e+03) (153, 1.47807666015625000000e+03) (154, 1.44693298339843750000e+03) (155, 1.45921044921875000000e+03) (156, 1.50000000000000000000e+03) (157, 1.50000000000000000000e+03) (158, 1.50000000000000000000e+03) (159, 1.26111999511718750000e+03) (160, 1.50000000000000000000e+03) (161, 1.50000000000000000000e+03) (162, 1.50000000000000000000e+03) (163, 1.50000000000000000000e+03) (164, 1.50000000000000000000e+03) (165, 1.50000000000000000000e+03) (166, 1.63876693725585937500e+02) (167, -7.55173522949218750000e+02) (168, 1.50000000000000000000e+03) (169, 1.50000000000000000000e+03) (170, -1.50000000000000000000e+03) (171, 1.44801269531250000000e+03) (172, 1.47000000000000000000e+03) (173, 1.49638903808593750000e+03) (174, 1.50000000000000000000e+03) (175, 1.50000000000000000000e+03) (176, 1.49951562500000000000e+03) (177, 1.49347277832031250000e+03) (178, 1.49662194824218750000e+03) (179, 1.38158947753906250000e+03) (180, 9.22372863769531250000e+02) (181, -9.82591491699218750000e+02) (182, -1.45631274414062500000e+03) (183, -1.03167724609375000000e+03) (184, -9.54751708984375000000e+02) (185, -7.78268127441406250000e+02) (186, -1.19262683105468750000e+03) (187, -1.49180566406250000000e+03) (188, -1.35762670898437500000e+03) (189, 3.95512878417968750000e+02) (190, 1.50000000000000000000e+03) (191, 1.50000000000000000000e+03) (192, 1.50000000000000000000e+03) (193, 1.50000000000000000000e+03) (194, 8.29013732910156250000e+02) (195, -1.50000000000000000000e+03) (196, -1.50000000000000000000e+03) (197, 1.50000000000000000000e+03) (198, -8.20829711914062500000e+02) (199, -3.38272064208984375000e+02) (200, 1.50000000000000000000e+03) (201, 1.50000000000000000000e+03) (202, 1.50000000000000000000e+03) (203, 1.49638903808593750000e+03) (204, 1.36992297363281250000e+03) (205, 7.83192626953125000000e+02) (206, 5.11265380859375000000e+02) (207, 8.73594299316406250000e+02) (208, -1.20761938476562500000e+03) (209, -1.31096630859375000000e+03) (210, -1.45924426269531250000e+03) (211, -1.50000000000000000000e+03) (212, -1.50000000000000000000e+03) (213, -1.27540185546875000000e+03) (214, -1.49659985351562500000e+03) (215, -1.49991296386718750000e+03) (216, -1.49993188476562500000e+03) (217, -1.49242187500000000000e+03) (218, -1.08449560546875000000e+03) (219, 1.50000000000000000000e+03) (220, 1.50000000000000000000e+03) (221, 1.50000000000000000000e+03) (222, 1.34611608886718750000e+03) (223, -1.50000000000000000000e+03) (224, -1.50000000000000000000e+03) (225, -1.50000000000000000000e+03) (226, -1.50000000000000000000e+03) (227, -1.50000000000000000000e+03) (228, 1.50000000000000000000e+03) (229, 1.50000000000000000000e+03) (230, 1.50000000000000000000e+03) (231, 7.26954528808593750000e+02) (232, 5.03824279785156250000e+02) (233, -1.50000000000000000000e+03) (234, -1.21980017089843750000e+03) (235, -1.45673706054687500000e+03) (236, -6.06870483398437500000e+02) (237, -1.47415441894531250000e+03) (238, -1.49322082519531250000e+03) (239, -1.50000000000000000000e+03) (240, -1.50000000000000000000e+03) (241, -1.23995483398437500000e+03) (242, -1.47765954589843750000e+03) (243, -1.49099218750000000000e+03) (244, -1.49413977050781250000e+03) (245, -1.33937475585937500000e+03) (246, -5.56798339843750000000e+02) (247, 1.18142639160156250000e+03) (248, 1.50000000000000000000e+03) (249, 1.50000000000000000000e+03) (250, 1.50000000000000000000e+03) (251, 6.83999023437500000000e+01) (252, -1.50000000000000000000e+03) (253, -1.50000000000000000000e+03) (254, -1.50000000000000000000e+03) (255, -1.50000000000000000000e+03) (256, 1.50000000000000000000e+03) (257, 1.50000000000000000000e+03) (258, 1.15329736328125000000e+03) (259, -1.50000000000000000000e+03) (260, -1.50000000000000000000e+03) (261, -4.41593048095703125000e+02) (262, -1.61172241210937500000e+02) (263, -2.27831710815429687500e+02) (264, -1.49385095214843750000e+03) (265, -1.49999450683593750000e+03) (266, -1.49955322265625000000e+03) (267, -1.00055889892578125000e+03) (268, -1.07797143554687500000e+03) (269, -1.16047216796875000000e+03) (270, -1.47500415039062500000e+03) (271, -1.47500415039062500000e+03) (272, -9.12365295410156250000e+02) (273, -7.19867431640625000000e+02) (274, -1.50000000000000000000e+03) (275, -1.50000000000000000000e+03) (276, 1.18563159179687500000e+03) (277, 1.50000000000000000000e+03) (278, 5.39887634277343750000e+02) (279, -1.50000000000000000000e+03) (280, -1.50000000000000000000e+03) (281, -1.50000000000000000000e+03) (282, -1.50000000000000000000e+03) (283, -1.50000000000000000000e+03) (284, 1.47000000000000000000e+03) (285, -3.57319244384765625000e+02) (286, -1.38778039550781250000e+03) (287, -1.50000000000000000000e+03) (288, -1.50000000000000000000e+03) (289, 3.70158653259277343750e+01) (290, 2.43317123413085937500e+02) (291, -1.31308715820312500000e+03) (292, -1.50000000000000000000e+03) (293, -1.49628601074218750000e+03) (294, -1.37133972167968750000e+03) (295, -6.56600646972656250000e+02) (296, -2.21016983032226562500e+02) (297, 1.48086474609375000000e+03) (298, -1.50000000000000000000e+03) (299, -1.50000000000000000000e+03) (300, -1.50000000000000000000e+03) (301, -1.50000000000000000000e+03) (302, -1.50000000000000000000e+03) (303, -1.50000000000000000000e+03) (304, -1.50000000000000000000e+03) (305, 1.50000000000000000000e+03) (306, 1.50000000000000000000e+03) (307, 1.50000000000000000000e+03) (308, 1.50000000000000000000e+03) (309, -1.50000000000000000000e+03) (310, -1.50000000000000000000e+03) (311, 1.40596752929687500000e+03) (312, 1.50000000000000000000e+03) (313, -1.44800000000000000000e+03) (314, -1.50000000000000000000e+03) (315, -1.50000000000000000000e+03) (316, -1.50000000000000000000e+03) (317, 1.16003405761718750000e+03) (318, -1.29781323242187500000e+03) (319, -1.50000000000000000000e+03) (320, -1.49953588867187500000e+03) (321, -1.38017956542968750000e+03) (322, 1.47220031738281250000e+03) (323, 1.50000000000000000000e+03) (324, 1.50000000000000000000e+03) (325, 1.47827758789062500000e+03) (326, 1.36922949218750000000e+03) (327, -1.50000000000000000000e+03) (328, -1.50000000000000000000e+03) (329, -1.50000000000000000000e+03) (330, -1.50000000000000000000e+03) (331, -1.50000000000000000000e+03) (332, -1.50000000000000000000e+03) (333, 1.50000000000000000000e+03) (334, 1.50000000000000000000e+03) (335, 1.32494018554687500000e+02) (336, 1.50000000000000000000e+03) (337, -1.50000000000000000000e+03) (338, -1.50000000000000000000e+03) (339, -1.50000000000000000000e+03) (340, 6.95361938476562500000e+02) (341, -1.50000000000000000000e+03) (342, -1.50000000000000000000e+03) (343, -1.50000000000000000000e+03) (344, 4.49952575683593750000e+02) (345, -1.31020434570312500000e+03) (346, -1.50000000000000000000e+03) (347, -1.50000000000000000000e+03) (348, -1.08678503417968750000e+03) (349, 1.38697387695312500000e+03) (350, 1.50000000000000000000e+03) (351, 1.50000000000000000000e+03) (352, 1.50000000000000000000e+03) (353, 1.44786645507812500000e+03) (354, 9.44008972167968750000e+02) (355, -5.59671936035156250000e+02) (356, -1.50000000000000000000e+03) (357, -1.50000000000000000000e+03) (358, -1.50000000000000000000e+03) (359, -1.50000000000000000000e+03) (360, -1.50000000000000000000e+03) (361, -2.04271957397460937500e+02) (362, 1.50000000000000000000e+03) (363, -1.50000000000000000000e+03) (364, 1.50000000000000000000e+03) (365, -1.50000000000000000000e+03) (366, -1.50000000000000000000e+03) (367, -1.50000000000000000000e+03) (368, -1.42473156738281250000e+03) (369, -1.50000000000000000000e+03) (370, -1.50000000000000000000e+03) (371, -1.50000000000000000000e+03) (372, 6.80893432617187500000e+02) (373, -1.49987023925781250000e+03) (374, -1.38943237304687500000e+03) (375, -1.49105285644531250000e+03) (376, 1.49348181152343750000e+03) (377, 1.50000000000000000000e+03) (378, 1.50000000000000000000e+03) (379, 1.50000000000000000000e+03) (380, 1.50000000000000000000e+03) (381, 1.43004870605468750000e+03) (382, 9.09381469726562500000e+02) (383, 2.79073791503906250000e+02) (384, -1.46956066894531250000e+03) (385, -1.44735119628906250000e+03) (386, -1.50000000000000000000e+03) (387, -1.50000000000000000000e+03) (388, -1.50000000000000000000e+03) (389, 5.52099304199218750000e+02) (390, 1.50000000000000000000e+03) (391, 1.50000000000000000000e+03) (392, -7.82200073242187500000e+02) (393, -1.50000000000000000000e+03) (394, -1.50000000000000000000e+03) (395, -1.46493682861328125000e+02) (396, 1.56891052246093750000e+02) (397, -1.50000000000000000000e+03) (398, -1.50000000000000000000e+03) (399, -7.89358947753906250000e+02) (400, -1.41972305297851562500e+02) (401, -8.57349731445312500000e+02) (402, -1.23283349609375000000e+03) (403, -1.16871936035156250000e+03) (404, 1.50000000000000000000e+03) (405, 1.50000000000000000000e+03) (406, 1.50000000000000000000e+03) (407, 1.50000000000000000000e+03) (408, 1.50000000000000000000e+03) (409, 1.48463830566406250000e+03) (410, 6.61293823242187500000e+02) (411, 2.65064208984375000000e+02) (412, -6.12379150390625000000e+02) (413, -2.56971649169921875000e+02) (414, -1.50000000000000000000e+03) (415, -1.50000000000000000000e+03) (416, -1.50000000000000000000e+03) (417, 1.49970397949218750000e+03) (418, 1.50000000000000000000e+03) (419, 1.50000000000000000000e+03) (420, -7.82200073242187500000e+02) (421, -1.50000000000000000000e+03) (422, -1.50000000000000000000e+03) (423, 1.50000000000000000000e+03) (424, 1.50000000000000000000e+03) (425, -1.44170263671875000000e+03) (426, -5.53951721191406250000e+02) (427, 4.85953033447265625000e+02) (428, 1.31726745605468750000e+03) (429, -3.78180328369140625000e+02) (430, -1.32687121582031250000e+03) (431, 1.50000000000000000000e+03) (432, 1.50000000000000000000e+03) (433, 1.50000000000000000000e+03) (434, 1.50000000000000000000e+03) (435, 1.50000000000000000000e+03) (436, 1.50000000000000000000e+03) (437, 1.49999743652343750000e+03) (438, -2.24267456054687500000e+02) (439, -1.02290155029296875000e+03) (440, -1.09044543457031250000e+03) (441, 7.60438903808593750000e+02) (442, -1.09371850585937500000e+03) (443, -1.50000000000000000000e+03) (444, -1.50000000000000000000e+03) (445, 1.50000000000000000000e+03) (446, 1.50000000000000000000e+03) (447, 1.50000000000000000000e+03) (448, 1.47000000000000000000e+03) (449, -1.50000000000000000000e+03) (450, -1.44500000000000000000e+03) (451, 1.50000000000000000000e+03) (452, 1.39280004882812500000e+03) (453, 3.04318599700927734375e+01) (454, 1.37366113281250000000e+03) (455, 1.47410058593750000000e+03) (456, 1.00400384521484375000e+03) (457, -3.27719421386718750000e+02) (458, 1.55841323852539062500e+02) (459, 1.50000000000000000000e+03) (460, 1.50000000000000000000e+03) (461, 1.50000000000000000000e+03) (462, 1.50000000000000000000e+03) (463, 1.50000000000000000000e+03) (464, 1.50000000000000000000e+03) (465, 1.43535217285156250000e+03) (466, 1.49884521484375000000e+03) (467, -6.58489807128906250000e+02) (468, 1.08253759765625000000e+03) (469, 1.26874731445312500000e+03) (470, -5.28635131835937500000e+02) (471, -1.24532788085937500000e+03) (472, -8.17017028808593750000e+02) (473, 1.50000000000000000000e+03) (474, 1.50000000000000000000e+03) (475, 1.50000000000000000000e+03) (476, 1.50000000000000000000e+03) (477, -1.50000000000000000000e+03) (478, 3.63322814941406250000e+02) (479, 1.50000000000000000000e+03) (480, 1.50000000000000000000e+03) (481, 1.44085620117187500000e+03) (482, 1.50000000000000000000e+03) (483, 1.49638903808593750000e+03) (484, -2.93568725585937500000e+02) (485, -9.93060241699218750000e+02) (486, -4.63660583496093750000e+02) (487, 1.48286645507812500000e+03) (488, 1.50000000000000000000e+03) (489, 1.50000000000000000000e+03) (490, 1.50000000000000000000e+03) (491, 1.50000000000000000000e+03) (492, 1.49265197753906250000e+03) (493, 1.49930712890625000000e+03) (494, -7.74185974121093750000e+02) (495, -1.50336952209472656250e+01) (496, 6.19811035156250000000e+02) (497, -2.67824096679687500000e+02) (498, -1.73072906494140625000e+02) (499, 3.28863891601562500000e+02) (500, 5.12213928222656250000e+02) (501, 1.50000000000000000000e+03) (502, 1.50000000000000000000e+03) (503, -1.15349243164062500000e+03) (504, -1.50000000000000000000e+03) (505, -9.73052978515625000000e+02) (506, -1.50000000000000000000e+03) (507, 1.50000000000000000000e+03) (508, 1.50000000000000000000e+03) (509, 1.50000000000000000000e+03) (510, 1.50000000000000000000e+03) (511, 1.44693298339843750000e+03) (512, -5.36792541503906250000e+02) (513, -1.15541040039062500000e+03) (514, -1.19738940429687500000e+03) (515, 1.48103735351562500000e+03) (516, 1.49971179199218750000e+03) (517, 1.50000000000000000000e+03) (518, 1.39585375976562500000e+03) (519, 1.13115966796875000000e+03) (520, 1.48252612304687500000e+03) (521, -7.33973144531250000000e+02) (522, -1.60234161376953125000e+02) (523, 5.33400688171386718750e+01) (524, -6.76323242187500000000e+02) (525, -8.34909729003906250000e+02) (526, -9.59621459960937500000e+02) (527, 1.50000000000000000000e+03) (528, 1.50000000000000000000e+03) (529, 1.50000000000000000000e+03) (530, 1.50000000000000000000e+03) (531, 1.50000000000000000000e+03) (532, -1.50000000000000000000e+03) (533, -1.50000000000000000000e+03) (534, -1.50000000000000000000e+03) (535, 1.50000000000000000000e+03) (536, 1.50000000000000000000e+03) (537, 1.50000000000000000000e+03) (538, 1.50000000000000000000e+03) (539, 1.48649365234375000000e+03) (540, -2.70532470703125000000e+02) (541, -1.03179089355468750000e+03) (542, -1.16781250000000000000e+03) (543, -1.38555432128906250000e+03) (544, 1.13067810058593750000e+03) (545, 3.10758666992187500000e+02) (546, 1.04417663574218750000e+03) (547, 1.07372265625000000000e+03) (548, -6.89146240234375000000e+02) (549, -1.53536956787109375000e+02) (550, 1.46424523925781250000e+03) (551, 1.48754870605468750000e+03) (552, 1.08137011718750000000e+03) (553, 1.49579028320312500000e+03) (554, 1.49147119140625000000e+03) (555, 1.50000000000000000000e+03) (556, 1.50000000000000000000e+03) (557, 1.50000000000000000000e+03) (558, 1.50000000000000000000e+03) (559, 1.50000000000000000000e+03) (560, 1.50000000000000000000e+03) (561, -1.50000000000000000000e+03) (562, -4.45493530273437500000e+02) (563, 1.50000000000000000000e+03) (564, 1.50000000000000000000e+03) (565, 1.50000000000000000000e+03) (566, 1.50000000000000000000e+03) (567, 1.50000000000000000000e+03) (568, 1.48533288574218750000e+03) (569, -1.34749353027343750000e+03) (570, -1.47700341796875000000e+03) (571, -1.49760424804687500000e+03) (572, -1.44225744628906250000e+03) (573, -1.49004968261718750000e+03) (574, -8.45305786132812500000e+02) (575, -9.08915893554687500000e+02) (576, -1.06026904296875000000e+03) (577, 1.48941857910156250000e+03) (578, 1.48941857910156250000e+03) (579, 1.49320141601562500000e+03) (580, 1.50000000000000000000e+03) (581, 1.50000000000000000000e+03) (582, 1.50000000000000000000e+03) (583, 1.50000000000000000000e+03) (584, 1.50000000000000000000e+03) (585, 1.50000000000000000000e+03) (586, 1.50000000000000000000e+03) (587, -1.50000000000000000000e+03) (588, 1.50000000000000000000e+03) (589, 1.25080004882812500000e+03) (590, 9.95610046386718750000e+02) (591, 1.50000000000000000000e+03) (592, 1.50000000000000000000e+03) (593, 1.50000000000000000000e+03) (594, 1.50000000000000000000e+03) (595, 1.50000000000000000000e+03) (596, 1.50000000000000000000e+03) (597, -2.52706024169921875000e+02) (598, -1.47078796386718750000e+03) (599, -1.49994982910156250000e+03) (600, -1.49996691894531250000e+03) (601, -1.35257177734375000000e+03) (602, -1.49332617187500000000e+03) (603, 7.27776107788085937500e+01) (604, 1.47141857910156250000e+03) (605, 1.50000000000000000000e+03) (606, 1.50000000000000000000e+03) (607, 1.50000000000000000000e+03) (608, 1.50000000000000000000e+03) (609, 1.50000000000000000000e+03) (610, 1.50000000000000000000e+03) (611, 1.50000000000000000000e+03) (612, 1.50000000000000000000e+03) (613, 1.50000000000000000000e+03) (614, -5.63562866210937500000e+02) (615, 5.47433593750000000000e+02) (616, 1.50000000000000000000e+03) (617, 1.50000000000000000000e+03) (618, 1.50000000000000000000e+03) (619, 1.50000000000000000000e+03) (620, 1.50000000000000000000e+03) (621, 1.50000000000000000000e+03) (622, 1.50000000000000000000e+03) (623, 1.50000000000000000000e+03) (624, -1.47044897460937500000e+03) (625, -1.34418542480468750000e+03) (626, -1.43247253417968750000e+03) (627, -1.47688232421875000000e+03) (628, -1.47987683105468750000e+03) (629, -1.47214184570312500000e+03) (630, 2.03829315185546875000e+02) (631, 7.31666137695312500000e+02) (632, 8.88546875000000000000e+02) (633, 1.50000000000000000000e+03) (634, 1.50000000000000000000e+03) (635, 1.50000000000000000000e+03) (636, 1.50000000000000000000e+03) (637, 1.50000000000000000000e+03) (638, 1.50000000000000000000e+03) (639, 1.50000000000000000000e+03) (640, 1.50000000000000000000e+03) (641, 1.50000000000000000000e+03) (642, 1.50000000000000000000e+03) (643, 5.47433593750000000000e+02) (644, 1.50000000000000000000e+03) (645, 1.50000000000000000000e+03) (646, 1.50000000000000000000e+03) (647, 1.50000000000000000000e+03) (648, 1.50000000000000000000e+03) (649, -3.63359619140625000000e+02) (650, 1.43158959960937500000e+03) (651, -1.43931945800781250000e+02) (652, -1.06877319335937500000e+03) (653, -1.47831591796875000000e+03) (654, -1.49839245605468750000e+03) (655, -1.49968811035156250000e+03) (656, -1.49500988769531250000e+03) (657, -1.44800000000000000000e+03) (658, -1.50000000000000000000e+03) (659, -1.44546813964843750000e+03) (660, -6.17708740234375000000e+02) (661, 9.27807983398437500000e+02) (662, 1.50000000000000000000e+03) (663, 1.50000000000000000000e+03) (664, 1.50000000000000000000e+03) (665, 1.50000000000000000000e+03) (666, 1.50000000000000000000e+03) (667, 1.50000000000000000000e+03) (668, 1.50000000000000000000e+03) (669, 1.50000000000000000000e+03) (670, 1.50000000000000000000e+03) (671, 1.50000000000000000000e+03) (672, 1.50000000000000000000e+03) (673, 1.50000000000000000000e+03) (674, 1.50000000000000000000e+03) (675, 1.50000000000000000000e+03) (676, -7.80261352539062500000e+02) (677, -1.30626135253906250000e+03) (678, -8.10323730468750000000e+02) (679, -5.25419250488281250000e+02) (680, -1.50000000000000000000e+03) (681, -1.50000000000000000000e+03) (682, -1.50000000000000000000e+03) (683, -1.16534216308593750000e+03) (684, -7.65055297851562500000e+02) (685, -3.64329345703125000000e+02) (686, 1.12916369628906250000e+03) (687, -1.43405407714843750000e+03) (688, -1.05640686035156250000e+03) (689, -9.43438781738281250000e+02) (690, -1.22880175781250000000e+03) (691, -1.50000000000000000000e+03) (692, -1.50000000000000000000e+03) (693, -7.70538513183593750000e+02) (694, -1.50000000000000000000e+03) (695, -1.50000000000000000000e+03) (696, -2.81948852539062500000e+01) (697, 1.50000000000000000000e+03) (698, 1.50000000000000000000e+03) (699, 1.50000000000000000000e+03) (700, 1.50000000000000000000e+03) (701, 1.50000000000000000000e+03) (702, 1.50000000000000000000e+03) (703, -1.50000000000000000000e+03) (704, -1.50000000000000000000e+03) (705, -1.50000000000000000000e+03) (706, -1.50000000000000000000e+03) (707, -1.50000000000000000000e+03) (708, -1.50000000000000000000e+03) (709, -1.50000000000000000000e+03) (710, -1.50000000000000000000e+03) (711, -1.50000000000000000000e+03) (712, -1.50000000000000000000e+03) (713, -1.50000000000000000000e+03) (714, -1.50000000000000000000e+03) (715, -1.50000000000000000000e+03) (716, -1.50000000000000000000e+03) (717, -1.50000000000000000000e+03) (718, -1.50000000000000000000e+03) (719, -1.50000000000000000000e+03) (720, -1.50000000000000000000e+03) (721, -1.50000000000000000000e+03) (722, -1.50000000000000000000e+03) (723, -1.50000000000000000000e+03) (724, -1.50000000000000000000e+03) (725, 1.19554968261718750000e+03) (726, 1.50000000000000000000e+03) (727, 1.50000000000000000000e+03) (728, 1.50000000000000000000e+03) (729, 1.50000000000000000000e+03) (730, 1.50000000000000000000e+03) (731, -1.50000000000000000000e+03) (732, -1.50000000000000000000e+03) (733, -1.50000000000000000000e+03) (734, -1.50000000000000000000e+03) (735, -1.50000000000000000000e+03) (736, -1.50000000000000000000e+03) (737, -1.50000000000000000000e+03) (738, -1.50000000000000000000e+03) (739, -1.50000000000000000000e+03) (740, -1.50000000000000000000e+03) (741, -1.50000000000000000000e+03) (742, -1.50000000000000000000e+03) (743, -1.50000000000000000000e+03) (744, -1.50000000000000000000e+03) (745, -1.50000000000000000000e+03) (746, -1.50000000000000000000e+03) (747, -1.50000000000000000000e+03) (748, -1.50000000000000000000e+03) (749, -1.50000000000000000000e+03) (750, 5.17546203613281250000e+02) (751, 2.13441528320312500000e+02) (752, -1.50000000000000000000e+03) (753, -1.50000000000000000000e+03) (754, 1.50000000000000000000e+03) (755, 1.50000000000000000000e+03) (756, 1.50000000000000000000e+03) (757, 1.50000000000000000000e+03) (758, 1.50000000000000000000e+03) (759, 1.50000000000000000000e+03) (760, -1.50000000000000000000e+03) (761, -1.50000000000000000000e+03) (762, -1.50000000000000000000e+03) (763, -1.50000000000000000000e+03) (764, -1.50000000000000000000e+03) (765, -1.50000000000000000000e+03) (766, -1.50000000000000000000e+03) (767, -1.50000000000000000000e+03) (768, -1.50000000000000000000e+03) (769, -1.50000000000000000000e+03) (770, -1.50000000000000000000e+03) (771, -1.50000000000000000000e+03) (772, -1.50000000000000000000e+03) (773, -9.14350524902343750000e+02) (774, -1.50000000000000000000e+03) (775, -1.50000000000000000000e+03) (776, -1.16580004882812500000e+03) (777, 1.50000000000000000000e+03) (778, 1.50000000000000000000e+03) (779, 1.50000000000000000000e+03) (780, 1.50000000000000000000e+03) (781, 1.50000000000000000000e+03) (782, 1.50000000000000000000e+03) (783, 1.50000000000000000000e+03) (784, -5.35420654296875000000e+02) (0, 1.50000000000000000000e+03) (1, 1.50000000000000000000e+03) (2, 1.50000000000000000000e+03) (3, 1.50000000000000000000e+03) (4, 1.50000000000000000000e+03) (5, 1.50000000000000000000e+03) (6, 1.50000000000000000000e+03) (7, 1.50000000000000000000e+03) (8, 1.50000000000000000000e+03) (9, 1.50000000000000000000e+03) (10, 1.50000000000000000000e+03) (11, 1.50000000000000000000e+03) (12, 1.50000000000000000000e+03) (13, 2.11151687622070312500e+02) (14, -1.50000000000000000000e+03) (15, -1.50000000000000000000e+03) (16, 1.50000000000000000000e+03) (17, 1.50000000000000000000e+03) (18, 1.50000000000000000000e+03) (19, 1.50000000000000000000e+03) (20, 1.50000000000000000000e+03) (21, 1.50000000000000000000e+03) (22, 1.50000000000000000000e+03) (23, 1.50000000000000000000e+03) (24, 1.50000000000000000000e+03) (25, 1.50000000000000000000e+03) (26, 1.50000000000000000000e+03) (27, 1.50000000000000000000e+03) (28, 1.50000000000000000000e+03) (29, 1.50000000000000000000e+03) (30, 1.50000000000000000000e+03) (31, 1.50000000000000000000e+03) (32, 1.27518493652343750000e+03) (33, 1.50000000000000000000e+03) (34, 1.50000000000000000000e+03) (35, 1.50000000000000000000e+03) (36, 1.50000000000000000000e+03) (37, 1.50000000000000000000e+03) (38, 1.50000000000000000000e+03) (39, -9.64190063476562500000e+02) (40, -9.93586975097656250000e+02) (41, -1.18828540039062500000e+03) (42, 1.50000000000000000000e+03) (43, 3.19170532226562500000e+02) (44, 5.41852783203125000000e+02) (45, -7.72362854003906250000e+02) (46, 1.50000000000000000000e+03) (47, 1.50000000000000000000e+03) (48, 1.50000000000000000000e+03) (49, 1.50000000000000000000e+03) (50, 1.50000000000000000000e+03) (51, 1.50000000000000000000e+03) (52, 1.50000000000000000000e+03) (53, 1.50000000000000000000e+03) (54, 1.50000000000000000000e+03) (55, 1.50000000000000000000e+03) (56, 1.50000000000000000000e+03) (57, 1.50000000000000000000e+03) (58, 1.50000000000000000000e+03) (59, -1.50000000000000000000e+03) (60, -5.77642333984375000000e+02) (61, 1.50000000000000000000e+03) (62, 1.50000000000000000000e+03) (63, 1.12653088378906250000e+03) (64, 1.50000000000000000000e+03) (65, 1.50000000000000000000e+03) (66, 1.50000000000000000000e+03) (67, 1.50000000000000000000e+03) (68, 1.50000000000000000000e+03) (69, 1.50000000000000000000e+03) (70, 1.50000000000000000000e+03) (71, 1.50000000000000000000e+03) (72, 1.50000000000000000000e+03) (73, 1.50000000000000000000e+03) (74, 1.50000000000000000000e+03) (75, 1.50000000000000000000e+03) (76, 1.50000000000000000000e+03) (77, 1.50000000000000000000e+03) (78, 1.50000000000000000000e+03) (79, 1.50000000000000000000e+03) (80, 6.58195800781250000000e+02) (81, -1.50000000000000000000e+03) (82, 1.50000000000000000000e+03) (83, 1.50000000000000000000e+03) (84, 1.50000000000000000000e+03) (85, 1.50000000000000000000e+03) (86, -1.50000000000000000000e+03) (87, -1.50000000000000000000e+03) (88, 9.95332580566406250000e+02) (89, 1.50000000000000000000e+03) (90, 1.50000000000000000000e+03) (91, 1.50000000000000000000e+03) (92, 1.50000000000000000000e+03) (93, 1.50000000000000000000e+03) (94, 1.50000000000000000000e+03) (95, 1.45200000000000000000e+03) (96, 1.29451379394531250000e+03) (97, 1.46850927734375000000e+03) (98, 1.43066394042968750000e+03) (99, 1.38405029296875000000e+03) (100, 1.13527722167968750000e+03) (101, 1.50000000000000000000e+03) (102, 1.50000000000000000000e+03) (103, 1.50000000000000000000e+03) (104, 1.50000000000000000000e+03) (105, 1.50000000000000000000e+03) (106, 1.50000000000000000000e+03) (107, 1.50000000000000000000e+03) (108, 1.50000000000000000000e+03) (109, 1.50000000000000000000e+03) (110, 1.50000000000000000000e+03) (111, 1.50000000000000000000e+03) (112, 1.50000000000000000000e+03) (113, -1.50000000000000000000e+03) (114, -1.50000000000000000000e+03) (115, -8.12789367675781250000e+02) (116, -7.91179565429687500000e+02) (117, 1.20200000000000000000e+03) (118, 1.26780004882812500000e+03) (119, 1.22518920898437500000e+03) (120, 1.08778967285156250000e+03) (121, 9.92616943359375000000e+02) (122, 2.42651260375976562500e+02) (123, 2.70176879882812500000e+02) (124, 1.08698107910156250000e+03) (125, -9.47179382324218750000e+02) (126, 5.20180603027343750000e+02) (127, 5.79587402343750000000e+02) (128, 1.15239257812500000000e+03) (129, 1.16780859375000000000e+03) (130, 1.24244506835937500000e+03) (131, 1.34533935546875000000e+03) (132, 1.37057543945312500000e+03) (133, 1.48678100585937500000e+03) (134, 1.28551428222656250000e+03) (135, 1.48006347656250000000e+03) (136, 1.50000000000000000000e+03) (137, 1.50000000000000000000e+03) (138, -2.41057037353515625000e+02) (139, -4.43158630371093750000e+02) (140, 1.50000000000000000000e+03) (141, 1.50000000000000000000e+03) (142, 5.18984680175781250000e+02) (143, -1.47302575683593750000e+03) (144, -7.68454711914062500000e+02) (145, 4.45601379394531250000e+02) (146, 3.41399322509765625000e+02) (147, 6.25189331054687500000e+02) (148, 6.78259887695312500000e+02) (149, 6.78259887695312500000e+02) (150, 7.44224426269531250000e+02) (151, 7.44102661132812500000e+02) (152, -1.41726226806640625000e+02) (153, -8.47248764038085937500e+01) (154, -3.44091705322265625000e+02) (155, -1.37879980468750000000e+03) (156, -1.50000000000000000000e+03) (157, -1.50000000000000000000e+03) (158, -1.49367639160156250000e+03) (159, 4.53605102539062500000e+02) (160, 7.22830932617187500000e+02) (161, 9.57151672363281250000e+02) (162, 9.37878540039062500000e+02) (163, 1.22789892578125000000e+03) (164, 1.50000000000000000000e+03) (165, 1.50000000000000000000e+03) (166, 1.50000000000000000000e+03) (167, 1.50000000000000000000e+03) (168, 1.50000000000000000000e+03) (169, -1.50000000000000000000e+03) (170, 1.50000000000000000000e+03) (171, -1.50000000000000000000e+03) (172, -7.41207702636718750000e+02) (173, -2.74206054687500000000e+02) (174, 7.55091796875000000000e+02) (175, 1.10706726074218750000e+03) (176, 1.44455786132812500000e+03) (177, 1.45695971679687500000e+03) (178, 1.45651513671875000000e+03) (179, 1.46404064941406250000e+03) (180, -1.01451269531250000000e+03) (181, -1.10844030761718750000e+03) (182, -1.50000000000000000000e+03) (183, -1.50000000000000000000e+03) (184, -1.50000000000000000000e+03) (185, -1.50000000000000000000e+03) (186, -1.50000000000000000000e+03) (187, -1.50000000000000000000e+03) (188, -4.83719207763671875000e+02) (189, 1.49946325683593750000e+03) (190, 8.24101501464843750000e+02) (191, 9.14085937500000000000e+02) (192, 1.50000000000000000000e+03) (193, 1.50000000000000000000e+03) (194, 1.41024719238281250000e+03) (195, 5.99875793457031250000e+02) (196, -1.93400024414062500000e+02) (197, -1.50000000000000000000e+03) (198, 1.50000000000000000000e+03) (199, 9.48596801757812500000e+02) (200, 6.37528137207031250000e+02) (201, 7.32992477416992187500e+01) (202, 1.17364367675781250000e+03) (203, 1.37442504882812500000e+03) (204, 1.50000000000000000000e+03) (205, 1.48410290527343750000e+03) (206, 1.48697326660156250000e+03) (207, 1.30556591796875000000e+03) (208, -6.71265441894531250000e+02) (209, -1.49670080566406250000e+03) (210, -1.50000000000000000000e+03) (211, -1.50000000000000000000e+03) (212, -1.50000000000000000000e+03) (213, -1.50000000000000000000e+03) (214, -1.50000000000000000000e+03) (215, -1.50000000000000000000e+03) (216, -1.45248913574218750000e+03) (217, 6.76793029785156250000e+02) (218, 1.49956896972656250000e+03) (219, 1.50000000000000000000e+03) (220, 1.50000000000000000000e+03) (221, 1.50000000000000000000e+03) (222, 1.50000000000000000000e+03) (223, 7.36810729980468750000e+02) (224, -1.50000000000000000000e+03) (225, 1.50000000000000000000e+03) (226, 1.50000000000000000000e+03) (227, 1.50000000000000000000e+03) (228, 1.50000000000000000000e+03) (229, 1.45852795410156250000e+03) (230, 1.45852795410156250000e+03) (231, 1.50000000000000000000e+03) (232, 1.50000000000000000000e+03) (233, 1.50000000000000000000e+03) (234, 1.82756347656250000000e+02) (235, -2.33013092041015625000e+02) (236, -6.28014770507812500000e+02) (237, -1.34435095214843750000e+03) (238, -1.40982238769531250000e+03) (239, -1.49955395507812500000e+03) (240, -1.50000000000000000000e+03) (241, -1.50000000000000000000e+03) (242, -1.50000000000000000000e+03) (243, -1.50000000000000000000e+03) (244, -1.24601281738281250000e+03) (245, -1.39854516601562500000e+03) (246, 1.49921398925781250000e+03) (247, 1.50000000000000000000e+03) (248, 1.50000000000000000000e+03) (249, 1.50000000000000000000e+03) (250, 1.50000000000000000000e+03) (251, 1.13580004882812500000e+03) (252, 1.50000000000000000000e+03) (253, 1.50000000000000000000e+03) (254, 1.50000000000000000000e+03) (255, 1.50000000000000000000e+03) (256, 1.50000000000000000000e+03) (257, 1.50000000000000000000e+03) (258, 1.50000000000000000000e+03) (259, 1.50000000000000000000e+03) (260, 1.49518884277343750000e+03) (261, 1.02435131835937500000e+03) (262, -3.07929046630859375000e+02) (263, 1.48468774414062500000e+03) (264, 5.71163452148437500000e+02) (265, -9.50933471679687500000e+02) (266, -1.44059887695312500000e+03) (267, -1.45748669433593750000e+03) (268, -1.49169873046875000000e+03) (269, -1.50000000000000000000e+03) (270, -1.50000000000000000000e+03) (271, -1.50000000000000000000e+03) (272, -1.12504357910156250000e+03) (273, -1.13884765625000000000e+03) (274, -1.40123925781250000000e+03) (275, -1.15640429687500000000e+03) (276, 1.50000000000000000000e+03) (277, 1.50000000000000000000e+03) (278, 1.50000000000000000000e+03) (279, 1.48837438964843750000e+03) (280, 1.50000000000000000000e+03) (281, 1.50000000000000000000e+03) (282, 9.34890625000000000000e+02) (283, 1.50000000000000000000e+03) (284, 1.50000000000000000000e+03) (285, 1.50000000000000000000e+03) (286, 1.50000000000000000000e+03) (287, 1.50000000000000000000e+03) (288, -3.18654663085937500000e+02) (289, -1.90759094238281250000e+02) (290, 1.43264172363281250000e+03) (291, 1.49933874511718750000e+03) (292, 1.49950927734375000000e+03) (293, 3.85032379150390625000e+02) (294, -6.29351074218750000000e+02) (295, -1.00274523925781250000e+03) (296, -1.12521093750000000000e+03) (297, -1.50000000000000000000e+03) (298, -1.50000000000000000000e+03) (299, -1.50000000000000000000e+03) (300, -1.50000000000000000000e+03) (301, -1.43804956054687500000e+03) (302, -1.47329394531250000000e+03) (303, -1.50000000000000000000e+03) (304, -1.21625146484375000000e+03) (305, 1.50000000000000000000e+03) (306, 1.50000000000000000000e+03) (307, 1.50000000000000000000e+03) (308, 1.50000000000000000000e+03) (309, 1.50000000000000000000e+03) (310, 1.50000000000000000000e+03) (311, 1.50000000000000000000e+03) (312, 1.50000000000000000000e+03) (313, 1.50000000000000000000e+03) (314, -8.60604248046875000000e+02) (315, -1.43020544433593750000e+03) (316, -5.77407165527343750000e+02) (317, -3.24175140380859375000e+02) (318, 6.06409454345703125000e+01) (319, -4.66748870849609375000e+02) (320, -2.35908966064453125000e+01) (321, -1.43899792480468750000e+03) (322, -1.43386287689208984375e+01) (323, 1.45200000000000000000e+03) (324, 1.24386645507812500000e+03) (325, 8.31435546875000000000e+02) (326, -5.69470581054687500000e+02) (327, -1.50000000000000000000e+03) (328, -1.50000000000000000000e+03) (329, -1.50000000000000000000e+03) (330, -1.50000000000000000000e+03) (331, -1.50000000000000000000e+03) (332, -1.50000000000000000000e+03) (333, 1.50000000000000000000e+03) (334, 1.50000000000000000000e+03) (335, 1.50000000000000000000e+03) (336, 8.21261352539062500000e+02) (337, 1.50000000000000000000e+03) (338, 1.50000000000000000000e+03) (339, 1.50000000000000000000e+03) (340, 1.50000000000000000000e+03) (341, -5.68613281250000000000e+02) (342, -1.50000000000000000000e+03) (343, -1.36772045898437500000e+03) (344, -7.62817199707031250000e+02) (345, -1.11843103027343750000e+03) (346, -1.47641943359375000000e+03) (347, -1.49900048828125000000e+03) (348, -9.37706054687500000000e+02) (349, 1.24025903320312500000e+03) (350, 1.45200000000000000000e+03) (351, 1.45200000000000000000e+03) (352, 1.45200000000000000000e+03) (353, 1.50000000000000000000e+03) (354, -1.07901809692382812500e+02) (355, -1.44520764160156250000e+03) (356, -1.33317687988281250000e+03) (357, -1.50000000000000000000e+03) (358, -1.50000000000000000000e+03) (359, -1.50000000000000000000e+03) (360, -1.50000000000000000000e+03) (361, -8.09342895507812500000e+02) (362, 1.44219531250000000000e+03) (363, 1.50000000000000000000e+03) (364, 1.50000000000000000000e+03) (365, 1.30107714843750000000e+03) (366, 1.50000000000000000000e+03) (367, 1.50000000000000000000e+03) (368, 1.50000000000000000000e+03) (369, -1.50000000000000000000e+03) (370, -1.50000000000000000000e+03) (371, -1.50000000000000000000e+03) (372, -1.47979785156250000000e+03) (373, -1.50000000000000000000e+03) (374, -1.50000000000000000000e+03) (375, -1.50000000000000000000e+03) (376, -1.05505676269531250000e+03) (377, 1.11805114746093750000e+03) (378, 1.41240002441406250000e+03) (379, 1.45200000000000000000e+03) (380, 1.45200000000000000000e+03) (381, 1.50000000000000000000e+03) (382, 5.69936462402343750000e+02) (383, -1.23176586914062500000e+03) (384, -8.52490417480468750000e+02) (385, -1.44026916503906250000e+03) (386, -1.50000000000000000000e+03) (387, -1.50000000000000000000e+03) (388, -1.50000000000000000000e+03) (389, -5.89705696105957031250e+01) (390, 5.48614196777343750000e+01) (391, -1.31301562500000000000e+03) (392, 1.50000000000000000000e+03) (393, 1.50000000000000000000e+03) (394, 1.50000000000000000000e+03) (395, 1.50000000000000000000e+03) (396, 1.20076123046875000000e+03) (397, -1.50000000000000000000e+03) (398, -1.50000000000000000000e+03) (399, -1.50000000000000000000e+03) (400, -1.50000000000000000000e+03) (401, -1.50000000000000000000e+03) (402, -1.50000000000000000000e+03) (403, -1.50000000000000000000e+03) (404, 8.88520996093750000000e+02) (405, 1.41240002441406250000e+03) (406, 1.45200000000000000000e+03) (407, 1.45200000000000000000e+03) (408, 1.50000000000000000000e+03) (409, 1.50000000000000000000e+03) (410, 1.48000402832031250000e+03) (411, 1.41240820312500000000e+03) (412, 1.45960681152343750000e+03) (413, -1.37854797363281250000e+03) (414, -1.50000000000000000000e+03) (415, -1.50000000000000000000e+03) (416, -1.50000000000000000000e+03) (417, 1.18740502929687500000e+03) (418, 7.43162231445312500000e+02) (419, 1.49386132812500000000e+03) (420, 1.50000000000000000000e+03) (421, -1.50000000000000000000e+03) (422, -8.50000061035156250000e+02) (423, 1.50000000000000000000e+03) (424, -1.30602587890625000000e+03) (425, -1.50000000000000000000e+03) (426, -1.50000000000000000000e+03) (427, -1.50000000000000000000e+03) (428, -1.50000000000000000000e+03) (429, -1.50000000000000000000e+03) (430, -1.50000000000000000000e+03) (431, -1.50000000000000000000e+03) (432, 1.21693859863281250000e+03) (433, 1.45200000000000000000e+03) (434, 1.50000000000000000000e+03) (435, 1.50000000000000000000e+03) (436, 1.50000000000000000000e+03) (437, 1.44613916015625000000e+03) (438, 1.34442175292968750000e+03) (439, 1.36077807617187500000e+03) (440, -7.39221008300781250000e+02) (441, -1.01287219238281250000e+03) (442, -1.50000000000000000000e+03) (443, -1.50000000000000000000e+03) (444, -1.50000000000000000000e+03) (445, 1.50000000000000000000e+03) (446, 1.04506738281250000000e+03) (447, 8.61554626464843750000e+02) (448, -7.60800048828125000000e+02) (449, -1.50000000000000000000e+03) (450, -1.50000000000000000000e+03) (451, 