FANN_FLO_2.1
num_layers=3
learning_rate=0.700000
connection_rate=1.000000
network_type=0
learning_momentum=0.000000
training_algorithm=2
train_error_function=1
train_stop_function=0
cascade_output_change_fraction=0.010000
quickprop_decay=-0.000100
quickprop_mu=1.750000
rprop_increase_factor=1.200000
rprop_decrease_factor=0.500000
rprop_delta_min=0.000000
rprop_delta_max=50.000000
rprop_delta_zero=0.100000
cascade_output_stagnation_epochs=12
cascade_candidate_change_fraction=0.010000
cascade_candidate_stagnation_epochs=12
cascade_max_out_epochs=150
cascade_max_cand_epochs=150
cascade_num_candidate_groups=2
bit_fail_limit=3.49999994039535522461e-01
cascade_candidate_limit=1.00000000000000000000e+03
cascade_weight_multiplier=4.00000005960464477539e-01
cascade_activation_functions_count=10
cascade_activation_functions=3 5 7 8 10 11 14 15 16 17 
cascade_activation_steepnesses_count=4
cascade_activation_steepnesses=2.50000000000000000000e-01 5.00000000000000000000e-01 7.50000000000000000000e-01 1.00000000000000000000e+00 
layer_sizes=785 21 11 
scale_included=0
neurons (num_inputs, activation_function, activation_steepness)=(0, 0, 0.00000000000000000000e+00) (0, 0, 0.00000000000000000000e+00) (0, 0, 0.00000000000000000000e+00) (0, 0, 0.00000000000000000000e+00) (0, 0, 0.00000000000000000000e+00) (0, 0, 0.00000000000000000000e+00) (0, 0, 0.00000000000000000000e+00) (0, 0, 0.00000000000000000000e+00) (0, 0, 0.00000000000000000000e+00) (0, 0, 0.00000000000000000000e+00) (0, 0, 0.00000000000000000000e+00) (0, 0, 0.00000000000000000000e+00) (0, 0, 0.00000000000000000000e+00) (0, 0, 0.00000000000000000000e+00) (0, 0, 0.00000000000000000000e+00) (0, 0, 0.00000000000000000000e+00) (0, 0, 0.00000000000000000000e+00) (0, 0, 0.00000000000000000000e+00) (0, 0, 0.00000000000000000000e+00) (0, 0, 0.00000000000000000000e+00) (0, 0, 0.00000000000000000000e+00) (0, 0, 0.00000000000000000000e+00) (0, 0, 0.00000000000000000000e+00) (0, 0, 0.00000000000000000000e+00) (0, 0, 0.00000000000000000000e+00) (0, 0, 0.00000000000000000000e+00) (0, 0, 0.00000000000000000000e+00) (0, 0, 0.00000000000000000000e+00) (0, 0, 0.00000000000000000000e+00) (0, 0, 0.00000000000000000000e+00) (0, 0, 0.00000000000000000000e+00) (0, 0, 0.00000000000000000000e+00) (0, 0, 0.00000000000000000000e+00) (0, 0, 0.00000000000000000000e+00) (0, 0, 0.00000000000000000000e+00) (0, 0, 0.00000000000000000000e+00) (0, 0, 0.00000000000000000000e+00) (0, 0, 0.00000000000000000000e+00) (0, 0, 0.00000000000000000000e+00) (0, 0, 0.00000000000000000000e+00) (0, 0, 0.00000000000000000000e+00) (0, 0, 0.00000000000000000000e+00) (0, 0, 0.00000000000000000000e+00) (0, 0, 0.00000000000000000000e+00) (0, 0, 0.00000000000000000000e+00) (0, 0, 0.00000000000000000000e+00) (0, 0, 0.00000000000000000000e+00) (0, 0, 0.00000000000000000000e+00) (0, 0, 0.00000000000000000000e+00) (0, 0, 0.00000000000000000000e+00) (0, 0, 0.00000000000000000000e+00) (0, 0, 0.00000000000000000000e+00) (0, 0, 0.00000000000000000000e+00) (0, 0, 0.00000000000000000000e+00) (0, 0, 0.00000000000000000000e+00) (0, 0, 0.00000000000000000000e+00) (0, 0, 0.00000000000000000000e+00) (0, 0, 0.00000000000000000000e+00) (0, 0, 0.00000000000000000000e+00) (0, 0, 0.00000000000000000000e+00) (0, 0, 0.00000000000000000000e+00) (0, 0, 0.00000000000000000000e+00) (0, 0, 0.00000000000000000000e+00) (0, 0, 0.00000000000000000000e+00) (0, 0, 0.00000000000000000000e+00) (0, 0, 0.00000000000000000000e+00) (0, 0, 0.00000000000000000000e+00) (0, 0, 0.00000000000000000000e+00) (0, 0, 0.00000000000000000000e+00) (0, 0, 0.00000000000000000000e+00) (0, 0, 0.00000000000000000000e+00) (0, 0, 0.00000000000000000000e+00) (0, 0, 0.00000000000000000000e+00) (0, 0, 0.00000000000000000000e+00) (0, 0, 0.00000000000000000000e+00) (0, 0, 0.00000000000000000000e+00) (0, 0, 0.00000000000000000000e+00) (0, 0, 0.00000000000000000000e+00) (0, 0, 0.00000000000000000000e+00) (0, 0, 0.00000000000000000000e+00) (0, 0, 0.00000000000000000000e+00) (0, 0, 0.00000000000000000000e+00) (0, 0, 0.00000000000000000000e+00) (0, 0, 0.00000000000000000000e+00) (0, 0, 0.00000000000000000000e+00) (0, 0, 0.00000000000000000000e+00) (0, 0, 0.00000000000000000000e+00) (0, 0, 0.00000000000000000000e+00) (0, 0, 0.00000000000000000000e+00) (0, 0, 0.00000000000000000000e+00) (0, 0, 0.00000000000000000000e+00) (0, 0, 0.00000000000000000000e+00) (0, 0, 0.00000000000000000000e+00) (0, 0, 0.00000000000000000000e+00) (0, 0, 0.00000000000000000000e+00) (0, 0, 0.00000000000000000000e+00) (0, 0, 0.00000000000000000000e+00) (0, 0, 0.00000000000000000000e+00) (0, 0, 0.00000000000000000000e+00) (0, 0, 0.00000000000000000000e+00) (0, 0, 0.00000000000000000000e+00) (0, 0, 0.00000000000000000000e+00) (0, 0, 0.00000000000000000000e+00) (0, 0, 0.00000000000000000000e+00) (0, 0, 0.00000000000000000000e+00) (0, 0, 0.00000000000000000000e+00) (0, 0, 0.00000000000000000000e+00) (0, 0, 0.00000000000000000000e+00) (0, 0, 0.00000000000000000000e+00) (0, 0, 0.00000000000000000000e+00) (0, 0, 0.00000000000000000000e+00) (0, 0, 0.00000000000000000000e+00) (0, 0, 0.00000000000000000000e+00) (0, 0, 0.00000000000000000000e+00) (0, 0, 0.00000000000000000000e+00) (0, 0, 0.00000000000000000000e+00) (0, 0, 0.00000000000000000000e+00) (0, 0, 0.00000000000000000000e+00) (0, 0, 0.00000000000000000000e+00) (0, 0, 0.00000000000000000000e+00) (0, 0, 0.00000000000000000000e+00) (0, 0, 0.00000000000000000000e+00) (0, 0, 0.00000000000000000000e+00) (0, 0, 0.00000000000000000000e+00) (0, 0, 0.00000000000000000000e+00) (0, 0, 0.00000000000000000000e+00) (0, 0, 0.00000000000000000000e+00) (0, 0, 0.00000000000000000000e+00) (0, 0, 0.00000000000000000000e+00) (0, 0, 0.00000000000000000000e+00) (0, 0, 0.00000000000000000000e+00) (0, 0, 0.00000000000000000000e+00) (0, 0, 0.00000000000000000000e+00) (0, 0, 0.00000000000000000000e+00) (0, 0, 0.00000000000000000000e+00) (0, 0, 0.00000000000000000000e+00) (0, 0, 0.00000000000000000000e+00) (0, 0, 0.00000000000000000000e+00) (0, 0, 0.00000000000000000000e+00) (0, 0, 0.00000000000000000000e+00) (0, 0, 0.00000000000000000000e+00) (0, 0, 0.00000000000000000000e+00) (0, 0, 0.00000000000000000000e+00) (0, 0, 0.00000000000000000000e+00) (0, 0, 0.00000000000000000000e+00) (0, 0, 0.00000000000000000000e+00) (0, 0, 0.00000000000000000000e+00) (0, 0, 0.00000000000000000000e+00) (0, 0, 0.00000000000000000000e+00) (0, 0, 0.00000000000000000000e+00) (0, 0, 0.00000000000000000000e+00) (0, 0, 0.00000000000000000000e+00) (0, 0, 0.00000000000000000000e+00) (0, 0, 0.00000000000000000000e+00) (0, 0, 0.00000000000000000000e+00) (0, 0, 0.00000000000000000000e+00) (0, 0, 0.00000000000000000000e+00) (0, 0, 0.00000000000000000000e+00) (0, 0, 0.00000000000000000000e+00) (0, 0, 0.00000000000000000000e+00) (0, 0, 0.00000000000000000000e+00) (0, 0, 0.00000000000000000000e+00) (0, 0, 0.00000000000000000000e+00) (0, 0, 0.00000000000000000000e+00) (0, 0, 0.00000000000000000000e+00) (0, 0, 0.00000000000000000000e+00) (0, 0, 0.00000000000000000000e+00) (0, 0, 0.00000000000000000000e+00) (0, 0, 0.00000000000000000000e+00) (0, 0, 0.00000000000000000000e+00) (0, 0, 0.00000000000000000000e+00) (0, 0, 0.00000000000000000000e+00) (0, 0, 0.00000000000000000000e+00) (0, 0, 0.00000000000000000000e+00) (0, 0, 0.00000000000000000000e+00) (0, 0, 0.00000000000000000000e+00) (0, 0, 0.00000000000000000000e+00) (0, 0, 0.00000000000000000000e+00) (0, 0, 0.00000000000000000000e+00) (0, 0, 0.00000000000000000000e+00) (0, 0, 0.00000000000000000000e+00) (0, 0, 0.00000000000000000000e+00) (0, 0, 0.00000000000000000000e+00) (0, 0, 0.00000000000000000000e+00) (0, 0, 0.00000000000000000000e+00) (0, 0, 0.00000000000000000000e+00) (0, 0, 0.00000000000000000000e+00) (0, 0, 0.00000000000000000000e+00) (0, 0, 0.00000000000000000000e+00) (0, 0, 0.00000000000000000000e+00) (0, 0, 0.00000000000000000000e+00) (0, 0, 0.00000000000000000000e+00) (0, 0, 0.00000000000000000000e+00) (0, 0, 0.00000000000000000000e+00) (0, 0, 0.00000000000000000000e+00) (0, 0, 0.00000000000000000000e+00) (0, 0, 0.00000000000000000000e+00) (0, 0, 0.00000000000000000000e+00) (0, 0, 0.00000000000000000000e+00) (0, 0, 0.00000000000000000000e+00) (0, 0, 0.00000000000000000000e+00) (0, 0, 0.00000000000000000000e+00) (0, 0, 0.00000000000000000000e+00) (0, 0, 0.00000000000000000000e+00) (0, 0, 0.00000000000000000000e+00) (0, 0, 0.00000000000000000000e+00) (0, 0, 0.00000000000000000000e+00) (0, 0, 0.00000000000000000000e+00) (0, 0, 0.00000000000000000000e+00) (0, 0, 0.00000000000000000000e+00) (0, 0, 0.00000000000000000000e+00) (0, 0, 0.00000000000000000000e+00) (0, 0, 0.00000000000000000000e+00) (0, 0, 0.00000000000000000000e+00) (0, 0, 0.00000000000000000000e+00) (0, 0, 0.00000000000000000000e+00) (0, 0, 0.00000000000000000000e+00) (0, 0, 0.00000000000000000000e+00) (0, 0, 0.00000000000000000000e+00) (0, 0, 0.00000000000000000000e+00) (0, 0, 0.00000000000000000000e+00) (0, 0, 0.00000000000000000000e+00) (0, 0, 0.00000000000000000000e+00) (0, 0, 0.00000000000000000000e+00) (0, 0, 0.00000000000000000000e+00) (0, 0, 0.00000000000000000000e+00) (0, 0, 0.00000000000000000000e+00) (0, 0, 0.00000000000000000000e+00) (0, 0, 0.00000000000000000000e+00) (0, 0, 0.00000000000000000000e+00) (0, 0, 0.00000000000000000000e+00) (0, 0, 0.00000000000000000000e+00) (0, 0, 0.00000000000000000000e+00) (0, 0, 0.00000000000000000000e+00) (0, 0, 0.00000000000000000000e+00) (0, 0, 0.00000000000000000000e+00) (0, 0, 0.00000000000000000000e+00) (0, 0, 0.00000000000000000000e+00) (0, 0, 0.00000000000000000000e+00) (0, 0, 0.00000000000000000000e+00) (0, 0, 0.00000000000000000000e+00) (0, 0, 0.00000000000000000000e+00) (0, 0, 0.00000000000000000000e+00) (0, 0, 0.00000000000000000000e+00) (0, 0, 0.00000000000000000000e+00) (0, 0, 0.00000000000000000000e+00) (0, 0, 0.00000000000000000000e+00) (0, 0, 0.00000000000000000000e+00) (0, 0, 0.00000000000000000000e+00) (0, 0, 0.00000000000000000000e+00) (0, 0, 0.00000000000000000000e+00) (0, 0, 0.00000000000000000000e+00) (0, 0, 0.00000000000000000000e+00) (0, 0, 0.00000000000000000000e+00) (0, 0, 0.00000000000000000000e+00) (0, 0, 0.00000000000000000000e+00) (0, 0, 0.00000000000000000000e+00) (0, 0, 0.00000000000000000000e+00) (0, 0, 0.00000000000000000000e+00) (0, 0, 0.00000000000000000000e+00) (0, 0, 0.00000000000000000000e+00) (0, 0, 0.00000000000000000000e+00) (0, 0, 0.00000000000000000000e+00) (0, 0, 0.00000000000000000000e+00) (0, 0, 0.00000000000000000000e+00) (0, 0, 0.00000000000000000000e+00) (0, 0, 0.00000000000000000000e+00) (0, 0, 0.00000000000000000000e+00) (0, 0, 0.00000000000000000000e+00) (0, 0, 0.00000000000000000000e+00) (0, 0, 0.00000000000000000000e+00) (0, 0, 0.00000000000000000000e+00) (0, 0, 0.00000000000000000000e+00) (0, 0, 0.00000000000000000000e+00) (0, 0, 0.00000000000000000000e+00) (0, 0, 0.00000000000000000000e+00) (0, 0, 0.00000000000000000000e+00) (0, 0, 0.00000000000000000000e+00) (0, 0, 0.00000000000000000000e+00) (0, 0, 0.00000000000000000000e+00) (0, 0, 0.00000000000000000000e+00) (0, 0, 0.00000000000000000000e+00) (0, 0, 0.00000000000000000000e+00) (0, 0, 0.00000000000000000000e+00) (0, 0, 0.00000000000000000000e+00) (0, 0, 0.00000000000000000000e+00) (0, 0, 0.00000000000000000000e+00) (0, 0, 0.00000000000000000000e+00) (0, 0, 0.00000000000000000000e+00) (0, 0, 0.00000000000000000000e+00) (0, 0, 0.00000000000000000000e+00) (0, 0, 0.00000000000000000000e+00) (0, 0, 0.00000000000000000000e+00) (0, 0, 0.00000000000000000000e+00) (0, 0, 0.00000000000000000000e+00) (0, 0, 0.00000000000000000000e+00) (0, 0, 0.00000000000000000000e+00) (0, 0, 0.00000000000000000000e+00) (0, 0, 0.00000000000000000000e+00) (0, 0, 0.00000000000000000000e+00) (0, 0, 0.00000000000000000000e+00) (0, 0, 0.00000000000000000000e+00) (0, 0, 0.00000000000000000000e+00) (0, 0, 0.00000000000000000000e+00) (0, 0, 0.00000000000000000000e+00) (0, 0, 0.00000000000000000000e+00) (0, 0, 0.00000000000000000000e+00) (0, 0, 0.00000000000000000000e+00) (0, 0, 0.00000000000000000000e+00) (0, 0, 0.00000000000000000000e+00) (0, 0, 0.00000000000000000000e+00) (0, 0, 0.00000000000000000000e+00) (0, 0, 0.00000000000000000000e+00) (0, 0, 0.00000000000000000000e+00) (0, 0, 0.00000000000000000000e+00) (0, 0, 0.00000000000000000000e+00) (0, 0, 0.00000000000000000000e+00) (0, 0, 0.00000000000000000000e+00) (0, 0, 0.00000000000000000000e+00) (0, 0, 0.00000000000000000000e+00) (0, 0, 0.00000000000000000000e+00) (0, 0, 0.00000000000000000000e+00) (0, 0, 0.00000000000000000000e+00) (0, 0, 0.00000000000000000000e+00) (0, 0, 0.00000000000000000000e+00) (0, 0, 0.00000000000000000000e+00) (0, 0, 0.00000000000000000000e+00) (0, 0, 0.00000000000000000000e+00) (0, 0, 0.00000000000000000000e+00) (0, 0, 0.00000000000000000000e+00) (0, 0, 0.00000000000000000000e+00) (0, 0, 0.00000000000000000000e+00) (0, 0, 0.00000000000000000000e+00) (0, 0, 0.00000000000000000000e+00) (0, 0, 0.00000000000000000000e+00) (0, 0, 0.00000000000000000000e+00) (0, 0, 0.00000000000000000000e+00) (0, 0, 0.00000000000000000000e+00) (0, 0, 0.00000000000000000000e+00) (0, 0, 0.00000000000000000000e+00) (0, 0, 0.00000000000000000000e+00) (0, 0, 0.00000000000000000000e+00) (0, 0, 0.00000000000000000000e+00) (0, 0, 0.00000000000000000000e+00) (0, 0, 0.00000000000000000000e+00) (0, 0, 0.00000000000000000000e+00) (0, 0, 0.00000000000000000000e+00) (0, 0, 0.00000000000000000000e+00) (0, 0, 0.00000000000000000000e+00) (0, 0, 0.00000000000000000000e+00) (0, 0, 0.00000000000000000000e+00) (0, 0, 0.00000000000000000000e+00) (0, 0, 0.00000000000000000000e+00) (0, 0, 0.00000000000000000000e+00) (0, 0, 0.00000000000000000000e+00) (0, 0, 0.00000000000000000000e+00) (0, 0, 0.00000000000000000000e+00) (0, 0, 0.00000000000000000000e+00) (0, 0, 0.00000000000000000000e+00) (0, 0, 0.00000000000000000000e+00) (0, 0, 0.00000000000000000000e+00) (0, 0, 0.00000000000000000000e+00) (0, 0, 0.00000000000000000000e+00) (0, 0, 0.00000000000000000000e+00) (0, 0, 0.00000000000000000000e+00) (0, 0, 0.00000000000000000000e+00) (0, 0, 0.00000000000000000000e+00) (0, 0, 0.00000000000000000000e+00) (0, 0, 0.00000000000000000000e+00) (0, 0, 0.00000000000000000000e+00) (0, 0, 0.00000000000000000000e+00) (0, 0, 0.00000000000000000000e+00) (0, 0, 0.00000000000000000000e+00) (0, 0, 0.00000000000000000000e+00) (0, 0, 0.00000000000000000000e+00) (0, 0, 0.00000000000000000000e+00) (0, 0, 0.00000000000000000000e+00) (0, 0, 0.00000000000000000000e+00) (0, 0, 0.00000000000000000000e+00) (0, 0, 0.00000000000000000000e+00) (0, 0, 0.00000000000000000000e+00) (0, 0, 0.00000000000000000000e+00) (0, 0, 0.00000000000000000000e+00) (0, 0, 0.00000000000000000000e+00) (0, 0, 0.00000000000000000000e+00) (0, 0, 0.00000000000000000000e+00) (0, 0, 0.00000000000000000000e+00) (0, 0, 0.00000000000000000000e+00) (0, 0, 0.00000000000000000000e+00) (0, 0, 0.00000000000000000000e+00) (0, 0, 0.00000000000000000000e+00) (0, 0, 0.00000000000000000000e+00) (0, 0, 0.00000000000000000000e+00) (0, 0, 0.00000000000000000000e+00) (0, 0, 0.00000000000000000000e+00) (0, 0, 0.00000000000000000000e+00) (0, 0, 0.00000000000000000000e+00) (0, 0, 0.00000000000000000000e+00) (0, 0, 0.00000000000000000000e+00) (0, 0, 0.00000000000000000000e+00) (0, 0, 0.00000000000000000000e+00) (0, 0, 0.00000000000000000000e+00) (0, 0, 0.00000000000000000000e+00) (0, 0, 0.00000000000000000000e+00) (0, 0, 0.00000000000000000000e+00) (0, 0, 0.00000000000000000000e+00) (0, 0, 0.00000000000000000000e+00) (0, 0, 0.00000000000000000000e+00) (0, 0, 0.00000000000000000000e+00) (0, 0, 0.00000000000000000000e+00) (0, 0, 0.00000000000000000000e+00) (0, 0, 0.00000000000000000000e+00) (0, 0, 0.00000000000000000000e+00) (0, 0, 0.00000000000000000000e+00) (0, 0, 0.00000000000000000000e+00) (0, 0, 0.00000000000000000000e+00) (0, 0, 0.00000000000000000000e+00) (0, 0, 0.00000000000000000000e+00) (0, 0, 0.00000000000000000000e+00) (0, 0, 0.00000000000000000000e+00) (0, 0, 0.00000000000000000000e+00) (0, 0, 0.00000000000000000000e+00) (0, 0, 0.00000000000000000000e+00) (0, 0, 0.00000000000000000000e+00) (0, 0, 0.00000000000000000000e+00) (0, 0, 0.00000000000000000000e+00) (0, 0, 0.00000000000000000000e+00) (0, 0, 0.00000000000000000000e+00) (0, 0, 0.00000000000000000000e+00) (0, 0, 0.00000000000000000000e+00) (0, 0, 0.00000000000000000000e+00) (0, 0, 0.00000000000000000000e+00) (0, 0, 0.00000000000000000000e+00) (0, 0, 0.00000000000000000000e+00) (0, 0, 0.00000000000000000000e+00) (0, 0, 0.00000000000000000000e+00) (0, 0, 0.00000000000000000000e+00) (0, 0, 0.00000000000000000000e+00) (0, 0, 0.00000000000000000000e+00) (0, 0, 0.00000000000000000000e+00) (0, 0, 0.00000000000000000000e+00) (0, 0, 0.00000000000000000000e+00) (0, 0, 0.00000000000000000000e+00) (0, 0, 0.00000000000000000000e+00) (0, 0, 0.00000000000000000000e+00) (0, 0, 0.00000000000000000000e+00) (0, 0, 0.00000000000000000000e+00) (0, 0, 0.00000000000000000000e+00) (0, 0, 0.00000000000000000000e+00) (0, 0, 0.00000000000000000000e+00) (0, 0, 0.00000000000000000000e+00) (0, 0, 0.00000000000000000000e+00) (0, 0, 0.00000000000000000000e+00) (0, 0, 0.00000000000000000000e+00) (0, 0, 0.00000000000000000000e+00) (0, 0, 0.00000000000000000000e+00) (0, 0, 0.00000000000000000000e+00) (0, 0, 0.00000000000000000000e+00) (0, 0, 0.00000000000000000000e+00) (0, 0, 0.00000000000000000000e+00) (0, 0, 0.00000000000000000000e+00) (0, 0, 0.00000000000000000000e+00) (0, 0, 0.00000000000000000000e+00) (0, 0, 0.00000000000000000000e+00) (0, 0, 0.00000000000000000000e+00) (0, 0, 0.00000000000000000000e+00) (0, 0, 0.00000000000000000000e+00) (0, 0, 0.00000000000000000000e+00) (0, 0, 0.00000000000000000000e+00) (0, 0, 0.00000000000000000000e+00) (0, 0, 0.00000000000000000000e+00) (0, 0, 0.00000000000000000000e+00) (0, 0, 0.00000000000000000000e+00) (0, 0, 0.00000000000000000000e+00) (0, 0, 0.00000000000000000000e+00) (0, 0, 0.00000000000000000000e+00) (0, 0, 0.00000000000000000000e+00) (0, 0, 0.00000000000000000000e+00) (0, 0, 0.00000000000000000000e+00) (0, 0, 0.00000000000000000000e+00) (0, 0, 0.00000000000000000000e+00) (0, 0, 0.00000000000000000000e+00) (0, 0, 0.00000000000000000000e+00) (0, 0, 0.00000000000000000000e+00) (0, 0, 0.00000000000000000000e+00) (0, 0, 0.00000000000000000000e+00) (0, 0, 0.00000000000000000000e+00) (0, 0, 0.00000000000000000000e+00) (0, 0, 0.00000000000000000000e+00) (0, 0, 0.00000000000000000000e+00) (0, 0, 0.00000000000000000000e+00) (0, 0, 0.00000000000000000000e+00) (0, 0, 0.00000000000000000000e+00) (0, 0, 0.00000000000000000000e+00) (0, 0, 0.00000000000000000000e+00) (0, 0, 0.00000000000000000000e+00) (0, 0, 0.00000000000000000000e+00) (0, 0, 0.00000000000000000000e+00) (0, 0, 0.00000000000000000000e+00) (0, 0, 0.00000000000000000000e+00) (0, 0, 0.00000000000000000000e+00) (0, 0, 0.00000000000000000000e+00) (0, 0, 0.00000000000000000000e+00) (0, 0, 0.00000000000000000000e+00) (0, 0, 0.00000000000000000000e+00) (0, 0, 0.00000000000000000000e+00) (0, 0, 0.00000000000000000000e+00) (0, 0, 0.00000000000000000000e+00) (0, 0, 0.00000000000000000000e+00) (0, 0, 0.00000000000000000000e+00) (0, 0, 0.00000000000000000000e+00) (0, 0, 0.00000000000000000000e+00) (0, 0, 0.00000000000000000000e+00) (0, 0, 0.00000000000000000000e+00) (0, 0, 0.00000000000000000000e+00) (0, 0, 0.00000000000000000000e+00) (0, 0, 0.00000000000000000000e+00) (0, 0, 0.00000000000000000000e+00) (0, 0, 0.00000000000000000000e+00) (0, 0, 0.00000000000000000000e+00) (0, 0, 0.00000000000000000000e+00) (0, 0, 0.00000000000000000000e+00) (0, 0, 0.00000000000000000000e+00) (0, 0, 0.00000000000000000000e+00) (0, 0, 0.00000000000000000000e+00) (0, 0, 0.00000000000000000000e+00) (0, 0, 0.00000000000000000000e+00) (0, 0, 0.00000000000000000000e+00) (0, 0, 0.00000000000000000000e+00) (0, 0, 0.00000000000000000000e+00) (0, 0, 0.00000000000000000000e+00) (0, 0, 0.00000000000000000000e+00) (0, 0, 0.00000000000000000000e+00) (0, 0, 0.00000000000000000000e+00) (0, 0, 0.00000000000000000000e+00) (0, 0, 0.00000000000000000000e+00) (0, 0, 0.00000000000000000000e+00) (0, 0, 0.00000000000000000000e+00) (0, 0, 0.00000000000000000000e+00) (0, 0, 0.00000000000000000000e+00) (0, 0, 0.00000000000000000000e+00) (0, 0, 0.00000000000000000000e+00) (0, 0, 0.00000000000000000000e+00) (0, 0, 0.00000000000000000000e+00) (0, 0, 0.00000000000000000000e+00) (0, 0, 0.00000000000000000000e+00) (0, 0, 0.00000000000000000000e+00) (0, 0, 0.00000000000000000000e+00) (0, 0, 0.00000000000000000000e+00) (0, 0, 0.00000000000000000000e+00) (0, 0, 0.00000000000000000000e+00) (0, 0, 0.00000000000000000000e+00) (0, 0, 0.00000000000000000000e+00) (0, 0, 0.00000000000000000000e+00) (0, 0, 0.00000000000000000000e+00) (0, 0, 0.00000000000000000000e+00) (0, 0, 0.00000000000000000000e+00) (0, 0, 0.00000000000000000000e+00) (0, 0, 0.00000000000000000000e+00) (0, 0, 0.00000000000000000000e+00) (0, 0, 0.00000000000000000000e+00) (0, 0, 0.00000000000000000000e+00) (0, 0, 0.00000000000000000000e+00) (0, 0, 0.00000000000000000000e+00) (0, 0, 0.00000000000000000000e+00) (0, 0, 0.00000000000000000000e+00) (0, 0, 0.00000000000000000000e+00) (0, 0, 0.00000000000000000000e+00) (0, 0, 0.00000000000000000000e+00) (0, 0, 0.00000000000000000000e+00) (0, 0, 0.00000000000000000000e+00) (0, 0, 0.00000000000000000000e+00) (0, 0, 0.00000000000000000000e+00) (0, 0, 0.00000000000000000000e+00) (0, 0, 0.00000000000000000000e+00) (0, 0, 0.00000000000000000000e+00) (0, 0, 0.00000000000000000000e+00) (0, 0, 0.00000000000000000000e+00) (0, 0, 0.00000000000000000000e+00) (0, 0, 0.00000000000000000000e+00) (0, 0, 0.00000000000000000000e+00) (0, 0, 0.00000000000000000000e+00) (0, 0, 0.00000000000000000000e+00) (0, 0, 0.00000000000000000000e+00) (0, 0, 0.00000000000000000000e+00) (0, 0, 0.00000000000000000000e+00) (0, 0, 0.00000000000000000000e+00) (0, 0, 0.00000000000000000000e+00) (0, 0, 0.00000000000000000000e+00) (0, 0, 0.00000000000000000000e+00) (0, 0, 0.00000000000000000000e+00) (0, 0, 0.00000000000000000000e+00) (0, 0, 0.00000000000000000000e+00) (0, 0, 0.00000000000000000000e+00) (0, 0, 0.00000000000000000000e+00) (0, 0, 0.00000000000000000000e+00) (0, 0, 0.00000000000000000000e+00) (0, 0, 0.00000000000000000000e+00) (0, 0, 0.00000000000000000000e+00) (0, 0, 0.00000000000000000000e+00) (0, 0, 0.00000000000000000000e+00) (0, 0, 0.00000000000000000000e+00) (0, 0, 0.00000000000000000000e+00) (0, 0, 0.00000000000000000000e+00) (0, 0, 0.00000000000000000000e+00) (0, 0, 0.00000000000000000000e+00) (0, 0, 0.00000000000000000000e+00) (0, 0, 0.00000000000000000000e+00) (0, 0, 0.00000000000000000000e+00) (0, 0, 0.00000000000000000000e+00) (0, 0, 0.00000000000000000000e+00) (0, 0, 0.00000000000000000000e+00) (0, 0, 0.00000000000000000000e+00) (0, 0, 0.00000000000000000000e+00) (0, 0, 0.00000000000000000000e+00) (0, 0, 0.00000000000000000000e+00) (0, 0, 0.00000000000000000000e+00) (0, 0, 0.00000000000000000000e+00) (0, 0, 0.00000000000000000000e+00) (0, 0, 0.00000000000000000000e+00) (0, 0, 0.00000000000000000000e+00) (0, 0, 0.00000000000000000000e+00) (0, 0, 0.00000000000000000000e+00) (0, 0, 0.00000000000000000000e+00) (0, 0, 0.00000000000000000000e+00) (0, 0, 0.00000000000000000000e+00) (0, 0, 0.00000000000000000000e+00) (0, 0, 0.00000000000000000000e+00) (0, 0, 0.00000000000000000000e+00) (0, 0, 0.00000000000000000000e+00) (0, 0, 0.00000000000000000000e+00) (0, 0, 0.00000000000000000000e+00) (0, 0, 0.00000000000000000000e+00) (0, 0, 0.00000000000000000000e+00) (0, 0, 0.00000000000000000000e+00) (0, 0, 0.00000000000000000000e+00) (0, 0, 0.00000000000000000000e+00) (0, 0, 0.00000000000000000000e+00) (0, 0, 0.00000000000000000000e+00) (0, 0, 0.00000000000000000000e+00) (0, 0, 0.00000000000000000000e+00) (0, 0, 0.00000000000000000000e+00) (0, 0, 0.00000000000000000000e+00) (0, 0, 0.00000000000000000000e+00) (0, 0, 0.00000000000000000000e+00) (0, 0, 0.00000000000000000000e+00) (0, 0, 0.00000000000000000000e+00) (0, 0, 0.00000000000000000000e+00) (0, 0, 0.00000000000000000000e+00) (0, 0, 0.00000000000000000000e+00) (0, 0, 0.00000000000000000000e+00) (0, 0, 0.00000000000000000000e+00) (0, 0, 0.00000000000000000000e+00) (0, 0, 0.00000000000000000000e+00) (0, 0, 0.00000000000000000000e+00) (0, 0, 0.00000000000000000000e+00) (0, 0, 0.00000000000000000000e+00) (0, 0, 0.00000000000000000000e+00) (0, 0, 0.00000000000000000000e+00) (0, 0, 0.00000000000000000000e+00) (0, 0, 0.00000000000000000000e+00) (0, 0, 0.00000000000000000000e+00) (0, 0, 0.00000000000000000000e+00) (0, 0, 0.00000000000000000000e+00) (0, 0, 0.00000000000000000000e+00) (0, 0, 0.00000000000000000000e+00) (0, 0, 0.00000000000000000000e+00) (0, 0, 0.00000000000000000000e+00) (0, 0, 0.00000000000000000000e+00) (0, 0, 0.00000000000000000000e+00) (0, 0, 0.00000000000000000000e+00) (0, 0, 0.00000000000000000000e+00) (0, 0, 0.00000000000000000000e+00) (0, 0, 0.00000000000000000000e+00) (0, 0, 0.00000000000000000000e+00) (0, 0, 0.00000000000000000000e+00) (0, 0, 0.00000000000000000000e+00) (0, 0, 0.00000000000000000000e+00) (0, 0, 0.00000000000000000000e+00) (0, 0, 0.00000000000000000000e+00) (0, 0, 0.00000000000000000000e+00) (0, 0, 0.00000000000000000000e+00) (0, 0, 0.00000000000000000000e+00) (0, 0, 0.00000000000000000000e+00) (0, 0, 0.00000000000000000000e+00) (0, 0, 0.00000000000000000000e+00) (0, 0, 0.00000000000000000000e+00) (0, 0, 0.00000000000000000000e+00) (0, 0, 0.00000000000000000000e+00) (0, 0, 0.00000000000000000000e+00) (0, 0, 0.00000000000000000000e+00) (0, 0, 0.00000000000000000000e+00) (0, 0, 0.00000000000000000000e+00) (0, 0, 0.00000000000000000000e+00) (0, 0, 0.00000000000000000000e+00) (0, 0, 0.00000000000000000000e+00) (0, 0, 0.00000000000000000000e+00) (0, 0, 0.00000000000000000000e+00) (0, 0, 0.00000000000000000000e+00) (0, 0, 0.00000000000000000000e+00) (0, 0, 0.00000000000000000000e+00) (0, 0, 0.00000000000000000000e+00) (0, 0, 0.00000000000000000000e+00) (0, 0, 0.00000000000000000000e+00) (0, 0, 0.00000000000000000000e+00) (0, 0, 0.00000000000000000000e+00) (0, 0, 0.00000000000000000000e+00) (0, 0, 0.00000000000000000000e+00) (0, 0, 0.00000000000000000000e+00) (0, 0, 0.00000000000000000000e+00) (0, 0, 0.00000000000000000000e+00) (0, 0, 0.00000000000000000000e+00) (0, 0, 0.00000000000000000000e+00) (0, 0, 0.00000000000000000000e+00) (0, 0, 0.00000000000000000000e+00) (0, 0, 0.00000000000000000000e+00) (0, 0, 0.00000000000000000000e+00) (0, 0, 0.00000000000000000000e+00) (0, 0, 0.00000000000000000000e+00) (0, 0, 0.00000000000000000000e+00) (0, 0, 0.00000000000000000000e+00) (0, 0, 0.00000000000000000000e+00) (0, 0, 0.00000000000000000000e+00) (0, 0, 0.00000000000000000000e+00) (0, 0, 0.00000000000000000000e+00) (0, 0, 0.00000000000000000000e+00) (0, 0, 0.00000000000000000000e+00) (0, 0, 0.00000000000000000000e+00) (0, 0, 0.00000000000000000000e+00) (0, 0, 0.00000000000000000000e+00) (0, 0, 0.00000000000000000000e+00) (0, 0, 0.00000000000000000000e+00) (0, 0, 0.00000000000000000000e+00) (0, 0, 0.00000000000000000000e+00) (0, 0, 0.00000000000000000000e+00) (0, 0, 0.00000000000000000000e+00) (0, 0, 0.00000000000000000000e+00) (0, 0, 0.00000000000000000000e+00) (0, 0, 0.00000000000000000000e+00) (0, 0, 0.00000000000000000000e+00) (0, 0, 0.00000000000000000000e+00) (0, 0, 0.00000000000000000000e+00) (0, 0, 0.00000000000000000000e+00) (0, 0, 0.00000000000000000000e+00) (0, 0, 0.00000000000000000000e+00) (0, 0, 0.00000000000000000000e+00) (0, 0, 0.00000000000000000000e+00) (0, 0, 0.00000000000000000000e+00) (0, 0, 0.00000000000000000000e+00) (0, 0, 0.00000000000000000000e+00) (0, 0, 0.00000000000000000000e+00) (0, 0, 0.00000000000000000000e+00) (0, 0, 0.00000000000000000000e+00) (0, 0, 0.00000000000000000000e+00) (0, 0, 0.00000000000000000000e+00) (0, 0, 0.00000000000000000000e+00) (0, 0, 0.00000000000000000000e+00) (0, 0, 0.00000000000000000000e+00) (0, 0, 0.00000000000000000000e+00) (0, 0, 0.00000000000000000000e+00) (0, 0, 0.00000000000000000000e+00) (0, 0, 0.00000000000000000000e+00) (0, 0, 0.00000000000000000000e+00) (0, 0, 0.00000000000000000000e+00) (0, 0, 0.00000000000000000000e+00) (0, 0, 0.00000000000000000000e+00) (0, 0, 0.00000000000000000000e+00) (0, 0, 0.00000000000000000000e+00) (0, 0, 0.00000000000000000000e+00) (0, 0, 0.00000000000000000000e+00) (0, 0, 0.00000000000000000000e+00) (0, 0, 0.00000000000000000000e+00) (0, 0, 0.00000000000000000000e+00) (0, 0, 0.00000000000000000000e+00) (0, 0, 0.00000000000000000000e+00) (0, 0, 0.00000000000000000000e+00) (0, 0, 0.00000000000000000000e+00) (0, 0, 0.00000000000000000000e+00) (0, 0, 0.00000000000000000000e+00) (0, 0, 0.00000000000000000000e+00) (0, 0, 0.00000000000000000000e+00) (0, 0, 0.00000000000000000000e+00) (0, 0, 0.00000000000000000000e+00) (0, 0, 0.00000000000000000000e+00) (0, 0, 0.00000000000000000000e+00) (785, 4, 5.00000000000000000000e-01) (785, 4, 5.00000000000000000000e-01) (785, 4, 5.00000000000000000000e-01) (785, 4, 5.00000000000000000000e-01) (785, 4, 5.00000000000000000000e-01) (785, 4, 5.00000000000000000000e-01) (785, 4, 5.00000000000000000000e-01) (785, 4, 5.00000000000000000000e-01) (785, 4, 5.00000000000000000000e-01) (785, 4, 5.00000000000000000000e-01) (785, 4, 5.00000000000000000000e-01) (785, 4, 5.00000000000000000000e-01) (785, 4, 5.00000000000000000000e-01) (785, 4, 5.00000000000000000000e-01) (785, 4, 5.00000000000000000000e-01) (785, 4, 5.00000000000000000000e-01) (785, 4, 5.00000000000000000000e-01) (785, 4, 5.00000000000000000000e-01) (785, 4, 5.00000000000000000000e-01) (785, 4, 5.00000000000000000000e-01) (0, 0, 0.00000000000000000000e+00) (21, 3, 5.00000000000000000000e-01) (21, 3, 5.00000000000000000000e-01) (21, 3, 5.00000000000000000000e-01) (21, 3, 5.00000000000000000000e-01) (21, 3, 5.00000000000000000000e-01) (21, 3, 5.00000000000000000000e-01) (21, 3, 5.00000000000000000000e-01) (21, 3, 5.00000000000000000000e-01) (21, 3, 5.00000000000000000000e-01) (21, 3, 5.00000000000000000000e-01) (0, 3, 0.00000000000000000000e+00) 
connections (connected_to_neuron, weight)=(0, 1.50000000000000000000e+03) (1, 1.50000000000000000000e+03) (2, 1.50000000000000000000e+03) (3, 1.50000000000000000000e+03) (4, 1.50000000000000000000e+03) (5, 1.50000000000000000000e+03) (6, 1.50000000000000000000e+03) (7, 1.50000000000000000000e+03) (8, 1.50000000000000000000e+03) (9, 1.50000000000000000000e+03) (10, 1.50000000000000000000e+03) (11, 1.50000000000000000000e+03) (12, 1.50000000000000000000e+03) (13, 1.50000000000000000000e+03) (14, 1.18571850585937500000e+03) (15, 1.18571850585937500000e+03) (16, 1.50000000000000000000e+03) (17, 1.50000000000000000000e+03) (18, 1.50000000000000000000e+03) (19, 1.50000000000000000000e+03) (20, 1.50000000000000000000e+03) (21, 1.50000000000000000000e+03) (22, 1.50000000000000000000e+03) (23, 1.50000000000000000000e+03) (24, 1.50000000000000000000e+03) (25, 1.50000000000000000000e+03) (26, 1.50000000000000000000e+03) (27, 1.50000000000000000000e+03) (28, 1.50000000000000000000e+03) (29, 1.50000000000000000000e+03) (30, 1.50000000000000000000e+03) (31, 1.50000000000000000000e+03) (32, 1.50000000000000000000e+03) (33, 1.50000000000000000000e+03) (34, 1.50000000000000000000e+03) (35, 1.50000000000000000000e+03) (36, 1.50000000000000000000e+03) (37, 1.50000000000000000000e+03) (38, 1.50000000000000000000e+03) (39, 1.50000000000000000000e+03) (40, 1.50000000000000000000e+03) (41, 1.50000000000000000000e+03) (42, 1.50000000000000000000e+03) (43, 1.50000000000000000000e+03) (44, 1.50000000000000000000e+03) (45, 1.50000000000000000000e+03) (46, 1.50000000000000000000e+03) (47, 1.50000000000000000000e+03) (48, 1.50000000000000000000e+03) (49, 1.50000000000000000000e+03) (50, 1.50000000000000000000e+03) (51, 1.50000000000000000000e+03) (52, 1.50000000000000000000e+03) (53, 1.50000000000000000000e+03) (54, 1.50000000000000000000e+03) (55, 1.50000000000000000000e+03) (56, 1.50000000000000000000e+03) (57, 1.50000000000000000000e+03) (58, 1.50000000000000000000e+03) (59, 1.50000000000000000000e+03) (60, 8.78538696289062500000e+02) (61, 1.50000000000000000000e+03) (62, 1.50000000000000000000e+03) (63, 1.50000000000000000000e+03) (64, 1.93601074218750000000e+02) (65, -1.49674731445312500000e+03) (66, 1.43851058959960937500e+02) (67, 1.50000000000000000000e+03) (68, 1.50000000000000000000e+03) (69, 1.50000000000000000000e+03) (70, 1.50000000000000000000e+03) (71, 1.50000000000000000000e+03) (72, 1.50000000000000000000e+03) (73, 1.50000000000000000000e+03) (74, 1.50000000000000000000e+03) (75, 1.50000000000000000000e+03) (76, 1.50000000000000000000e+03) (77, 1.50000000000000000000e+03) (78, 1.50000000000000000000e+03) (79, 1.50000000000000000000e+03) (80, 1.50000000000000000000e+03) (81, 1.50000000000000000000e+03) (82, 1.50000000000000000000e+03) (83, 1.50000000000000000000e+03) (84, 1.50000000000000000000e+03) (85, 1.50000000000000000000e+03) (86, 1.50000000000000000000e+03) (87, 1.50000000000000000000e+03) (88, -4.78061462402343750000e+02) (89, 1.50000000000000000000e+03) (90, -1.22837841796875000000e+03) (91, -1.39720080566406250000e+03) (92, -1.49470715332031250000e+03) (93, 1.96414184570312500000e+01) (94, 1.50000000000000000000e+03) (95, 1.50000000000000000000e+03) (96, 1.50000000000000000000e+03) (97, 1.50000000000000000000e+03) (98, 1.50000000000000000000e+03) (99, 1.50000000000000000000e+03) (100, 1.50000000000000000000e+03) (101, 1.50000000000000000000e+03) (102, 1.50000000000000000000e+03) (103, -9.87070434570312500000e+02) (104, -3.76243286132812500000e+02) (105, 1.50000000000000000000e+03) (106, -1.36698803710937500000e+03) (107, -9.34774902343750000000e+02) (108, 1.49952001953125000000e+03) (109, 1.50000000000000000000e+03) (110, -1.61407592773437500000e+02) (111, 1.50000000000000000000e+03) (112, 1.50000000000000000000e+03) (113, 1.50000000000000000000e+03) (114, 1.50000000000000000000e+03) (115, 1.50000000000000000000e+03) (116, 1.37004931640625000000e+03) (117, -1.16840133666992187500e+02) (118, 1.50000000000000000000e+03) (119, 1.50000000000000000000e+03) (120, 1.50000000000000000000e+03) (121, 1.50000000000000000000e+03) (122, 1.50000000000000000000e+03) (123, 1.50000000000000000000e+03) (124, 1.50000000000000000000e+03) (125, 1.50000000000000000000e+03) (126, 1.50000000000000000000e+03) (127, 1.50000000000000000000e+03) (128, 1.50000000000000000000e+03) (129, 1.50000000000000000000e+03) (130, 1.50000000000000000000e+03) (131, -1.50000000000000000000e+03) (132, -1.50000000000000000000e+03) (133, -1.50000000000000000000e+03) (134, -1.50000000000000000000e+03) (135, -1.50000000000000000000e+03) (136, -1.50000000000000000000e+03) (137, 3.52358459472656250000e+02) (138, 1.50000000000000000000e+03) (139, -1.58000488281250000000e+01) (140, 1.50000000000000000000e+03) (141, 1.50000000000000000000e+03) (142, 1.50000000000000000000e+03) (143, 1.50000000000000000000e+03) (144, 1.50000000000000000000e+03) (145, 1.50000000000000000000e+03) (146, 1.50000000000000000000e+03) (147, 1.50000000000000000000e+03) (148, 1.50000000000000000000e+03) (149, 1.50000000000000000000e+03) (150, 1.50000000000000000000e+03) (151, 1.50000000000000000000e+03) (152, 1.50000000000000000000e+03) (153, 1.50000000000000000000e+03) (154, 1.50000000000000000000e+03) (155, 1.50000000000000000000e+03) (156, 1.50000000000000000000e+03) (157, 1.50000000000000000000e+03) (158, 1.09048352050781250000e+03) (159, 9.96216003417968750000e+02) (160, -4.70559654235839843750e+01) (161, -1.50000000000000000000e+03) (162, -1.50000000000000000000e+03) (163, -1.50000000000000000000e+03) (164, -1.50000000000000000000e+03) (165, 1.50000000000000000000e+03) (166, 1.50000000000000000000e+03) (167, -6.00000061035156250000e+02) (168, 1.50000000000000000000e+03) (169, 1.50000000000000000000e+03) (170, -1.43975634765625000000e+03) (171, 1.50000000000000000000e+03) (172, 1.50000000000000000000e+03) (173, 1.50000000000000000000e+03) (174, 1.50000000000000000000e+03) (175, 1.50000000000000000000e+03) (176, 1.50000000000000000000e+03) (177, 1.50000000000000000000e+03) (178, 1.50000000000000000000e+03) (179, 1.50000000000000000000e+03) (180, 1.50000000000000000000e+03) (181, 1.50000000000000000000e+03) (182, 1.50000000000000000000e+03) (183, 1.50000000000000000000e+03) (184, 1.48452612304687500000e+03) (185, 1.44005627441406250000e+03) (186, 1.49825634765625000000e+03) (187, 1.47561303710937500000e+03) (188, 1.40523925781250000000e+03) (189, 9.02524414062500000000e+02) (190, -1.50000000000000000000e+03) (191, -1.50000000000000000000e+03) (192, -1.50000000000000000000e+03) (193, 2.72958526611328125000e+02) (194, 1.50000000000000000000e+03) (195, 4.09200073242187500000e+02) (196, -4.49226684570312500000e+01) (197, 8.63738647460937500000e+02) (198, -1.50000000000000000000e+03) (199, 1.43722131347656250000e+03) (200, 1.50000000000000000000e+03) (201, 1.50000000000000000000e+03) (202, 1.50000000000000000000e+03) (203, 1.50000000000000000000e+03) (204, 1.50000000000000000000e+03) (205, 1.50000000000000000000e+03) (206, 1.50000000000000000000e+03) (207, 1.50000000000000000000e+03) (208, 1.50000000000000000000e+03) (209, 1.50000000000000000000e+03) (210, 1.50000000000000000000e+03) (211, -4.45743591308593750000e+02) (212, -5.70004211425781250000e+02) (213, 8.58861328125000000000e+02) (214, 1.49355224609375000000e+03) (215, 1.49018359375000000000e+03) (216, 1.48822009277343750000e+03) (217, 1.49383715820312500000e+03) (218, -1.50000000000000000000e+03) (219, -1.50000000000000000000e+03) (220, -1.50000000000000000000e+03) (221, 8.00591857910156250000e+02) (222, 1.50000000000000000000e+03) (223, -7.31489624023437500000e+02) (224, 1.50000000000000000000e+03) (225, 1.50000000000000000000e+03) (226, -1.50000000000000000000e+03) (227, 1.50000000000000000000e+03) (228, 1.50000000000000000000e+03) (229, 1.49582336425781250000e+03) (230, 1.50000000000000000000e+03) (231, 1.50000000000000000000e+03) (232, 1.50000000000000000000e+03) (233, 1.50000000000000000000e+03) (234, 1.47644055175781250000e+03) (235, 1.49191955566406250000e+03) (236, 1.47172863769531250000e+03) (237, 1.50000000000000000000e+03) (238, 1.50000000000000000000e+03) (239, 1.50000000000000000000e+03) (240, 1.50000000000000000000e+03) (241, 1.50000000000000000000e+03) (242, 1.50000000000000000000e+03) (243, 1.50000000000000000000e+03) (244, 1.50000000000000000000e+03) (245, 1.44078454589843750000e+03) (246, -3.63705078125000000000e+02) (247, -1.50000000000000000000e+03) (248, -1.50000000000000000000e+03) (249, 5.11203765869140625000e+02) (250, 1.50000000000000000000e+03) (251, 8.90800048828125000000e+02) (252, 1.50000000000000000000e+03) (253, 1.50000000000000000000e+03) (254, 1.03356689453125000000e+03) (255, 1.50000000000000000000e+03) (256, 1.50000000000000000000e+03) (257, 1.48616882324218750000e+03) (258, 1.50000000000000000000e+03) (259, 1.49154602050781250000e+03) (260, 1.47299365234375000000e+03) (261, -3.99370971679687500000e+02) (262, -1.50000000000000000000e+03) (263, -1.50000000000000000000e+03) (264, -7.32075927734375000000e+02) (265, 1.48785510253906250000e+03) (266, 1.50000000000000000000e+03) (267, 1.50000000000000000000e+03) (268, 1.50000000000000000000e+03) (269, 1.50000000000000000000e+03) (270, 1.50000000000000000000e+03) (271, 1.50000000000000000000e+03) (272, 1.50000000000000000000e+03) (273, 1.45546301269531250000e+03) (274, -6.76651611328125000000e+01) (275, 7.35136795043945312500e+01) (276, -1.50000000000000000000e+03) (277, -1.50000000000000000000e+03) (278, 1.50000000000000000000e+03) (279, -1.70995056152343750000e+02) (280, 1.50000000000000000000e+03) (281, 1.50000000000000000000e+03) (282, 1.50000000000000000000e+03) (283, 1.50000000000000000000e+03) (284, 1.50000000000000000000e+03) (285, 1.39280639648437500000e+03) (286, 1.25890820312500000000e+03) (287, -1.30686157226562500000e+03) (288, -1.50000000000000000000e+03) (289, -1.50000000000000000000e+03) (290, -1.50000000000000000000e+03) (291, -1.50000000000000000000e+03) (292, -1.50000000000000000000e+03) (293, 1.50000000000000000000e+03) (294, 1.50000000000000000000e+03) (295, 1.50000000000000000000e+03) (296, 1.50000000000000000000e+03) (297, 4.57754364013671875000e+02) (298, 1.48146228027343750000e+03) (299, 1.50000000000000000000e+03) (300, 1.50000000000000000000e+03) (301, 1.50000000000000000000e+03) (302, 1.50000000000000000000e+03) (303, 1.50000000000000000000e+03) (304, 2.61998474121093750000e+02) (305, -1.46700000000000000000e+03) (306, 1.50000000000000000000e+03) (307, 1.50000000000000000000e+03) (308, 4.66656066894531250000e+02) (309, 1.50000000000000000000e+03) (310, 1.50000000000000000000e+03) (311, 1.50000000000000000000e+03) (312, 1.50000000000000000000e+03) (313, -1.34458691406250000000e+03) (314, -1.50000000000000000000e+03) (315, -1.50000000000000000000e+03) (316, -1.50000000000000000000e+03) (317, -1.50000000000000000000e+03) (318, -1.50000000000000000000e+03) (319, -1.50000000000000000000e+03) (320, -1.50000000000000000000e+03) (321, 1.50000000000000000000e+03) (322, 1.50000000000000000000e+03) (323, 1.50000000000000000000e+03) (324, -7.97516723632812500000e+02) (325, -1.50000000000000000000e+03) (326, 1.47152893066406250000e+03) (327, 1.50000000000000000000e+03) (328, 1.50000000000000000000e+03) (329, 1.50000000000000000000e+03) (330, 1.50000000000000000000e+03) (331, 1.50000000000000000000e+03) (332, 1.50000000000000000000e+03) (333, 1.50000000000000000000e+03) (334, 1.50000000000000000000e+03) (335, 1.50000000000000000000e+03) (336, -1.45423950195312500000e+03) (337, 1.50000000000000000000e+03) (338, 1.50000000000000000000e+03) (339, 1.50000000000000000000e+03) (340, 1.75129226684570312500e+02) (341, -1.50000000000000000000e+03) (342, -1.50000000000000000000e+03) (343, -1.50000000000000000000e+03) (344, -1.50000000000000000000e+03) (345, -1.50000000000000000000e+03) (346, -1.50000000000000000000e+03) (347, -1.50000000000000000000e+03) (348, -1.50000000000000000000e+03) (349, 1.50000000000000000000e+03) (350, 1.50000000000000000000e+03) (351, 1.49457763671875000000e+03) (352, -1.50000000000000000000e+03) (353, -1.50000000000000000000e+03) (354, -1.50000000000000000000e+03) (355, -1.42769482421875000000e+03) (356, -1.07570495605468750000e+03) (357, 7.17235168457031250000e+02) (358, 1.50000000000000000000e+03) (359, 1.50000000000000000000e+03) (360, 1.50000000000000000000e+03) (361, 1.50000000000000000000e+03) (362, 1.50000000000000000000e+03) (363, 1.50000000000000000000e+03) (364, -1.31126147460937500000e+03) (365, 1.50000000000000000000e+03) (366, 1.50000000000000000000e+03) (367, 1.50000000000000000000e+03) (368, -1.50000000000000000000e+03) (369, -1.50000000000000000000e+03) (370, -1.50000000000000000000e+03) (371, -1.50000000000000000000e+03) (372, -1.50000000000000000000e+03) (373, -1.50000000000000000000e+03) (374, -1.50000000000000000000e+03) (375, -1.50000000000000000000e+03) (376, -1.50000000000000000000e+03) (377, 1.36606042480468750000e+03) (378, 1.46667614746093750000e+03) (379, -1.50000000000000000000e+03) (380, -1.50000000000000000000e+03) (381, -1.50000000000000000000e+03) (382, -1.50000000000000000000e+03) (383, -1.50000000000000000000e+03) (384, -1.50000000000000000000e+03) (385, -7.23724853515625000000e+02) (386, 1.50000000000000000000e+03) (387, 1.50000000000000000000e+03) (388, 1.50000000000000000000e+03) (389, 1.50000000000000000000e+03) (390, 1.50000000000000000000e+03) (391, 1.50000000000000000000e+03) (392, -1.50000000000000000000e+03) (393, 1.50000000000000000000e+03) (394, 1.50000000000000000000e+03) (395, -8.66322753906250000000e+02) (396, -1.50000000000000000000e+03) (397, -1.50000000000000000000e+03) (398, -1.50000000000000000000e+03) (399, -1.50000000000000000000e+03) (400, -1.50000000000000000000e+03) (401, -1.50000000000000000000e+03) (402, -1.50000000000000000000e+03) (403, -1.50000000000000000000e+03) (404, -1.50000000000000000000e+03) (405, 1.85402038574218750000e+02) (406, 1.48486694335937500000e+03) (407, -1.50000000000000000000e+03) (408, -1.50000000000000000000e+03) (409, -1.50000000000000000000e+03) (410, -1.50000000000000000000e+03) (411, -1.50000000000000000000e+03) (412, -1.50000000000000000000e+03) (413, -1.40312878417968750000e+03) (414, -3.42312164306640625000e+02) (415, 1.17846289062500000000e+03) (416, 1.50000000000000000000e+03) (417, 1.50000000000000000000e+03) (418, 1.50000000000000000000e+03) (419, 1.50000000000000000000e+03) (420, -1.50000000000000000000e+03) (421, 1.50000000000000000000e+03) (422, 1.50000000000000000000e+03) (423, -1.50000000000000000000e+03) (424, -1.50000000000000000000e+03) (425, -1.50000000000000000000e+03) (426, -1.50000000000000000000e+03) (427, -1.50000000000000000000e+03) (428, -1.50000000000000000000e+03) (429, -1.50000000000000000000e+03) (430, -1.50000000000000000000e+03) (431, -1.50000000000000000000e+03) (432, -1.50000000000000000000e+03) (433, 1.20018811035156250000e+03) (434, 1.44797216796875000000e+03) (435, -1.50000000000000000000e+03) (436, -1.50000000000000000000e+03) (437, -1.50000000000000000000e+03) (438, -1.50000000000000000000e+03) (439, -1.50000000000000000000e+03) (440, -1.35936352539062500000e+03) (441, -1.08700695800781250000e+03) (442, -1.42023498535156250000e+03) (443, 4.73191711425781250000e+02) (444, 1.50000000000000000000e+03) (445, 6.29538635253906250000e+02) (446, 1.50000000000000000000e+03) (447, 1.50000000000000000000e+03) (448, 1.50000000000000000000e+03) (449, 1.50000000000000000000e+03) (450, 1.50000000000000000000e+03) (451, 1.50000000000000000000e+03) (452, -1.50000000000000000000e+03) (453, -1.50000000000000000000e+03) (454, -1.50000000000000000000e+03) (455, -1.50000000000000000000e+03) (456, -1.50000000000000000000e+03) (457, -1.50000000000000000000e+03) (458, -1.50000000000000000000e+03) (459, -1.50000000000000000000e+03) (460, -5.51602844238281250000e+02) (461, 3.68960571289062500000e+02) (462, -1.47975073242187500000e+03) (463, -1.50000000000000000000e+03) (464, -1.50000000000000000000e+03) (465, -1.50000000000000000000e+03) (466, -1.50000000000000000000e+03) (467, -1.42778381347656250000e+03) (468, -1.29505261230468750000e+03) (469, -1.42465866088867187500e+02) (470, 7.52688598632812500000e+02) (471, 9.48145446777343750000e+02) (472, 1.50000000000000000000e+03) (473, 1.50000000000000000000e+03) (474, 1.50000000000000000000e+03) (475, -1.31580004882812500000e+03) (476, 1.50000000000000000000e+03) (477, 1.50000000000000000000e+03) (478, 1.50000000000000000000e+03) (479, 1.50000000000000000000e+03) (480, 1.50000000000000000000e+03) (481, -1.41121740722656250000e+03) (482, -1.50000000000000000000e+03) (483, -1.50000000000000000000e+03) (484, -1.50000000000000000000e+03) (485, -1.50000000000000000000e+03) (486, -1.13787390136718750000e+03) (487, 9.05650573730468750000e+02) (488, -2.23348693847656250000e+02) (489, -3.02812438964843750000e+02) (490, -1.50000000000000000000e+03) (491, -1.50000000000000000000e+03) (492, -1.50000000000000000000e+03) (493, -1.50000000000000000000e+03) (494, -1.45262158203125000000e+03) (495, 1.50000000000000000000e+03) (496, 1.50000000000000000000e+03) (497, 1.50000000000000000000e+03) (498, 1.50000000000000000000e+03) (499, 1.50000000000000000000e+03) (500, 1.50000000000000000000e+03) (501, 1.45122180175781250000e+03) (502, 1.50000000000000000000e+03) (503, 1.50000000000000000000e+03) (504, -1.87050659179687500000e+02) (505, 1.50000000000000000000e+03) (506, 1.50000000000000000000e+03) (507, 1.50000000000000000000e+03) (508, 1.50000000000000000000e+03) (509, 1.50000000000000000000e+03) (510, 1.01800042724609375000e+03) (511, 1.50000000000000000000e+03) (512, 1.50000000000000000000e+03) (513, 1.50000000000000000000e+03) (514, 1.50000000000000000000e+03) (515, 1.50000000000000000000e+03) (516, -7.78334579467773437500e+01) (517, -8.88288696289062500000e+02) (518, -1.50000000000000000000e+03) (519, -1.50000000000000000000e+03) (520, -1.48426879882812500000e+03) (521, -3.13402923583984375000e+02) (522, 1.50000000000000000000e+03) (523, 1.50000000000000000000e+03) (524, 1.50000000000000000000e+03) (525, 1.50000000000000000000e+03) (526, 1.50000000000000000000e+03) (527, 1.50000000000000000000e+03) (528, 1.47584899902343750000e+03) (529, 1.49994873046875000000e+03) (530, 1.22577905273437500000e+03) (531, 1.50000000000000000000e+03) (532, 1.50000000000000000000e+03) (533, 1.50000000000000000000e+03) (534, 1.50000000000000000000e+03) (535, 1.50000000000000000000e+03) (536, 1.50000000000000000000e+03) (537, 1.50000000000000000000e+03) (538, 1.50000000000000000000e+03) (539, 1.50000000000000000000e+03) (540, 1.50000000000000000000e+03) (541, 1.50000000000000000000e+03) (542, 1.50000000000000000000e+03) (543, 1.50000000000000000000e+03) (544, -1.20499365234375000000e+03) (545, -1.04587744140625000000e+03) (546, -5.78706665039062500000e+01) (547, -2.06400756835937500000e+02) (548, 8.44081970214843750000e+02) (549, 1.50000000000000000000e+03) (550, 1.50000000000000000000e+03) (551, 1.50000000000000000000e+03) (552, 1.50000000000000000000e+03) (553, 1.50000000000000000000e+03) (554, 1.50000000000000000000e+03) (555, 1.50000000000000000000e+03) (556, -9.50391052246093750000e+02) (557, 1.46138452148437500000e+03) (558, -4.50056304931640625000e+02) (559, 1.50000000000000000000e+03) (560, 1.50000000000000000000e+03) (561, 1.50000000000000000000e+03) (562, 1.50000000000000000000e+03) (563, 1.50000000000000000000e+03) (564, 1.50000000000000000000e+03) (565, 1.50000000000000000000e+03) (566, 1.50000000000000000000e+03) (567, 1.50000000000000000000e+03) (568, 1.50000000000000000000e+03) (569, 1.50000000000000000000e+03) (570, 1.50000000000000000000e+03) (571, 1.50000000000000000000e+03) (572, 5.21131774902343750000e+02) (573, -3.36116577148437500000e+02) (574, 1.47299377441406250000e+03) (575, 1.50000000000000000000e+03) (576, 1.50000000000000000000e+03) (577, 1.50000000000000000000e+03) (578, 1.49019091796875000000e+03) (579, 1.49083251953125000000e+03) (580, 1.49519458007812500000e+03) (581, 1.47626806640625000000e+03) (582, -1.50000000000000000000e+03) (583, -1.50000000000000000000e+03) (584, -1.50000000000000000000e+03) (585, 1.14879968261718750000e+03) (586, -1.35745153808593750000e+03) (587, -3.59199951171875000000e+02) (588, -1.50000000000000000000e+03) (589, 1.50000000000000000000e+03) (590, 1.50000000000000000000e+03) (591, 1.50000000000000000000e+03) (592, 1.50000000000000000000e+03) (593, 1.50000000000000000000e+03) (594, 1.50000000000000000000e+03) (595, 1.50000000000000000000e+03) (596, 1.50000000000000000000e+03) (597, 1.50000000000000000000e+03) (598, 1.50000000000000000000e+03) (599, 1.50000000000000000000e+03) (600, 1.50000000000000000000e+03) (601, 1.50000000000000000000e+03) (602, 1.50000000000000000000e+03) (603, 1.50000000000000000000e+03) (604, 1.49192517089843750000e+03) (605, 1.49361340332031250000e+03) (606, 1.15639562988281250000e+03) (607, -1.50000000000000000000e+03) (608, -1.50000000000000000000e+03) (609, -1.50000000000000000000e+03) (610, -1.50000000000000000000e+03) (611, -1.50000000000000000000e+03) (612, -1.50000000000000000000e+03) (613, -8.27530273437500000000e+02) (614, -8.70692016601562500000e+02) (615, 1.35537597656250000000e+03) (616, -1.50000000000000000000e+03) (617, 1.50000000000000000000e+03) (618, 1.50000000000000000000e+03) (619, 1.50000000000000000000e+03) (620, 1.50000000000000000000e+03) (621, 1.50000000000000000000e+03) (622, 1.50000000000000000000e+03) (623, 1.50000000000000000000e+03) (624, 1.50000000000000000000e+03) (625, 1.50000000000000000000e+03) (626, 1.50000000000000000000e+03) (627, 1.50000000000000000000e+03) (628, 1.44345715332031250000e+03) (629, 1.47640930175781250000e+03) (630, 1.49239245605468750000e+03) (631, 1.49239245605468750000e+03) (632, 1.46126586914062500000e+03) (633, 1.49656982421875000000e+03) (634, -8.47698364257812500000e+02) (635, -1.50000000000000000000e+03) (636, -1.50000000000000000000e+03) (637, -1.50000000000000000000e+03) (638, -1.50000000000000000000e+03) (639, -1.50000000000000000000e+03) (640, -1.50000000000000000000e+03) (641, -1.50000000000000000000e+03) (642, 1.40699609375000000000e+03) (643, 1.35537597656250000000e+03) (644, 1.50000000000000000000e+03) (645, 1.50000000000000000000e+03) (646, 1.50000000000000000000e+03) (647, 1.50000000000000000000e+03) (648, 1.50000000000000000000e+03) (649, 1.50000000000000000000e+03) (650, 1.50000000000000000000e+03) (651, 1.50000000000000000000e+03) (652, 1.50000000000000000000e+03) (653, 1.50000000000000000000e+03) (654, 1.50000000000000000000e+03) (655, 1.50000000000000000000e+03) (656, 1.50000000000000000000e+03) (657, 1.47138415527343750000e+03) (658, 1.46677917480468750000e+03) (659, 1.44849279785156250000e+03) (660, 1.47898095703125000000e+03) (661, 2.02234512329101562500e+02) (662, -9.31963317871093750000e+02) (663, -1.50000000000000000000e+03) (664, -1.50000000000000000000e+03) (665, -1.50000000000000000000e+03) (666, -1.50000000000000000000e+03) (667, -1.50000000000000000000e+03) (668, -1.50000000000000000000e+03) (669, -1.50000000000000000000e+03) (670, 1.50000000000000000000e+03) (671, 1.50000000000000000000e+03) (672, 1.50000000000000000000e+03) (673, 1.50000000000000000000e+03) (674, 1.50000000000000000000e+03) (675, 1.50000000000000000000e+03) (676, 3.24263519287109375000e+02) (677, -5.45003173828125000000e+02) (678, 5.01164123535156250000e+02) (679, 1.47617883300781250000e+03) (680, 1.49419091796875000000e+03) (681, 1.50000000000000000000e+03) (682, 1.50000000000000000000e+03) (683, 1.50000000000000000000e+03) (684, 1.49274914550781250000e+03) (685, 1.46491015625000000000e+03) (686, 1.46943322753906250000e+03) (687, 1.49132885742187500000e+03) (688, 5.81742431640625000000e+02) (689, -7.84230712890625000000e+02) (690, -1.50000000000000000000e+03) (691, -1.50000000000000000000e+03) (692, -1.50000000000000000000e+03) (693, -1.50000000000000000000e+03) (694, -1.50000000000000000000e+03) (695, -1.50000000000000000000e+03) (696, -1.50000000000000000000e+03) (697, -1.50000000000000000000e+03) (698, 1.50000000000000000000e+03) (699, 1.50000000000000000000e+03) (700, 1.50000000000000000000e+03) (701, 1.50000000000000000000e+03) (702, -1.50000000000000000000e+03) (703, -1.50000000000000000000e+03) (704, -1.50000000000000000000e+03) (705, -1.50000000000000000000e+03) (706, -1.50000000000000000000e+03) (707, -1.50000000000000000000e+03) (708, -1.49743395996093750000e+03) (709, -1.49561840820312500000e+03) (710, -1.44481872558593750000e+03) (711, -3.34240631103515625000e+02) (712, -1.08374365234375000000e+03) (713, -1.50000000000000000000e+03) (714, 7.58320861816406250000e+02) (715, -1.35710253906250000000e+03) (716, -1.40071105957031250000e+03) (717, -2.29882141113281250000e+02) (718, 1.21746276855468750000e+02) (719, -4.95124511718750000000e+02) (720, -1.50000000000000000000e+03) (721, -1.50000000000000000000e+03) (722, -1.50000000000000000000e+03) (723, -1.50000000000000000000e+03) (724, -1.39013134765625000000e+03) (725, -1.50000000000000000000e+03) (726, 1.50000000000000000000e+03) (727, 1.50000000000000000000e+03) (728, 1.50000000000000000000e+03) (729, 1.50000000000000000000e+03) (730, 1.50000000000000000000e+03) (731, -1.50000000000000000000e+03) (732, -1.50000000000000000000e+03) (733, -1.36235681152343750000e+03) (734, 6.18661315917968750000e+02) (735, 1.50000000000000000000e+03) (736, 1.50000000000000000000e+03) (737, 1.50000000000000000000e+03) (738, 1.50000000000000000000e+03) (739, 1.50000000000000000000e+03) (740, 1.50000000000000000000e+03) (741, 1.50000000000000000000e+03) (742, 1.50000000000000000000e+03) (743, 1.50000000000000000000e+03) (744, 1.50000000000000000000e+03) (745, 1.50000000000000000000e+03) (746, 1.50000000000000000000e+03) (747, 1.50000000000000000000e+03) (748, -1.50000000000000000000e+03) (749, -1.38873803710937500000e+03) (750, 1.50000000000000000000e+03) (751, 5.23261352539062500000e+02) (752, 1.50000000000000000000e+03) (753, 1.50000000000000000000e+03) (754, 1.50000000000000000000e+03) (755, 1.50000000000000000000e+03) (756, 1.50000000000000000000e+03) (757, 1.50000000000000000000e+03) (758, 1.50000000000000000000e+03) (759, 1.50000000000000000000e+03) (760, 1.32500000000000000000e+03) (761, 1.50000000000000000000e+03) (762, 1.22500000000000000000e+03) (763, 1.50000000000000000000e+03) (764, 1.50000000000000000000e+03) (765, 1.50000000000000000000e+03) (766, 1.50000000000000000000e+03) (767, 1.50000000000000000000e+03) (768, 1.50000000000000000000e+03) (769, 1.50000000000000000000e+03) (770, 1.50000000000000000000e+03) (771, 1.50000000000000000000e+03) (772, 1.50000000000000000000e+03) (773, 1.50000000000000000000e+03) (774, 1.50000000000000000000e+03) (775, 1.50000000000000000000e+03) (776, -1.37110668945312500000e+03) (777, -1.33564367675781250000e+03) (778, -1.32843884277343750000e+03) (779, 1.99837524414062500000e+02) (780, 1.50000000000000000000e+03) (781, 1.50000000000000000000e+03) (782, 1.50000000000000000000e+03) (783, 1.50000000000000000000e+03) (784, -7.00587463378906250000e+01) (0, 1.50000000000000000000e+03) (1, 1.50000000000000000000e+03) (2, 1.50000000000000000000e+03) (3, 1.50000000000000000000e+03) (4, 1.50000000000000000000e+03) (5, 1.50000000000000000000e+03) (6, 1.50000000000000000000e+03) (7, 1.50000000000000000000e+03) (8, 1.50000000000000000000e+03) (9, 1.50000000000000000000e+03) (10, 1.50000000000000000000e+03) (11, 1.50000000000000000000e+03) (12, 1.50000000000000000000e+03) (13, 1.50000000000000000000e+03) (14, -1.50000000000000000000e+03) (15, -1.50000000000000000000e+03) (16, 1.50000000000000000000e+03) (17, 1.50000000000000000000e+03) (18, 1.50000000000000000000e+03) (19, 1.50000000000000000000e+03) (20, 1.50000000000000000000e+03) (21, 1.50000000000000000000e+03) (22, 1.50000000000000000000e+03) (23, 1.50000000000000000000e+03) (24, 1.50000000000000000000e+03) (25, 1.50000000000000000000e+03) (26, 1.50000000000000000000e+03) (27, 1.50000000000000000000e+03) (28, 1.50000000000000000000e+03) (29, 1.50000000000000000000e+03) (30, 1.50000000000000000000e+03) (31, 1.50000000000000000000e+03) (32, 1.50000000000000000000e+03) (33, 1.50000000000000000000e+03) (34, 1.50000000000000000000e+03) (35, 1.50000000000000000000e+03) (36, 1.50000000000000000000e+03) (37, 1.50000000000000000000e+03) (38, 1.50000000000000000000e+03) (39, 1.50000000000000000000e+03) (40, 1.50000000000000000000e+03) (41, 1.50000000000000000000e+03) (42, 1.50000000000000000000e+03) (43, 1.50000000000000000000e+03) (44, 1.50000000000000000000e+03) (45, 1.50000000000000000000e+03) (46, 1.50000000000000000000e+03) (47, 1.50000000000000000000e+03) (48, 1.50000000000000000000e+03) (49, 1.50000000000000000000e+03) (50, 1.50000000000000000000e+03) (51, 1.50000000000000000000e+03) (52, 1.50000000000000000000e+03) (53, 1.50000000000000000000e+03) (54, 1.50000000000000000000e+03) (55, 1.50000000000000000000e+03) (56, 1.50000000000000000000e+03) (57, 1.50000000000000000000e+03) (58, 1.50000000000000000000e+03) (59, -1.50000000000000000000e+03) (60, 1.50000000000000000000e+03) (61, 1.50000000000000000000e+03) (62, 1.50000000000000000000e+03) (63, 1.50000000000000000000e+03) (64, 1.50000000000000000000e+03) (65, 1.50000000000000000000e+03) (66, 1.50000000000000000000e+03) (67, 1.50000000000000000000e+03) (68, 1.50000000000000000000e+03) (69, 1.50000000000000000000e+03) (70, 1.50000000000000000000e+03) (71, 1.50000000000000000000e+03) (72, 1.50000000000000000000e+03) (73, 1.50000000000000000000e+03) (74, 1.50000000000000000000e+03) (75, 1.50000000000000000000e+03) (76, 1.50000000000000000000e+03) (77, 1.50000000000000000000e+03) (78, 1.50000000000000000000e+03) (79, 1.50000000000000000000e+03) (80, 1.50000000000000000000e+03) (81, -9.28477233886718750000e+02) (82, 1.50000000000000000000e+03) (83, 1.50000000000000000000e+03) (84, 1.50000000000000000000e+03) (85, 1.50000000000000000000e+03) (86, 1.48801489257812500000e+03) (87, 2.34199951171875000000e+02) (88, 1.50000000000000000000e+03) (89, 1.50000000000000000000e+03) (90, 1.50000000000000000000e+03) (91, 1.50000000000000000000e+03) (92, 1.50000000000000000000e+03) (93, 1.50000000000000000000e+03) (94, 1.50000000000000000000e+03) (95, 1.50000000000000000000e+03) (96, 1.50000000000000000000e+03) (97, 1.50000000000000000000e+03) (98, 1.50000000000000000000e+03) (99, 1.50000000000000000000e+03) (100, 1.50000000000000000000e+03) (101, 1.50000000000000000000e+03) (102, 1.50000000000000000000e+03) (103, 1.50000000000000000000e+03) (104, 1.50000000000000000000e+03) (105, 1.50000000000000000000e+03) (106, 1.50000000000000000000e+03) (107, 1.50000000000000000000e+03) (108, 1.50000000000000000000e+03) (109, 4.78672851562500000000e+02) (110, 8.78538635253906250000e+02) (111, 1.50000000000000000000e+03) (112, 1.50000000000000000000e+03) (113, -1.45919995117187500000e+03) (114, -1.50000000000000000000e+03) (115, -1.50000000000000000000e+03) (116, 1.50000000000000000000e+03) (117, 1.50000000000000000000e+03) (118, 1.50000000000000000000e+03) (119, 1.50000000000000000000e+03) (120, 1.38709948730468750000e+03) (121, 1.50000000000000000000e+03) (122, 1.50000000000000000000e+03) (123, 1.37572900390625000000e+03) (124, 1.08729516601562500000e+03) (125, 2.42511138916015625000e+02) (126, -5.01083129882812500000e+02) (127, -7.31492614746093750000e+02) (128, 7.96553268432617187500e+01) (129, 1.50000000000000000000e+03) (130, 1.50000000000000000000e+03) (131, 1.50000000000000000000e+03) (132, 1.50000000000000000000e+03) (133, 1.50000000000000000000e+03) (134, 1.50000000000000000000e+03) (135, 1.50000000000000000000e+03) (136, 1.50000000000000000000e+03) (137, 1.41916748046875000000e+03) (138, -1.50000000000000000000e+03) (139, -1.50000000000000000000e+03) (140, 1.50000000000000000000e+03) (141, 1.50000000000000000000e+03) (142, 2.58921630859375000000e+02) (143, -1.50000000000000000000e+03) (144, 1.50000000000000000000e+03) (145, 8.98857666015625000000e+02) (146, 8.46737426757812500000e+02) (147, 8.40564025878906250000e+02) (148, -1.13684310913085937500e+02) (149, -1.49221142578125000000e+03) (150, -1.47556457519531250000e+03) (151, -1.49997460937500000000e+03) (152, -1.49796838378906250000e+03) (153, -1.50000000000000000000e+03) (154, -1.50000000000000000000e+03) (155, -1.50000000000000000000e+03) (156, -1.50000000000000000000e+03) (157, -1.50000000000000000000e+03) (158, -4.65800048828125000000e+02) (159, 1.50000000000000000000e+03) (160, 1.50000000000000000000e+03) (161, 1.50000000000000000000e+03) (162, 1.50000000000000000000e+03) (163, 1.50000000000000000000e+03) (164, 1.50000000000000000000e+03) (165, 1.50000000000000000000e+03) (166, 1.09673388671875000000e+03) (167, 1.50000000000000000000e+03) (168, 1.50000000000000000000e+03) (169, 1.50000000000000000000e+03) (170, 1.34080004882812500000e+03) (171, -1.50000000000000000000e+03) (172, -8.17531860351562500000e+02) (173, -4.16525268554687500000e+02) (174, 7.79270568847656250000e+02) (175, 4.81083129882812500000e+02) (176, -9.62141479492187500000e+02) (177, -1.50000000000000000000e+03) (178, -1.50000000000000000000e+03) (179, -1.50000000000000000000e+03) (180, -1.50000000000000000000e+03) (181, -1.50000000000000000000e+03) (182, -1.50000000000000000000e+03) (183, -1.50000000000000000000e+03) (184, -1.50000000000000000000e+03) (185, -1.50000000000000000000e+03) (186, -1.50000000000000000000e+03) (187, -6.20861389160156250000e+02) (188, 1.50000000000000000000e+03) (189, 1.50000000000000000000e+03) (190, 1.50000000000000000000e+03) (191, 1.50000000000000000000e+03) (192, 1.50000000000000000000e+03) (193, 1.50000000000000000000e+03) (194, 1.50000000000000000000e+03) (195, 1.50000000000000000000e+03) (196, 1.02196936035156250000e+03) (197, 1.50000000000000000000e+03) (198, 1.34080004882812500000e+03) (199, -3.58738647460937500000e+02) (200, -5.08738647460937500000e+02) (201, -7.09310424804687500000e+02) (202, -9.31057006835937500000e+02) (203, -6.52166870117187500000e+02) (204, -1.50000000000000000000e+03) (205, -1.50000000000000000000e+03) (206, -1.50000000000000000000e+03) (207, -1.50000000000000000000e+03) (208, -1.50000000000000000000e+03) (209, -1.50000000000000000000e+03) (210, -1.50000000000000000000e+03) (211, -1.50000000000000000000e+03) (212, -1.50000000000000000000e+03) (213, -1.50000000000000000000e+03) (214, -1.50000000000000000000e+03) (215, -1.50000000000000000000e+03) (216, -1.50000000000000000000e+03) (217, -1.49398168945312500000e+03) (218, 3.39851013183593750000e+02) (219, 1.50000000000000000000e+03) (220, 1.50000000000000000000e+03) (221, 1.50000000000000000000e+03) (222, 1.50000000000000000000e+03) (223, 1.50000000000000000000e+03) (224, 5.07320556640625000000e+01) (225, 9.45800048828125000000e+02) (226, 1.24080004882812500000e+03) (227, 3.23722656250000000000e+02) (228, -4.51738677978515625000e+02) (229, -5.08738647460937500000e+02) (230, -6.58738647460937500000e+02) (231, -1.10922827148437500000e+03) (232, -1.50000000000000000000e+03) (233, -1.50000000000000000000e+03) (234, -1.50000000000000000000e+03) (235, -1.50000000000000000000e+03) (236, -1.50000000000000000000e+03) (237, -1.50000000000000000000e+03) (238, -1.50000000000000000000e+03) (239, -1.50000000000000000000e+03) (240, -1.50000000000000000000e+03) (241, -1.50000000000000000000e+03) (242, -1.50000000000000000000e+03) (243, -1.50000000000000000000e+03) (244, -1.50000000000000000000e+03) (245, -1.50000000000000000000e+03) (246, -1.50000000000000000000e+03) (247, -7.83849060058593750000e+02) (248, 1.50000000000000000000e+03) (249, 1.50000000000000000000e+03) (250, 1.50000000000000000000e+03) (251, 4.65054809570312500000e+02) (252, -1.24044445800781250000e+03) (253, 9.90800048828125000000e+02) (254, 1.50000000000000000000e+03) (255, 1.12736132812500000000e+03) (256, -2.59063964843750000000e+02) (257, -6.08738647460937500000e+02) (258, -9.77628295898437500000e+02) (259, -1.50000000000000000000e+03) (260, -1.50000000000000000000e+03) (261, -1.50000000000000000000e+03) (262, -1.50000000000000000000e+03) (263, -1.50000000000000000000e+03) (264, -1.50000000000000000000e+03) (265, 1.33963464355468750000e+03) (266, 1.50000000000000000000e+03) (267, 1.50000000000000000000e+03) (268, 2.34715393066406250000e+02) (269, -1.50000000000000000000e+03) (270, -1.50000000000000000000e+03) (271, -1.50000000000000000000e+03) (272, -1.50000000000000000000e+03) (273, -1.50000000000000000000e+03) (274, -1.50000000000000000000e+03) (275, -1.50000000000000000000e+03) (276, 1.50000000000000000000e+03) (277, 1.50000000000000000000e+03) (278, 1.50000000000000000000e+03) (279, -4.58728942871093750000e+02) (280, -9.17740905761718750000e+02) (281, 1.50000000000000000000e+03) (282, 1.50000000000000000000e+03) (283, 1.50000000000000000000e+03) (284, 4.07385711669921875000e+01) (285, -9.43428222656250000000e+02) (286, -1.50000000000000000000e+03) (287, -1.50000000000000000000e+03) (288, -1.50000000000000000000e+03) (289, -1.50000000000000000000e+03) (290, -1.50000000000000000000e+03) (291, -1.50000000000000000000e+03) (292, -1.48500000000000000000e+03) (293, 1.50000000000000000000e+03) (294, 1.50000000000000000000e+03) (295, 1.50000000000000000000e+03) (296, 1.49321264648437500000e+03) (297, -1.25586804199218750000e+03) (298, -1.50000000000000000000e+03) (299, -1.50000000000000000000e+03) (300, -1.50000000000000000000e+03) (301, -1.50000000000000000000e+03) (302, -1.50000000000000000000e+03) (303, -1.50000000000000000000e+03) (304, -1.45121276855468750000e+03) (305, 1.50000000000000000000e+03) (306, 1.50000000000000000000e+03) (307, -1.50000000000000000000e+03) (308, 1.50000000000000000000e+03) (309, 1.50000000000000000000e+03) (310, 1.50000000000000000000e+03) (311, 1.50000000000000000000e+03) (312, 1.20731359863281250000e+03) (313, -1.50000000000000000000e+03) (314, -1.50000000000000000000e+03) (315, -1.50000000000000000000e+03) (316, -1.50000000000000000000e+03) (317, -1.50000000000000000000e+03) (318, -1.50000000000000000000e+03) (319, -1.50000000000000000000e+03) (320, -1.40900000000000000000e+03) (321, 1.50000000000000000000e+03) (322, 1.50000000000000000000e+03) (323, 1.50000000000000000000e+03) (324, 5.46554443359375000000e+02) (325, -1.50000000000000000000e+03) (326, -1.50000000000000000000e+03) (327, -1.50000000000000000000e+03) (328, -1.50000000000000000000e+03) (329, -1.50000000000000000000e+03) (330, -1.50000000000000000000e+03) (331, -1.50000000000000000000e+03) (332, -1.50000000000000000000e+03) (333, 1.50000000000000000000e+03) (334, 1.50000000000000000000e+03) (335, 1.50000000000000000000e+03) (336, 1.50000000000000000000e+03) (337, 1.17537182617187500000e+03) (338, 9.90800048828125000000e+02) (339, 1.50000000000000000000e+03) (340, 4.27400085449218750000e+02) (341, -1.50000000000000000000e+03) (342, -1.50000000000000000000e+03) (343, -1.50000000000000000000e+03) (344, -3.49748016357421875000e+02) (345, 4.23156921386718750000e+02) (346, -1.40900000000000000000e+03) (347, -1.40900000000000000000e+03) (348, -1.44540002441406250000e+03) (349, 1.50000000000000000000e+03) (350, 1.50000000000000000000e+03) (351, 1.50000000000000000000e+03) (352, -1.41338793945312500000e+03) (353, -1.50000000000000000000e+03) (354, -1.50000000000000000000e+03) (355, -1.50000000000000000000e+03) (356, -1.50000000000000000000e+03) (357, -1.50000000000000000000e+03) (358, -1.50000000000000000000e+03) (359, -1.50000000000000000000e+03) (360, -1.50000000000000000000e+03) (361, -1.06580004882812500000e+03) (362, -1.50000000000000000000e+03) (363, 1.38562817382812500000e+03) (364, 1.50000000000000000000e+03) (365, 1.50000000000000000000e+03) (366, 1.19001062011718750000e+03) (367, 9.64865844726562500000e+02) (368, 1.36171875000000000000e+02) (369, -1.50000000000000000000e+03) (370, -1.50000000000000000000e+03) (371, -6.93999328613281250000e+02) (372, 1.49990722656250000000e+03) (373, 1.50000000000000000000e+03) (374, 1.50000000000000000000e+03) (375, -1.22101599121093750000e+03) (376, -9.81600036621093750000e+02) (377, 8.61786682128906250000e+02) (378, 1.50000000000000000000e+03) (379, -2.85171142578125000000e+02) (380, -7.80065429687500000000e+02) (381, -7.73723327636718750000e+02) (382, -5.36650756835937500000e+02) (383, -8.76484252929687500000e+02) (384, -1.50000000000000000000e+03) (385, -1.50000000000000000000e+03) (386, -1.50000000000000000000e+03) (387, -1.50000000000000000000e+03) (388, -1.50000000000000000000e+03) (389, 1.36878198242187500000e+03) (390, -1.50000000000000000000e+03) (391, -1.50000000000000000000e+03) (392, 1.50000000000000000000e+03) (393, 1.50000000000000000000e+03) (394, 1.07126135253906250000e+03) (395, 1.07346142578125000000e+03) (396, -5.93578735351562500000e+02) (397, -1.50000000000000000000e+03) (398, -1.50000000000000000000e+03) (399, -1.29558410644531250000e+03) (400, 1.50000000000000000000e+03) (401, 1.50000000000000000000e+03) (402, 1.50000000000000000000e+03) (403, -3.75207824707031250000e+02) (404, 1.24387168884277343750e+01) (405, 4.57782775878906250000e+02) (406, 3.75429473876953125000e+02) (407, -8.87618408203125000000e+01) (408, -2.88370971679687500000e+01) (409, -1.78738647460937500000e+02) (410, -1.43399963378906250000e+02) (411, 2.63061340332031250000e+02) (412, 1.00640637207031250000e+03) (413, -1.50000000000000000000e+03) (414, -1.50000000000000000000e+03) (415, -1.50000000000000000000e+03) (416, -1.50000000000000000000e+03) (417, 1.50000000000000000000e+03) (418, -1.50000000000000000000e+03) (419, -1.00000006103515625000e+03) (420, 1.50000000000000000000e+03) (421, -1.50000000000000000000e+03) (422, 1.50000000000000000000e+03) (423, 1.50000000000000000000e+03) (424, -1.50000000000000000000e+03) (425, -1.50000000000000000000e+03) (426, -1.50000000000000000000e+03) (427, -1.50000000000000000000e+03) (428, -4.13453330993652343750e+01) (429, 1.50000000000000000000e+03) (430, -1.14485809326171875000e+02) (431, -1.40900000000000000000e+03) (432, -1.02262176513671875000e+03) (433, 2.32172058105468750000e+02) (434, 1.50000000000000000000e+03) (435, 4.80061462402343750000e+02) (436, -6.29386596679687500000e+01) (437, -2.59199951171875000000e+02) (438, 2.20613403320312500000e+01) (439, 1.39841760253906250000e+03) (440, 1.50000000000000000000e+03) (441, 1.12757104492187500000e+03) (442, -1.13222595214843750000e+03) (443, -1.50000000000000000000e+03) (444, -1.50000000000000000000e+03) (445, 1.50000000000000000000e+03) (446, -1.50000000000000000000e+03) (447, -3.50000061035156250000e+02) (448, 9.90800048828125000000e+02) (449, 9.63071060180664062500e+01) (450, 3.05977020263671875000e+02) (451, 1.50000000000000000000e+03) (452, -1.50000000000000000000e+03) (453, -1.50000000000000000000e+03) (454, -1.50000000000000000000e+03) (455, -1.50000000000000000000e+03) (456, -1.50000000000000000000e+03) (457, -1.50000000000000000000e+03) (458, -1.50000000000000000000e+03) (459, -1.50000000000000000000e+03) (460, -1.50000000000000000000e+03) (461, 1.50000000000000000000e+03) (462, 1.50000000000000000000e+03) (463, 1.08003344726562500000e+03) (464, -6.29386596679687500000e+01) (465, -5.24865051269531250000e+02) (466, -1.50000000000000000000e+03) (467, -1.33347314453125000000e+03) (468, -1.40129345703125000000e+03) (469, -2.64827758789062500000e+02) (470, -1.42343518066406250000e+03) (471, -1.50000000000000000000e+03) (472, -1.50000000000000000000e+03) (473, 1.50000000000000000000e+03) (474, -1.33310583496093750000e+03) (475, 8.55386352539062500000e+01) (476, 1.50000000000000000000e+03) (477, 6.40800048828125000000e+02) (478, -4.93200073242187500000e+02) (479, 5.62567199707031250000e+02) (480, -1.50000000000000000000e+03) (481, -1.50000000000000000000e+03) (482, -1.50000000000000000000e+03) (483, -1.50000000000000000000e+03) (484, -1.50000000000000000000e+03) (485, -1.50000000000000000000e+03) (486, -1.50000000000000000000e+03) (487, -1.50000000000000000000e+03) (488, -1.33982009887695312500e+02) (489, 1.50000000000000000000e+03) (490, 1.50000000000000000000e+03) (491, 1.11137634277343750000e+03) (492, -8.18325744628906250000e+02) (493, -1.50000000000000000000e+03) (494, -1.50000000000000000000e+03) (495, -1.40900000000000000000e+03) (496, -1.45678247070312500000e+03) (497, -1.17099072265625000000e+03) (498, -1.50000000000000000000e+03) (499, -1.50000000000000000000e+03) (500, -1.50000000000000000000e+03) (501, 3.40589599609375000000e+01) (502, -1.49531970214843750000e+03) (503, -1.50000000000000000000e+03) (504, -1.50000000000000000000e+03) (505, 8.90614624023437500000e+01) (506, -3.08127975463867187500e+01) (507, 2.34199951171875000000e+02) (508, -1.50000000000000000000e+03) (509, -1.50000000000000000000e+03) (510, -1.50000000000000000000e+03) (511, -1.50000000000000000000e+03) (512, -1.50000000000000000000e+03) (513, -1.50000000000000000000e+03) (514, -1.50000000000000000000e+03) (515, -1.48584753417968750000e+03) (516, 1.50000000000000000000e+03) (517, 1.50000000000000000000e+03) (518, 1.50000000000000000000e+03) (519, 1.40755224609375000000e+03) (520, -5.78334106445312500000e+02) (521, -1.50000000000000000000e+03) (522, -1.50000000000000000000e+03) (523, -1.43000000000000000000e+03) (524, -1.43000000000000000000e+03) (525, -1.50000000000000000000e+03) (526, -1.50000000000000000000e+03) (527, -1.45507983398437500000e+03) (528, -1.49997863769531250000e+03) (529, -4.68365112304687500000e+02) (530, -1.43845959472656250000e+03) (531, 1.50000000000000000000e+03) (532, 1.50000000000000000000e+03) (533, 7.09887084960937500000e+02) (534, 1.50000000000000000000e+03) (535, 8.85068176269531250000e+02) (536, -1.29242407226562500000e+03) (537, -1.34242407226562500000e+03) (538, -1.50000000000000000000e+03) (539, -1.50000000000000000000e+03) (540, -1.50000000000000000000e+03) (541, -1.50000000000000000000e+03) (542, -1.06316882324218750000e+03) (543, 1.50000000000000000000e+03) (544, 1.50000000000000000000e+03) (545, 1.50000000000000000000e+03) (546, 1.50000000000000000000e+03) (547, 1.50000000000000000000e+03) (548, -1.43072216796875000000e+03) (549, -1.43934509277343750000e+03) (550, -1.50000000000000000000e+03) (551, -1.50000000000000000000e+03) (552, -1.50000000000000000000e+03) (553, -1.50000000000000000000e+03) (554, -1.50000000000000000000e+03) (555, -6.48041931152343750000e+02) (556, -3.52903228759765625000e+02) (557, -1.48319519042968750000e+03) (558, -9.32902404785156250000e+02) (559, 1.50000000000000000000e+03) (560, 1.50000000000000000000e+03) (561, -5.81343139648437500000e+02) (562, 1.50000000000000000000e+03) (563, 1.17632958984375000000e+03) (564, -1.01580010986328125000e+03) (565, -1.38090148925781250000e+03) (566, -1.50000000000000000000e+03) (567, -1.50000000000000000000e+03) (568, -1.50000000000000000000e+03) (569, -1.17781213378906250000e+03) (570, -6.88118408203125000000e+02) (571, 1.50000000000000000000e+03) (572, 1.50000000000000000000e+03) (573, 1.50000000000000000000e+03) (574, 1.50000000000000000000e+03) (575, 1.50000000000000000000e+03) (576, -1.48216345214843750000e+03) (577, -1.40900000000000000000e+03) (578, -1.50000000000000000000e+03) (579, -1.50000000000000000000e+03) (580, -1.50000000000000000000e+03) (581, -1.50000000000000000000e+03) (582, 8.68974731445312500000e+02) (583, 5.25041503906250000000e+02) (584, 2.50854003906250000000e+02) (585, -7.25883422851562500000e+02) (586, 3.31522644042968750000e+02) (587, 1.50000000000000000000e+03) (588, 1.50000000000000000000e+03) (589, -1.01965301513671875000e+03) (590, 1.23873852539062500000e+03) (591, 1.50000000000000000000e+03) (592, -5.65800048828125000000e+02) (593, -1.22897180175781250000e+03) (594, -1.50000000000000000000e+03) (595, -1.45912158203125000000e+03) (596, -5.31600036621093750000e+02) (597, -6.22061340332031250000e+02) (598, -6.51971862792968750000e+02) (599, -2.52545623779296875000e+02) (600, 1.48333154296875000000e+03) (601, 8.48325927734375000000e+02) (602, -1.66252639770507812500e+02) (603, -1.23723986816406250000e+03) (604, -1.45034094238281250000e+03) (605, -1.40900000000000000000e+03) (606, -1.50000000000000000000e+03) (607, -1.50000000000000000000e+03) (608, -1.50000000000000000000e+03) (609, 4.18246093750000000000e+02) (610, 7.10755737304687500000e+02) (611, 9.74207153320312500000e+02) (612, 4.92205932617187500000e+02) (613, -1.20847976684570312500e+02) (614, 1.50000000000000000000e+03) (615, -1.50000000000000000000e+03) (616, 1.50000000000000000000e+03) (617, 4.54493316650390625000e+02) (618, 1.33419995117187500000e+03) (619, 1.50000000000000000000e+03) (620, 1.50000000000000000000e+03) (621, -1.27087023925781250000e+03) (622, -6.90078125000000000000e+02) (623, -1.33965429687500000000e+03) (624, -1.41707250976562500000e+03) (625, -1.45134057617187500000e+03) (626, -1.50000000000000000000e+03) (627, -1.50000000000000000000e+03) (628, -1.50000000000000000000e+03) (629, -1.50000000000000000000e+03) (630, -1.50000000000000000000e+03) (631, -1.50000000000000000000e+03) (632, -1.50000000000000000000e+03) (633, -1.50000000000000000000e+03) (634, -1.50000000000000000000e+03) (635, -1.50000000000000000000e+03) (636, -1.50000000000000000000e+03) (637, 1.33386022949218750000e+03) (638, 1.18912023925781250000e+03) (639, 1.07194067382812500000e+03) (640, 6.43780273437500000000e+02) (641, 1.50000000000000000000e+03) (642, 1.50000000000000000000e+03) (643, -1.50000000000000000000e+03) (644, 1.50000000000000000000e+03) (645, 1.50000000000000000000e+03) (646, 1.50000000000000000000e+03) (647, 1.50000000000000000000e+03) (648, 1.50000000000000000000e+03) (649, 1.50000000000000000000e+03) (650, 1.50000000000000000000e+03) (651, 1.50000000000000000000e+03) (652, 1.50000000000000000000e+03) (653, -1.32701562500000000000e+03) (654, -1.50000000000000000000e+03) (655, -1.50000000000000000000e+03) (656, -1.50000000000000000000e+03) (657, -1.50000000000000000000e+03) (658, -1.50000000000000000000e+03) (659, -1.50000000000000000000e+03) (660, -1.50000000000000000000e+03) (661, -1.50000000000000000000e+03) (662, -1.50000000000000000000e+03) (663, -1.50000000000000000000e+03) (664, -1.50000000000000000000e+03) (665, -8.03841735839843750000e+02) (666, 1.03002914428710937500e+02) (667, 1.43835449218750000000e+03) (668, 1.49525793457031250000e+03) (669, 1.50000000000000000000e+03) (670, 1.50000000000000000000e+03) (671, 1.50000000000000000000e+03) (672, 1.50000000000000000000e+03) (673, 1.50000000000000000000e+03) (674, 1.50000000000000000000e+03) (675, 1.50000000000000000000e+03) (676, 1.50000000000000000000e+03) (677, 1.50000000000000000000e+03) (678, 1.50000000000000000000e+03) (679, 1.01626135253906250000e+03) (680, 6.81811767578125000000e+02) (681, -4.30615051269531250000e+02) (682, -1.50000000000000000000e+03) (683, -1.50000000000000000000e+03) (684, -1.50000000000000000000e+03) (685, -1.50000000000000000000e+03) (686, -1.50000000000000000000e+03) (687, -1.50000000000000000000e+03) (688, -1.50000000000000000000e+03) (689, -1.50000000000000000000e+03) (690, -1.50000000000000000000e+03) (691, -1.50000000000000000000e+03) (692, -1.50000000000000000000e+03) (693, -1.50000000000000000000e+03) (694, -1.38728320312500000000e+03) (695, -1.50000000000000000000e+03) (696, -7.91274536132812500000e+02) (697, 6.68140136718750000000e+02) (698, -7.00000061035156250000e+02) (699, 1.50000000000000000000e+03) (700, 1.50000000000000000000e+03) (701, 1.50000000000000000000e+03) (702, 1.50000000000000000000e+03) (703, 1.50000000000000000000e+03) (704, 1.50000000000000000000e+03) (705, 9.40800048828125000000e+02) (706, 6.40800048828125000000e+02) (707, 5.40800048828125000000e+02) (708, 5.40800048828125000000e+02) (709, 4.40800048828125000000e+02) (710, 3.40800048828125000000e+02) (711, 3.57774414062500000000e+02) (712, -1.43399963378906250000e+02) (713, -1.50000000000000000000e+03) (714, -1.25884619140625000000e+03) (715, -1.50000000000000000000e+03) (716, -1.19624316406250000000e+03) (717, -1.50000000000000000000e+03) (718, -1.50000000000000000000e+03) (719, -1.50000000000000000000e+03) (720, -1.50000000000000000000e+03) (721, -1.50000000000000000000e+03) (722, -1.50000000000000000000e+03) (723, -1.50000000000000000000e+03) (724, -1.39286401367187500000e+03) (725, -1.50000000000000000000e+03) (726, -1.50000000000000000000e+03) (727, 1.50000000000000000000e+03) (728, 1.50000000000000000000e+03) (729, 1.50000000000000000000e+03) (730, 1.50000000000000000000e+03) (731, 5.40800048828125000000e+02) (732, 8.71261352539062500000e+02) (733, 5.40800048828125000000e+02) (734, 3.40800048828125000000e+02) (735, 4.40800048828125000000e+02) (736, 5.40800048828125000000e+02) (737, 5.40800048828125000000e+02) (738, 6.40800048828125000000e+02) (739, 6.60861328125000000000e+02) (740, 7.20571899414062500000e+02) (741, 5.34611206054687500000e+01) (742, 8.20614624023437500000e+01) (743, 4.82061401367187500000e+02) (744, 4.45387573242187500000e+02) (745, -4.03992309570312500000e+02) (746, -1.50000000000000000000e+03) (747, -1.50000000000000000000e+03) (748, -1.50000000000000000000e+03) (749, -1.50000000000000000000e+03) (750, 7.66211853027343750000e+02) (751, -4.14902526855468750000e+02) (752, -1.50000000000000000000e+03) (753, -1.50000000000000000000e+03) (754, 1.50000000000000000000e+03) (755, 1.50000000000000000000e+03) (756, 1.50000000000000000000e+03) (757, 1.50000000000000000000e+03) (758, 1.50000000000000000000e+03) (759, 1.50000000000000000000e+03) (760, 5.40800048828125000000e+02) (761, 8.45800048828125000000e+02) (762, 1.21226135253906250000e+03) (763, -5.31600036621093750000e+02) (764, 1.50000000000000000000e+03) (765, 1.50000000000000000000e+03) (766, 1.48791516113281250000e+03) (767, 1.50000000000000000000e+03) (768, 1.50000000000000000000e+03) (769, 1.50000000000000000000e+03) (770, 1.50000000000000000000e+03) (771, 1.50000000000000000000e+03) (772, 1.50000000000000000000e+03) (773, 1.35422167968750000000e+03) (774, 1.28914978027343750000e+03) (775, -1.45323266601562500000e+03) (776, -1.50000000000000000000e+03) (777, -2.59199951171875000000e+02) (778, 1.50000000000000000000e+03) (779, 1.50000000000000000000e+03) (780, 1.50000000000000000000e+03) (781, 1.50000000000000000000e+03) (782, 1.50000000000000000000e+03) (783, 1.50000000000000000000e+03) (784, 1.49223974609375000000e+03) (0, 1.50000000000000000000e+03) (1, 1.50000000000000000000e+03) (2, 1.50000000000000000000e+03) (3, 1.50000000000000000000e+03) (4, 1.50000000000000000000e+03) (5, 1.50000000000000000000e+03) (6, 1.50000000000000000000e+03) (7, 1.50000000000000000000e+03) (8, 1.50000000000000000000e+03) (9, 1.50000000000000000000e+03) (10, 1.50000000000000000000e+03) (11, 1.50000000000000000000e+03) (12, 1.50000000000000000000e+03) (13, 1.50000000000000000000e+03) (14, -1.50000000000000000000e+03) (15, -1.50000000000000000000e+03) (16, 1.50000000000000000000e+03) (17, 1.50000000000000000000e+03) (18, 1.50000000000000000000e+03) (19, 1.50000000000000000000e+03) (20, 1.50000000000000000000e+03) (21, 1.50000000000000000000e+03) (22, 1.50000000000000000000e+03) (23, 1.50000000000000000000e+03) (24, 1.50000000000000000000e+03) (25, 1.50000000000000000000e+03) (26, 1.50000000000000000000e+03) (27, 1.50000000000000000000e+03) (28, 1.50000000000000000000e+03) (29, 1.50000000000000000000e+03) (30, 1.50000000000000000000e+03) (31, 1.50000000000000000000e+03) (32, 1.34080004882812500000e+03) (33, 3.82479431152343750000e+02) (34, -1.50000000000000000000e+03) (35, -1.50000000000000000000e+03) (36, 1.50000000000000000000e+03) (37, 1.50000000000000000000e+03) (38, 1.50000000000000000000e+03) (39, 1.50000000000000000000e+03) (40, 1.50000000000000000000e+03) (41, 1.50000000000000000000e+03) (42, 1.50000000000000000000e+03) (43, 1.39080004882812500000e+03) (44, 1.50000000000000000000e+03) (45, 1.50000000000000000000e+03) (46, 1.50000000000000000000e+03) (47, 1.50000000000000000000e+03) (48, 1.50000000000000000000e+03) (49, 1.50000000000000000000e+03) (50, 1.50000000000000000000e+03) (51, -1.50000000000000000000e+03) (52, 1.50000000000000000000e+03) (53, 1.50000000000000000000e+03) (54, 1.50000000000000000000e+03) (55, 1.50000000000000000000e+03) (56, 1.50000000000000000000e+03) (57, 1.50000000000000000000e+03) (58, -1.50000000000000000000e+03) (59, 1.50000000000000000000e+03) (60, 1.50000000000000000000e+03) (61, 1.50000000000000000000e+03) (62, 1.50000000000000000000e+03) (63, 1.41963073730468750000e+03) (64, 1.50000000000000000000e+03) (65, 1.50000000000000000000e+03) (66, 1.50000000000000000000e+03) (67, 1.50000000000000000000e+03) (68, 1.50000000000000000000e+03) (69, 1.50000000000000000000e+03) (70, 1.50000000000000000000e+03) (71, 1.50000000000000000000e+03) (72, 1.50000000000000000000e+03) (73, 1.50000000000000000000e+03) (74, 1.50000000000000000000e+03) (75, 1.50000000000000000000e+03) (76, 1.50000000000000000000e+03) (77, 1.50000000000000000000e+03) (78, 1.50000000000000000000e+03) (79, 1.50000000000000000000e+03) (80, -1.50000000000000000000e+03) (81, -1.50000000000000000000e+03) (82, 1.50000000000000000000e+03) (83, 1.50000000000000000000e+03) (84, 1.50000000000000000000e+03) (85, 1.50000000000000000000e+03) (86, -1.50000000000000000000e+03) (87, 1.50000000000000000000e+03) (88, 1.50000000000000000000e+03) (89, -1.52760314941406250000e+02) (90, -8.77336303710937500000e+02) (91, 1.39880541992187500000e+03) (92, 1.48208593750000000000e+03) (93, 1.48088342285156250000e+03) (94, 1.45844921875000000000e+03) (95, 1.37532812500000000000e+03) (96, 2.33941101074218750000e+02) (97, -7.58593872070312500000e+02) (98, 3.22489929199218750000e+01) (99, 1.50000000000000000000e+03) (100, 1.50000000000000000000e+03) (101, 1.50000000000000000000e+03) (102, 1.50000000000000000000e+03) (103, 1.50000000000000000000e+03) (104, 1.50000000000000000000e+03) (105, 1.50000000000000000000e+03) (106, 1.50000000000000000000e+03) (107, 1.50000000000000000000e+03) (108, 1.20585937500000000000e+03) (109, 1.10465917968750000000e+03) (110, 8.08784912109375000000e+02) (111, 1.50000000000000000000e+03) (112, 1.50000000000000000000e+03) (113, -1.50000000000000000000e+03) (114, -1.50000000000000000000e+03) (115, -1.50000000000000000000e+03) (116, -1.50000000000000000000e+03) (117, -1.50000000000000000000e+03) (118, -1.50000000000000000000e+03) (119, -1.50000000000000000000e+03) (120, -1.50000000000000000000e+03) (121, -1.41793432617187500000e+03) (122, -1.49433740234375000000e+03) (123, -1.36658312988281250000e+03) (124, 1.45567150878906250000e+03) (125, 1.46068798828125000000e+03) (126, 1.50000000000000000000e+03) (127, 1.50000000000000000000e+03) (128, 1.50000000000000000000e+03) (129, 1.50000000000000000000e+03) (130, 1.50000000000000000000e+03) (131, 1.50000000000000000000e+03) (132, 1.50000000000000000000e+03) (133, 1.50000000000000000000e+03) (134, 1.50000000000000000000e+03) (135, 1.50000000000000000000e+03) (136, 1.50000000000000000000e+03) (137, 1.19126135253906250000e+03) (138, 1.50000000000000000000e+03) (139, 1.50000000000000000000e+03) (140, 1.50000000000000000000e+03) (141, 1.50000000000000000000e+03) (142, 1.93738647460937500000e+02) (143, -1.50000000000000000000e+03) (144, -1.50000000000000000000e+03) (145, -1.50000000000000000000e+03) (146, -1.50000000000000000000e+03) (147, -1.50000000000000000000e+03) (148, -1.48815405273437500000e+03) (149, -1.61529449462890625000e+02) (150, -4.98140747070312500000e+02) (151, 1.50000000000000000000e+03) (152, 1.50000000000000000000e+03) (153, 1.50000000000000000000e+03) (154, 1.50000000000000000000e+03) (155, 1.50000000000000000000e+03) (156, 1.50000000000000000000e+03) (157, 1.50000000000000000000e+03) (158, 1.50000000000000000000e+03) (159, 1.50000000000000000000e+03) (160, 1.50000000000000000000e+03) (161, 1.50000000000000000000e+03) (162, 1.50000000000000000000e+03) (163, 1.50000000000000000000e+03) (164, 1.50000000000000000000e+03) (165, 1.50000000000000000000e+03) (166, 1.50000000000000000000e+03) (167, -1.47500000000000000000e+03) (168, 1.50000000000000000000e+03) (169, 1.50000000000000000000e+03) (170, -1.10086132812500000000e+03) (171, -1.50000000000000000000e+03) (172, -1.50000000000000000000e+03) (173, -1.50000000000000000000e+03) (174, -1.50000000000000000000e+03) (175, -1.50000000000000000000e+03) (176, -1.50000000000000000000e+03) (177, -1.50000000000000000000e+03) (178, -1.47305859375000000000e+03) (179, 1.19363269042968750000e+03) (180, 1.45247998046875000000e+03) (181, 1.45247998046875000000e+03) (182, 1.46279895019531250000e+03) (183, 1.24404516601562500000e+03) (184, 1.50000000000000000000e+03) (185, 1.50000000000000000000e+03) (186, 1.50000000000000000000e+03) (187, 1.50000000000000000000e+03) (188, 1.50000000000000000000e+03) (189, 1.50000000000000000000e+03) (190, 1.50000000000000000000e+03) (191, 1.50000000000000000000e+03) (192, 1.50000000000000000000e+03) (193, 1.50000000000000000000e+03) (194, 1.50000000000000000000e+03) (195, 1.50000000000000000000e+03) (196, -1.50000000000000000000e+03) (197, -1.50000000000000000000e+03) (198, -1.50000000000000000000e+03) (199, -1.50000000000000000000e+03) (200, -1.50000000000000000000e+03) (201, -1.50000000000000000000e+03) (202, -1.50000000000000000000e+03) (203, -1.50000000000000000000e+03) (204, -1.50000000000000000000e+03) (205, -1.50000000000000000000e+03) (206, -1.50000000000000000000e+03) (207, -1.50000000000000000000e+03) (208, -1.50000000000000000000e+03) (209, -1.50000000000000000000e+03) (210, -1.50000000000000000000e+03) (211, -1.50000000000000000000e+03) (212, -1.50000000000000000000e+03) (213, -1.50000000000000000000e+03) (214, -1.46020776367187500000e+03) (215, 1.50000000000000000000e+03) (216, 1.50000000000000000000e+03) (217, 1.50000000000000000000e+03) (218, 1.50000000000000000000e+03) (219, 1.50000000000000000000e+03) (220, 1.50000000000000000000e+03) (221, 1.50000000000000000000e+03) (222, 1.50000000000000000000e+03) (223, 1.50000000000000000000e+03) (224, 1.50000000000000000000e+03) (225, -1.50000000000000000000e+03) (226, -1.50000000000000000000e+03) (227, -1.50000000000000000000e+03) (228, -1.50000000000000000000e+03) (229, -1.50000000000000000000e+03) (230, -1.50000000000000000000e+03) (231, -1.50000000000000000000e+03) (232, -1.50000000000000000000e+03) (233, -1.50000000000000000000e+03) (234, -1.50000000000000000000e+03) (235, -1.50000000000000000000e+03) (236, -1.50000000000000000000e+03) (237, -1.50000000000000000000e+03) (238, -1.50000000000000000000e+03) (239, -1.50000000000000000000e+03) (240, -1.50000000000000000000e+03) (241, -1.50000000000000000000e+03) (242, -1.50000000000000000000e+03) (243, -1.50000000000000000000e+03) (244, 2.39373107910156250000e+02) (245, 7.75075195312500000000e+02) (246, 1.50000000000000000000e+03) (247, 1.50000000000000000000e+03) (248, 1.50000000000000000000e+03) (249, 1.50000000000000000000e+03) (250, 1.50000000000000000000e+03) (251, 1.14080004882812500000e+03) (252, -1.50000000000000000000e+03) (253, -1.50000000000000000000e+03) (254, -1.50000000000000000000e+03) (255, -1.50000000000000000000e+03) (256, -1.50000000000000000000e+03) (257, -1.50000000000000000000e+03) (258, -1.50000000000000000000e+03) (259, -1.50000000000000000000e+03) (260, -1.19271057128906250000e+03) (261, -5.40939636230468750000e+02) (262, -1.02741577148437500000e+02) (263, -1.11439514160156250000e+03) (264, -1.50000000000000000000e+03) (265, -1.50000000000000000000e+03) (266, -1.50000000000000000000e+03) (267, -1.50000000000000000000e+03) (268, -1.50000000000000000000e+03) (269, -1.50000000000000000000e+03) (270, -1.50000000000000000000e+03) (271, -1.50000000000000000000e+03) (272, 5.08222122192382812500e+01) (273, 8.26822586059570312500e+01) (274, 1.50000000000000000000e+03) (275, 1.50000000000000000000e+03) (276, 1.50000000000000000000e+03) (277, 1.50000000000000000000e+03) (278, 1.50000000000000000000e+03) (279, 1.50000000000000000000e+03) (280, -1.50000000000000000000e+03) (281, -1.50000000000000000000e+03) (282, -1.50000000000000000000e+03) (283, -1.50000000000000000000e+03) (284, -1.50000000000000000000e+03) (285, -1.50000000000000000000e+03) (286, -1.50000000000000000000e+03) (287, 6.24504211425781250000e+02) (288, 5.05389739990234375000e+02) (289, 1.49851977539062500000e+03) (290, 1.50000000000000000000e+03) (291, 1.50000000000000000000e+03) (292, 1.50000000000000000000e+03) (293, -1.50000000000000000000e+03) (294, -1.50000000000000000000e+03) (295, -1.50000000000000000000e+03) (296, -1.50000000000000000000e+03) (297, -1.50000000000000000000e+03) (298, -1.50000000000000000000e+03) (299, -1.50000000000000000000e+03) (300, -4.69962097167968750000e+02) (301, 4.45320190429687500000e+02) (302, 1.05920019531250000000e+03) (303, 1.50000000000000000000e+03) (304, 1.50000000000000000000e+03) (305, 1.50000000000000000000e+03) (306, 1.50000000000000000000e+03) (307, 1.50000000000000000000e+03) (308, -1.50000000000000000000e+03) (309, -1.50000000000000000000e+03) (310, -1.50000000000000000000e+03) (311, -1.50000000000000000000e+03) (312, -1.50000000000000000000e+03) (313, -1.50000000000000000000e+03) (314, -1.50000000000000000000e+03) (315, 1.50000000000000000000e+03) (316, 1.50000000000000000000e+03) (317, 1.50000000000000000000e+03) (318, 1.50000000000000000000e+03) (319, 1.50000000000000000000e+03) (320, 1.50000000000000000000e+03) (321, 1.50000000000000000000e+03) (322, -1.50000000000000000000e+03) (323, -1.50000000000000000000e+03) (324, -1.50000000000000000000e+03) (325, -1.50000000000000000000e+03) (326, -1.50000000000000000000e+03) (327, -1.50000000000000000000e+03) (328, 1.04729443359375000000e+03) (329, 1.10660009765625000000e+03) (330, 1.43400000000000000000e+03) (331, 1.50000000000000000000e+03) (332, 1.50000000000000000000e+03) (333, 1.50000000000000000000e+03) (334, 1.50000000000000000000e+03) (335, -1.50000000000000000000e+03) (336, -1.50000000000000000000e+03) (337, -1.50000000000000000000e+03) (338, -1.50000000000000000000e+03) (339, -1.50000000000000000000e+03) (340, -1.50000000000000000000e+03) (341, -1.50000000000000000000e+03) (342, 1.50000000000000000000e+03) (343, 1.50000000000000000000e+03) (344, 1.50000000000000000000e+03) (345, 1.50000000000000000000e+03) (346, 1.50000000000000000000e+03) (347, 1.50000000000000000000e+03) (348, 1.50000000000000000000e+03) (349, 1.50000000000000000000e+03) (350, -1.34799523925781250000e+03) (351, -9.67581665039062500000e+02) (352, -1.50000000000000000000e+03) (353, -1.50000000000000000000e+03) (354, -1.50000000000000000000e+03) (355, -1.50000000000000000000e+03) (356, 1.26781945800781250000e+03) (357, 1.50000000000000000000e+03) (358, 1.50000000000000000000e+03) (359, 1.50000000000000000000e+03) (360, 1.50000000000000000000e+03) (361, 1.50000000000000000000e+03) (362, 9.21522705078125000000e+02) (363, -1.50000000000000000000e+03) (364, 1.50000000000000000000e+03) (365, -1.50000000000000000000e+03) (366, -1.50000000000000000000e+03) (367, -1.50000000000000000000e+03) (368, -1.50000000000000000000e+03) (369, -1.50000000000000000000e+03) (370, 8.31565551757812500000e+01) (371, 1.23113146972656250000e+03) (372, 1.50000000000000000000e+03) (373, 1.50000000000000000000e+03) (374, 1.50000000000000000000e+03) (375, 1.50000000000000000000e+03) (376, 1.50000000000000000000e+03) (377, 1.50000000000000000000e+03) (378, 1.50000000000000000000e+03) (379, 2.57153320312500000000e+02) (380, -1.50000000000000000000e+03) (381, -1.50000000000000000000e+03) (382, -1.50000000000000000000e+03) (383, -1.50000000000000000000e+03) (384, 1.08970825195312500000e+03) (385, 1.50000000000000000000e+03) (386, 1.50000000000000000000e+03) (387, 1.50000000000000000000e+03) (388, 1.50000000000000000000e+03) (389, 1.50000000000000000000e+03) (390, -1.50000000000000000000e+03) (391, -1.50000000000000000000e+03) (392, 1.50000000000000000000e+03) (393, -1.50000000000000000000e+03) (394, -1.50000000000000000000e+03) (395, -1.50000000000000000000e+03) (396, -1.50000000000000000000e+03) (397, -8.94596313476562500000e+02) (398, 1.37428723144531250000e+03) (399, 1.50000000000000000000e+03) (400, 1.50000000000000000000e+03) (401, 1.50000000000000000000e+03) (402, 1.50000000000000000000e+03) (403, 1.50000000000000000000e+03) (404, 1.50000000000000000000e+03) (405, 1.50000000000000000000e+03) (406, 1.50000000000000000000e+03) (407, 8.19475524902343750000e+02) (408, -1.50000000000000000000e+03) (409, -1.50000000000000000000e+03) (410, -1.50000000000000000000e+03) (411, -1.50000000000000000000e+03) (412, -1.31590246582031250000e+03) (413, 1.50000000000000000000e+03) (414, 1.50000000000000000000e+03) (415, 1.50000000000000000000e+03) (416, 1.50000000000000000000e+03) (417, 1.50000000000000000000e+03) (418, -1.50000000000000000000e+03) (419, -1.50000000000000000000e+03) (420, 1.50000000000000000000e+03) (421, -1.50000000000000000000e+03) (422, -1.50000000000000000000e+03) (423, -1.47500000000000000000e+03) (424, -1.50000000000000000000e+03) (425, -6.23266601562500000000e+00) (426, 9.33346191406250000000e+02) (427, 1.10660009765625000000e+03) (428, 1.50000000000000000000e+03) (429, 1.50000000000000000000e+03) (430, 1.50000000000000000000e+03) (431, 1.50000000000000000000e+03) (432, 1.50000000000000000000e+03) (433, 1.50000000000000000000e+03) (434, 1.50000000000000000000e+03) (435, -1.43900000000000000000e+03) (436, -1.50000000000000000000e+03) (437, -1.50000000000000000000e+03) (438, -1.50000000000000000000e+03) (439, -1.50000000000000000000e+03) (440, -1.50000000000000000000e+03) (441, 1.29080004882812500000e+03) (442, 1.50000000000000000000e+03) (443, 1.50000000000000000000e+03) (444, 1.50000000000000000000e+03) (445, 1.50000000000000000000e+03) (446, -1.50000000000000000000e+03) (447, -1.50000000000000000000e+03) (448, 1.00411865234375000000e+02) (449, 1.09080004882812500000e+03) (450, -1.50000000000000000000e+03) (451, -1.47500000000000000000e+03) (452, -1.50000000000000000000e+03) (453, -1.33185180664062500000e+03) (454, 4.40800048828125000000e+02) (455, 9.90800048828125000000e+02) (456, 1.50000000000000000000e+03) (457, 1.50000000000000000000e+03) (458, 1.50000000000000000000e+03) (459, 1.50000000000000000000e+03) (460, 1.50000000000000000000e+03) (461, 1.50000000000000000000e+03) (462, -1.42067474365234375000e+02) (463, -1.50000000000000000000e+03) (464, -1.50000000000000000000e+03) (465, -1.50000000000000000000e+03) (466, -1.50000000000000000000e+03) (467, -1.50000000000000000000e+03) (468, 2.09000732421875000000e+02) (469, 1.47000000000000000000e+03) (470, 1.50000000000000000000e+03) (471, 1.50000000000000000000e+03) (472, 1.50000000000000000000e+03) (473, -9.13741455078125000000e+01) (474, -1.50000000000000000000e+03) (475, -1.50000000000000000000e+03) (476, 1.50000000000000000000e+03) (477, -1.50000000000000000000e+03) (478, -1.50000000000000000000e+03) (479, 