FANN_FLO_2.1
num_layers=3
learning_rate=0.700000
connection_rate=1.000000
network_type=0
learning_momentum=0.000000
training_algorithm=2
train_error_function=1
train_stop_function=0
cascade_output_change_fraction=0.010000
quickprop_decay=-0.000100
quickprop_mu=1.750000
rprop_increase_factor=1.200000
rprop_decrease_factor=0.500000
rprop_delta_min=0.000000
rprop_delta_max=50.000000
rprop_delta_zero=0.100000
cascade_output_stagnation_epochs=12
cascade_candidate_change_fraction=0.010000
cascade_candidate_stagnation_epochs=12
cascade_max_out_epochs=150
cascade_max_cand_epochs=150
cascade_num_candidate_groups=2
bit_fail_limit=3.49999994039535522461e-01
cascade_candidate_limit=1.00000000000000000000e+03
cascade_weight_multiplier=4.00000005960464477539e-01
cascade_activation_functions_count=10
cascade_activation_functions=3 5 7 8 10 11 14 15 16 17 
cascade_activation_steepnesses_count=4
cascade_activation_steepnesses=2.50000000000000000000e-01 5.00000000000000000000e-01 7.50000000000000000000e-01 1.00000000000000000000e+00 
layer_sizes=785 31 11 
scale_included=0
neurons (num_inputs, activation_function, activation_steepness)=(0, 0, 0.00000000000000000000e+00) (0, 0, 0.00000000000000000000e+00) (0, 0, 0.00000000000000000000e+00) (0, 0, 0.00000000000000000000e+00) (0, 0, 0.00000000000000000000e+00) (0, 0, 0.00000000000000000000e+00) (0, 0, 0.00000000000000000000e+00) (0, 0, 0.00000000000000000000e+00) (0, 0, 0.00000000000000000000e+00) (0, 0, 0.00000000000000000000e+00) (0, 0, 0.00000000000000000000e+00) (0, 0, 0.00000000000000000000e+00) (0, 0, 0.00000000000000000000e+00) (0, 0, 0.00000000000000000000e+00) (0, 0, 0.00000000000000000000e+00) (0, 0, 0.00000000000000000000e+00) (0, 0, 0.00000000000000000000e+00) (0, 0, 0.00000000000000000000e+00) (0, 0, 0.00000000000000000000e+00) (0, 0, 0.00000000000000000000e+00) (0, 0, 0.00000000000000000000e+00) (0, 0, 0.00000000000000000000e+00) (0, 0, 0.00000000000000000000e+00) (0, 0, 0.00000000000000000000e+00) (0, 0, 0.00000000000000000000e+00) (0, 0, 0.00000000000000000000e+00) (0, 0, 0.00000000000000000000e+00) (0, 0, 0.00000000000000000000e+00) (0, 0, 0.00000000000000000000e+00) (0, 0, 0.00000000000000000000e+00) (0, 0, 0.00000000000000000000e+00) (0, 0, 0.00000000000000000000e+00) (0, 0, 0.00000000000000000000e+00) (0, 0, 0.00000000000000000000e+00) (0, 0, 0.00000000000000000000e+00) (0, 0, 0.00000000000000000000e+00) (0, 0, 0.00000000000000000000e+00) (0, 0, 0.00000000000000000000e+00) (0, 0, 0.00000000000000000000e+00) (0, 0, 0.00000000000000000000e+00) (0, 0, 0.00000000000000000000e+00) (0, 0, 0.00000000000000000000e+00) (0, 0, 0.00000000000000000000e+00) (0, 0, 0.00000000000000000000e+00) (0, 0, 0.00000000000000000000e+00) (0, 0, 0.00000000000000000000e+00) (0, 0, 0.00000000000000000000e+00) (0, 0, 0.00000000000000000000e+00) (0, 0, 0.00000000000000000000e+00) (0, 0, 0.00000000000000000000e+00) (0, 0, 0.00000000000000000000e+00) (0, 0, 0.00000000000000000000e+00) (0, 0, 0.00000000000000000000e+00) (0, 0, 0.00000000000000000000e+00) (0, 0, 0.00000000000000000000e+00) (0, 0, 0.00000000000000000000e+00) (0, 0, 0.00000000000000000000e+00) (0, 0, 0.00000000000000000000e+00) (0, 0, 0.00000000000000000000e+00) (0, 0, 0.00000000000000000000e+00) (0, 0, 0.00000000000000000000e+00) (0, 0, 0.00000000000000000000e+00) (0, 0, 0.00000000000000000000e+00) (0, 0, 0.00000000000000000000e+00) (0, 0, 0.00000000000000000000e+00) (0, 0, 0.00000000000000000000e+00) (0, 0, 0.00000000000000000000e+00) (0, 0, 0.00000000000000000000e+00) (0, 0, 0.00000000000000000000e+00) (0, 0, 0.00000000000000000000e+00) (0, 0, 0.00000000000000000000e+00) (0, 0, 0.00000000000000000000e+00) (0, 0, 0.00000000000000000000e+00) (0, 0, 0.00000000000000000000e+00) (0, 0, 0.00000000000000000000e+00) (0, 0, 0.00000000000000000000e+00) (0, 0, 0.00000000000000000000e+00) (0, 0, 0.00000000000000000000e+00) (0, 0, 0.00000000000000000000e+00) (0, 0, 0.00000000000000000000e+00) (0, 0, 0.00000000000000000000e+00) (0, 0, 0.00000000000000000000e+00) (0, 0, 0.00000000000000000000e+00) (0, 0, 0.00000000000000000000e+00) (0, 0, 0.00000000000000000000e+00) (0, 0, 0.00000000000000000000e+00) (0, 0, 0.00000000000000000000e+00) (0, 0, 0.00000000000000000000e+00) (0, 0, 0.00000000000000000000e+00) (0, 0, 0.00000000000000000000e+00) (0, 0, 0.00000000000000000000e+00) (0, 0, 0.00000000000000000000e+00) (0, 0, 0.00000000000000000000e+00) (0, 0, 0.00000000000000000000e+00) (0, 0, 0.00000000000000000000e+00) (0, 0, 0.00000000000000000000e+00) (0, 0, 0.00000000000000000000e+00) (0, 0, 0.00000000000000000000e+00) (0, 0, 0.00000000000000000000e+00) (0, 0, 0.00000000000000000000e+00) (0, 0, 0.00000000000000000000e+00) (0, 0, 0.00000000000000000000e+00) (0, 0, 0.00000000000000000000e+00) (0, 0, 0.00000000000000000000e+00) (0, 0, 0.00000000000000000000e+00) (0, 0, 0.00000000000000000000e+00) (0, 0, 0.00000000000000000000e+00) (0, 0, 0.00000000000000000000e+00) (0, 0, 0.00000000000000000000e+00) (0, 0, 0.00000000000000000000e+00) (0, 0, 0.00000000000000000000e+00) (0, 0, 0.00000000000000000000e+00) (0, 0, 0.00000000000000000000e+00) (0, 0, 0.00000000000000000000e+00) (0, 0, 0.00000000000000000000e+00) (0, 0, 0.00000000000000000000e+00) (0, 0, 0.00000000000000000000e+00) (0, 0, 0.00000000000000000000e+00) (0, 0, 0.00000000000000000000e+00) (0, 0, 0.00000000000000000000e+00) (0, 0, 0.00000000000000000000e+00) (0, 0, 0.00000000000000000000e+00) (0, 0, 0.00000000000000000000e+00) (0, 0, 0.00000000000000000000e+00) (0, 0, 0.00000000000000000000e+00) (0, 0, 0.00000000000000000000e+00) (0, 0, 0.00000000000000000000e+00) (0, 0, 0.00000000000000000000e+00) (0, 0, 0.00000000000000000000e+00) (0, 0, 0.00000000000000000000e+00) (0, 0, 0.00000000000000000000e+00) (0, 0, 0.00000000000000000000e+00) (0, 0, 0.00000000000000000000e+00) (0, 0, 0.00000000000000000000e+00) (0, 0, 0.00000000000000000000e+00) (0, 0, 0.00000000000000000000e+00) (0, 0, 0.00000000000000000000e+00) (0, 0, 0.00000000000000000000e+00) (0, 0, 0.00000000000000000000e+00) (0, 0, 0.00000000000000000000e+00) (0, 0, 0.00000000000000000000e+00) (0, 0, 0.00000000000000000000e+00) (0, 0, 0.00000000000000000000e+00) (0, 0, 0.00000000000000000000e+00) (0, 0, 0.00000000000000000000e+00) (0, 0, 0.00000000000000000000e+00) (0, 0, 0.00000000000000000000e+00) (0, 0, 0.00000000000000000000e+00) (0, 0, 0.00000000000000000000e+00) (0, 0, 0.00000000000000000000e+00) (0, 0, 0.00000000000000000000e+00) (0, 0, 0.00000000000000000000e+00) (0, 0, 0.00000000000000000000e+00) (0, 0, 0.00000000000000000000e+00) (0, 0, 0.00000000000000000000e+00) (0, 0, 0.00000000000000000000e+00) (0, 0, 0.00000000000000000000e+00) (0, 0, 0.00000000000000000000e+00) (0, 0, 0.00000000000000000000e+00) (0, 0, 0.00000000000000000000e+00) (0, 0, 0.00000000000000000000e+00) (0, 0, 0.00000000000000000000e+00) (0, 0, 0.00000000000000000000e+00) (0, 0, 0.00000000000000000000e+00) (0, 0, 0.00000000000000000000e+00) (0, 0, 0.00000000000000000000e+00) (0, 0, 0.00000000000000000000e+00) (0, 0, 0.00000000000000000000e+00) (0, 0, 0.00000000000000000000e+00) (0, 0, 0.00000000000000000000e+00) (0, 0, 0.00000000000000000000e+00) (0, 0, 0.00000000000000000000e+00) (0, 0, 0.00000000000000000000e+00) (0, 0, 0.00000000000000000000e+00) (0, 0, 0.00000000000000000000e+00) (0, 0, 0.00000000000000000000e+00) (0, 0, 0.00000000000000000000e+00) (0, 0, 0.00000000000000000000e+00) (0, 0, 0.00000000000000000000e+00) (0, 0, 0.00000000000000000000e+00) (0, 0, 0.00000000000000000000e+00) (0, 0, 0.00000000000000000000e+00) (0, 0, 0.00000000000000000000e+00) (0, 0, 0.00000000000000000000e+00) (0, 0, 0.00000000000000000000e+00) (0, 0, 0.00000000000000000000e+00) (0, 0, 0.00000000000000000000e+00) (0, 0, 0.00000000000000000000e+00) (0, 0, 0.00000000000000000000e+00) (0, 0, 0.00000000000000000000e+00) (0, 0, 0.00000000000000000000e+00) (0, 0, 0.00000000000000000000e+00) (0, 0, 0.00000000000000000000e+00) (0, 0, 0.00000000000000000000e+00) (0, 0, 0.00000000000000000000e+00) (0, 0, 0.00000000000000000000e+00) (0, 0, 0.00000000000000000000e+00) (0, 0, 0.00000000000000000000e+00) (0, 0, 0.00000000000000000000e+00) (0, 0, 0.00000000000000000000e+00) (0, 0, 0.00000000000000000000e+00) (0, 0, 0.00000000000000000000e+00) (0, 0, 0.00000000000000000000e+00) (0, 0, 0.00000000000000000000e+00) (0, 0, 0.00000000000000000000e+00) (0, 0, 0.00000000000000000000e+00) (0, 0, 0.00000000000000000000e+00) (0, 0, 0.00000000000000000000e+00) (0, 0, 0.00000000000000000000e+00) (0, 0, 0.00000000000000000000e+00) (0, 0, 0.00000000000000000000e+00) (0, 0, 0.00000000000000000000e+00) (0, 0, 0.00000000000000000000e+00) (0, 0, 0.00000000000000000000e+00) (0, 0, 0.00000000000000000000e+00) (0, 0, 0.00000000000000000000e+00) (0, 0, 0.00000000000000000000e+00) (0, 0, 0.00000000000000000000e+00) (0, 0, 0.00000000000000000000e+00) (0, 0, 0.00000000000000000000e+00) (0, 0, 0.00000000000000000000e+00) (0, 0, 0.00000000000000000000e+00) (0, 0, 0.00000000000000000000e+00) (0, 0, 0.00000000000000000000e+00) (0, 0, 0.00000000000000000000e+00) (0, 0, 0.00000000000000000000e+00) (0, 0, 0.00000000000000000000e+00) (0, 0, 0.00000000000000000000e+00) (0, 0, 0.00000000000000000000e+00) (0, 0, 0.00000000000000000000e+00) (0, 0, 0.00000000000000000000e+00) (0, 0, 0.00000000000000000000e+00) (0, 0, 0.00000000000000000000e+00) (0, 0, 0.00000000000000000000e+00) (0, 0, 0.00000000000000000000e+00) (0, 0, 0.00000000000000000000e+00) (0, 0, 0.00000000000000000000e+00) (0, 0, 0.00000000000000000000e+00) (0, 0, 0.00000000000000000000e+00) (0, 0, 0.00000000000000000000e+00) (0, 0, 0.00000000000000000000e+00) (0, 0, 0.00000000000000000000e+00) (0, 0, 0.00000000000000000000e+00) (0, 0, 0.00000000000000000000e+00) (0, 0, 0.00000000000000000000e+00) (0, 0, 0.00000000000000000000e+00) (0, 0, 0.00000000000000000000e+00) (0, 0, 0.00000000000000000000e+00) (0, 0, 0.00000000000000000000e+00) (0, 0, 0.00000000000000000000e+00) (0, 0, 0.00000000000000000000e+00) (0, 0, 0.00000000000000000000e+00) (0, 0, 0.00000000000000000000e+00) (0, 0, 0.00000000000000000000e+00) (0, 0, 0.00000000000000000000e+00) (0, 0, 0.00000000000000000000e+00) (0, 0, 0.00000000000000000000e+00) (0, 0, 0.00000000000000000000e+00) (0, 0, 0.00000000000000000000e+00) (0, 0, 0.00000000000000000000e+00) (0, 0, 0.00000000000000000000e+00) (0, 0, 0.00000000000000000000e+00) (0, 0, 0.00000000000000000000e+00) (0, 0, 0.00000000000000000000e+00) (0, 0, 0.00000000000000000000e+00) (0, 0, 0.00000000000000000000e+00) (0, 0, 0.00000000000000000000e+00) (0, 0, 0.00000000000000000000e+00) (0, 0, 0.00000000000000000000e+00) (0, 0, 0.00000000000000000000e+00) (0, 0, 0.00000000000000000000e+00) (0, 0, 0.00000000000000000000e+00) (0, 0, 0.00000000000000000000e+00) (0, 0, 0.00000000000000000000e+00) (0, 0, 0.00000000000000000000e+00) (0, 0, 0.00000000000000000000e+00) (0, 0, 0.00000000000000000000e+00) (0, 0, 0.00000000000000000000e+00) (0, 0, 0.00000000000000000000e+00) (0, 0, 0.00000000000000000000e+00) (0, 0, 0.00000000000000000000e+00) (0, 0, 0.00000000000000000000e+00) (0, 0, 0.00000000000000000000e+00) (0, 0, 0.00000000000000000000e+00) (0, 0, 0.00000000000000000000e+00) (0, 0, 0.00000000000000000000e+00) (0, 0, 0.00000000000000000000e+00) (0, 0, 0.00000000000000000000e+00) (0, 0, 0.00000000000000000000e+00) (0, 0, 0.00000000000000000000e+00) (0, 0, 0.00000000000000000000e+00) (0, 0, 0.00000000000000000000e+00) (0, 0, 0.00000000000000000000e+00) (0, 0, 0.00000000000000000000e+00) (0, 0, 0.00000000000000000000e+00) (0, 0, 0.00000000000000000000e+00) (0, 0, 0.00000000000000000000e+00) (0, 0, 0.00000000000000000000e+00) (0, 0, 0.00000000000000000000e+00) (0, 0, 0.00000000000000000000e+00) (0, 0, 0.00000000000000000000e+00) (0, 0, 0.00000000000000000000e+00) (0, 0, 0.00000000000000000000e+00) (0, 0, 0.00000000000000000000e+00) (0, 0, 0.00000000000000000000e+00) (0, 0, 0.00000000000000000000e+00) (0, 0, 0.00000000000000000000e+00) (0, 0, 0.00000000000000000000e+00) (0, 0, 0.00000000000000000000e+00) (0, 0, 0.00000000000000000000e+00) (0, 0, 0.00000000000000000000e+00) (0, 0, 0.00000000000000000000e+00) (0, 0, 0.00000000000000000000e+00) (0, 0, 0.00000000000000000000e+00) (0, 0, 0.00000000000000000000e+00) (0, 0, 0.00000000000000000000e+00) (0, 0, 0.00000000000000000000e+00) (0, 0, 0.00000000000000000000e+00) (0, 0, 0.00000000000000000000e+00) (0, 0, 0.00000000000000000000e+00) (0, 0, 0.00000000000000000000e+00) (0, 0, 0.00000000000000000000e+00) (0, 0, 0.00000000000000000000e+00) (0, 0, 0.00000000000000000000e+00) (0, 0, 0.00000000000000000000e+00) (0, 0, 0.00000000000000000000e+00) (0, 0, 0.00000000000000000000e+00) (0, 0, 0.00000000000000000000e+00) (0, 0, 0.00000000000000000000e+00) (0, 0, 0.00000000000000000000e+00) (0, 0, 0.00000000000000000000e+00) (0, 0, 0.00000000000000000000e+00) (0, 0, 0.00000000000000000000e+00) (0, 0, 0.00000000000000000000e+00) (0, 0, 0.00000000000000000000e+00) (0, 0, 0.00000000000000000000e+00) (0, 0, 0.00000000000000000000e+00) (0, 0, 0.00000000000000000000e+00) (0, 0, 0.00000000000000000000e+00) (0, 0, 0.00000000000000000000e+00) (0, 0, 0.00000000000000000000e+00) (0, 0, 0.00000000000000000000e+00) (0, 0, 0.00000000000000000000e+00) (0, 0, 0.00000000000000000000e+00) (0, 0, 0.00000000000000000000e+00) (0, 0, 0.00000000000000000000e+00) (0, 0, 0.00000000000000000000e+00) (0, 0, 0.00000000000000000000e+00) (0, 0, 0.00000000000000000000e+00) (0, 0, 0.00000000000000000000e+00) (0, 0, 0.00000000000000000000e+00) (0, 0, 0.00000000000000000000e+00) (0, 0, 0.00000000000000000000e+00) (0, 0, 0.00000000000000000000e+00) (0, 0, 0.00000000000000000000e+00) (0, 0, 0.00000000000000000000e+00) (0, 0, 0.00000000000000000000e+00) (0, 0, 0.00000000000000000000e+00) (0, 0, 0.00000000000000000000e+00) (0, 0, 0.00000000000000000000e+00) (0, 0, 0.00000000000000000000e+00) (0, 0, 0.00000000000000000000e+00) (0, 0, 0.00000000000000000000e+00) (0, 0, 0.00000000000000000000e+00) (0, 0, 0.00000000000000000000e+00) (0, 0, 0.00000000000000000000e+00) (0, 0, 0.00000000000000000000e+00) (0, 0, 0.00000000000000000000e+00) (0, 0, 0.00000000000000000000e+00) (0, 0, 0.00000000000000000000e+00) (0, 0, 0.00000000000000000000e+00) (0, 0, 0.00000000000000000000e+00) (0, 0, 0.00000000000000000000e+00) (0, 0, 0.00000000000000000000e+00) (0, 0, 0.00000000000000000000e+00) (0, 0, 0.00000000000000000000e+00) (0, 0, 0.00000000000000000000e+00) (0, 0, 0.00000000000000000000e+00) (0, 0, 0.00000000000000000000e+00) (0, 0, 0.00000000000000000000e+00) (0, 0, 0.00000000000000000000e+00) (0, 0, 0.00000000000000000000e+00) (0, 0, 0.00000000000000000000e+00) (0, 0, 0.00000000000000000000e+00) (0, 0, 0.00000000000000000000e+00) (0, 0, 0.00000000000000000000e+00) (0, 0, 0.00000000000000000000e+00) (0, 0, 0.00000000000000000000e+00) (0, 0, 0.00000000000000000000e+00) (0, 0, 0.00000000000000000000e+00) (0, 0, 0.00000000000000000000e+00) (0, 0, 0.00000000000000000000e+00) (0, 0, 0.00000000000000000000e+00) (0, 0, 0.00000000000000000000e+00) (0, 0, 0.00000000000000000000e+00) (0, 0, 0.00000000000000000000e+00) (0, 0, 0.00000000000000000000e+00) (0, 0, 0.00000000000000000000e+00) (0, 0, 0.00000000000000000000e+00) (0, 0, 0.00000000000000000000e+00) (0, 0, 0.00000000000000000000e+00) (0, 0, 0.00000000000000000000e+00) (0, 0, 0.00000000000000000000e+00) (0, 0, 0.00000000000000000000e+00) (0, 0, 0.00000000000000000000e+00) (0, 0, 0.00000000000000000000e+00) (0, 0, 0.00000000000000000000e+00) (0, 0, 0.00000000000000000000e+00) (0, 0, 0.00000000000000000000e+00) (0, 0, 0.00000000000000000000e+00) (0, 0, 0.00000000000000000000e+00) (0, 0, 0.00000000000000000000e+00) (0, 0, 0.00000000000000000000e+00) (0, 0, 0.00000000000000000000e+00) (0, 0, 0.00000000000000000000e+00) (0, 0, 0.00000000000000000000e+00) (0, 0, 0.00000000000000000000e+00) (0, 0, 0.00000000000000000000e+00) (0, 0, 0.00000000000000000000e+00) (0, 0, 0.00000000000000000000e+00) (0, 0, 0.00000000000000000000e+00) (0, 0, 0.00000000000000000000e+00) (0, 0, 0.00000000000000000000e+00) (0, 0, 0.00000000000000000000e+00) (0, 0, 0.00000000000000000000e+00) (0, 0, 0.00000000000000000000e+00) (0, 0, 0.00000000000000000000e+00) (0, 0, 0.00000000000000000000e+00) (0, 0, 0.00000000000000000000e+00) (0, 0, 0.00000000000000000000e+00) (0, 0, 0.00000000000000000000e+00) (0, 0, 0.00000000000000000000e+00) (0, 0, 0.00000000000000000000e+00) (0, 0, 0.00000000000000000000e+00) (0, 0, 0.00000000000000000000e+00) (0, 0, 0.00000000000000000000e+00) (0, 0, 0.00000000000000000000e+00) (0, 0, 0.00000000000000000000e+00) (0, 0, 0.00000000000000000000e+00) (0, 0, 0.00000000000000000000e+00) (0, 0, 0.00000000000000000000e+00) (0, 0, 0.00000000000000000000e+00) (0, 0, 0.00000000000000000000e+00) (0, 0, 0.00000000000000000000e+00) (0, 0, 0.00000000000000000000e+00) (0, 0, 0.00000000000000000000e+00) (0, 0, 0.00000000000000000000e+00) (0, 0, 0.00000000000000000000e+00) (0, 0, 0.00000000000000000000e+00) (0, 0, 0.00000000000000000000e+00) (0, 0, 0.00000000000000000000e+00) (0, 0, 0.00000000000000000000e+00) (0, 0, 0.00000000000000000000e+00) (0, 0, 0.00000000000000000000e+00) (0, 0, 0.00000000000000000000e+00) (0, 0, 0.00000000000000000000e+00) (0, 0, 0.00000000000000000000e+00) (0, 0, 0.00000000000000000000e+00) (0, 0, 0.00000000000000000000e+00) (0, 0, 0.00000000000000000000e+00) (0, 0, 0.00000000000000000000e+00) (0, 0, 0.00000000000000000000e+00) (0, 0, 0.00000000000000000000e+00) (0, 0, 0.00000000000000000000e+00) (0, 0, 0.00000000000000000000e+00) (0, 0, 0.00000000000000000000e+00) (0, 0, 0.00000000000000000000e+00) (0, 0, 0.00000000000000000000e+00) (0, 0, 0.00000000000000000000e+00) (0, 0, 0.00000000000000000000e+00) (0, 0, 0.00000000000000000000e+00) (0, 0, 0.00000000000000000000e+00) (0, 0, 0.00000000000000000000e+00) (0, 0, 0.00000000000000000000e+00) (0, 0, 0.00000000000000000000e+00) (0, 0, 0.00000000000000000000e+00) (0, 0, 0.00000000000000000000e+00) (0, 0, 0.00000000000000000000e+00) (0, 0, 0.00000000000000000000e+00) (0, 0, 0.00000000000000000000e+00) (0, 0, 0.00000000000000000000e+00) (0, 0, 0.00000000000000000000e+00) (0, 0, 0.00000000000000000000e+00) (0, 0, 0.00000000000000000000e+00) (0, 0, 0.00000000000000000000e+00) (0, 0, 0.00000000000000000000e+00) (0, 0, 0.00000000000000000000e+00) (0, 0, 0.00000000000000000000e+00) (0, 0, 0.00000000000000000000e+00) (0, 0, 0.00000000000000000000e+00) (0, 0, 0.00000000000000000000e+00) (0, 0, 0.00000000000000000000e+00) (0, 0, 0.00000000000000000000e+00) (0, 0, 0.00000000000000000000e+00) (0, 0, 0.00000000000000000000e+00) (0, 0, 0.00000000000000000000e+00) (0, 0, 0.00000000000000000000e+00) (0, 0, 0.00000000000000000000e+00) (0, 0, 0.00000000000000000000e+00) (0, 0, 0.00000000000000000000e+00) (0, 0, 0.00000000000000000000e+00) (0, 0, 0.00000000000000000000e+00) (0, 0, 0.00000000000000000000e+00) (0, 0, 0.00000000000000000000e+00) (0, 0, 0.00000000000000000000e+00) (0, 0, 0.00000000000000000000e+00) (0, 0, 0.00000000000000000000e+00) (0, 0, 0.00000000000000000000e+00) (0, 0, 0.00000000000000000000e+00) (0, 0, 0.00000000000000000000e+00) (0, 0, 0.00000000000000000000e+00) (0, 0, 0.00000000000000000000e+00) (0, 0, 0.00000000000000000000e+00) (0, 0, 0.00000000000000000000e+00) (0, 0, 0.00000000000000000000e+00) (0, 0, 0.00000000000000000000e+00) (0, 0, 0.00000000000000000000e+00) (0, 0, 0.00000000000000000000e+00) (0, 0, 0.00000000000000000000e+00) (0, 0, 0.00000000000000000000e+00) (0, 0, 0.00000000000000000000e+00) (0, 0, 0.00000000000000000000e+00) (0, 0, 0.00000000000000000000e+00) (0, 0, 0.00000000000000000000e+00) (0, 0, 0.00000000000000000000e+00) (0, 0, 0.00000000000000000000e+00) (0, 0, 0.00000000000000000000e+00) (0, 0, 0.00000000000000000000e+00) (0, 0, 0.00000000000000000000e+00) (0, 0, 0.00000000000000000000e+00) (0, 0, 0.00000000000000000000e+00) (0, 0, 0.00000000000000000000e+00) (0, 0, 0.00000000000000000000e+00) (0, 0, 0.00000000000000000000e+00) (0, 0, 0.00000000000000000000e+00) (0, 0, 0.00000000000000000000e+00) (0, 0, 0.00000000000000000000e+00) (0, 0, 0.00000000000000000000e+00) (0, 0, 0.00000000000000000000e+00) (0, 0, 0.00000000000000000000e+00) (0, 0, 0.00000000000000000000e+00) (0, 0, 0.00000000000000000000e+00) (0, 0, 0.00000000000000000000e+00) (0, 0, 0.00000000000000000000e+00) (0, 0, 0.00000000000000000000e+00) (0, 0, 0.00000000000000000000e+00) (0, 0, 0.00000000000000000000e+00) (0, 0, 0.00000000000000000000e+00) (0, 0, 0.00000000000000000000e+00) (0, 0, 0.00000000000000000000e+00) (0, 0, 0.00000000000000000000e+00) (0, 0, 0.00000000000000000000e+00) (0, 0, 0.00000000000000000000e+00) (0, 0, 0.00000000000000000000e+00) (0, 0, 0.00000000000000000000e+00) (0, 0, 0.00000000000000000000e+00) (0, 0, 0.00000000000000000000e+00) (0, 0, 0.00000000000000000000e+00) (0, 0, 0.00000000000000000000e+00) (0, 0, 0.00000000000000000000e+00) (0, 0, 0.00000000000000000000e+00) (0, 0, 0.00000000000000000000e+00) (0, 0, 0.00000000000000000000e+00) (0, 0, 0.00000000000000000000e+00) (0, 0, 0.00000000000000000000e+00) (0, 0, 0.00000000000000000000e+00) (0, 0, 0.00000000000000000000e+00) (0, 0, 0.00000000000000000000e+00) (0, 0, 0.00000000000000000000e+00) (0, 0, 0.00000000000000000000e+00) (0, 0, 0.00000000000000000000e+00) (0, 0, 0.00000000000000000000e+00) (0, 0, 0.00000000000000000000e+00) (0, 0, 0.00000000000000000000e+00) (0, 0, 0.00000000000000000000e+00) (0, 0, 0.00000000000000000000e+00) (0, 0, 0.00000000000000000000e+00) (0, 0, 0.00000000000000000000e+00) (0, 0, 0.00000000000000000000e+00) (0, 0, 0.00000000000000000000e+00) (0, 0, 0.00000000000000000000e+00) (0, 0, 0.00000000000000000000e+00) (0, 0, 0.00000000000000000000e+00) (0, 0, 0.00000000000000000000e+00) (0, 0, 0.00000000000000000000e+00) (0, 0, 0.00000000000000000000e+00) (0, 0, 0.00000000000000000000e+00) (0, 0, 0.00000000000000000000e+00) (0, 0, 0.00000000000000000000e+00) (0, 0, 0.00000000000000000000e+00) (0, 0, 0.00000000000000000000e+00) (0, 0, 0.00000000000000000000e+00) (0, 0, 0.00000000000000000000e+00) (0, 0, 0.00000000000000000000e+00) (0, 0, 0.00000000000000000000e+00) (0, 0, 0.00000000000000000000e+00) (0, 0, 0.00000000000000000000e+00) (0, 0, 0.00000000000000000000e+00) (0, 0, 0.00000000000000000000e+00) (0, 0, 0.00000000000000000000e+00) (0, 0, 0.00000000000000000000e+00) (0, 0, 0.00000000000000000000e+00) (0, 0, 0.00000000000000000000e+00) (0, 0, 0.00000000000000000000e+00) (0, 0, 0.00000000000000000000e+00) (0, 0, 0.00000000000000000000e+00) (0, 0, 0.00000000000000000000e+00) (0, 0, 0.00000000000000000000e+00) (0, 0, 0.00000000000000000000e+00) (0, 0, 0.00000000000000000000e+00) (0, 0, 0.00000000000000000000e+00) (0, 0, 0.00000000000000000000e+00) (0, 0, 0.00000000000000000000e+00) (0, 0, 0.00000000000000000000e+00) (0, 0, 0.00000000000000000000e+00) (0, 0, 0.00000000000000000000e+00) (0, 0, 0.00000000000000000000e+00) (0, 0, 0.00000000000000000000e+00) (0, 0, 0.00000000000000000000e+00) (0, 0, 0.00000000000000000000e+00) (0, 0, 0.00000000000000000000e+00) (0, 0, 0.00000000000000000000e+00) (0, 0, 0.00000000000000000000e+00) (0, 0, 0.00000000000000000000e+00) (0, 0, 0.00000000000000000000e+00) (0, 0, 0.00000000000000000000e+00) (0, 0, 0.00000000000000000000e+00) (0, 0, 0.00000000000000000000e+00) (0, 0, 0.00000000000000000000e+00) (0, 0, 0.00000000000000000000e+00) (0, 0, 0.00000000000000000000e+00) (0, 0, 0.00000000000000000000e+00) (0, 0, 0.00000000000000000000e+00) (0, 0, 0.00000000000000000000e+00) (0, 0, 0.00000000000000000000e+00) (0, 0, 0.00000000000000000000e+00) (0, 0, 0.00000000000000000000e+00) (0, 0, 0.00000000000000000000e+00) (0, 0, 0.00000000000000000000e+00) (0, 0, 0.00000000000000000000e+00) (0, 0, 0.00000000000000000000e+00) (0, 0, 0.00000000000000000000e+00) (0, 0, 0.00000000000000000000e+00) (0, 0, 0.00000000000000000000e+00) (0, 0, 0.00000000000000000000e+00) (0, 0, 0.00000000000000000000e+00) (0, 0, 0.00000000000000000000e+00) (0, 0, 0.00000000000000000000e+00) (0, 0, 0.00000000000000000000e+00) (0, 0, 0.00000000000000000000e+00) (0, 0, 0.00000000000000000000e+00) (0, 0, 0.00000000000000000000e+00) (0, 0, 0.00000000000000000000e+00) (0, 0, 0.00000000000000000000e+00) (0, 0, 0.00000000000000000000e+00) (0, 0, 0.00000000000000000000e+00) (0, 0, 0.00000000000000000000e+00) (0, 0, 0.00000000000000000000e+00) (0, 0, 0.00000000000000000000e+00) (0, 0, 0.00000000000000000000e+00) (0, 0, 0.00000000000000000000e+00) (0, 0, 0.00000000000000000000e+00) (0, 0, 0.00000000000000000000e+00) (0, 0, 0.00000000000000000000e+00) (0, 0, 0.00000000000000000000e+00) (0, 0, 0.00000000000000000000e+00) (0, 0, 0.00000000000000000000e+00) (0, 0, 0.00000000000000000000e+00) (0, 0, 0.00000000000000000000e+00) (0, 0, 0.00000000000000000000e+00) (0, 0, 0.00000000000000000000e+00) (0, 0, 0.00000000000000000000e+00) (0, 0, 0.00000000000000000000e+00) (0, 0, 0.00000000000000000000e+00) (0, 0, 0.00000000000000000000e+00) (0, 0, 0.00000000000000000000e+00) (0, 0, 0.00000000000000000000e+00) (0, 0, 0.00000000000000000000e+00) (0, 0, 0.00000000000000000000e+00) (0, 0, 0.00000000000000000000e+00) (0, 0, 0.00000000000000000000e+00) (0, 0, 0.00000000000000000000e+00) (0, 0, 0.00000000000000000000e+00) (0, 0, 0.00000000000000000000e+00) (0, 0, 0.00000000000000000000e+00) (0, 0, 0.00000000000000000000e+00) (0, 0, 0.00000000000000000000e+00) (0, 0, 0.00000000000000000000e+00) (0, 0, 0.00000000000000000000e+00) (0, 0, 0.00000000000000000000e+00) (0, 0, 0.00000000000000000000e+00) (0, 0, 0.00000000000000000000e+00) (0, 0, 0.00000000000000000000e+00) (0, 0, 0.00000000000000000000e+00) (0, 0, 0.00000000000000000000e+00) (0, 0, 0.00000000000000000000e+00) (0, 0, 0.00000000000000000000e+00) (0, 0, 0.00000000000000000000e+00) (0, 0, 0.00000000000000000000e+00) (0, 0, 0.00000000000000000000e+00) (0, 0, 0.00000000000000000000e+00) (0, 0, 0.00000000000000000000e+00) (0, 0, 0.00000000000000000000e+00) (0, 0, 0.00000000000000000000e+00) (0, 0, 0.00000000000000000000e+00) (0, 0, 0.00000000000000000000e+00) (0, 0, 0.00000000000000000000e+00) (0, 0, 0.00000000000000000000e+00) (0, 0, 0.00000000000000000000e+00) (0, 0, 0.00000000000000000000e+00) (0, 0, 0.00000000000000000000e+00) (0, 0, 0.00000000000000000000e+00) (0, 0, 0.00000000000000000000e+00) (0, 0, 0.00000000000000000000e+00) (0, 0, 0.00000000000000000000e+00) (0, 0, 0.00000000000000000000e+00) (0, 0, 0.00000000000000000000e+00) (0, 0, 0.00000000000000000000e+00) (0, 0, 0.00000000000000000000e+00) (0, 0, 0.00000000000000000000e+00) (0, 0, 0.00000000000000000000e+00) (0, 0, 0.00000000000000000000e+00) (0, 0, 0.00000000000000000000e+00) (0, 0, 0.00000000000000000000e+00) (0, 0, 0.00000000000000000000e+00) (0, 0, 0.00000000000000000000e+00) (0, 0, 0.00000000000000000000e+00) (0, 0, 0.00000000000000000000e+00) (0, 0, 0.00000000000000000000e+00) (0, 0, 0.00000000000000000000e+00) (0, 0, 0.00000000000000000000e+00) (0, 0, 0.00000000000000000000e+00) (0, 0, 0.00000000000000000000e+00) (0, 0, 0.00000000000000000000e+00) (0, 0, 0.00000000000000000000e+00) (0, 0, 0.00000000000000000000e+00) (0, 0, 0.00000000000000000000e+00) (0, 0, 0.00000000000000000000e+00) (0, 0, 0.00000000000000000000e+00) (0, 0, 0.00000000000000000000e+00) (0, 0, 0.00000000000000000000e+00) (0, 0, 0.00000000000000000000e+00) (0, 0, 0.00000000000000000000e+00) (0, 0, 0.00000000000000000000e+00) (0, 0, 0.00000000000000000000e+00) (0, 0, 0.00000000000000000000e+00) (0, 0, 0.00000000000000000000e+00) (0, 0, 0.00000000000000000000e+00) (0, 0, 0.00000000000000000000e+00) (0, 0, 0.00000000000000000000e+00) (0, 0, 0.00000000000000000000e+00) (0, 0, 0.00000000000000000000e+00) (0, 0, 0.00000000000000000000e+00) (0, 0, 0.00000000000000000000e+00) (0, 0, 0.00000000000000000000e+00) (0, 0, 0.00000000000000000000e+00) (0, 0, 0.00000000000000000000e+00) (0, 0, 0.00000000000000000000e+00) (0, 0, 0.00000000000000000000e+00) (0, 0, 0.00000000000000000000e+00) (0, 0, 0.00000000000000000000e+00) (0, 0, 0.00000000000000000000e+00) (0, 0, 0.00000000000000000000e+00) (0, 0, 0.00000000000000000000e+00) (0, 0, 0.00000000000000000000e+00) (0, 0, 0.00000000000000000000e+00) (0, 0, 0.00000000000000000000e+00) (0, 0, 0.00000000000000000000e+00) (0, 0, 0.00000000000000000000e+00) (0, 0, 0.00000000000000000000e+00) (0, 0, 0.00000000000000000000e+00) (0, 0, 0.00000000000000000000e+00) (0, 0, 0.00000000000000000000e+00) (0, 0, 0.00000000000000000000e+00) (0, 0, 0.00000000000000000000e+00) (0, 0, 0.00000000000000000000e+00) (0, 0, 0.00000000000000000000e+00) (0, 0, 0.00000000000000000000e+00) (0, 0, 0.00000000000000000000e+00) (0, 0, 0.00000000000000000000e+00) (0, 0, 0.00000000000000000000e+00) (0, 0, 0.00000000000000000000e+00) (0, 0, 0.00000000000000000000e+00) (0, 0, 0.00000000000000000000e+00) (0, 0, 0.00000000000000000000e+00) (785, 4, 5.00000000000000000000e-01) (785, 4, 5.00000000000000000000e-01) (785, 4, 5.00000000000000000000e-01) (785, 4, 5.00000000000000000000e-01) (785, 4, 5.00000000000000000000e-01) (785, 4, 5.00000000000000000000e-01) (785, 4, 5.00000000000000000000e-01) (785, 4, 5.00000000000000000000e-01) (785, 4, 5.00000000000000000000e-01) (785, 4, 5.00000000000000000000e-01) (785, 4, 5.00000000000000000000e-01) (785, 4, 5.00000000000000000000e-01) (785, 4, 5.00000000000000000000e-01) (785, 4, 5.00000000000000000000e-01) (785, 4, 5.00000000000000000000e-01) (785, 4, 5.00000000000000000000e-01) (785, 4, 5.00000000000000000000e-01) (785, 4, 5.00000000000000000000e-01) (785, 4, 5.00000000000000000000e-01) (785, 4, 5.00000000000000000000e-01) (785, 4, 5.00000000000000000000e-01) (785, 4, 5.00000000000000000000e-01) (785, 4, 5.00000000000000000000e-01) (785, 4, 5.00000000000000000000e-01) (785, 4, 5.00000000000000000000e-01) (785, 4, 5.00000000000000000000e-01) (785, 4, 5.00000000000000000000e-01) (785, 4, 5.00000000000000000000e-01) (785, 4, 5.00000000000000000000e-01) (785, 4, 5.00000000000000000000e-01) (0, 0, 0.00000000000000000000e+00) (31, 3, 5.00000000000000000000e-01) (31, 3, 5.00000000000000000000e-01) (31, 3, 5.00000000000000000000e-01) (31, 3, 5.00000000000000000000e-01) (31, 3, 5.00000000000000000000e-01) (31, 3, 5.00000000000000000000e-01) (31, 3, 5.00000000000000000000e-01) (31, 3, 5.00000000000000000000e-01) (31, 3, 5.00000000000000000000e-01) (31, 3, 5.00000000000000000000e-01) (0, 3, 0.00000000000000000000e+00) 
connections (connected_to_neuron, weight)=(0, 1.50000000000000000000e+03) (1, 1.50000000000000000000e+03) (2, 1.50000000000000000000e+03) (3, 1.50000000000000000000e+03) (4, 1.50000000000000000000e+03) (5, 1.50000000000000000000e+03) (6, 1.50000000000000000000e+03) (7, 1.50000000000000000000e+03) (8, 1.50000000000000000000e+03) (9, 1.50000000000000000000e+03) (10, 1.50000000000000000000e+03) (11, 1.50000000000000000000e+03) (12, -6.55016418457031250000e+02) (13, -1.50000000000000000000e+03) (14, -1.50000000000000000000e+03) (15, -1.50000000000000000000e+03) (16, 1.50000000000000000000e+03) (17, 1.50000000000000000000e+03) (18, 1.50000000000000000000e+03) (19, 1.50000000000000000000e+03) (20, 1.50000000000000000000e+03) (21, 1.50000000000000000000e+03) (22, 1.50000000000000000000e+03) (23, 1.50000000000000000000e+03) (24, 1.50000000000000000000e+03) (25, 1.50000000000000000000e+03) (26, 1.50000000000000000000e+03) (27, 1.50000000000000000000e+03) (28, 1.50000000000000000000e+03) (29, 1.50000000000000000000e+03) (30, 1.50000000000000000000e+03) (31, 1.50000000000000000000e+03) (32, 1.36605114746093750000e+03) (33, -1.50000000000000000000e+03) (34, -1.50000000000000000000e+03) (35, -1.50000000000000000000e+03) (36, -1.50000000000000000000e+03) (37, -1.29936682128906250000e+03) (38, -9.36572875976562500000e+02) (39, -1.50000000000000000000e+03) (40, -1.50000000000000000000e+03) (41, -1.50000000000000000000e+03) (42, -1.50000000000000000000e+03) (43, -1.50000000000000000000e+03) (44, -1.50000000000000000000e+03) (45, -1.50000000000000000000e+03) (46, -1.50000000000000000000e+03) (47, -1.50000000000000000000e+03) (48, -1.50000000000000000000e+03) (49, -1.50000000000000000000e+03) (50, -1.50000000000000000000e+03) (51, -1.50000000000000000000e+03) (52, 1.50000000000000000000e+03) (53, 1.50000000000000000000e+03) (54, 1.50000000000000000000e+03) (55, 1.50000000000000000000e+03) (56, 1.50000000000000000000e+03) (57, 1.50000000000000000000e+03) (58, 1.04080004882812500000e+03) (59, -1.50000000000000000000e+03) (60, -1.50000061035156250000e+02) (61, -1.50000000000000000000e+03) (62, -1.50000000000000000000e+03) (63, -1.50000000000000000000e+03) (64, -1.50000000000000000000e+03) (65, -1.04486010742187500000e+03) (66, -2.84834503173828125000e+02) (67, -1.50000000000000000000e+03) (68, -1.50000000000000000000e+03) (69, -1.50000000000000000000e+03) (70, -1.14756896972656250000e+03) (71, -1.50000000000000000000e+03) (72, -1.50000000000000000000e+03) (73, -3.36416687011718750000e+02) (74, -3.99165893554687500000e+02) (75, -7.05257019042968750000e+02) (76, -8.41506958007812500000e+01) (77, -1.50000000000000000000e+03) (78, -7.11708557128906250000e+02) (79, -1.50000000000000000000e+03) (80, -1.50000000000000000000e+03) (81, -1.50000000000000000000e+03) (82, 1.50000000000000000000e+03) (83, 1.50000000000000000000e+03) (84, 1.50000000000000000000e+03) (85, 1.50000000000000000000e+03) (86, 1.10572412109375000000e+03) (87, -1.50000000000000000000e+03) (88, 2.24000244140625000000e+01) (89, 1.43400000000000000000e+03) (90, 1.46393530273437500000e+03) (91, -1.50000000000000000000e+03) (92, -8.79274841308593750000e+02) (93, 1.49882678222656250000e+03) (94, 1.49930969238281250000e+03) (95, 7.35056884765625000000e+02) (96, -1.50000000000000000000e+03) (97, -1.50000000000000000000e+03) (98, -1.50000000000000000000e+03) (99, -1.50000000000000000000e+03) (100, -1.50000000000000000000e+03) (101, 2.77917098999023437500e+01) (102, 6.09076416015625000000e+02) (103, 5.69936904907226562500e+01) (104, 9.60439208984375000000e+02) (105, 1.08814440917968750000e+03) (106, 1.50000000000000000000e+03) (107, 1.37853857421875000000e+03) (108, 1.50000000000000000000e+03) (109, 9.03168151855468750000e+02) (110, 8.73228454589843750000e+01) (111, 1.50000000000000000000e+03) (112, 1.50000000000000000000e+03) (113, 1.50000000000000000000e+03) (114, 1.47000000000000000000e+03) (115, -1.50000000000000000000e+03) (116, 1.50000000000000000000e+03) (117, 1.50000000000000000000e+03) (118, 1.50000000000000000000e+03) (119, 1.50000000000000000000e+03) (120, 1.49966125488281250000e+03) (121, 4.19408966064453125000e+02) (122, -1.19848266601562500000e+03) (123, -1.41773803710937500000e+03) (124, -1.50000000000000000000e+03) (125, -1.50000000000000000000e+03) (126, -1.50000000000000000000e+03) (127, -1.50000000000000000000e+03) (128, -1.50000000000000000000e+03) (129, -1.47799914550781250000e+03) (130, -1.47799914550781250000e+03) (131, 8.81084411621093750000e+02) (132, 1.32198767089843750000e+03) (133, 1.50000000000000000000e+03) (134, 1.50000000000000000000e+03) (135, 1.50000000000000000000e+03) (136, 1.50000000000000000000e+03) (137, 1.50000000000000000000e+03) (138, 1.50000000000000000000e+03) (139, 1.50000000000000000000e+03) (140, 1.50000000000000000000e+03) (141, 1.50000000000000000000e+03) (142, 1.19036303710937500000e+03) (143, -6.74416442871093750000e+02) (144, 1.40046386718750000000e+03) (145, 1.50000000000000000000e+03) (146, 1.50000000000000000000e+03) (147, 1.50000000000000000000e+03) (148, 1.50000000000000000000e+03) (149, -6.51406127929687500000e+02) (150, -1.42109399414062500000e+03) (151, -1.36848999023437500000e+03) (152, -1.50000000000000000000e+03) (153, -1.50000000000000000000e+03) (154, -1.50000000000000000000e+03) (155, -1.50000000000000000000e+03) (156, -1.50000000000000000000e+03) (157, -1.50000000000000000000e+03) (158, -1.50000000000000000000e+03) (159, -1.46944348144531250000e+03) (160, -5.35694885253906250000e+00) (161, 1.48504907226562500000e+03) (162, 1.50000000000000000000e+03) (163, 1.50000000000000000000e+03) (164, 1.50000000000000000000e+03) (165, 1.50000000000000000000e+03) (166, 1.49507653808593750000e+03) (167, 3.79657440185546875000e+02) (168, 1.50000000000000000000e+03) (169, 1.50000000000000000000e+03) (170, 1.50000000000000000000e+03) (171, 1.48581054687500000000e+03) (172, 1.47359997558593750000e+03) (173, 1.50000000000000000000e+03) (174, 1.50000000000000000000e+03) (175, 1.29848046875000000000e+03) (176, 3.59140701293945312500e+01) (177, 3.89181884765625000000e+02) (178, -1.34238500976562500000e+03) (179, -1.43862072753906250000e+03) (180, -1.43862072753906250000e+03) (181, -1.50000000000000000000e+03) (182, -1.50000000000000000000e+03) (183, -1.50000000000000000000e+03) (184, -1.50000000000000000000e+03) (185, -1.49915429687500000000e+03) (186, -1.47799914550781250000e+03) (187, -1.46944348144531250000e+03) (188, -1.43906750488281250000e+03) (189, 9.82682922363281250000e+02) (190, 1.47511364746093750000e+03) (191, 1.50000000000000000000e+03) (192, 1.50000000000000000000e+03) (193, 1.50000000000000000000e+03) (194, 1.49894824218750000000e+03) (195, -1.47866210937500000000e+03) (196, 1.50000000000000000000e+03) (197, 1.50000000000000000000e+03) (198, 1.50000000000000000000e+03) (199, 1.50000000000000000000e+03) (200, 1.48581054687500000000e+03) (201, 1.50000000000000000000e+03) (202, 1.50000000000000000000e+03) (203, 1.37628039550781250000e+03) (204, 1.49980883789062500000e+03) (205, 1.37569531250000000000e+03) (206, 1.46723950195312500000e+03) (207, 1.49984301757812500000e+03) (208, -5.46054260253906250000e+02) (209, -1.46317248535156250000e+03) (210, -1.46317248535156250000e+03) (211, -1.30250439453125000000e+03) (212, -1.30250439453125000000e+03) (213, -1.40104455566406250000e+03) (214, -1.42606420898437500000e+03) (215, -1.47728356933593750000e+03) (216, -1.46844946289062500000e+03) (217, -1.36069665527343750000e+03) (218, 1.31392749023437500000e+03) (219, 1.50000000000000000000e+03) (220, 1.50000000000000000000e+03) (221, 1.50000000000000000000e+03) (222, -1.50000000000000000000e+03) (223, -1.50000000000000000000e+03) (224, -1.50000000000000000000e+03) (225, 6.51030395507812500000e+02) (226, 1.50000000000000000000e+03) (227, 1.50000000000000000000e+03) (228, 1.50000000000000000000e+03) (229, 1.50000000000000000000e+03) (230, 1.50000000000000000000e+03) (231, 1.50000000000000000000e+03) (232, 1.50000000000000000000e+03) (233, 1.48950244140625000000e+03) (234, 1.49936462402343750000e+03) (235, 1.50000000000000000000e+03) (236, 1.49997668457031250000e+03) (237, 1.49969958496093750000e+03) (238, -1.48167480468750000000e+03) (239, -1.24819433593750000000e+03) (240, -1.17405688476562500000e+03) (241, -1.13963171386718750000e+03) (242, -1.44062683105468750000e+03) (243, -1.45138586425781250000e+03) (244, -1.50000000000000000000e+03) (245, -1.49882543945312500000e+03) (246, -1.50000000000000000000e+03) (247, 1.76031860351562500000e+02) (248, 1.50000000000000000000e+03) (249, 1.50000000000000000000e+03) (250, -1.46199645996093750000e+03) (251, -1.50000000000000000000e+03) (252, 1.29080004882812500000e+03) (253, 1.50000000000000000000e+03) (254, 1.50000000000000000000e+03) (255, 1.50000000000000000000e+03) (256, 1.50000000000000000000e+03) (257, 1.50000000000000000000e+03) (258, 1.50000000000000000000e+03) (259, 1.50000000000000000000e+03) (260, 1.50000000000000000000e+03) (261, 1.50000000000000000000e+03) (262, 1.50000000000000000000e+03) (263, 1.50000000000000000000e+03) (264, 1.49983874511718750000e+03) (265, 1.15571545410156250000e+03) (266, -1.42387670898437500000e+03) (267, -1.49999511718750000000e+03) (268, -1.49978649902343750000e+03) (269, -1.38655603027343750000e+03) (270, -1.13428271484375000000e+03) (271, -1.43862072753906250000e+03) (272, -1.50000000000000000000e+03) (273, -1.50000000000000000000e+03) (274, -1.50000000000000000000e+03) (275, -1.50000000000000000000e+03) (276, -1.46844946289062500000e+03) (277, 1.50000000000000000000e+03) (278, -1.47651171875000000000e+03) (279, -1.50000000000000000000e+03) (280, 1.29080004882812500000e+03) (281, 1.50000000000000000000e+03) (282, 1.50000000000000000000e+03) (283, 1.50000000000000000000e+03) (284, 1.50000000000000000000e+03) (285, 1.50000000000000000000e+03) (286, 1.50000000000000000000e+03) (287, 1.50000000000000000000e+03) (288, 1.50000000000000000000e+03) (289, 1.50000000000000000000e+03) (290, 1.50000000000000000000e+03) (291, 1.50000000000000000000e+03) (292, 1.46032958984375000000e+03) (293, -1.49995837402343750000e+03) (294, -1.49999133300781250000e+03) (295, 1.32396691894531250000e+03) (296, 1.50000000000000000000e+03) (297, 1.50000000000000000000e+03) (298, -1.22370288085937500000e+03) (299, -1.46317248535156250000e+03) (300, -1.50000000000000000000e+03) (301, -1.50000000000000000000e+03) (302, -1.50000000000000000000e+03) (303, -1.50000000000000000000e+03) (304, -1.50000000000000000000e+03) (305, 1.50000000000000000000e+03) (306, -1.50000000000000000000e+03) (307, -1.50000000000000000000e+03) (308, 1.29080004882812500000e+03) (309, 1.50000000000000000000e+03) (310, 1.50000000000000000000e+03) (311, 1.50000000000000000000e+03) (312, 1.50000000000000000000e+03) (313, 1.50000000000000000000e+03) (314, 1.50000000000000000000e+03) (315, 1.50000000000000000000e+03) (316, 1.50000000000000000000e+03) (317, 1.50000000000000000000e+03) (318, 1.50000000000000000000e+03) (319, 1.46385681152343750000e+03) (320, 9.97194885253906250000e+02) (321, 1.45884350585937500000e+03) (322, 1.47091943359375000000e+03) (323, 1.50000000000000000000e+03) (324, 1.50000000000000000000e+03) (325, 1.50000000000000000000e+03) (326, 1.50000000000000000000e+03) (327, 1.46797271728515625000e+02) (328, -1.50000000000000000000e+03) (329, -1.50000000000000000000e+03) (330, -1.50000000000000000000e+03) (331, -1.50000000000000000000e+03) (332, -1.50000000000000000000e+03) (333, 2.68248718261718750000e+02) (334, -9.56481567382812500000e+02) (335, -1.50000000000000000000e+03) (336, 1.07952075195312500000e+03) (337, 1.50000000000000000000e+03) (338, 1.50000000000000000000e+03) (339, 1.50000000000000000000e+03) (340, 1.50000000000000000000e+03) (341, 1.50000000000000000000e+03) (342, 1.50000000000000000000e+03) (343, 1.50000000000000000000e+03) (344, 1.50000000000000000000e+03) (345, 1.50000000000000000000e+03) (346, 1.50000000000000000000e+03) (347, 1.48192846679687500000e+03) (348, 1.04591723632812500000e+03) (349, 1.23016137695312500000e+03) (350, 1.50000000000000000000e+03) (351, 1.50000000000000000000e+03) (352, 1.50000000000000000000e+03) (353, 1.50000000000000000000e+03) (354, 1.50000000000000000000e+03) (355, 1.50000000000000000000e+03) (356, -1.50000000000000000000e+03) (357, -1.50000000000000000000e+03) (358, -1.50000000000000000000e+03) (359, -1.50000000000000000000e+03) (360, -1.50000000000000000000e+03) (361, -1.50000000000000000000e+03) (362, -1.50000000000000000000e+03) (363, -1.50000000000000000000e+03) (364, -1.50000000000000000000e+03) (365, 6.37310302734375000000e+02) (366, 1.50000000000000000000e+03) (367, 1.50000000000000000000e+03) (368, 1.50000000000000000000e+03) (369, 1.50000000000000000000e+03) (370, 1.50000000000000000000e+03) (371, 1.49275341796875000000e+03) (372, 1.50000000000000000000e+03) (373, 1.50000000000000000000e+03) (374, 1.50000000000000000000e+03) (375, 1.49290539550781250000e+03) (376, 1.33703564453125000000e+03) (377, 1.44535229492187500000e+03) (378, 1.50000000000000000000e+03) (379, 1.50000000000000000000e+03) (380, 1.50000000000000000000e+03) (381, 1.50000000000000000000e+03) (382, 1.50000000000000000000e+03) (383, 1.50000000000000000000e+03) (384, -1.47489575195312500000e+03) (385, -1.50000000000000000000e+03) (386, -1.50000000000000000000e+03) (387, -1.50000000000000000000e+03) (388, -1.50000000000000000000e+03) (389, -1.50000000000000000000e+03) (390, -1.50000000000000000000e+03) (391, -1.50000000000000000000e+03) (392, -1.50000000000000000000e+03) (393, 1.50000000000000000000e+03) (394, 1.50000000000000000000e+03) (395, 1.50000000000000000000e+03) (396, 1.50000000000000000000e+03) (397, -1.48990173339843750000e+03) (398, -1.49969750976562500000e+03) (399, -1.44001367187500000000e+03) (400, -1.14255285644531250000e+03) (401, -4.44077941894531250000e+02) (402, 1.33966210937500000000e+03) (403, 1.50000000000000000000e+03) (404, 1.50000000000000000000e+03) (405, 1.43532165527343750000e+03) (406, 1.50000000000000000000e+03) (407, 1.50000000000000000000e+03) (408, 1.50000000000000000000e+03) (409, 1.50000000000000000000e+03) (410, 1.50000000000000000000e+03) (411, 1.50000000000000000000e+03) (412, 4.84476684570312500000e+02) (413, -1.50000000000000000000e+03) (414, -1.50000000000000000000e+03) (415, -1.50000000000000000000e+03) (416, -1.50000000000000000000e+03) (417, -1.50000000000000000000e+03) (418, -1.50000000000000000000e+03) (419, -1.50000000000000000000e+03) (420, 1.50000000000000000000e+03) (421, 1.50000000000000000000e+03) (422, 1.50000000000000000000e+03) (423, 1.50000000000000000000e+03) (424, 1.50000000000000000000e+03) (425, -1.49894262695312500000e+03) (426, -1.41841601562500000000e+03) (427, -1.45163134765625000000e+03) (428, -1.42387670898437500000e+03) (429, -1.43862072753906250000e+03) (430, -8.03831115722656250000e+02) (431, 1.50000000000000000000e+03) (432, 1.48993115234375000000e+03) (433, 8.35486755371093750000e+02) (434, 1.50000000000000000000e+03) (435, 1.50000000000000000000e+03) (436, 1.50000000000000000000e+03) (437, 1.50000000000000000000e+03) (438, 1.50000000000000000000e+03) (439, 1.50000000000000000000e+03) (440, -8.91400451660156250000e+02) (441, -1.50000000000000000000e+03) (442, -1.50000000000000000000e+03) (443, -1.50000000000000000000e+03) (444, -1.50000000000000000000e+03) (445, -1.50000000000000000000e+03) (446, -1.50000000000000000000e+03) (447, -1.50000000000000000000e+03) (448, 1.50000000000000000000e+03) (449, 1.50000000000000000000e+03) (450, 1.50000000000000000000e+03) (451, 1.50000000000000000000e+03) (452, -9.36488952636718750000e+02) (453, -1.27505114746093750000e+03) (454, -1.41000805664062500000e+03) (455, -1.50000000000000000000e+03) (456, -1.50000000000000000000e+03) (457, -1.45914062500000000000e+03) (458, -1.36848999023437500000e+03) (459, 1.49309082031250000000e+03) (460, 1.41327038574218750000e+03) (461, 1.47895520019531250000e+03) (462, 1.50000000000000000000e+03) (463, 1.50000000000000000000e+03) (464, 1.50000000000000000000e+03) (465, 1.50000000000000000000e+03) (466, 1.50000000000000000000e+03) (467, 8.48979431152343750000e+02) (468, -1.46205175781250000000e+03) (469, -1.50000000000000000000e+03) (470, -1.50000000000000000000e+03) (471, -1.50000000000000000000e+03) (472, -1.50000000000000000000e+03) (473, -1.50000000000000000000e+03) (474, -1.50000000000000000000e+03) (475, 1.07685119628906250000e+03) (476, 1.50000000000000000000e+03) (477, 1.50000000000000000000e+03) (478, 1.50000000000000000000e+03) (479, 1.50000000000000000000e+03) (480, -1.43055712890625000000e+03) (481, -1.50000000000000000000e+03) (482, -1.50000000000000000000e+03) (483, -1.50000000000000000000e+03) (484, -1.50000000000000000000e+03) (485, -1.50000000000000000000e+03) (486, -1.45914062500000000000e+03) (487, -1.27118750000000000000e+03) (488, 1.49992150878906250000e+03) (489, 1.50000000000000000000e+03) (490, 1.50000000000000000000e+03) (491, 1.50000000000000000000e+03) (492, 1.50000000000000000000e+03) (493, 1.50000000000000000000e+03) (494, 1.49971569824218750000e+03) (495, -1.44089526367187500000e+03) (496, -1.50000000000000000000e+03) (497, -1.50000000000000000000e+03) (498, -1.50000000000000000000e+03) (499, -1.50000000000000000000e+03) (500, -1.50000000000000000000e+03) (501, -1.50000000000000000000e+03) (502, -1.50000000000000000000e+03) (503, -1.50000000000000000000e+03) (504, 1.50000000000000000000e+03) (505, 1.30113635253906250000e+03) (506, 1.50000000000000000000e+03) (507, 1.50000000000000000000e+03) (508, -1.50000000000000000000e+03) (509, -1.50000000000000000000e+03) (510, -1.50000000000000000000e+03) (511, -1.50000000000000000000e+03) (512, -1.50000000000000000000e+03) (513, -1.50000000000000000000e+03) (514, -1.50000000000000000000e+03) (515, -1.45138586425781250000e+03) (516, -1.27830725097656250000e+03) (517, 1.50000000000000000000e+03) (518, 1.50000000000000000000e+03) (519, 1.50000000000000000000e+03) (520, 1.50000000000000000000e+03) (521, 1.49981835937500000000e+03) (522, -1.43862072753906250000e+03) (523, -1.45914062500000000000e+03) (524, -1.50000000000000000000e+03) (525, -1.50000000000000000000e+03) (526, -1.50000000000000000000e+03) (527, -1.50000000000000000000e+03) (528, -1.50000000000000000000e+03) (529, -1.50000000000000000000e+03) (530, -1.50000000000000000000e+03) (531, -1.50000000000000000000e+03) (532, -1.50000000000000000000e+03) (533, 1.32698352050781250000e+03) (534, 1.50000000000000000000e+03) (535, 1.50000000000000000000e+03) (536, -1.50000000000000000000e+03) (537, -1.50000000000000000000e+03) (538, -1.50000000000000000000e+03) (539, -1.50000000000000000000e+03) (540, -1.50000000000000000000e+03) (541, -1.50000000000000000000e+03) (542, -1.50000000000000000000e+03) (543, -1.50000000000000000000e+03) (544, -1.27830725097656250000e+03) (545, -2.40324081420898437500e+02) (546, 1.49935388183593750000e+03) (547, 1.49999731445312500000e+03) (548, -1.24623791503906250000e+03) (549, -1.43862072753906250000e+03) (550, -1.45914062500000000000e+03) (551, -1.45914062500000000000e+03) (552, -1.45914062500000000000e+03) (553, -1.45914062500000000000e+03) (554, -1.45914062500000000000e+03) (555, -1.50000000000000000000e+03) (556, -1.50000000000000000000e+03) (557, -1.50000000000000000000e+03) (558, -1.30939245605468750000e+03) (559, -1.50000000000000000000e+03) (560, 1.50000000000000000000e+03) (561, -1.50000000000000000000e+03) (562, 1.50000000000000000000e+03) (563, 1.50000000000000000000e+03) (564, -1.50000000000000000000e+03) (565, -1.50000000000000000000e+03) (566, -1.50000000000000000000e+03) (567, -1.50000000000000000000e+03) (568, -1.50000000000000000000e+03) (569, -1.50000000000000000000e+03) (570, -1.50000000000000000000e+03) (571, -1.50000000000000000000e+03) (572, -1.40104455566406250000e+03) (573, -1.33310424804687500000e+03) (574, -1.46061083984375000000e+03) (575, -1.43862072753906250000e+03) (576, -1.43862072753906250000e+03) (577, -1.43862072753906250000e+03) (578, -1.45914062500000000000e+03) (579, -1.45914062500000000000e+03) (580, -1.45914062500000000000e+03) (581, -1.45914062500000000000e+03) (582, -1.41773803710937500000e+03) (583, -1.41773803710937500000e+03) (584, -1.50000000000000000000e+03) (585, -1.50000000000000000000e+03) (586, -9.28061401367187500000e+02) (587, -1.45743176269531250000e+03) (588, -1.50000000000000000000e+03) (589, -1.09912988281250000000e+03) (590, -2.26697570800781250000e+02) (591, 7.54837951660156250000e+02) (592, -1.50000000000000000000e+03) (593, -1.50000000000000000000e+03) (594, -1.50000000000000000000e+03) (595, -1.50000000000000000000e+03) (596, -1.50000000000000000000e+03) (597, -1.50000000000000000000e+03) (598, -1.50000000000000000000e+03) (599, -1.47728356933593750000e+03) (600, -1.42387670898437500000e+03) (601, -1.43862072753906250000e+03) (602, -1.43862072753906250000e+03) (603, -1.43862072753906250000e+03) (604, -1.45138586425781250000e+03) (605, -1.43862072753906250000e+03) (606, -1.43862072753906250000e+03) (607, -1.43862072753906250000e+03) (608, -1.43862072753906250000e+03) (609, -1.36848999023437500000e+03) (610, -1.33310424804687500000e+03) (611, -1.41773803710937500000e+03) (612, -1.50000000000000000000e+03) (613, -1.50000000000000000000e+03) (614, -1.50000000000000000000e+03) (615, -1.50000000000000000000e+03) (616, -1.50000000000000000000e+03) (617, -1.33718554687500000000e+03) (618, 1.91233100891113281250e+01) (619, -6.15583923339843750000e+02) (620, -1.47719250488281250000e+03) (621, -1.50000000000000000000e+03) (622, -1.50000000000000000000e+03) (623, -1.50000000000000000000e+03) (624, -1.50000000000000000000e+03) (625, -1.50000000000000000000e+03) (626, -1.47799914550781250000e+03) (627, -1.45612841796875000000e+03) (628, -1.45138586425781250000e+03) (629, -1.43862072753906250000e+03) (630, -1.45138586425781250000e+03) (631, -1.45138586425781250000e+03) (632, -1.50000000000000000000e+03) (633, -1.50000000000000000000e+03) (634, -1.47748999023437500000e+03) (635, -1.43862072753906250000e+03) (636, -1.39986242675781250000e+03) (637, -1.32923498535156250000e+03) (638, -1.38946142578125000000e+03) (639, -1.29309838867187500000e+03) (640, -9.44486694335937500000e+02) (641, -1.50000000000000000000e+03) (642, -1.41773803710937500000e+03) (643, -1.50000000000000000000e+03) (644, 1.50000000000000000000e+03) (645, 1.50000000000000000000e+03) (646, -1.28450024414062500000e+03) (647, 1.50000000000000000000e+03) (648, 1.50000000000000000000e+03) (649, 2.37311401367187500000e+02) (650, -1.47361376953125000000e+03) (651, -1.49882543945312500000e+03) (652, -1.49915429687500000000e+03) (653, -1.45612841796875000000e+03) (654, -1.45612841796875000000e+03) (655, -1.45612841796875000000e+03) (656, -1.50000000000000000000e+03) (657, -1.45138586425781250000e+03) (658, -1.45138586425781250000e+03) (659, -1.50000000000000000000e+03) (660, -1.50000000000000000000e+03) (661, -5.00036163330078125000e+02) (662, -1.33538256835937500000e+03) (663, -1.34145898437500000000e+03) (664, -1.26615844726562500000e+03) (665, -1.49006005859375000000e+03) (666, -2.59655517578125000000e+02) (667, 8.14828125000000000000e+02) (668, 1.50000000000000000000e+03) (669, -3.17748718261718750000e+02) (670, 1.45506506347656250000e+03) (671, 1.50000000000000000000e+03) (672, 1.50000000000000000000e+03) (673, 1.50000000000000000000e+03) (674, -7.57348754882812500000e+02) (675, 1.50000000000000000000e+03) (676, 1.50000000000000000000e+03) (677, 1.50000000000000000000e+03) (678, 1.50000000000000000000e+03) (679, 1.50000000000000000000e+03) (680, 1.50000000000000000000e+03) (681, 1.50000000000000000000e+03) (682, 1.48886511230468750000e+03) (683, -2.99116973876953125000e+02) (684, 1.47724133300781250000e+03) (685, 4.77353424072265625000e+02) (686, -1.06278173828125000000e+03) (687, 3.90721801757812500000e+02) (688, 1.50000000000000000000e+03) (689, 1.50000000000000000000e+03) (690, 1.50000000000000000000e+03) (691, 1.50000000000000000000e+03) (692, 1.50000000000000000000e+03) (693, 1.50000000000000000000e+03) (694, 1.50000000000000000000e+03) (695, 1.50000000000000000000e+03) (696, -1.50000000000000000000e+03) (697, -1.50000000000000000000e+03) (698, -1.50000000000000000000e+03) (699, 1.50000000000000000000e+03) (700, 1.50000000000000000000e+03) (701, 1.50000000000000000000e+03) (702, 1.50000000000000000000e+03) (703, 1.50000000000000000000e+03) (704, 1.50000000000000000000e+03) (705, 1.50000000000000000000e+03) (706, 1.50000000000000000000e+03) (707, 1.50000000000000000000e+03) (708, 1.50000000000000000000e+03) (709, 1.50000000000000000000e+03) (710, 1.50000000000000000000e+03) (711, 1.50000000000000000000e+03) (712, 1.50000000000000000000e+03) (713, 1.50000000000000000000e+03) (714, 1.50000000000000000000e+03) (715, 1.50000000000000000000e+03) (716, 1.50000000000000000000e+03) (717, 1.50000000000000000000e+03) (718, 1.50000000000000000000e+03) (719, 1.50000000000000000000e+03) (720, 1.50000000000000000000e+03) (721, 1.50000000000000000000e+03) (722, 1.50000000000000000000e+03) (723, 1.50000000000000000000e+03) (724, -1.09213989257812500000e+02) (725, -1.45034875488281250000e+03) (726, -1.50000000000000000000e+03) (727, 1.50000000000000000000e+03) (728, 1.50000000000000000000e+03) (729, 1.50000000000000000000e+03) (730, 1.50000000000000000000e+03) (731, 1.50000000000000000000e+03) (732, 1.50000000000000000000e+03) (733, 1.50000000000000000000e+03) (734, 1.50000000000000000000e+03) (735, 1.50000000000000000000e+03) (736, 1.50000000000000000000e+03) (737, 1.50000000000000000000e+03) (738, 1.50000000000000000000e+03) (739, 1.50000000000000000000e+03) (740, 1.50000000000000000000e+03) (741, 1.50000000000000000000e+03) (742, 1.50000000000000000000e+03) (743, 1.50000000000000000000e+03) (744, 1.50000000000000000000e+03) (745, 1.50000000000000000000e+03) (746, 1.50000000000000000000e+03) (747, 1.50000000000000000000e+03) (748, 1.50000000000000000000e+03) (749, 1.50000000000000000000e+03) (750, 1.50000000000000000000e+03) (751, 1.50000000000000000000e+03) (752, -1.50000000000000000000e+03) (753, 1.50000000000000000000e+03) (754, 1.50000000000000000000e+03) (755, 1.50000000000000000000e+03) (756, 1.50000000000000000000e+03) (757, 1.50000000000000000000e+03) (758, 1.50000000000000000000e+03) (759, 1.50000000000000000000e+03) (760, 1.49750500488281250000e+03) (761, -1.50000000000000000000e+03) (762, 1.81336837768554687500e+02) (763, 5.49726867675781250000e+02) (764, -1.45656799316406250000e+03) (765, 1.50000000000000000000e+03) (766, 1.41394543457031250000e+03) (767, 1.49977221679687500000e+03) (768, 1.50000000000000000000e+03) (769, 1.50000000000000000000e+03) (770, 1.50000000000000000000e+03) (771, 1.50000000000000000000e+03) (772, 1.50000000000000000000e+03) (773, 1.50000000000000000000e+03) (774, 1.50000000000000000000e+03) (775, 1.50000000000000000000e+03) (776, 1.50000000000000000000e+03) (777, 1.50000000000000000000e+03) (778, 1.50000000000000000000e+03) (779, 1.50000000000000000000e+03) (780, 1.50000000000000000000e+03) (781, 1.50000000000000000000e+03) (782, 1.50000000000000000000e+03) (783, 1.50000000000000000000e+03) (784, -1.49125415039062500000e+03) (0, 1.50000000000000000000e+03) (1, 1.50000000000000000000e+03) (2, 1.50000000000000000000e+03) (3, 1.50000000000000000000e+03) (4, 1.50000000000000000000e+03) (5, 1.50000000000000000000e+03) (6, 1.50000000000000000000e+03) (7, 1.50000000000000000000e+03) (8, 1.50000000000000000000e+03) (9, 1.50000000000000000000e+03) (10, 1.50000000000000000000e+03) (11, 1.50000000000000000000e+03) (12, -1.50000000000000000000e+03) (13, -6.13286499023437500000e+02) (14, 1.50000000000000000000e+03) (15, 1.50000000000000000000e+03) (16, 1.50000000000000000000e+03) (17, 1.50000000000000000000e+03) (18, 1.50000000000000000000e+03) (19, 1.50000000000000000000e+03) (20, 1.50000000000000000000e+03) (21, 1.50000000000000000000e+03) (22, 1.50000000000000000000e+03) (23, 1.50000000000000000000e+03) (24, 1.50000000000000000000e+03) (25, 1.50000000000000000000e+03) (26, 1.50000000000000000000e+03) (27, 1.50000000000000000000e+03) (28, 1.50000000000000000000e+03) (29, 1.50000000000000000000e+03) (30, 1.50000000000000000000e+03) (31, 1.50000000000000000000e+03) (32, -1.50000000000000000000e+03) (33, 1.02057189941406250000e+03) (34, 1.45588806152343750000e+03) (35, 1.45588806152343750000e+03) (36, 1.50000000000000000000e+03) (37, 1.50000000000000000000e+03) (38, 1.50000000000000000000e+03) (39, 1.50000000000000000000e+03) (40, 1.50000000000000000000e+03) (41, 1.50000000000000000000e+03) (42, -1.50000000000000000000e+03) (43, -1.50000000000000000000e+03) (44, 1.50000000000000000000e+03) (45, 1.50000000000000000000e+03) (46, 1.50000000000000000000e+03) (47, 1.50000000000000000000e+03) (48, 1.50000000000000000000e+03) (49, 7.38566345214843750000e+02) (50, 1.50000000000000000000e+03) (51, 1.50000000000000000000e+03) (52, 1.50000000000000000000e+03) (53, 1.50000000000000000000e+03) (54, 1.50000000000000000000e+03) (55, 1.50000000000000000000e+03) (56, 1.50000000000000000000e+03) (57, 1.50000000000000000000e+03) (58, 5.46136474609375000000e+00) (59, 1.50000000000000000000e+03) (60, -1.50000000000000000000e+03) (61, 1.50000000000000000000e+03) (62, 1.50000000000000000000e+03) (63, 1.50000000000000000000e+03) (64, 1.50000000000000000000e+03) (65, 1.50000000000000000000e+03) (66, 1.50000000000000000000e+03) (67, 1.50000000000000000000e+03) (68, 1.50000000000000000000e+03) (69, 1.50000000000000000000e+03) (70, 1.50000000000000000000e+03) (71, 1.50000000000000000000e+03) (72, 1.50000000000000000000e+03) (73, 1.50000000000000000000e+03) (74, 1.50000000000000000000e+03) (75, 1.50000000000000000000e+03) (76, 1.50000000000000000000e+03) (77, 1.50000000000000000000e+03) (78, 1.31419995117187500000e+03) (79, 1.50000000000000000000e+03) (80, 1.50000000000000000000e+03) (81, 1.50000000000000000000e+03) (82, 1.50000000000000000000e+03) (83, 1.50000000000000000000e+03) (84, 1.50000000000000000000e+03) (85, 1.50000000000000000000e+03) (86, -1.50000000000000000000e+03) (87, 1.50000000000000000000e+03) (88, 2.34199951171875000000e+02) (89, -8.23890991210937500000e+02) (90, 1.50000000000000000000e+03) (91, 1.50000000000000000000e+03) (92, 1.50000000000000000000e+03) (93, 1.50000000000000000000e+03) (94, 1.50000000000000000000e+03) (95, 1.50000000000000000000e+03) (96, 1.50000000000000000000e+03) (97, 1.50000000000000000000e+03) (98, 1.50000000000000000000e+03) (99, 1.50000000000000000000e+03) (100, 1.50000000000000000000e+03) (101, 1.50000000000000000000e+03) (102, 1.50000000000000000000e+03) (103, 1.50000000000000000000e+03) (104, 1.50000000000000000000e+03) (105, 1.50000000000000000000e+03) (106, -1.28420007324218750000e+03) (107, -1.30000000000000000000e+03) (108, -1.50000000000000000000e+03) (109, 8.84075805664062500000e+02) (110, 1.50000000000000000000e+03) (111, 1.50000000000000000000e+03) (112, 1.50000000000000000000e+03) (113, -1.47500000000000000000e+03) (114, -1.50000000000000000000e+03) (115, -2.65800048828125000000e+02) (116, -1.50000000000000000000e+03) (117, -1.50000000000000000000e+03) (118, 9.26330566406250000000e+02) (119, 1.50000000000000000000e+03) (120, 1.50000000000000000000e+03) (121, 1.50000000000000000000e+03) (122, 1.50000000000000000000e+03) (123, 1.50000000000000000000e+03) (124, 1.50000000000000000000e+03) (125, 1.50000000000000000000e+03) (126, 1.50000000000000000000e+03) (127, 1.50000000000000000000e+03) (128, 1.50000000000000000000e+03) (129, 1.50000000000000000000e+03) (130, 8.40338500976562500000e+02) (131, -1.50000000000000000000e+03) (132, -1.50000000000000000000e+03) (133, -1.50000000000000000000e+03) (134, -1.50000000000000000000e+03) (135, -1.50000000000000000000e+03) (136, -1.50000000000000000000e+03) (137, 3.61786529541015625000e+02) (138, 1.50000000000000000000e+03) (139, 1.50000000000000000000e+03) (140, 1.50000000000000000000e+03) (141, 1.50000000000000000000e+03) (142, -1.50000000000000000000e+03) (143, -1.50000000000000000000e+03) (144, -1.50000000000000000000e+03) (145, -1.50000000000000000000e+03) (146, -1.26640295410156250000e+03) (147, 1.14806140136718750000e+03) (148, 1.50000000000000000000e+03) (149, 1.50000000000000000000e+03) (150, 1.50000000000000000000e+03) (151, 1.50000000000000000000e+03) (152, 1.50000000000000000000e+03) (153, 1.50000000000000000000e+03) (154, 1.50000000000000000000e+03) (155, 1.50000000000000000000e+03) (156, 1.50000000000000000000e+03) (157, 1.50000000000000000000e+03) (158, 1.50000000000000000000e+03) (159, -1.50000000000000000000e+03) (160, -1.50000000000000000000e+03) (161, -1.50000000000000000000e+03) (162, -1.50000000000000000000e+03) (163, -1.50000000000000000000e+03) (164, -1.50000000000000000000e+03) (165, -1.50000000000000000000e+03) (166, -1.48635351562500000000e+03) (167, 1.50000000000000000000e+03) (168, 1.50000000000000000000e+03) (169, 1.50000000000000000000e+03) (170, 1.33801013183593750000e+03) (171, -1.50000000000000000000e+03) (172, -1.50000000000000000000e+03) (173, 1.56600036621093750000e+02) (174, 1.35759436035156250000e+03) (175, 1.50000000000000000000e+03) (176, 1.50000000000000000000e+03) (177, 1.50000000000000000000e+03) (178, 1.50000000000000000000e+03) (179, 1.50000000000000000000e+03) (180, 1.50000000000000000000e+03) (181, 1.50000000000000000000e+03) (182, 1.50000000000000000000e+03) (183, 1.50000000000000000000e+03) (184, 1.50000000000000000000e+03) (185, 1.50000000000000000000e+03) (186, 1.47076123046875000000e+03) (187, -1.46720812988281250000e+03) (188, -1.50000000000000000000e+03) (189, -1.50000000000000000000e+03) (190, -1.50000000000000000000e+03) (191, -1.50000000000000000000e+03) (192, -1.50000000000000000000e+03) (193, -1.50000000000000000000e+03) (194, -1.50000000000000000000e+03) (195, 1.49974853515625000000e+03) (196, -1.50000000000000000000e+03) (197, 1.50000000000000000000e+03) (198, 1.50000000000000000000e+03) (199, 3.90800048828125000000e+02) (200, 1.46534277343750000000e+03) (201, 1.50000000000000000000e+03) (202, 1.50000000000000000000e+03) (203, 1.50000000000000000000e+03) (204, 1.50000000000000000000e+03) (205, 1.50000000000000000000e+03) (206, 1.50000000000000000000e+03) (207, 1.50000000000000000000e+03) (208, 1.50000000000000000000e+03) (209, 1.50000000000000000000e+03) (210, 1.50000000000000000000e+03) (211, 1.50000000000000000000e+03) (212, 1.50000000000000000000e+03) (213, 1.48538073730468750000e+03) (214, 1.49980480957031250000e+03) (215, 1.49999926757812500000e+03) (216, 1.49753796386718750000e+03) (217, 1.49997949218750000000e+03) (218, -4.06017913818359375000e+02) (219, -1.50000000000000000000e+03) (220, -1.50000000000000000000e+03) (221, -1.50000000000000000000e+03) (222, -1.50000000000000000000e+03) (223, 1.49995642089843750000e+03) (224, 1.50000000000000000000e+03) (225, 1.50000000000000000000e+03) (226, 1.50000000000000000000e+03) (227, 1.50000000000000000000e+03) (228, 1.50000000000000000000e+03) (229, 1.50000000000000000000e+03) (230, 1.50000000000000000000e+03) (231, 1.50000000000000000000e+03) (232, 1.50000000000000000000e+03) (233, 1.50000000000000000000e+03) (234, 1.50000000000000000000e+03) (235, 1.50000000000000000000e+03) (236, 1.50000000000000000000e+03) (237, 1.49944470214843750000e+03) (238, 1.49999902343750000000e+03) (239, 5.75470703125000000000e+02) (240, 1.49999890136718750000e+03) (241, 1.49999914550781250000e+03) (242, 1.48538073730468750000e+03) (243, 1.50000000000000000000e+03) (244, 1.50000000000000000000e+03) (245, 1.50000000000000000000e+03) (246, 1.50000000000000000000e+03) (247, 1.45906958007812500000e+03) (248, -1.50000000000000000000e+03) (249, -1.50000000000000000000e+03) (250, -1.50000000000000000000e+03) (251, -1.50000000000000000000e+03) (252, 1.50000000000000000000e+03) (253, 1.50000000000000000000e+03) (254, 1.50000000000000000000e+03) (255, 1.50000000000000000000e+03) (256, 1.50000000000000000000e+03) (257, 1.50000000000000000000e+03) (258, 1.50000000000000000000e+03) (259, 1.50000000000000000000e+03) (260, 1.50000000000000000000e+03) (261, 1.50000000000000000000e+03) (262, 1.50000000000000000000e+03) (263, 1.50000000000000000000e+03) (264, 1.50000000000000000000e+03) (265, 1.49999731445312500000e+03) (266, -1.50000000000000000000e+03) (267, -1.50000000000000000000e+03) (268, -1.49989453125000000000e+03) (269, 1.49997863769531250000e+03) (270, 1.50000000000000000000e+03) (271, 1.50000000000000000000e+03) (272, 1.50000000000000000000e+03) (273, 1.50000000000000000000e+03) (274, 1.50000000000000000000e+03) (275, 1.50000000000000000000e+03) (276, -1.50000000000000000000e+03) (277, -1.50000000000000000000e+03) (278, -1.50000000000000000000e+03) (279, 1.50000000000000000000e+03) (280, 1.50000000000000000000e+03) (281, 1.50000000000000000000e+03) (282, 1.50000000000000000000e+03) (283, 1.50000000000000000000e+03) (284, 1.50000000000000000000e+03) (285, 1.50000000000000000000e+03) (286, 1.50000000000000000000e+03) (287, 1.50000000000000000000e+03) (288, 1.50000000000000000000e+03) (289, 1.50000000000000000000e+03) (290, 1.50000000000000000000e+03) (291, 1.50000000000000000000e+03) (292, 1.50000000000000000000e+03) (293, -1.50000000000000000000e+03) (294, -1.50000000000000000000e+03) (295, -1.50000000000000000000e+03) (296, -1.50000000000000000000e+03) (297, 1.49468457031250000000e+03) (298, 1.50000000000000000000e+03) (299, 1.50000000000000000000e+03) (300, 1.50000000000000000000e+03) (301, 1.50000000000000000000e+03) (302, 1.50000000000000000000e+03) (303, 1.50000000000000000000e+03) (304, 1.50000000000000000000e+03) (305, -1.50000000000000000000e+03) (306, -1.50000000000000000000e+03) (307, 1.50000000000000000000e+03) (308, 1.50000000000000000000e+03) (309, 1.50000000000000000000e+03) (310, 1.50000000000000000000e+03) (311, 1.50000000000000000000e+03) (312, 1.44193469238281250000e+03) (313, 1.42908288574218750000e+03) (314, 1.50000000000000000000e+03) (315, -1.47478286743164062500e+02) (316, -2.68673645019531250000e+02) (317, -1.07455859375000000000e+03) (318, 1.50000000000000000000e+03) (319, 1.50000000000000000000e+03) (320, -1.12205224609375000000e+03) (321, -1.50000000000000000000e+03) (322, -1.50000000000000000000e+03) (323, -1.50000000000000000000e+03) (324, -1.50000000000000000000e+03) (325, 1.50000000000000000000e+03) (326, 1.50000000000000000000e+03) (327, 1.50000000000000000000e+03) (328, 1.50000000000000000000e+03) (329, 1.50000000000000000000e+03) (330, 1.50000000000000000000e+03) (331, 1.50000000000000000000e+03) (332, 1.50000000000000000000e+03) (333, -1.81600036621093750000e+02) (334, -1.25766943359375000000e+03) (335, -1.30535681152343750000e+03) (336, 1.50000000000000000000e+03) (337, 1.50000000000000000000e+03) (338, 1.50000000000000000000e+03) (339, 7.11941711425781250000e+02) (340, -1.50000000000000000000e+03) (341, -1.50000000000000000000e+03) (342, -1.50000000000000000000e+03) (343, -1.49303649902343750000e+03) (344, -1.49303649902343750000e+03) (345, -1.45079394531250000000e+03) (346, -7.05516357421875000000e+02) (347, -9.63057983398437500000e+02) (348, -1.33373376464843750000e+03) (349, -1.50000000000000000000e+03) (350, -1.50000000000000000000e+03) (351, -1.50000000000000000000e+03) (352, -1.48500000000000000000e+03) (353, 1.50000000000000000000e+03) (354, 1.50000000000000000000e+03) (355, 1.50000000000000000000e+03) (356, 1.50000000000000000000e+03) (357, 1.50000000000000000000e+03) (358, 1.50000000000000000000e+03) (359, 1.50000000000000000000e+03) (360, 1.50000000000000000000e+03) (361, 1.50000000000000000000e+03) (362, 1.50000000000000000000e+03) (363, -1.47500000000000000000e+03) (364, -1.50000000000000000000e+03) (365, 1.50000000000000000000e+03) (366, 1.50000000000000000000e+03) (367, 1.48023364257812500000e+03) (368, -1.50000000000000000000e+03) (369, -1.50000000000000000000e+03) (370, -1.50000000000000000000e+03) (371, -1.50000000000000000000e+03) (372, -1.50000000000000000000e+03) (373, -1.50000000000000000000e+03) (374, -1.31518811035156250000e+03) (375, -6.55480224609375000000e+02) (376, -1.06571557617187500000e+03) (377, -1.50000000000000000000e+03) (378, -1.50000000000000000000e+03) (379, -1.50000000000000000000e+03) (380, -1.42260913085937500000e+03) (381, 1.50000000000000000000e+03) (382, 1.50000000000000000000e+03) (383, 1.50000000000000000000e+03) (384, 1.50000000000000000000e+03) (385, 1.50000000000000000000e+03) (386, 1.50000000000000000000e+03) (387, 1.50000000000000000000e+03) (388, 1.50000000000000000000e+03) (389, 1.50000000000000000000e+03) (390, 1.50000000000000000000e+03) (391, 1.50000000000000000000e+03) (392, -1.50000000000000000000e+03) (393, -1.25415695190429687500e+02) (394, 1.50000000000000000000e+03) (395, -1.50000000000000000000e+03) (396, -1.50000000000000000000e+03) (397, -1.50000000000000000000e+03) (398, -1.50000000000000000000e+03) (399, -1.50000000000000000000e+03) (400, -1.50000000000000000000e+03) (401, -1.50000000000000000000e+03) (402, -1.33704235839843750000e+03) (403, -1.09650329589843750000e+03) (404, -5.57154357910156250000e+02) (405, -1.50000000000000000000e+03) (406, -1.50000000000000000000e+03) (407, -1.50000000000000000000e+03) (408, -9.97996887207031250000e+02) (409, 1.50000000000000000000e+03) (410, 1.45004504394531250000e+03) (411, 1.49987731933593750000e+03) (412, 1.50000000000000000000e+03) (413, 1.50000000000000000000e+03) (414, 1.50000000000000000000e+03) (415, 1.50000000000000000000e+03) (416, 1.50000000000000000000e+03) (417, 1.50000000000000000000e+03) (418, 1.50000000000000000000e+03) (419, 1.50000000000000000000e+03) (420, 6.56138549804687500000e+02) (421, -1.50000000000000000000e+03) (422, -1.50000000000000000000e+03) (423, -1.50000000000000000000e+03) (424, -1.50000000000000000000e+03) (425, -9.25317199707031250000e+02) (426, 1.50000000000000000000e+03) (427, 1.50000000000000000000e+03) (428, 1.50000000000000000000e+03) (429, 1.50000000000000000000e+03) (430, 1.50000000000000000000e+03) (431, 1.50000000000000000000e+03) (432, 1.50000000000000000000e+03) (433, -1.34141625976562500000e+03) (434, -1.50000000000000000000e+03) (435, -5.66369689941406250000e+02) (436, 1.50000000000000000000e+03) (437, 1.49281530761718750000e+03) (438, 9.27902954101562500000e+02) (439, -1.49715820312500000000e+03) (440, 1.50000000000000000000e+03) (441, 1.50000000000000000000e+03) (442, 1.50000000000000000000e+03) (443, 1.50000000000000000000e+03) (444, 1.50000000000000000000e+03) (445, 1.50000000000000000000e+03) (446, 1.50000000000000000000e+03) (447, 1.50000000000000000000e+03) (448, 1.50000000000000000000e+03) (449, -1.50000000000000000000e+03) (450, -1.50000000000000000000e+03) (451, -1.50000000000000000000e+03) (452, 1.49920166015625000000e+03) (453, 1.50000000000000000000e+03) (454, 1.50000000000000000000e+03) (455, 1.50000000000000000000e+03) (456, 1.50000000000000000000e+03) (457, 1.50000000000000000000e+03) (458, 1.50000000000000000000e+03) (459, 1.50000000000000000000e+03) (460, 1.50000000000000000000e+03) (461, 9.51261352539062500000e+02) (462, 1.44487170410156250000e+03) (463, 1.49998986816406250000e+03) (464, 1.50000000000000000000e+03) (465, 1.50000000000000000000e+03) (466, 1.49730932617187500000e+03) (467, -1.84034790039062500000e+02) (468, 1.50000000000000000000e+03) (469, 1.50000000000000000000e+03) (470, 1.50000000000000000000e+03) (471, 1.50000000000000000000e+03) (472, 1.50000000000000000000e+03) (473, 1.50000000000000000000e+03) (474, 1.50000000000000000000e+03) (475, 1.50000000000000000000e+03) (476, 1.50000000000000000000e+03) (477, -1.50000000000000000000e+03) (478, -1.50000000000000000000e+03) (479, -1.50000000000000000000e+03) (480, 1.50000000000000000000e+03) (481, 1.50000000000000000000e+03) (482, 1.50000000000000000000e+03) (483, 1.50000000000000000000e+03) (484, 1.50000000000000000000e+03) (485, 1.50000000000000000000e+03) (486, 1.50000000000000000000e+03) (487, 1.50000000000000000000e+03) (488, 1.50000000000000000000e+03) (489, 1.06706140136718750000e+03) (490, 1.49942370605468750000e+03) (491, 1.43445104980468750000e+03) (492, 1.50000000000000000000e+03) (493, 1.50000000000000000000e+03) (494, 1.50000000000000000000e+03) (495, 1.50000000000000000000e+03) (496, 1.50000000000000000000e+03) (497, 1.50000000000000000000e+03) (498, 1.50000000000000000000e+03) (499, 1.50000000000000000000e+03) (500, 1.50000000000000000000e+03) (501, 1.50000000000000000000e+03) (502, 1.50000000000000000000e+03) (503, 1.50000000000000000000e+03) (504, 1.50000000000000000000e+03) (505, -1.50000000000000000000e+03) (506, -1.50000000000000000000e+03) (507, -1.36580004882812500000e+03) (508, 1.50000000000000000000e+03) (509, 1.50000000000000000000e+03) (510, 1.50000000000000000000e+03) (511, 1.50000000000000000000e+03) (512, 1.50000000000000000000e+03) (513, 1.50000000000000000000e+03) (514, 1.50000000000000000000e+03) (515, 1.50000000000000000000e+03) (516, 1.50000000000000000000e+03) (517, 1.24909643554687500000e+03) (518, 1.37393273925781250000e+03) (519, 1.43445104980468750000e+03) (520, 1.50000000000000000000e+03) (521, 1.50000000000000000000e+03) (522, 1.50000000000000000000e+03) (523, 1.50000000000000000000e+03) (524, 1.50000000000000000000e+03) (525, 1.50000000000000000000e+03) (526, 1.50000000000000000000e+03) (527, 1.50000000000000000000e+03) (528, 1.50000000000000000000e+03) (529, 1.50000000000000000000e+03) (530, 1.50000000000000000000e+03) (531, 1.50000000000000000000e+03) (532, -1.50000000000000000000e+03) (533, 1.50000000000000000000e+03) (534, -1.50000000000000000000e+03) (535, -1.33223071289062500000e+03) (536, 1.50000000000000000000e+03) (537, 1.50000000000000000000e+03) (538, 1.50000000000000000000e+03) (539, 1.50000000000000000000e+03) (540, 1.50000000000000000000e+03) (541, 1.50000000000000000000e+03) (542, 1.50000000000000000000e+03) (543, 1.50000000000000000000e+03) (544, 1.50000000000000000000e+03) (545, 1.33643652343750000000e+03) (546, 1.46198339843750000000e+03) (547, 1.43445104980468750000e+03) (548, 1.50000000000000000000e+03) (549, 1.50000000000000000000e+03) (550, 1.50000000000000000000e+03) (551, 1.50000000000000000000e+03) (552, 1.50000000000000000000e+03) (553, 1.50000000000000000000e+03) (554, 1.50000000000000000000e+03) (555, 1.50000000000000000000e+03) (556, 1.50000000000000000000e+03) (557, 1.50000000000000000000e+03) (558, 1.50000000000000000000e+03) (559, 9.31800048828125000000e+02) (560, 1.50000000000000000000e+03) (561, 1.44130749511718750000e+03) (562, -1.50000000000000000000e+03) (563, -1.33102453613281250000e+03) (564, 1.50000000000000000000e+03) (565, 1.50000000000000000000e+03) (566, 1.50000000000000000000e+03) (567, 1.50000000000000000000e+03) (568, 1.50000000000000000000e+03) (569, 1.50000000000000000000e+03) (570, 1.50000000000000000000e+03) (571, 1.50000000000000000000e+03) (572, 1.50000000000000000000e+03) (573, 1.50000000000000000000e+03) (574, 1.43445104980468750000e+03) (575, 1.47392333984375000000e+03) (576, 1.50000000000000000000e+03) (577, 1.50000000000000000000e+03) (578, 1.50000000000000000000e+03) (579, 1.50000000000000000000e+03) (580, 1.50000000000000000000e+03) (581, 1.50000000000000000000e+03) (582, 1.50000000000000000000e+03) (583, 1.50000000000000000000e+03) (584, 1.50000000000000000000e+03) (585, 1.50000000000000000000e+03) (586, 1.50000000000000000000e+03) (587, -1.50000000000000000000e+03) (588, -1.50000000000000000000e+03) (589, 1.50000000000000000000e+03) (590, -4.71345397949218750000e+02) (591, -1.21710559082031250000e+03) (592, 1.50000000000000000000e+03) (593, 1.50000000000000000000e+03) (594, 1.50000000000000000000e+03) (595, 1.50000000000000000000e+03) (596, 1.50000000000000000000e+03) (597, 1.50000000000000000000e+03) (598, 1.50000000000000000000e+03) (599, 1.50000000000000000000e+03) (600, 1.50000000000000000000e+03) (601, 1.50000000000000000000e+03) (602, 1.50000000000000000000e+03) (603, 1.50000000000000000000e+03) (604, 3.02291992187500000000e+02) (605, 1.50000000000000000000e+03) (606, 1.50000000000000000000e+03) (607, 1.50000000000000000000e+03) (608, 1.50000000000000000000e+03) (609, 1.50000000000000000000e+03) (610, 1.50000000000000000000e+03) (611, 1.50000000000000000000e+03) (612, 1.50000000000000000000e+03) (613, 1.50000000000000000000e+03) (614, 1.50000000000000000000e+03) (615, 1.50000000000000000000e+03) (616, -1.50000000000000000000e+03) (617, -7.01534973144531250000e+02) (618, -7.87802307128906250000e+02) (619, -1.12359191894531250000e+03) (620, -1.42595080566406250000e+03) (621, -1.44320141601562500000e+03) (622, 1.33420166015625000000e+03) (623, 1.36078649902343750000e+03) (624, 8.16408935546875000000e+02) (625, 1.49665466308593750000e+03) (626, 1.48538073730468750000e+03) (627, 1.50000000000000000000e+03) (628, 1.50000000000000000000e+03) (629, 1.50000000000000000000e+03) (630, 1.50000000000000000000e+03) (631, 2.40198501586914062500e+02) (632, -1.49862487792968750000e+03) (633, -1.48098864746093750000e+03) (634, 1.10075988769531250000e+03) (635, 6.77193237304687500000e+02) (636, 1.50000000000000000000e+03) (637, 1.50000000000000000000e+03) (638, 1.50000000000000000000e+03) (639, 1.50000000000000000000e+03) (640, 1.50000000000000000000e+03) (641, 1.50000000000000000000e+03) (642, -1.50000000000000000000e+03) (643, 1.50000000000000000000e+03) (644, 1.50000000000000000000e+03) (645, 1.50000000000000000000e+03) (646, -1.50000000000000000000e+03) (647, -1.50000000000000000000e+03) (648, -1.50000000000000000000e+03) (649, -1.50000000000000000000e+03) (650, -1.50000000000000000000e+03) (651, -1.50000000000000000000e+03) (652, -1.50000000000000000000e+03) (653, 1.47051684570312500000e+03) (654, 1.49959130859375000000e+03) (655, 1.50000000000000000000e+03) (656, 1.50000000000000000000e+03) (657, 1.50000000000000000000e+03) (658, 1.50000000000000000000e+03) (659, 1.48441064453125000000e+03) (660, -1.50000000000000000000e+03) (661, -1.49826428222656250000e+03) (662, -7.60526062011718750000e+02) (663, -1.49061596679687500000e+03) (664, 1.49564587402343750000e+03) (665, 1.50000000000000000000e+03) (666, 1.50000000000000000000e+03) (667, 1.50000000000000000000e+03) (668, 1.50000000000000000000e+03) (669, -1.50000000000000000000e+03) (670, -1.50000000000000000000e+03) (671, 1.50000000000000000000e+03) (672, 1.50000000000000000000e+03) (673, 1.50000000000000000000e+03) (674, -1.50000000000000000000e+03) (675, -1.50000000000000000000e+03) (676, -1.50000000000000000000e+03) (677, -1.50000000000000000000e+03) (678, -1.50000000000000000000e+03) (679, -1.50000000000000000000e+03) (680, -1.50000000000000000000e+03) (681, -1.50000000000000000000e+03) (682, 1.49999963378906250000e+03) (683, 1.50000000000000000000e+03) (684, 1.50000000000000000000e+03) (685, 1.50000000000000000000e+03) (686, 1.50000000000000000000e+03) (687, 1.50000000000000000000e+03) (688, 1.50000000000000000000e+03) (689, 1.38430053710937500000e+03) (690, -1.49993408203125000000e+03) (691, -1.47671484375000000000e+03) (692, -1.50000000000000000000e+03) (693, -1.50000000000000000000e+03) (694, -1.50000000000000000000e+03) (695, -1.50000000000000000000e+03) (696, 1.50000000000000000000e+03) (697, 1.50000000000000000000e+03) (698, 1.50000000000000000000e+03) (699, 1.50000000000000000000e+03) (700, 1.50000000000000000000e+03) (701, 1.50000000000000000000e+03) (702, -1.50000000000000000000e+03) (703, -1.50000000000000000000e+03) (704, -8.90534545898437500000e+02) (705, -1.50000000000000000000e+03) (706, -1.50000000000000000000e+03) (707, -1.50000000000000000000e+03) (708, -1.50000000000000000000e+03) (709, -1.50000000000000000000e+03) (710, -1.50000000000000000000e+03) (711, -1.43274206542968750000e+03) (712, -3.98510589599609375000e+02) (713, 1.50000000000000000000e+03) (714, 1.50000000000000000000e+03) (715, 1.50000000000000000000e+03) (716, 1.50000000000000000000e+03) (717, -4.07551574707031250000e+01) (718, -1.43464306640625000000e+03) (719, -1.49905578613281250000e+03) (720, -1.50000000000000000000e+03) (721, -1.50000000000000000000e+03) (722, -1.50000000000000000000e+03) (723, -1.50000000000000000000e+03) (724, -1.50000000000000000000e+03) (725, 1.50000000000000000000e+03) (726, 1.50000000000000000000e+03) (727, 1.50000000000000000000e+03) (728, 1.50000000000000000000e+03) (729, 1.50000000000000000000e+03) (730, 1.50000000000000000000e+03) (731, -1.50000000000000000000e+03) (732, 1.50000000000000000000e+03) (733, 1.45145593261718750000e+03) (734, 1.24965991210937500000e+03) (735, 1.40781628417968750000e+03) (736, 1.31066577148437500000e+03) (737, 6.32342285156250000000e+02) (738, 1.23107507324218750000e+03) (739, 1.50000000000000000000e+03) (740, 1.50000000000000000000e+03) (741, 1.50000000000000000000e+03) (742, 1.50000000000000000000e+03) (743, 1.50000000000000000000e+03) (744, 1.50000000000000000000e+03) (745, 1.50000000000000000000e+03) (746, 1.50000000000000000000e+03) (747, 7.07826232910156250000e+02) (748, -1.50000000000000000000e+03) (749, -1.50000000000000000000e+03) (750, -1.50000000000000000000e+03) (751, -1.43315344238281250000e+03) (752, 1.50000000000000000000e+03) (753, 1.50000000000000000000e+03) (754, 1.50000000000000000000e+03) (755, 1.50000000000000000000e+03) (756, 1.50000000000000000000e+03) (757, 1.50000000000000000000e+03) (758, 1.50000000000000000000e+03) (759, 1.50000000000000000000e+03) (760, 1.50000000000000000000e+03) (761, 1.30530773925781250000e+03) (762, 1.50000000000000000000e+03) (763, 1.50000000000000000000e+03) (764, 1.50000000000000000000e+03) (765, 1.50000000000000000000e+03) (766, 1.50000000000000000000e+03) (767, 1.50000000000000000000e+03) (768, 1.50000000000000000000e+03) (769, 1.50000000000000000000e+03) (770, 1.50000000000000000000e+03) (771, 1.50000000000000000000e+03) (772, 1.50000000000000000000e+03) (773, 1.50000000000000000000e+03) (774, 1.50000000000000000000e+03) (775, 1.50000000000000000000e+03) (776, -1.50000000000000000000e+03) (777, -1.50000000000000000000e+03) (778, -1.27096557617187500000e+03) (779, -7.85165466308593750000e+02) (780, 1.50000000000000000000e+03) (781, 1.50000000000000000000e+03) (782, 1.50000000000000000000e+03) (783, 1.50000000000000000000e+03) (784, 7.38924865722656250000e+01) (0, 1.50000000000000000000e+03) (1, 1.50000000000000000000e+03) (2, 1.50000000000000000000e+03) (3, 1.50000000000000000000e+03) (4, 1.50000000000000000000e+03) (5, 1.50000000000000000000e+03) (6, 1.50000000000000000000e+03) (7, 1.50000000000000000000e+03) (8, 1.50000000000000000000e+03) (9, 1.50000000000000000000e+03) (10, 1.50000000000000000000e+03) (11, 1.50000000000000000000e+03) (12, 1.50000000000000000000e+03) (13, 6.38390502929687500000e+02) (14, -1.50000000000000000000e+03) (15, -1.50000000000000000000e+03) (16, 1.50000000000000000000e+03) (17, 1.50000000000000000000e+03) (18, 1.50000000000000000000e+03) (19, 1.50000000000000000000e+03) (20, 1.50000000000000000000e+03) (21, 1.50000000000000000000e+03) (22, 1.50000000000000000000e+03) (23, 1.50000000000000000000e+03) (24, 1.50000000000000000000e+03) (25, 1.50000000000000000000e+03) (26, 1.50000000000000000000e+03) (27, 1.50000000000000000000e+03) (28, 1.50000000000000000000e+03) (29, 1.50000000000000000000e+03) (30, 1.50000000000000000000e+03) (31, 1.50000000000000000000e+03) (32, 1.50000000000000000000e+03) (33, 1.50000000000000000000e+03) (34, -1.31580004882812500000e+03) (35, -1.46012280273437500000e+03) (36, -7.65800048828125000000e+02) (37, 3.45016235351562500000e+02) (38, 6.90028198242187500000e+02) (39, -4.74289031982421875000e+02) (40, -6.83592712402343750000e+02) (41, 1.06368750000000000000e+03) (42, -1.50000000000000000000e+03) (43, -1.50000000000000000000e+03) (44, 1.34199951171875000000e+02) (45, 2.85018798828125000000e+02) (46, 9.33100891113281250000e+02) (47, 1.50000000000000000000e+03) (48, -1.12467089843750000000e+03) (49, 1.50000000000000000000e+03) (50, -1.50000000000000000000e+03) (51, -1.50000000000000000000e+03) (52, 1.50000000000000000000e+03) (53, 1.50000000000000000000e+03) (54, 1.50000000000000000000e+03) (55, 1.50000000000000000000e+03) (56, 1.50000000000000000000e+03) (57, 1.50000000000000000000e+03) (58, 1.50000000000000000000e+03) (59, 1.50000000000000000000e+03) (60, 1.50000000000000000000e+03) (61, 1.36133410644531250000e+03) (62, -1.50000000000000000000e+03) (63, -1.21487695312500000000e+03) (64, -9.60501525878906250000e+02) (65, 1.50000000000000000000e+03) (66, 1.50000000000000000000e+03) (67, 1.50000000000000000000e+03) (68, 1.50000000000000000000e+03) (69, 1.50000000000000000000e+03) (70, 1.50000000000000000000e+03) (71, 1.50000000000000000000e+03) (72, 1.50000000000000000000e+03) (73, 1.50000000000000000000e+03) (74, 1.50000000000000000000e+03) (75, 1.50000000000000000000e+03) (76, 1.50000000000000000000e+03) (77, 1.50000000000000000000e+03) (78, 1.50000000000000000000e+03) (79, 1.50000000000000000000e+03) (80, 1.50000000000000000000e+03) (81, -2.48734985351562500000e+02) (82, 1.50000000000000000000e+03) (83, 1.50000000000000000000e+03) (84, 1.50000000000000000000e+03) (85, 1.50000000000000000000e+03) (86, 1.05092980957031250000e+03) (87, 1.34574035644531250000e+03) (88, -1.38165551757812500000e+03) (89, -1.50000000000000000000e+03) (90, 1.46323498535156250000e+03) (91, 1.49999877929687500000e+03) (92, 4.69444915771484375000e+02) (93, -2.76700683593750000000e+02) (94, -1.49756237792968750000e+03) (95, -1.49998718261718750000e+03) (96, -1.49998937988281250000e+03) (97, 1.49999353027343750000e+03) (98, 1.50000000000000000000e+03) (99, 1.50000000000000000000e+03) (100, 1.50000000000000000000e+03) (101, 1.50000000000000000000e+03) (102, 1.50000000000000000000e+03) (103, 1.50000000000000000000e+03) (104, 1.50000000000000000000e+03) (105, 1.50000000000000000000e+03) (106, 1.50000000000000000000e+03) (107, 1.50000000000000000000e+03) (108, 1.50000000000000000000e+03) (109, 1.50000000000000000000e+03) (110, 1.50000000000000000000e+03) (111, 1.50000000000000000000e+03) (112, 1.50000000000000000000e+03) (113, -1.49999951171875000000e+03) (114, -1.50000000000000000000e+03) (115, -1.50000000000000000000e+03) (116, -1.50000000000000000000e+03) (117, -1.50000000000000000000e+03) (118, -1.50000000000000000000e+03) (119, -1.50000000000000000000e+03) (120, -1.50000000000000000000e+03) (121, -1.50000000000000000000e+03) (122, -1.50000000000000000000e+03) (123, -1.50000000000000000000e+03) (124, -1.50000000000000000000e+03) (125, -1.50000000000000000000e+03) (126, -1.50000000000000000000e+03) (127, -1.43959399414062500000e+03) (128, -4.33183105468750000000e+02) (129, -1.31619958496093750000e+03) (130, -1.49604357910156250000e+03) (131, 1.50000000000000000000e+03) (132, 1.50000000000000000000e+03) (133, 1.50000000000000000000e+03) (134, 1.50000000000000000000e+03) (135, 1.50000000000000000000e+03) (136, 1.50000000000000000000e+03) (137, 1.50000000000000000000e+03) (138, 1.50000000000000000000e+03) (139, 1.50000000000000000000e+03) (140, 1.50000000000000000000e+03) (141, 1.50000000000000000000e+03) (142, 8.88680236816406250000e+02) (143, -1.49994946289062500000e+03) (144, -1.49999987792968750000e+03) (145, -1.50000000000000000000e+03) (146, -1.50000000000000000000e+03) (147, -1.50000000000000000000e+03) (148, -1.50000000000000000000e+03) (149, -1.50000000000000000000e+03) (150, -1.50000000000000000000e+03) (151, -1.50000000000000000000e+03) (152, -1.50000000000000000000e+03) (153, -1.50000000000000000000e+03) (154, -1.50000000000000000000e+03) (155, -1.50000000000000000000e+03) (156, -1.50000000000000000000e+03) (157, -1.50000000000000000000e+03) (158, -1.50000000000000000000e+03) (159, -1.50000000000000000000e+03) (160, 1.49820471191406250000e+03) (161, 1.50000000000000000000e+03) (162, 1.50000000000000000000e+03) (163, 1.50000000000000000000e+03) (164, 1.50000000000000000000e+03) (165, 1.50000000000000000000e+03) (166, 1.50000000000000000000e+03) (167, 1.50000000000000000000e+03) (168, 1.50000000000000000000e+03) (169, -1.50000000000000000000e+03) (170, 1.50000000000000000000e+03) (171, -1.50000000000000000000e+03) (172, -1.50000000000000000000e+03) (173, -1.50000000000000000000e+03) (174, -1.50000000000000000000e+03) (175, -1.50000000000000000000e+03) (176, -1.50000000000000000000e+03) (177, -1.46413537597656250000e+03) (178, -1.50000000000000000000e+03) (179, -1.50000000000000000000e+03) (180, -1.50000000000000000000e+03) (181, -1.50000000000000000000e+03) (182, -1.50000000000000000000e+03) (183, -1.50000000000000000000e+03) (184, -1.48420520019531250000e+03) (185, -1.49559118652343750000e+03) (186, -1.41344470214843750000e+03) (187, -1.41344470214843750000e+03) (188, -1.49876782226562500000e+03) (189, 1.50000000000000000000e+03) (190, 1.50000000000000000000e+03) (191, 1.50000000000000000000e+03) (192, 1.50000000000000000000e+03) (193, 1.50000000000000000000e+03) (194, 1.50000000000000000000e+03) (195, 1.50000000000000000000e+03) (196, 1.50000000000000000000e+03) (197, -1.49998303222656250000e+03) (198, 1.50000000000000000000e+03) (199, -1.50000000000000000000e+03) (200, -1.50000000000000000000e+03) (201, -1.50000000000000000000e+03) (202, -1.50000000000000000000e+03) (203, -1.50000000000000000000e+03) (204, -1.50000000000000000000e+03) (205, -1.50000000000000000000e+03) (206, -1.50000000000000000000e+03) (207, -1.50000000000000000000e+03) (208, -1.50000000000000000000e+03) (209, -1.50000000000000000000e+03) (210, -1.49999987792968750000e+03) (211, 8.19853637695312500000e+02) (212, -3.40685653686523437500e+01) (213, 8.62512145996093750000e+02) (214, -1.49999475097656250000e+03) (215, -1.49903356933593750000e+03) (216, -1.50000000000000000000e+03) (217, -1.50000000000000000000e+03) (218, 1.50000000000000000000e+03) (219, 1.50000000000000000000e+03) (220, 1.50000000000000000000e+03) (221, 1.50000000000000000000e+03) (222, 1.50000000000000000000e+03) (223, 1.28308203125000000000e+03) (224, 1.50000000000000000000e+03) (225, 1.50000000000000000000e+03) (226, 1.50000000000000000000e+03) (227, -1.50000000000000000000e+03) (228, -1.50000000000000000000e+03) (229, -1.50000000000000000000e+03) (230, -1.50000000000000000000e+03) (231, -1.50000000000000000000e+03) (232, -1.50000000000000000000e+03) (233, -1.50000000000000000000e+03) (234, -1.50000000000000000000e+03) (235, -1.43702185058593750000e+03) (236, 1.50000000000000000000e+03) (237, 1.49812902832031250000e+03) (238, 1.49999206542968750000e+03) (239, 1.50000000000000000000e+03) (240, 1.50000000000000000000e+03) (241, 1.50000000000000000000e+03) (242, -1.49999829101562500000e+03) (243, -1.40900000000000000000e+03) (244, -1.50000000000000000000e+03) (245, -1.50000000000000000000e+03) (246, -1.50000000000000000000e+03) (247, 4.54498992919921875000e+02) (248, 1.50000000000000000000e+03) (249, 1.50000000000000000000e+03) (250, 1.49756286621093750000e+03) (251, -1.50000000000000000000e+03) (252, 1.29080004882812500000e+03) (253, 1.50000000000000000000e+03) (254, 1.41253894042968750000e+03) (255, -1.50000000000000000000e+03) (256, -1.50000000000000000000e+03) (257, -1.50000000000000000000e+03) (258, -1.50000000000000000000e+03) (259, -1.50000000000000000000e+03) (260, -1.50000000000000000000e+03) (261, -1.32138952636718750000e+03) (262, -1.49884118652343750000e+03) (263, 5.86996574401855468750e+01) (264, 1.50000000000000000000e+03) (265, 4.05061340332031250000e+02) (266, 1.49997094726562500000e+03) (267, 1.49999975585937500000e+03) (268, -1.49935205078125000000e+03) (269, -1.49999841308593750000e+03) (270, -1.49999987792968750000e+03) (271, -1.50000000000000000000e+03) (272, -1.50000000000000000000e+03) (273, -1.50000000000000000000e+03) (274, -1.50000000000000000000e+03) (275, -1.49986474609375000000e+03) (276, 1.50000000000000000000e+03) (277, 1.50000000000000000000e+03) (278, 1.49997888183593750000e+03) (279, -1.49987365722656250000e+03) (280, 1.36605114746093750000e+03) (281, 1.49830322265625000000e+03) (282, 1.49466210937500000000e+03) (283, -1.50000000000000000000e+03) (284, -1.50000000000000000000e+03) (285, -1.50000000000000000000e+03) (286, -1.50000000000000000000e+03) (287, 1.50000000000000000000e+03) (288, -6.81844360351562500000e+02) (289, -1.49889782714843750000e+03) (290, -1.47222729492187500000e+03) (291, 5.40124511718750000000e+02) (292, 1.50000000000000000000e+03) (293, 1.48637316894531250000e+03) (294, -1.50000000000000000000e+03) (295, -1.49999987792968750000e+03) (296, -1.49999987792968750000e+03) (297, -1.48500000000000000000e+03) (298, -1.50000000000000000000e+03) (299, -1.50000000000000000000e+03) (300, -1.50000000000000000000e+03) (301, -1.50000000000000000000e+03) (302, -1.50000000000000000000e+03) (303, -1.49997363281250000000e+03) (304, -1.49997363281250000000e+03) (305, 1.50000000000000000000e+03) (306, 2.71784759521484375000e+02) (307, -1.50000000000000000000e+03) (308, 1.50000000000000000000e+03) (309, 1.43853393554687500000e+03) (310, 1.49998205566406250000e+03) (311, -1.50000000000000000000e+03) (312, -1.50000000000000000000e+03) (313, 1.39022778320312500000e+03) (314, 1.50000000000000000000e+03) (315, 1.50000000000000000000e+03) (316, 1.50000000000000000000e+03) (317, 1.50000000000000000000e+03) (318, 1.50000000000000000000e+03) (319, 7.41825134277343750000e+02) (320, -1.50000000000000000000e+03) (321, -1.50000000000000000000e+03) (322, -1.50000000000000000000e+03) (323, -1.50000000000000000000e+03) (324, -1.50000000000000000000e+03) (325, -1.50000000000000000000e+03) (326, -1.50000000000000000000e+03) (327, -1.50000000000000000000e+03) (328, -1.50000000000000000000e+03) (329, -1.50000000000000000000e+03) (330, -1.49994946289062500000e+03) (331, -1.49997363281250000000e+03) (332, -1.50000000000000000000e+03) (333, -1.50000000000000000000e+03) (334, -1.50000000000000000000e+03) (335, -1.50000000000000000000e+03) (336, 1.50000000000000000000e+03) (337, 1.50000000000000000000e+03) (338, 1.50000000000000000000e+03) (339, -1.50000000000000000000e+03) (340, -1.49997363281250000000e+03) (341, 1.49999951171875000000e+03) (342, 1.50000000000000000000e+03) (343, 1.50000000000000000000e+03) (344, 1.50000000000000000000e+03) (345, 1.50000000000000000000e+03) (346, 1.50000000000000000000e+03) (347, -1.49999743652343750000e+03) (348, -1.50000000000000000000e+03) (349, -1.50000000000000000000e+03) (350, -1.50000000000000000000e+03) (351, -1.50000000000000000000e+03) (352, -1.50000000000000000000e+03) (353, -1.50000000000000000000e+03) (354, -1.50000000000000000000e+03) (355, -1.50000000000000000000e+03) (356, -1.50000000000000000000e+03) (357, -1.49995043945312500000e+03) (358, -7.17064697265625000000e+02) (359, 1.31099761962890625000e+02) (360, -1.19197338867187500000e+03) (361, -1.50000000000000000000e+03) (362, -1.50000000000000000000e+03) (363, -1.50000000000000000000e+03) (364, -1.50000000000000000000e+03) (365, 1.50000000000000000000e+03) (366, 1.50000000000000000000e+03) (367, 1.50000000000000000000e+03) (368, 1.50000000000000000000e+03) (369, 1.49479309082031250000e+03) (370, 1.50000000000000000000e+03) (371, 1.50000000000000000000e+03) (372, 1.50000000000000000000e+03) (373, 1.50000000000000000000e+03) (374, 1.50000000000000000000e+03) (375, -1.43106066894531250000e+03) (376, -1.50000000000000000000e+03) (377, -1.50000000000000000000e+03) (378, -1.50000000000000000000e+03) (379, -1.50000000000000000000e+03) (380, -1.50000000000000000000e+03) (381, -1.35088891601562500000e+03) (382, -1.49736779785156250000e+03) (383, -1.49906298828125000000e+03) (384, -5.19207153320312500000e+02) (385, 1.88078628540039062500e+02) (386, 1.49999951171875000000e+03) (387, 1.50000000000000000000e+03) (388, 1.49865185546875000000e+03) (389, 1.47078405761718750000e+03) (390, -1.50000000000000000000e+03) (391, -1.49999670410156250000e+03) (392, 1.50000000000000000000e+03) (393, -1.50000000000000000000e+03) (394, -1.48298278808593750000e+03) (395, -1.49910827636718750000e+03) (396, 1.50000000000000000000e+03) (397, 1.50000000000000000000e+03) (398, 1.50000000000000000000e+03) (399, 1.50000000000000000000e+03) (400, 1.50000000000000000000e+03) (401, 1.50000000000000000000e+03) (402, 1.50000000000000000000e+03) (403, -6.61559448242187500000e+02) (404, -1.50000000000000000000e+03) (405, -1.50000000000000000000e+03) (406, -1.50000000000000000000e+03) (407, -1.50000000000000000000e+03) (408, -1.49976184082031250000e+03) (409, -1.49528210449218750000e+03) (410, 1.50000000000000000000e+03) (411, 1.50000000000000000000e+03) (412, -1.49863684082031250000e+03) (413, -1.49995300292968750000e+03) (414, 1.09913183593750000000e+03) (415, 1.50000000000000000000e+03) (416, 1.50000000000000000000e+03) (417, 1.50000000000000000000e+03) (418, 1.50000000000000000000e+03) (419, 1.50000000000000000000e+03) (420, 1.50000000000000000000e+03) (421, -1.50000000000000000000e+03) (422, -1.48500000000000000000e+03) (423, -1.50000000000000000000e+03) (424, 1.50000000000000000000e+03) (425, 1.50000000000000000000e+03) (426, 1.50000000000000000000e+03) (427, 1.50000000000000000000e+03) (428, 1.50000000000000000000e+03) (429, 1.50000000000000000000e+03) (430, 1.50000000000000000000e+03) (431, -1.49999645996093750000e+03) (432, -1.50000000000000000000e+03) (433, -1.50000000000000000000e+03) (434, -1.50000000000000000000e+03) (435, -1.50000000000000000000e+03) (436, -1.49984753417968750000e+03) (437, 1.50000000000000000000e+03) (438, -1.17703125000000000000e+03) (439, -1.49951367187500000000e+03) (440, -1.49999023437500000000e+03) (441, 1.61400894165039062500e+02) (442, 1.50000000000000000000e+03) (443, 1.50000000000000000000e+03) (444, 1.50000000000000000000e+03) (445, 1.50000000000000000000e+03) (446, 1.50000000000000000000e+03) (447, 1.50000000000000000000e+03) (448, 1.28334619140625000000e+03) (449, -1.50000000000000000000e+03) (450, -1.48883886718750000000e+03) (451, -1.49999438476562500000e+03) (452, 1.49997387695312500000e+03) (453, 1.50000000000000000000e+03) (454, 1.50000000000000000000e+03) (455, 1.50000000000000000000e+03) (456, 1.50000000000000000000e+03) (457, 1.50000000000000000000e+03) (458, -1.49982934570312500000e+03) (459, -1.50000000000000000000e+03) (460, -1.50000000000000000000e+03) (461, -1.50000000000000000000e+03) (462, -1.50000000000000000000e+03) (463, -1.49888610839843750000e+03) (464, 1.47623156738281250000e+03) (465, 1.50000000000000000000e+03) (466, -1.49948364257812500000e+03) (467, -1.49980090332031250000e+03) (468, 