FANN_FLO_2.1
num_layers=3
learning_rate=0.700000
connection_rate=1.000000
network_type=0
learning_momentum=0.000000
training_algorithm=2
train_error_function=1
train_stop_function=0
cascade_output_change_fraction=0.010000
quickprop_decay=-0.000100
quickprop_mu=1.750000
rprop_increase_factor=1.200000
rprop_decrease_factor=0.500000
rprop_delta_min=0.000000
rprop_delta_max=50.000000
rprop_delta_zero=0.100000
cascade_output_stagnation_epochs=12
cascade_candidate_change_fraction=0.010000
cascade_candidate_stagnation_epochs=12
cascade_max_out_epochs=150
cascade_max_cand_epochs=150
cascade_num_candidate_groups=2
bit_fail_limit=3.49999994039535522461e-01
cascade_candidate_limit=1.00000000000000000000e+03
cascade_weight_multiplier=4.00000005960464477539e-01
cascade_activation_functions_count=10
cascade_activation_functions=3 5 7 8 10 11 14 15 16 17 
cascade_activation_steepnesses_count=4
cascade_activation_steepnesses=2.50000000000000000000e-01 5.00000000000000000000e-01 7.50000000000000000000e-01 1.00000000000000000000e+00 
layer_sizes=785 46 11 
scale_included=0
neurons (num_inputs, activation_function, activation_steepness)=(0, 0, 0.00000000000000000000e+00) (0, 0, 0.00000000000000000000e+00) (0, 0, 0.00000000000000000000e+00) (0, 0, 0.00000000000000000000e+00) (0, 0, 0.00000000000000000000e+00) (0, 0, 0.00000000000000000000e+00) (0, 0, 0.00000000000000000000e+00) (0, 0, 0.00000000000000000000e+00) (0, 0, 0.00000000000000000000e+00) (0, 0, 0.00000000000000000000e+00) (0, 0, 0.00000000000000000000e+00) (0, 0, 0.00000000000000000000e+00) (0, 0, 0.00000000000000000000e+00) (0, 0, 0.00000000000000000000e+00) (0, 0, 0.00000000000000000000e+00) (0, 0, 0.00000000000000000000e+00) (0, 0, 0.00000000000000000000e+00) (0, 0, 0.00000000000000000000e+00) (0, 0, 0.00000000000000000000e+00) (0, 0, 0.00000000000000000000e+00) (0, 0, 0.00000000000000000000e+00) (0, 0, 0.00000000000000000000e+00) (0, 0, 0.00000000000000000000e+00) (0, 0, 0.00000000000000000000e+00) (0, 0, 0.00000000000000000000e+00) (0, 0, 0.00000000000000000000e+00) (0, 0, 0.00000000000000000000e+00) (0, 0, 0.00000000000000000000e+00) (0, 0, 0.00000000000000000000e+00) (0, 0, 0.00000000000000000000e+00) (0, 0, 0.00000000000000000000e+00) (0, 0, 0.00000000000000000000e+00) (0, 0, 0.00000000000000000000e+00) (0, 0, 0.00000000000000000000e+00) (0, 0, 0.00000000000000000000e+00) (0, 0, 0.00000000000000000000e+00) (0, 0, 0.00000000000000000000e+00) (0, 0, 0.00000000000000000000e+00) (0, 0, 0.00000000000000000000e+00) (0, 0, 0.00000000000000000000e+00) (0, 0, 0.00000000000000000000e+00) (0, 0, 0.00000000000000000000e+00) (0, 0, 0.00000000000000000000e+00) (0, 0, 0.00000000000000000000e+00) (0, 0, 0.00000000000000000000e+00) (0, 0, 0.00000000000000000000e+00) (0, 0, 0.00000000000000000000e+00) (0, 0, 0.00000000000000000000e+00) (0, 0, 0.00000000000000000000e+00) (0, 0, 0.00000000000000000000e+00) (0, 0, 0.00000000000000000000e+00) (0, 0, 0.00000000000000000000e+00) (0, 0, 0.00000000000000000000e+00) (0, 0, 0.00000000000000000000e+00) (0, 0, 0.00000000000000000000e+00) (0, 0, 0.00000000000000000000e+00) (0, 0, 0.00000000000000000000e+00) (0, 0, 0.00000000000000000000e+00) (0, 0, 0.00000000000000000000e+00) (0, 0, 0.00000000000000000000e+00) (0, 0, 0.00000000000000000000e+00) (0, 0, 0.00000000000000000000e+00) (0, 0, 0.00000000000000000000e+00) (0, 0, 0.00000000000000000000e+00) (0, 0, 0.00000000000000000000e+00) (0, 0, 0.00000000000000000000e+00) (0, 0, 0.00000000000000000000e+00) (0, 0, 0.00000000000000000000e+00) (0, 0, 0.00000000000000000000e+00) (0, 0, 0.00000000000000000000e+00) (0, 0, 0.00000000000000000000e+00) (0, 0, 0.00000000000000000000e+00) (0, 0, 0.00000000000000000000e+00) (0, 0, 0.00000000000000000000e+00) (0, 0, 0.00000000000000000000e+00) (0, 0, 0.00000000000000000000e+00) (0, 0, 0.00000000000000000000e+00) (0, 0, 0.00000000000000000000e+00) (0, 0, 0.00000000000000000000e+00) (0, 0, 0.00000000000000000000e+00) (0, 0, 0.00000000000000000000e+00) (0, 0, 0.00000000000000000000e+00) (0, 0, 0.00000000000000000000e+00) (0, 0, 0.00000000000000000000e+00) (0, 0, 0.00000000000000000000e+00) (0, 0, 0.00000000000000000000e+00) (0, 0, 0.00000000000000000000e+00) (0, 0, 0.00000000000000000000e+00) (0, 0, 0.00000000000000000000e+00) (0, 0, 0.00000000000000000000e+00) (0, 0, 0.00000000000000000000e+00) (0, 0, 0.00000000000000000000e+00) (0, 0, 0.00000000000000000000e+00) (0, 0, 0.00000000000000000000e+00) (0, 0, 0.00000000000000000000e+00) (0, 0, 0.00000000000000000000e+00) (0, 0, 0.00000000000000000000e+00) (0, 0, 0.00000000000000000000e+00) (0, 0, 0.00000000000000000000e+00) (0, 0, 0.00000000000000000000e+00) (0, 0, 0.00000000000000000000e+00) (0, 0, 0.00000000000000000000e+00) (0, 0, 0.00000000000000000000e+00) (0, 0, 0.00000000000000000000e+00) (0, 0, 0.00000000000000000000e+00) (0, 0, 0.00000000000000000000e+00) (0, 0, 0.00000000000000000000e+00) (0, 0, 0.00000000000000000000e+00) (0, 0, 0.00000000000000000000e+00) (0, 0, 0.00000000000000000000e+00) (0, 0, 0.00000000000000000000e+00) (0, 0, 0.00000000000000000000e+00) (0, 0, 0.00000000000000000000e+00) (0, 0, 0.00000000000000000000e+00) (0, 0, 0.00000000000000000000e+00) (0, 0, 0.00000000000000000000e+00) (0, 0, 0.00000000000000000000e+00) (0, 0, 0.00000000000000000000e+00) (0, 0, 0.00000000000000000000e+00) (0, 0, 0.00000000000000000000e+00) (0, 0, 0.00000000000000000000e+00) (0, 0, 0.00000000000000000000e+00) (0, 0, 0.00000000000000000000e+00) (0, 0, 0.00000000000000000000e+00) (0, 0, 0.00000000000000000000e+00) (0, 0, 0.00000000000000000000e+00) (0, 0, 0.00000000000000000000e+00) (0, 0, 0.00000000000000000000e+00) (0, 0, 0.00000000000000000000e+00) (0, 0, 0.00000000000000000000e+00) (0, 0, 0.00000000000000000000e+00) (0, 0, 0.00000000000000000000e+00) (0, 0, 0.00000000000000000000e+00) (0, 0, 0.00000000000000000000e+00) (0, 0, 0.00000000000000000000e+00) (0, 0, 0.00000000000000000000e+00) (0, 0, 0.00000000000000000000e+00) (0, 0, 0.00000000000000000000e+00) (0, 0, 0.00000000000000000000e+00) (0, 0, 0.00000000000000000000e+00) (0, 0, 0.00000000000000000000e+00) (0, 0, 0.00000000000000000000e+00) (0, 0, 0.00000000000000000000e+00) (0, 0, 0.00000000000000000000e+00) (0, 0, 0.00000000000000000000e+00) (0, 0, 0.00000000000000000000e+00) (0, 0, 0.00000000000000000000e+00) (0, 0, 0.00000000000000000000e+00) (0, 0, 0.00000000000000000000e+00) (0, 0, 0.00000000000000000000e+00) (0, 0, 0.00000000000000000000e+00) (0, 0, 0.00000000000000000000e+00) (0, 0, 0.00000000000000000000e+00) (0, 0, 0.00000000000000000000e+00) (0, 0, 0.00000000000000000000e+00) (0, 0, 0.00000000000000000000e+00) (0, 0, 0.00000000000000000000e+00) (0, 0, 0.00000000000000000000e+00) (0, 0, 0.00000000000000000000e+00) (0, 0, 0.00000000000000000000e+00) (0, 0, 0.00000000000000000000e+00) (0, 0, 0.00000000000000000000e+00) (0, 0, 0.00000000000000000000e+00) (0, 0, 0.00000000000000000000e+00) (0, 0, 0.00000000000000000000e+00) (0, 0, 0.00000000000000000000e+00) (0, 0, 0.00000000000000000000e+00) (0, 0, 0.00000000000000000000e+00) (0, 0, 0.00000000000000000000e+00) (0, 0, 0.00000000000000000000e+00) (0, 0, 0.00000000000000000000e+00) (0, 0, 0.00000000000000000000e+00) (0, 0, 0.00000000000000000000e+00) (0, 0, 0.00000000000000000000e+00) (0, 0, 0.00000000000000000000e+00) (0, 0, 0.00000000000000000000e+00) (0, 0, 0.00000000000000000000e+00) (0, 0, 0.00000000000000000000e+00) (0, 0, 0.00000000000000000000e+00) (0, 0, 0.00000000000000000000e+00) (0, 0, 0.00000000000000000000e+00) (0, 0, 0.00000000000000000000e+00) (0, 0, 0.00000000000000000000e+00) (0, 0, 0.00000000000000000000e+00) (0, 0, 0.00000000000000000000e+00) (0, 0, 0.00000000000000000000e+00) (0, 0, 0.00000000000000000000e+00) (0, 0, 0.00000000000000000000e+00) (0, 0, 0.00000000000000000000e+00) (0, 0, 0.00000000000000000000e+00) (0, 0, 0.00000000000000000000e+00) (0, 0, 0.00000000000000000000e+00) (0, 0, 0.00000000000000000000e+00) (0, 0, 0.00000000000000000000e+00) (0, 0, 0.00000000000000000000e+00) (0, 0, 0.00000000000000000000e+00) (0, 0, 0.00000000000000000000e+00) (0, 0, 0.00000000000000000000e+00) (0, 0, 0.00000000000000000000e+00) (0, 0, 0.00000000000000000000e+00) (0, 0, 0.00000000000000000000e+00) (0, 0, 0.00000000000000000000e+00) (0, 0, 0.00000000000000000000e+00) (0, 0, 0.00000000000000000000e+00) (0, 0, 0.00000000000000000000e+00) (0, 0, 0.00000000000000000000e+00) (0, 0, 0.00000000000000000000e+00) (0, 0, 0.00000000000000000000e+00) (0, 0, 0.00000000000000000000e+00) (0, 0, 0.00000000000000000000e+00) (0, 0, 0.00000000000000000000e+00) (0, 0, 0.00000000000000000000e+00) (0, 0, 0.00000000000000000000e+00) (0, 0, 0.00000000000000000000e+00) (0, 0, 0.00000000000000000000e+00) (0, 0, 0.00000000000000000000e+00) (0, 0, 0.00000000000000000000e+00) (0, 0, 0.00000000000000000000e+00) (0, 0, 0.00000000000000000000e+00) (0, 0, 0.00000000000000000000e+00) (0, 0, 0.00000000000000000000e+00) (0, 0, 0.00000000000000000000e+00) (0, 0, 0.00000000000000000000e+00) (0, 0, 0.00000000000000000000e+00) (0, 0, 0.00000000000000000000e+00) (0, 0, 0.00000000000000000000e+00) (0, 0, 0.00000000000000000000e+00) (0, 0, 0.00000000000000000000e+00) (0, 0, 0.00000000000000000000e+00) (0, 0, 0.00000000000000000000e+00) (0, 0, 0.00000000000000000000e+00) (0, 0, 0.00000000000000000000e+00) (0, 0, 0.00000000000000000000e+00) (0, 0, 0.00000000000000000000e+00) (0, 0, 0.00000000000000000000e+00) (0, 0, 0.00000000000000000000e+00) (0, 0, 0.00000000000000000000e+00) (0, 0, 0.00000000000000000000e+00) (0, 0, 0.00000000000000000000e+00) (0, 0, 0.00000000000000000000e+00) (0, 0, 0.00000000000000000000e+00) (0, 0, 0.00000000000000000000e+00) (0, 0, 0.00000000000000000000e+00) (0, 0, 0.00000000000000000000e+00) (0, 0, 0.00000000000000000000e+00) (0, 0, 0.00000000000000000000e+00) (0, 0, 0.00000000000000000000e+00) (0, 0, 0.00000000000000000000e+00) (0, 0, 0.00000000000000000000e+00) (0, 0, 0.00000000000000000000e+00) (0, 0, 0.00000000000000000000e+00) (0, 0, 0.00000000000000000000e+00) (0, 0, 0.00000000000000000000e+00) (0, 0, 0.00000000000000000000e+00) (0, 0, 0.00000000000000000000e+00) (0, 0, 0.00000000000000000000e+00) (0, 0, 0.00000000000000000000e+00) (0, 0, 0.00000000000000000000e+00) (0, 0, 0.00000000000000000000e+00) (0, 0, 0.00000000000000000000e+00) (0, 0, 0.00000000000000000000e+00) (0, 0, 0.00000000000000000000e+00) (0, 0, 0.00000000000000000000e+00) (0, 0, 0.00000000000000000000e+00) (0, 0, 0.00000000000000000000e+00) (0, 0, 0.00000000000000000000e+00) (0, 0, 0.00000000000000000000e+00) (0, 0, 0.00000000000000000000e+00) (0, 0, 0.00000000000000000000e+00) (0, 0, 0.00000000000000000000e+00) (0, 0, 0.00000000000000000000e+00) (0, 0, 0.00000000000000000000e+00) (0, 0, 0.00000000000000000000e+00) (0, 0, 0.00000000000000000000e+00) (0, 0, 0.00000000000000000000e+00) (0, 0, 0.00000000000000000000e+00) (0, 0, 0.00000000000000000000e+00) (0, 0, 0.00000000000000000000e+00) (0, 0, 0.00000000000000000000e+00) (0, 0, 0.00000000000000000000e+00) (0, 0, 0.00000000000000000000e+00) (0, 0, 0.00000000000000000000e+00) (0, 0, 0.00000000000000000000e+00) (0, 0, 0.00000000000000000000e+00) (0, 0, 0.00000000000000000000e+00) (0, 0, 0.00000000000000000000e+00) (0, 0, 0.00000000000000000000e+00) (0, 0, 0.00000000000000000000e+00) (0, 0, 0.00000000000000000000e+00) (0, 0, 0.00000000000000000000e+00) (0, 0, 0.00000000000000000000e+00) (0, 0, 0.00000000000000000000e+00) (0, 0, 0.00000000000000000000e+00) (0, 0, 0.00000000000000000000e+00) (0, 0, 0.00000000000000000000e+00) (0, 0, 0.00000000000000000000e+00) (0, 0, 0.00000000000000000000e+00) (0, 0, 0.00000000000000000000e+00) (0, 0, 0.00000000000000000000e+00) (0, 0, 0.00000000000000000000e+00) (0, 0, 0.00000000000000000000e+00) (0, 0, 0.00000000000000000000e+00) (0, 0, 0.00000000000000000000e+00) (0, 0, 0.00000000000000000000e+00) (0, 0, 0.00000000000000000000e+00) (0, 0, 0.00000000000000000000e+00) (0, 0, 0.00000000000000000000e+00) (0, 0, 0.00000000000000000000e+00) (0, 0, 0.00000000000000000000e+00) (0, 0, 0.00000000000000000000e+00) (0, 0, 0.00000000000000000000e+00) (0, 0, 0.00000000000000000000e+00) (0, 0, 0.00000000000000000000e+00) (0, 0, 0.00000000000000000000e+00) (0, 0, 0.00000000000000000000e+00) (0, 0, 0.00000000000000000000e+00) (0, 0, 0.00000000000000000000e+00) (0, 0, 0.00000000000000000000e+00) (0, 0, 0.00000000000000000000e+00) (0, 0, 0.00000000000000000000e+00) (0, 0, 0.00000000000000000000e+00) (0, 0, 0.00000000000000000000e+00) (0, 0, 0.00000000000000000000e+00) (0, 0, 0.00000000000000000000e+00) (0, 0, 0.00000000000000000000e+00) (0, 0, 0.00000000000000000000e+00) (0, 0, 0.00000000000000000000e+00) (0, 0, 0.00000000000000000000e+00) (0, 0, 0.00000000000000000000e+00) (0, 0, 0.00000000000000000000e+00) (0, 0, 0.00000000000000000000e+00) (0, 0, 0.00000000000000000000e+00) (0, 0, 0.00000000000000000000e+00) (0, 0, 0.00000000000000000000e+00) (0, 0, 0.00000000000000000000e+00) (0, 0, 0.00000000000000000000e+00) (0, 0, 0.00000000000000000000e+00) (0, 0, 0.00000000000000000000e+00) (0, 0, 0.00000000000000000000e+00) (0, 0, 0.00000000000000000000e+00) (0, 0, 0.00000000000000000000e+00) (0, 0, 0.00000000000000000000e+00) (0, 0, 0.00000000000000000000e+00) (0, 0, 0.00000000000000000000e+00) (0, 0, 0.00000000000000000000e+00) (0, 0, 0.00000000000000000000e+00) (0, 0, 0.00000000000000000000e+00) (0, 0, 0.00000000000000000000e+00) (0, 0, 0.00000000000000000000e+00) (0, 0, 0.00000000000000000000e+00) (0, 0, 0.00000000000000000000e+00) (0, 0, 0.00000000000000000000e+00) (0, 0, 0.00000000000000000000e+00) (0, 0, 0.00000000000000000000e+00) (0, 0, 0.00000000000000000000e+00) (0, 0, 0.00000000000000000000e+00) (0, 0, 0.00000000000000000000e+00) (0, 0, 0.00000000000000000000e+00) (0, 0, 0.00000000000000000000e+00) (0, 0, 0.00000000000000000000e+00) (0, 0, 0.00000000000000000000e+00) (0, 0, 0.00000000000000000000e+00) (0, 0, 0.00000000000000000000e+00) (0, 0, 0.00000000000000000000e+00) (0, 0, 0.00000000000000000000e+00) (0, 0, 0.00000000000000000000e+00) (0, 0, 0.00000000000000000000e+00) (0, 0, 0.00000000000000000000e+00) (0, 0, 0.00000000000000000000e+00) (0, 0, 0.00000000000000000000e+00) (0, 0, 0.00000000000000000000e+00) (0, 0, 0.00000000000000000000e+00) (0, 0, 0.00000000000000000000e+00) (0, 0, 0.00000000000000000000e+00) (0, 0, 0.00000000000000000000e+00) (0, 0, 0.00000000000000000000e+00) (0, 0, 0.00000000000000000000e+00) (0, 0, 0.00000000000000000000e+00) (0, 0, 0.00000000000000000000e+00) (0, 0, 0.00000000000000000000e+00) (0, 0, 0.00000000000000000000e+00) (0, 0, 0.00000000000000000000e+00) (0, 0, 0.00000000000000000000e+00) (0, 0, 0.00000000000000000000e+00) (0, 0, 0.00000000000000000000e+00) (0, 0, 0.00000000000000000000e+00) (0, 0, 0.00000000000000000000e+00) (0, 0, 0.00000000000000000000e+00) (0, 0, 0.00000000000000000000e+00) (0, 0, 0.00000000000000000000e+00) (0, 0, 0.00000000000000000000e+00) (0, 0, 0.00000000000000000000e+00) (0, 0, 0.00000000000000000000e+00) (0, 0, 0.00000000000000000000e+00) (0, 0, 0.00000000000000000000e+00) (0, 0, 0.00000000000000000000e+00) (0, 0, 0.00000000000000000000e+00) (0, 0, 0.00000000000000000000e+00) (0, 0, 0.00000000000000000000e+00) (0, 0, 0.00000000000000000000e+00) (0, 0, 0.00000000000000000000e+00) (0, 0, 0.00000000000000000000e+00) (0, 0, 0.00000000000000000000e+00) (0, 0, 0.00000000000000000000e+00) (0, 0, 0.00000000000000000000e+00) (0, 0, 0.00000000000000000000e+00) (0, 0, 0.00000000000000000000e+00) (0, 0, 0.00000000000000000000e+00) (0, 0, 0.00000000000000000000e+00) (0, 0, 0.00000000000000000000e+00) (0, 0, 0.00000000000000000000e+00) (0, 0, 0.00000000000000000000e+00) (0, 0, 0.00000000000000000000e+00) (0, 0, 0.00000000000000000000e+00) (0, 0, 0.00000000000000000000e+00) (0, 0, 0.00000000000000000000e+00) (0, 0, 0.00000000000000000000e+00) (0, 0, 0.00000000000000000000e+00) (0, 0, 0.00000000000000000000e+00) (0, 0, 0.00000000000000000000e+00) (0, 0, 0.00000000000000000000e+00) (0, 0, 0.00000000000000000000e+00) (0, 0, 0.00000000000000000000e+00) (0, 0, 0.00000000000000000000e+00) (0, 0, 0.00000000000000000000e+00) (0, 0, 0.00000000000000000000e+00) (0, 0, 0.00000000000000000000e+00) (0, 0, 0.00000000000000000000e+00) (0, 0, 0.00000000000000000000e+00) (0, 0, 0.00000000000000000000e+00) (0, 0, 0.00000000000000000000e+00) (0, 0, 0.00000000000000000000e+00) (0, 0, 0.00000000000000000000e+00) (0, 0, 0.00000000000000000000e+00) (0, 0, 0.00000000000000000000e+00) (0, 0, 0.00000000000000000000e+00) (0, 0, 0.00000000000000000000e+00) (0, 0, 0.00000000000000000000e+00) (0, 0, 0.00000000000000000000e+00) (0, 0, 0.00000000000000000000e+00) (0, 0, 0.00000000000000000000e+00) (0, 0, 0.00000000000000000000e+00) (0, 0, 0.00000000000000000000e+00) (0, 0, 0.00000000000000000000e+00) (0, 0, 0.00000000000000000000e+00) (0, 0, 0.00000000000000000000e+00) (0, 0, 0.00000000000000000000e+00) (0, 0, 0.00000000000000000000e+00) (0, 0, 0.00000000000000000000e+00) (0, 0, 0.00000000000000000000e+00) (0, 0, 0.00000000000000000000e+00) (0, 0, 0.00000000000000000000e+00) (0, 0, 0.00000000000000000000e+00) (0, 0, 0.00000000000000000000e+00) (0, 0, 0.00000000000000000000e+00) (0, 0, 0.00000000000000000000e+00) (0, 0, 0.00000000000000000000e+00) (0, 0, 0.00000000000000000000e+00) (0, 0, 0.00000000000000000000e+00) (0, 0, 0.00000000000000000000e+00) (0, 0, 0.00000000000000000000e+00) (0, 0, 0.00000000000000000000e+00) (0, 0, 0.00000000000000000000e+00) (0, 0, 0.00000000000000000000e+00) (0, 0, 0.00000000000000000000e+00) (0, 0, 0.00000000000000000000e+00) (0, 0, 0.00000000000000000000e+00) (0, 0, 0.00000000000000000000e+00) (0, 0, 0.00000000000000000000e+00) (0, 0, 0.00000000000000000000e+00) (0, 0, 0.00000000000000000000e+00) (0, 0, 0.00000000000000000000e+00) (0, 0, 0.00000000000000000000e+00) (0, 0, 0.00000000000000000000e+00) (0, 0, 0.00000000000000000000e+00) (0, 0, 0.00000000000000000000e+00) (0, 0, 0.00000000000000000000e+00) (0, 0, 0.00000000000000000000e+00) (0, 0, 0.00000000000000000000e+00) (0, 0, 0.00000000000000000000e+00) (0, 0, 0.00000000000000000000e+00) (0, 0, 0.00000000000000000000e+00) (0, 0, 0.00000000000000000000e+00) (0, 0, 0.00000000000000000000e+00) (0, 0, 0.00000000000000000000e+00) (0, 0, 0.00000000000000000000e+00) (0, 0, 0.00000000000000000000e+00) (0, 0, 0.00000000000000000000e+00) (0, 0, 0.00000000000000000000e+00) (0, 0, 0.00000000000000000000e+00) (0, 0, 0.00000000000000000000e+00) (0, 0, 0.00000000000000000000e+00) (0, 0, 0.00000000000000000000e+00) (0, 0, 0.00000000000000000000e+00) (0, 0, 0.00000000000000000000e+00) (0, 0, 0.00000000000000000000e+00) (0, 0, 0.00000000000000000000e+00) (0, 0, 0.00000000000000000000e+00) (0, 0, 0.00000000000000000000e+00) (0, 0, 0.00000000000000000000e+00) (0, 0, 0.00000000000000000000e+00) (0, 0, 0.00000000000000000000e+00) (0, 0, 0.00000000000000000000e+00) (0, 0, 0.00000000000000000000e+00) (0, 0, 0.00000000000000000000e+00) (0, 0, 0.00000000000000000000e+00) (0, 0, 0.00000000000000000000e+00) (0, 0, 0.00000000000000000000e+00) (0, 0, 0.00000000000000000000e+00) (0, 0, 0.00000000000000000000e+00) (0, 0, 0.00000000000000000000e+00) (0, 0, 0.00000000000000000000e+00) (0, 0, 0.00000000000000000000e+00) (0, 0, 0.00000000000000000000e+00) (0, 0, 0.00000000000000000000e+00) (0, 0, 0.00000000000000000000e+00) (0, 0, 0.00000000000000000000e+00) (0, 0, 0.00000000000000000000e+00) (0, 0, 0.00000000000000000000e+00) (0, 0, 0.00000000000000000000e+00) (0, 0, 0.00000000000000000000e+00) (0, 0, 0.00000000000000000000e+00) (0, 0, 0.00000000000000000000e+00) (0, 0, 0.00000000000000000000e+00) (0, 0, 0.00000000000000000000e+00) (0, 0, 0.00000000000000000000e+00) (0, 0, 0.00000000000000000000e+00) (0, 0, 0.00000000000000000000e+00) (0, 0, 0.00000000000000000000e+00) (0, 0, 0.00000000000000000000e+00) (0, 0, 0.00000000000000000000e+00) (0, 0, 0.00000000000000000000e+00) (0, 0, 0.00000000000000000000e+00) (0, 0, 0.00000000000000000000e+00) (0, 0, 0.00000000000000000000e+00) (0, 0, 0.00000000000000000000e+00) (0, 0, 0.00000000000000000000e+00) (0, 0, 0.00000000000000000000e+00) (0, 0, 0.00000000000000000000e+00) (0, 0, 0.00000000000000000000e+00) (0, 0, 0.00000000000000000000e+00) (0, 0, 0.00000000000000000000e+00) (0, 0, 0.00000000000000000000e+00) (0, 0, 0.00000000000000000000e+00) (0, 0, 0.00000000000000000000e+00) (0, 0, 0.00000000000000000000e+00) (0, 0, 0.00000000000000000000e+00) (0, 0, 0.00000000000000000000e+00) (0, 0, 0.00000000000000000000e+00) (0, 0, 0.00000000000000000000e+00) (0, 0, 0.00000000000000000000e+00) (0, 0, 0.00000000000000000000e+00) (0, 0, 0.00000000000000000000e+00) (0, 0, 0.00000000000000000000e+00) (0, 0, 0.00000000000000000000e+00) (0, 0, 0.00000000000000000000e+00) (0, 0, 0.00000000000000000000e+00) (0, 0, 0.00000000000000000000e+00) (0, 0, 0.00000000000000000000e+00) (0, 0, 0.00000000000000000000e+00) (0, 0, 0.00000000000000000000e+00) (0, 0, 0.00000000000000000000e+00) (0, 0, 0.00000000000000000000e+00) (0, 0, 0.00000000000000000000e+00) (0, 0, 0.00000000000000000000e+00) (0, 0, 0.00000000000000000000e+00) (0, 0, 0.00000000000000000000e+00) (0, 0, 0.00000000000000000000e+00) (0, 0, 0.00000000000000000000e+00) (0, 0, 0.00000000000000000000e+00) (0, 0, 0.00000000000000000000e+00) (0, 0, 0.00000000000000000000e+00) (0, 0, 0.00000000000000000000e+00) (0, 0, 0.00000000000000000000e+00) (0, 0, 0.00000000000000000000e+00) (0, 0, 0.00000000000000000000e+00) (0, 0, 0.00000000000000000000e+00) (0, 0, 0.00000000000000000000e+00) (0, 0, 0.00000000000000000000e+00) (0, 0, 0.00000000000000000000e+00) (0, 0, 0.00000000000000000000e+00) (0, 0, 0.00000000000000000000e+00) (0, 0, 0.00000000000000000000e+00) (0, 0, 0.00000000000000000000e+00) (0, 0, 0.00000000000000000000e+00) (0, 0, 0.00000000000000000000e+00) (0, 0, 0.00000000000000000000e+00) (0, 0, 0.00000000000000000000e+00) (0, 0, 0.00000000000000000000e+00) (0, 0, 0.00000000000000000000e+00) (0, 0, 0.00000000000000000000e+00) (0, 0, 0.00000000000000000000e+00) (0, 0, 0.00000000000000000000e+00) (0, 0, 0.00000000000000000000e+00) (0, 0, 0.00000000000000000000e+00) (0, 0, 0.00000000000000000000e+00) (0, 0, 0.00000000000000000000e+00) (0, 0, 0.00000000000000000000e+00) (0, 0, 0.00000000000000000000e+00) (0, 0, 0.00000000000000000000e+00) (0, 0, 0.00000000000000000000e+00) (0, 0, 0.00000000000000000000e+00) (0, 0, 0.00000000000000000000e+00) (0, 0, 0.00000000000000000000e+00) (0, 0, 0.00000000000000000000e+00) (0, 0, 0.00000000000000000000e+00) (0, 0, 0.00000000000000000000e+00) (0, 0, 0.00000000000000000000e+00) (0, 0, 0.00000000000000000000e+00) (0, 0, 0.00000000000000000000e+00) (0, 0, 0.00000000000000000000e+00) (0, 0, 0.00000000000000000000e+00) (0, 0, 0.00000000000000000000e+00) (0, 0, 0.00000000000000000000e+00) (0, 0, 0.00000000000000000000e+00) (0, 0, 0.00000000000000000000e+00) (0, 0, 0.00000000000000000000e+00) (0, 0, 0.00000000000000000000e+00) (0, 0, 0.00000000000000000000e+00) (0, 0, 0.00000000000000000000e+00) (0, 0, 0.00000000000000000000e+00) (0, 0, 0.00000000000000000000e+00) (0, 0, 0.00000000000000000000e+00) (0, 0, 0.00000000000000000000e+00) (0, 0, 0.00000000000000000000e+00) (0, 0, 0.00000000000000000000e+00) (0, 0, 0.00000000000000000000e+00) (0, 0, 0.00000000000000000000e+00) (0, 0, 0.00000000000000000000e+00) (0, 0, 0.00000000000000000000e+00) (0, 0, 0.00000000000000000000e+00) (0, 0, 0.00000000000000000000e+00) (0, 0, 0.00000000000000000000e+00) (0, 0, 0.00000000000000000000e+00) (0, 0, 0.00000000000000000000e+00) (0, 0, 0.00000000000000000000e+00) (0, 0, 0.00000000000000000000e+00) (0, 0, 0.00000000000000000000e+00) (0, 0, 0.00000000000000000000e+00) (0, 0, 0.00000000000000000000e+00) (0, 0, 0.00000000000000000000e+00) (0, 0, 0.00000000000000000000e+00) (0, 0, 0.00000000000000000000e+00) (0, 0, 0.00000000000000000000e+00) (0, 0, 0.00000000000000000000e+00) (0, 0, 0.00000000000000000000e+00) (0, 0, 0.00000000000000000000e+00) (0, 0, 0.00000000000000000000e+00) (0, 0, 0.00000000000000000000e+00) (0, 0, 0.00000000000000000000e+00) (0, 0, 0.00000000000000000000e+00) (0, 0, 0.00000000000000000000e+00) (0, 0, 0.00000000000000000000e+00) (0, 0, 0.00000000000000000000e+00) (0, 0, 0.00000000000000000000e+00) (0, 0, 0.00000000000000000000e+00) (0, 0, 0.00000000000000000000e+00) (0, 0, 0.00000000000000000000e+00) (0, 0, 0.00000000000000000000e+00) (0, 0, 0.00000000000000000000e+00) (0, 0, 0.00000000000000000000e+00) (0, 0, 0.00000000000000000000e+00) (0, 0, 0.00000000000000000000e+00) (0, 0, 0.00000000000000000000e+00) (0, 0, 0.00000000000000000000e+00) (0, 0, 0.00000000000000000000e+00) (0, 0, 0.00000000000000000000e+00) (0, 0, 0.00000000000000000000e+00) (0, 0, 0.00000000000000000000e+00) (0, 0, 0.00000000000000000000e+00) (0, 0, 0.00000000000000000000e+00) (0, 0, 0.00000000000000000000e+00) (0, 0, 0.00000000000000000000e+00) (0, 0, 0.00000000000000000000e+00) (0, 0, 0.00000000000000000000e+00) (0, 0, 0.00000000000000000000e+00) (0, 0, 0.00000000000000000000e+00) (0, 0, 0.00000000000000000000e+00) (0, 0, 0.00000000000000000000e+00) (0, 0, 0.00000000000000000000e+00) (0, 0, 0.00000000000000000000e+00) (0, 0, 0.00000000000000000000e+00) (0, 0, 0.00000000000000000000e+00) (0, 0, 0.00000000000000000000e+00) (0, 0, 0.00000000000000000000e+00) (0, 0, 0.00000000000000000000e+00) (0, 0, 0.00000000000000000000e+00) (0, 0, 0.00000000000000000000e+00) (0, 0, 0.00000000000000000000e+00) (0, 0, 0.00000000000000000000e+00) (0, 0, 0.00000000000000000000e+00) (0, 0, 0.00000000000000000000e+00) (0, 0, 0.00000000000000000000e+00) (0, 0, 0.00000000000000000000e+00) (0, 0, 0.00000000000000000000e+00) (0, 0, 0.00000000000000000000e+00) (0, 0, 0.00000000000000000000e+00) (0, 0, 0.00000000000000000000e+00) (0, 0, 0.00000000000000000000e+00) (0, 0, 0.00000000000000000000e+00) (0, 0, 0.00000000000000000000e+00) (0, 0, 0.00000000000000000000e+00) (0, 0, 0.00000000000000000000e+00) (0, 0, 0.00000000000000000000e+00) (0, 0, 0.00000000000000000000e+00) (0, 0, 0.00000000000000000000e+00) (0, 0, 0.00000000000000000000e+00) (0, 0, 0.00000000000000000000e+00) (0, 0, 0.00000000000000000000e+00) (0, 0, 0.00000000000000000000e+00) (0, 0, 0.00000000000000000000e+00) (0, 0, 0.00000000000000000000e+00) (0, 0, 0.00000000000000000000e+00) (0, 0, 0.00000000000000000000e+00) (0, 0, 0.00000000000000000000e+00) (0, 0, 0.00000000000000000000e+00) (0, 0, 0.00000000000000000000e+00) (0, 0, 0.00000000000000000000e+00) (0, 0, 0.00000000000000000000e+00) (0, 0, 0.00000000000000000000e+00) (0, 0, 0.00000000000000000000e+00) (0, 0, 0.00000000000000000000e+00) (0, 0, 0.00000000000000000000e+00) (0, 0, 0.00000000000000000000e+00) (0, 0, 0.00000000000000000000e+00) (0, 0, 0.00000000000000000000e+00) (0, 0, 0.00000000000000000000e+00) (0, 0, 0.00000000000000000000e+00) (0, 0, 0.00000000000000000000e+00) (0, 0, 0.00000000000000000000e+00) (0, 0, 0.00000000000000000000e+00) (0, 0, 0.00000000000000000000e+00) (0, 0, 0.00000000000000000000e+00) (0, 0, 0.00000000000000000000e+00) (0, 0, 0.00000000000000000000e+00) (0, 0, 0.00000000000000000000e+00) (0, 0, 0.00000000000000000000e+00) (0, 0, 0.00000000000000000000e+00) (0, 0, 0.00000000000000000000e+00) (0, 0, 0.00000000000000000000e+00) (0, 0, 0.00000000000000000000e+00) (0, 0, 0.00000000000000000000e+00) (0, 0, 0.00000000000000000000e+00) (0, 0, 0.00000000000000000000e+00) (0, 0, 0.00000000000000000000e+00) (0, 0, 0.00000000000000000000e+00) (0, 0, 0.00000000000000000000e+00) (0, 0, 0.00000000000000000000e+00) (0, 0, 0.00000000000000000000e+00) (0, 0, 0.00000000000000000000e+00) (0, 0, 0.00000000000000000000e+00) (0, 0, 0.00000000000000000000e+00) (0, 0, 0.00000000000000000000e+00) (0, 0, 0.00000000000000000000e+00) (0, 0, 0.00000000000000000000e+00) (0, 0, 0.00000000000000000000e+00) (0, 0, 0.00000000000000000000e+00) (0, 0, 0.00000000000000000000e+00) (0, 0, 0.00000000000000000000e+00) (0, 0, 0.00000000000000000000e+00) (0, 0, 0.00000000000000000000e+00) (0, 0, 0.00000000000000000000e+00) (0, 0, 0.00000000000000000000e+00) (0, 0, 0.00000000000000000000e+00) (0, 0, 0.00000000000000000000e+00) (0, 0, 0.00000000000000000000e+00) (0, 0, 0.00000000000000000000e+00) (0, 0, 0.00000000000000000000e+00) (0, 0, 0.00000000000000000000e+00) (0, 0, 0.00000000000000000000e+00) (0, 0, 0.00000000000000000000e+00) (0, 0, 0.00000000000000000000e+00) (0, 0, 0.00000000000000000000e+00) (0, 0, 0.00000000000000000000e+00) (0, 0, 0.00000000000000000000e+00) (0, 0, 0.00000000000000000000e+00) (0, 0, 0.00000000000000000000e+00) (0, 0, 0.00000000000000000000e+00) (0, 0, 0.00000000000000000000e+00) (0, 0, 0.00000000000000000000e+00) (0, 0, 0.00000000000000000000e+00) (0, 0, 0.00000000000000000000e+00) (0, 0, 0.00000000000000000000e+00) (0, 0, 0.00000000000000000000e+00) (0, 0, 0.00000000000000000000e+00) (785, 4, 5.00000000000000000000e-01) (785, 4, 5.00000000000000000000e-01) (785, 4, 5.00000000000000000000e-01) (785, 4, 5.00000000000000000000e-01) (785, 4, 5.00000000000000000000e-01) (785, 4, 5.00000000000000000000e-01) (785, 4, 5.00000000000000000000e-01) (785, 4, 5.00000000000000000000e-01) (785, 4, 5.00000000000000000000e-01) (785, 4, 5.00000000000000000000e-01) (785, 4, 5.00000000000000000000e-01) (785, 4, 5.00000000000000000000e-01) (785, 4, 5.00000000000000000000e-01) (785, 4, 5.00000000000000000000e-01) (785, 4, 5.00000000000000000000e-01) (785, 4, 5.00000000000000000000e-01) (785, 4, 5.00000000000000000000e-01) (785, 4, 5.00000000000000000000e-01) (785, 4, 5.00000000000000000000e-01) (785, 4, 5.00000000000000000000e-01) (785, 4, 5.00000000000000000000e-01) (785, 4, 5.00000000000000000000e-01) (785, 4, 5.00000000000000000000e-01) (785, 4, 5.00000000000000000000e-01) (785, 4, 5.00000000000000000000e-01) (785, 4, 5.00000000000000000000e-01) (785, 4, 5.00000000000000000000e-01) (785, 4, 5.00000000000000000000e-01) (785, 4, 5.00000000000000000000e-01) (785, 4, 5.00000000000000000000e-01) (785, 4, 5.00000000000000000000e-01) (785, 4, 5.00000000000000000000e-01) (785, 4, 5.00000000000000000000e-01) (785, 4, 5.00000000000000000000e-01) (785, 4, 5.00000000000000000000e-01) (785, 4, 5.00000000000000000000e-01) (785, 4, 5.00000000000000000000e-01) (785, 4, 5.00000000000000000000e-01) (785, 4, 5.00000000000000000000e-01) (785, 4, 5.00000000000000000000e-01) (785, 4, 5.00000000000000000000e-01) (785, 4, 5.00000000000000000000e-01) (785, 4, 5.00000000000000000000e-01) (785, 4, 5.00000000000000000000e-01) (785, 4, 5.00000000000000000000e-01) (0, 0, 0.00000000000000000000e+00) (46, 3, 5.00000000000000000000e-01) (46, 3, 5.00000000000000000000e-01) (46, 3, 5.00000000000000000000e-01) (46, 3, 5.00000000000000000000e-01) (46, 3, 5.00000000000000000000e-01) (46, 3, 5.00000000000000000000e-01) (46, 3, 5.00000000000000000000e-01) (46, 3, 5.00000000000000000000e-01) (46, 3, 5.00000000000000000000e-01) (46, 3, 5.00000000000000000000e-01) (0, 3, 0.00000000000000000000e+00) 
connections (connected_to_neuron, weight)=(0, 1.50000000000000000000e+03) (1, 1.50000000000000000000e+03) (2, 1.50000000000000000000e+03) (3, 1.50000000000000000000e+03) (4, 1.50000000000000000000e+03) (5, 1.50000000000000000000e+03) (6, 1.50000000000000000000e+03) (7, 1.50000000000000000000e+03) (8, 1.50000000000000000000e+03) (9, 1.50000000000000000000e+03) (10, 1.50000000000000000000e+03) (11, 1.50000000000000000000e+03) (12, 1.50000000000000000000e+03) (13, -3.33223602294921875000e+02) (14, -1.50000000000000000000e+03) (15, -1.50000000000000000000e+03) (16, 1.50000000000000000000e+03) (17, 1.50000000000000000000e+03) (18, 1.50000000000000000000e+03) (19, 1.50000000000000000000e+03) (20, 1.50000000000000000000e+03) (21, 1.50000000000000000000e+03) (22, 1.50000000000000000000e+03) (23, 1.50000000000000000000e+03) (24, 1.50000000000000000000e+03) (25, 1.50000000000000000000e+03) (26, 1.50000000000000000000e+03) (27, 1.50000000000000000000e+03) (28, 1.50000000000000000000e+03) (29, 1.50000000000000000000e+03) (30, 1.50000000000000000000e+03) (31, 1.50000000000000000000e+03) (32, -1.12052001953125000000e+03) (33, -5.78204040527343750000e+02) (34, 7.60738647460937500000e+02) (35, 7.60738647460937500000e+02) (36, 1.50000000000000000000e+03) (37, 6.61881591796875000000e+02) (38, -1.06022241210937500000e+03) (39, -1.50000000000000000000e+03) (40, -1.50000000000000000000e+03) (41, -1.50000000000000000000e+03) (42, -1.50000000000000000000e+03) (43, -1.50000000000000000000e+03) (44, -1.50000000000000000000e+03) (45, -1.50000000000000000000e+03) (46, 4.18399902343750000000e+02) (47, 1.03419995117187500000e+03) (48, -9.85899780273437500000e+02) (49, -1.15800048828125000000e+02) (50, -1.50000000000000000000e+03) (51, -1.50000000000000000000e+03) (52, 1.50000000000000000000e+03) (53, 1.50000000000000000000e+03) (54, 1.50000000000000000000e+03) (55, 1.50000000000000000000e+03) (56, 1.50000000000000000000e+03) (57, 1.50000000000000000000e+03) (58, -1.22080004882812500000e+03) (59, -1.50000000000000000000e+03) (60, -4.07053527832031250000e+02) (61, 1.39420007324218750000e+03) (62, 1.13419995117187500000e+03) (63, 1.08419995117187500000e+03) (64, 5.69738647460937500000e+02) (65, 6.60738647460937500000e+02) (66, -5.25325012207031250000e+02) (67, -1.50000000000000000000e+03) (68, -1.50000000000000000000e+03) (69, -1.50000000000000000000e+03) (70, -1.48919995117187500000e+03) (71, -1.33521997070312500000e+03) (72, 1.18399963378906250000e+02) (73, 1.60738647460937500000e+02) (74, 5.55028198242187500000e+02) (75, 9.84199951171875000000e+02) (76, 1.08419995117187500000e+03) (77, 9.34199951171875000000e+02) (78, 3.34199951171875000000e+02) (79, -2.57522766113281250000e+02) (80, -1.50000000000000000000e+03) (81, -1.50000000000000000000e+03) (82, 1.50000000000000000000e+03) (83, 1.50000000000000000000e+03) (84, 1.50000000000000000000e+03) (85, 1.50000000000000000000e+03) (86, -1.50000000000000000000e+03) (87, -1.50000000000000000000e+03) (88, 7.02599975585937500000e+02) (89, -1.27066857910156250000e+03) (90, -1.50000000000000000000e+03) (91, -1.50000000000000000000e+03) (92, -1.50000000000000000000e+03) (93, -1.50000000000000000000e+03) (94, -1.50000000000000000000e+03) (95, -1.50000000000000000000e+03) (96, -1.50000000000000000000e+03) (97, -1.50000000000000000000e+03) (98, -1.50000000000000000000e+03) (99, -1.50000000000000000000e+03) (100, -1.50000000000000000000e+03) (101, -1.43245544433593750000e+03) (102, 9.49385986328125000000e+01) (103, 7.61513671875000000000e+01) (104, 3.17739257812500000000e+02) (105, 1.50000000000000000000e+03) (106, 1.50000000000000000000e+03) (107, 1.50000000000000000000e+03) (108, 1.50000000000000000000e+03) (109, -1.50000000000000000000e+03) (110, 1.33628173828125000000e+02) (111, 1.50000000000000000000e+03) (112, 1.50000000000000000000e+03) (113, 1.50000000000000000000e+03) (114, -1.50000000000000000000e+03) (115, -1.50000000000000000000e+03) (116, 6.76767211914062500000e+02) (117, -4.76145202636718750000e+02) (118, -1.50000000000000000000e+03) (119, -1.50000000000000000000e+03) (120, -1.50000000000000000000e+03) (121, -1.50000000000000000000e+03) (122, -1.50000000000000000000e+03) (123, -1.50000000000000000000e+03) (124, -1.50000000000000000000e+03) (125, -1.50000000000000000000e+03) (126, -1.50000000000000000000e+03) (127, -1.50000000000000000000e+03) (128, -1.50000000000000000000e+03) (129, -1.50000000000000000000e+03) (130, -1.48727954101562500000e+03) (131, -1.41187487792968750000e+03) (132, -5.77142028808593750000e+02) (133, 1.25311047363281250000e+03) (134, 1.50000000000000000000e+03) (135, 1.50000000000000000000e+03) (136, 1.50000000000000000000e+03) (137, 1.50000000000000000000e+03) (138, 1.50000000000000000000e+03) (139, 1.50000000000000000000e+03) (140, 1.50000000000000000000e+03) (141, 1.50000000000000000000e+03) (142, -1.46093859863281250000e+03) (143, -1.50000000000000000000e+03) (144, 7.67522705078125000000e+02) (145, -8.27599975585937500000e+02) (146, -1.19500244140625000000e+03) (147, -1.50000000000000000000e+03) (148, -1.50000000000000000000e+03) (149, -1.50000000000000000000e+03) (150, -1.50000000000000000000e+03) (151, -4.38993621826171875000e+02) (152, 4.79890823364257812500e+01) (153, -6.38516784667968750000e+02) (154, -3.41794067382812500000e+02) (155, -1.50000000000000000000e+03) (156, 3.10811798095703125000e+02) (157, 1.46447070312500000000e+03) (158, 1.50000000000000000000e+03) (159, 1.50000000000000000000e+03) (160, 1.50000000000000000000e+03) (161, 1.42780529785156250000e+03) (162, 1.50000000000000000000e+03) (163, 1.50000000000000000000e+03) (164, 1.50000000000000000000e+03) (165, 1.50000000000000000000e+03) (166, 5.12661315917968750000e+02) (167, 1.50000000000000000000e+03) (168, 1.50000000000000000000e+03) (169, 1.02836743164062500000e+03) (170, -1.50000000000000000000e+03) (171, -1.50000000000000000000e+03) (172, -8.93399963378906250000e+02) (173, -9.12938659667968750000e+02) (174, -1.50000000000000000000e+03) (175, -1.50000000000000000000e+03) (176, -1.50000000000000000000e+03) (177, -1.50000000000000000000e+03) (178, -4.37172943115234375000e+02) (179, 3.15732666015625000000e+02) (180, -5.23183349609375000000e+02) (181, -1.13998388671875000000e+03) (182, -1.32604089355468750000e+03) (183, -1.34269140625000000000e+03) (184, -1.39987744140625000000e+03) (185, -8.86098480224609375000e+00) (186, 1.50000000000000000000e+03) (187, 1.50000000000000000000e+03) (188, 1.49898937988281250000e+03) (189, 1.42768811035156250000e+03) (190, 1.50000000000000000000e+03) (191, 1.50000000000000000000e+03) (192, 1.50000000000000000000e+03) (193, 1.50000000000000000000e+03) (194, 1.50000000000000000000e+03) (195, 1.50000000000000000000e+03) (196, -1.50000000000000000000e+03) (197, 7.57915283203125000000e+02) (198, -1.50000000000000000000e+03) (199, -1.50000000000000000000e+03) (200, -1.50000000000000000000e+03) (201, -1.50000000000000000000e+03) (202, -1.50000000000000000000e+03) (203, -1.50000000000000000000e+03) (204, -1.50000000000000000000e+03) (205, -1.50000000000000000000e+03) (206, -1.43856652832031250000e+03) (207, -1.36960241699218750000e+03) (208, -1.48635913085937500000e+03) (209, -1.50000000000000000000e+03) (210, -1.50000000000000000000e+03) (211, -1.50000000000000000000e+03) (212, -1.50000000000000000000e+03) (213, -1.50000000000000000000e+03) (214, 6.12982543945312500000e+02) (215, 1.49452355957031250000e+03) (216, -1.47743667602539062500e+02) (217, 1.47595727539062500000e+03) (218, 1.50000000000000000000e+03) (219, 1.50000000000000000000e+03) (220, 1.50000000000000000000e+03) (221, 1.50000000000000000000e+03) (222, 1.50000000000000000000e+03) (223, 9.77938598632812500000e+02) (224, -1.50000000000000000000e+03) (225, -1.50000000000000000000e+03) (226, -1.50000000000000000000e+03) (227, -1.50000000000000000000e+03) (228, -1.50000000000000000000e+03) (229, -1.50000000000000000000e+03) (230, -1.50000000000000000000e+03) (231, -1.50000000000000000000e+03) (232, -1.50000000000000000000e+03) (233, -1.50000000000000000000e+03) (234, -1.46017993164062500000e+03) (235, -1.41448840332031250000e+03) (236, -1.50000000000000000000e+03) (237, -1.50000000000000000000e+03) (238, -1.50000000000000000000e+03) (239, -1.50000000000000000000e+03) (240, -1.50000000000000000000e+03) (241, -1.50000000000000000000e+03) (242, -1.50000000000000000000e+03) (243, -6.03730041503906250000e+02) (244, 8.75677185058593750000e+01) (245, 1.31500195312500000000e+03) (246, 1.47000000000000000000e+03) (247, 1.50000000000000000000e+03) (248, 1.50000000000000000000e+03) (249, 1.50000000000000000000e+03) (250, 1.50000000000000000000e+03) (251, 2.33062500000000000000e+02) (252, -1.50000000000000000000e+03) (253, -1.50000000000000000000e+03) (254, -1.50000000000000000000e+03) (255, -1.50000000000000000000e+03) (256, -1.50000000000000000000e+03) (257, -1.50000000000000000000e+03) (258, -1.50000000000000000000e+03) (259, -1.50000000000000000000e+03) (260, -1.46017993164062500000e+03) (261, -7.73828552246093750000e+02) (262, -5.06945404052734375000e+02) (263, -1.11939221191406250000e+03) (264, -1.45994726562500000000e+03) (265, -1.50000000000000000000e+03) (266, -1.50000000000000000000e+03) (267, -1.50000000000000000000e+03) (268, -1.50000000000000000000e+03) (269, -1.50000000000000000000e+03) (270, -1.50000000000000000000e+03) (271, -1.00428216552734375000e+03) (272, 1.37566369628906250000e+03) (273, 5.05608978271484375000e+02) (274, 1.12484753417968750000e+03) (275, 1.47000000000000000000e+03) (276, 1.50000000000000000000e+03) (277, 1.50000000000000000000e+03) (278, 1.19433874511718750000e+03) (279, 1.84199951171875000000e+02) (280, -1.50000000000000000000e+03) (281, -1.50000000000000000000e+03) (282, -1.50000000000000000000e+03) (283, -1.50000000000000000000e+03) (284, -1.50000000000000000000e+03) (285, -1.50000000000000000000e+03) (286, -1.31956384277343750000e+03) (287, -1.34261877441406250000e+03) (288, -9.55230590820312500000e+02) (289, -1.48794360351562500000e+03) (290, 9.50615905761718750000e+02) (291, 1.50000000000000000000e+03) (292, 1.50000000000000000000e+03) (293, -1.50000000000000000000e+03) (294, -1.50000000000000000000e+03) (295, -1.50000000000000000000e+03) (296, -1.50000000000000000000e+03) (297, -1.50000000000000000000e+03) (298, -1.44339074707031250000e+03) (299, -4.62442962646484375000e+02) (300, 2.16008605957031250000e+02) (301, -3.70936462402343750000e+02) (302, -8.41080444335937500000e+02) (303, -1.02875256347656250000e+03) (304, 1.48200000000000000000e+03) (305, 1.09159997558593750000e+03) (306, 1.50000000000000000000e+03) (307, 1.84199951171875000000e+02) (308, -1.47500000000000000000e+03) (309, -1.50000000000000000000e+03) (310, -1.50000000000000000000e+03) (311, -1.50000000000000000000e+03) (312, -1.50000000000000000000e+03) (313, -1.35680017089843750000e+03) (314, 7.93321411132812500000e+02) (315, 1.50000000000000000000e+03) (316, 1.50000000000000000000e+03) (317, 1.50000000000000000000e+03) (318, 1.50000000000000000000e+03) (319, 1.50000000000000000000e+03) (320, 1.50000000000000000000e+03) (321, 1.50000000000000000000e+03) (322, -1.50000000000000000000e+03) (323, -1.50000000000000000000e+03) (324, -9.07865051269531250000e+02) (325, -1.21251501464843750000e+03) (326, -1.12791149902343750000e+03) (327, 4.63977355957031250000e+02) (328, -1.41264990234375000000e+03) (329, -1.40880090332031250000e+03) (330, -1.50000000000000000000e+03) (331, -1.50000000000000000000e+03) (332, 6.27937194824218750000e+02) (333, -1.27132476806640625000e+02) (334, 1.50000000000000000000e+03) (335, 7.25000061035156250000e+02) (336, -1.50000000000000000000e+03) (337, -1.50000000000000000000e+03) (338, -1.50000000000000000000e+03) (339, -1.50000000000000000000e+03) (340, -1.50000000000000000000e+03) (341, -8.17941589355468750000e+01) (342, 1.50000000000000000000e+03) (343, 1.50000000000000000000e+03) (344, 1.50000000000000000000e+03) (345, 1.50000000000000000000e+03) (346, 1.50000000000000000000e+03) (347, 1.50000000000000000000e+03) (348, 1.50000000000000000000e+03) (349, 1.50000000000000000000e+03) (350, 1.50000000000000000000e+03) (351, 1.50000000000000000000e+03) (352, 1.50000000000000000000e+03) (353, 1.40732421875000000000e+03) (354, 1.48102966308593750000e+03) (355, 1.17527075195312500000e+03) (356, 1.09189025878906250000e+03) (357, 9.18828430175781250000e+02) (358, -8.90335144042968750000e+02) (359, -5.89999694824218750000e+02) (360, 1.50000000000000000000e+03) (361, -1.50000000000000000000e+03) (362, -1.50000000000000000000e+03) (363, -1.50000000000000000000e+03) (364, 1.50000000000000000000e+03) (365, -1.50000000000000000000e+03) (366, -1.50000000000000000000e+03) (367, -1.50000000000000000000e+03) (368, -9.65800048828125000000e+02) (369, 1.50000000000000000000e+03) (370, 1.50000000000000000000e+03) (371, 1.50000000000000000000e+03) (372, 1.50000000000000000000e+03) (373, 1.50000000000000000000e+03) (374, 1.50000000000000000000e+03) (375, 1.50000000000000000000e+03) (376, 1.50000000000000000000e+03) (377, 1.50000000000000000000e+03) (378, 1.50000000000000000000e+03) (379, 1.50000000000000000000e+03) (380, 1.50000000000000000000e+03) (381, 1.28195458984375000000e+03) (382, -7.04995483398437500000e+02) (383, 1.50000000000000000000e+03) (384, 1.49278967285156250000e+03) (385, 1.44540002441406250000e+03) (386, 9.34370727539062500000e+02) (387, -8.03015502929687500000e+02) (388, -1.19225708007812500000e+02) (389, -1.50000000000000000000e+03) (390, -1.50000000000000000000e+03) (391, -1.50000000000000000000e+03) (392, 1.34080004882812500000e+03) (393, -1.50000000000000000000e+03) (394, -1.50000000000000000000e+03) (395, -1.50000000000000000000e+03) (396, 1.50000000000000000000e+03) (397, 1.50000000000000000000e+03) (398, 1.50000000000000000000e+03) (399, 1.50000000000000000000e+03) (400, 1.50000000000000000000e+03) (401, 1.50000000000000000000e+03) (402, 1.50000000000000000000e+03) (403, 1.50000000000000000000e+03) (404, 1.50000000000000000000e+03) (405, 1.50000000000000000000e+03) (406, 1.50000000000000000000e+03) (407, 1.50000000000000000000e+03) (408, 1.50000000000000000000e+03) (409, 1.50000000000000000000e+03) (410, 1.50000000000000000000e+03) (411, 1.50000000000000000000e+03) (412, 1.50000000000000000000e+03) (413, 1.29126135253906250000e+03) (414, 7.91232849121093750000e+02) (415, -1.31330126953125000000e+03) (416, -5.14776611328125000000e+02) (417, -1.50000000000000000000e+03) (418, -1.50000000000000000000e+03) (419, -1.50000000000000000000e+03) (420, -1.10566137695312500000e+03) (421, -1.50000000000000000000e+03) (422, -1.50000000000000000000e+03) (423, 5.71814453125000000000e+02) (424, 1.50000000000000000000e+03) (425, 1.50000000000000000000e+03) (426, 1.50000000000000000000e+03) (427, 1.50000000000000000000e+03) (428, 1.50000000000000000000e+03) (429, 1.50000000000000000000e+03) (430, 1.50000000000000000000e+03) (431, 1.50000000000000000000e+03) (432, 1.50000000000000000000e+03) (433, 1.50000000000000000000e+03) (434, 1.50000000000000000000e+03) (435, 1.50000000000000000000e+03) (436, 1.50000000000000000000e+03) (437, 1.50000000000000000000e+03) (438, 1.50000000000000000000e+03) (439, 1.50000000000000000000e+03) (440, 1.39364593505859375000e+02) (441, -1.25598266601562500000e+03) (442, 4.30548706054687500000e+02) (443, -8.24448608398437500000e+02) (444, -1.13026135253906250000e+03) (445, -1.50000000000000000000e+03) (446, -1.50000000000000000000e+03) (447, -1.50000000000000000000e+03) (448, -1.50000000000000000000e+03) (449, -1.50000000000000000000e+03) (450, -1.50000000000000000000e+03) (451, -2.59410644531250000000e+02) (452, 1.40337597656250000000e+03) (453, 1.50000000000000000000e+03) (454, 1.50000000000000000000e+03) (455, 1.50000000000000000000e+03) (456, 1.50000000000000000000e+03) (457, 1.50000000000000000000e+03) (458, 1.50000000000000000000e+03) (459, 1.50000000000000000000e+03) (460, 1.50000000000000000000e+03) (461, 1.50000000000000000000e+03) (462, 1.50000000000000000000e+03) (463, 1.50000000000000000000e+03) (464, 1.50000000000000000000e+03) (465, 1.50000000000000000000e+03) (466, 1.50000000000000000000e+03) (467, 7.44413635253906250000e+02) (468, -9.18909423828125000000e+02) (469, -1.26090026855468750000e+03) (470, -8.76569396972656250000e+02) (471, -1.05589208984375000000e+03) (472, -1.13026135253906250000e+03) (473, -1.50000000000000000000e+03) (474, -1.50000000000000000000e+03) (475, -1.50000000000000000000e+03) (476, 1.50000000000000000000e+03) (477, -1.44500000000000000000e+03) (478, -8.55788208007812500000e+02) (479, -1.50000000000000000000e+03) (480, -1.50000000000000000000e+03) (481, -1.72557907104492187500e+02) (482, 1.44540002441406250000e+03) (483, 1.50000000000000000000e+03) (484, 1.50000000000000000000e+03) (485, 1.50000000000000000000e+03) (486, 1.50000000000000000000e+03) (487, 1.50000000000000000000e+03) (488, 1.50000000000000000000e+03) (489, 1.45797338867187500000e+03) (490, 1.40922485351562500000e+03) (491, 1.47399890136718750000e+03) (492, 1.50000000000000000000e+03) (493, -8.50765441894531250000e+02) (494, 8.67107421875000000000e+02) (495, -1.37629064941406250000e+03) (496, -3.98336425781250000000e+02) (497, -9.70625000000000000000e+02) (498, -1.50000000000000000000e+03) (499, -1.46572277832031250000e+03) (500, -1.50000000000000000000e+03) (501, -1.50000000000000000000e+03) (502, -1.50000000000000000000e+03) (503, -1.50000000000000000000e+03) (504, -1.01528356933593750000e+03) (505, -1.42819995117187500000e+03) (506, -1.50000000000000000000e+03) (507, -1.50000000000000000000e+03) (508, -1.50000000000000000000e+03) (509, -1.50000000000000000000e+03) (510, -1.50000000000000000000e+03) (511, 1.20257250976562500000e+03) (512, 1.47697277832031250000e+03) (513, 1.29838378906250000000e+03) (514, 7.35053100585937500000e+02) (515, 6.23503234863281250000e+02) (516, 2.75228057861328125000e+02) (517, -1.50000000000000000000e+03) (518, 3.63168945312500000000e+01) (519, 1.48306555175781250000e+03) (520, 1.00157031250000000000e+03) (521, -1.04422509765625000000e+03) (522, -1.38121459960937500000e+03) (523, 8.38138366699218750000e+02) (524, -3.09675445556640625000e+02) (525, -1.50000000000000000000e+03) (526, -1.50000000000000000000e+03) (527, -1.50000000000000000000e+03) (528, -1.50000000000000000000e+03) (529, -1.50000000000000000000e+03) (530, -1.50000000000000000000e+03) (531, -1.50000000000000000000e+03) (532, 1.50000000000000000000e+03) (533, -1.50000000000000000000e+03) (534, -1.50000000000000000000e+03) (535, -1.50000000000000000000e+03) (536, -1.50000000000000000000e+03) (537, -1.50000000000000000000e+03) (538, -1.50000000000000000000e+03) (539, -1.50000000000000000000e+03) (540, -1.50000000000000000000e+03) (541, -1.50000000000000000000e+03) (542, -1.50000000000000000000e+03) (543, -1.50000000000000000000e+03) (544, -1.50000000000000000000e+03) (545, -1.50000000000000000000e+03) (546, -1.50000000000000000000e+03) (547, -1.40232629394531250000e+03) (548, -1.10806433105468750000e+03) (549, -6.53578002929687500000e+02) (550, -1.29404760742187500000e+03) (551, -1.30272302246093750000e+03) (552, -4.94203796386718750000e+01) (553, -1.50000000000000000000e+03) (554, -1.50000000000000000000e+03) (555, -1.50000000000000000000e+03) (556, -1.50000000000000000000e+03) (557, -1.50000000000000000000e+03) (558, -1.50000000000000000000e+03) (559, -1.50000000000000000000e+03) (560, 1.50000000000000000000e+03) (561, -1.50000000000000000000e+03) (562, -1.41868798828125000000e+03) (563, -1.50000000000000000000e+03) (564, -1.50000000000000000000e+03) (565, -1.50000000000000000000e+03) (566, -1.50000000000000000000e+03) (567, -1.50000000000000000000e+03) (568, -1.50000000000000000000e+03) (569, -1.50000000000000000000e+03) (570, -1.50000000000000000000e+03) (571, -1.50000000000000000000e+03) (572, -1.50000000000000000000e+03) (573, -1.50000000000000000000e+03) (574, -1.48781469726562500000e+03) (575, -1.49901928710937500000e+03) (576, 7.55674011230468750000e+02) (577, 1.50000000000000000000e+03) (578, -3.28008331298828125000e+02) (579, 1.34355468750000000000e+03) (580, 1.46907739257812500000e+03) (581, 7.75136596679687500000e+02) (582, -1.50000000000000000000e+03) (583, -1.50000000000000000000e+03) (584, -1.50000000000000000000e+03) (585, -1.50000000000000000000e+03) (586, -1.50000000000000000000e+03) (587, 1.48419995117187500000e+03) (588, 1.25546142578125000000e+03) (589, -1.40304516601562500000e+03) (590, -1.36447998046875000000e+03) (591, -1.50000000000000000000e+03) (592, -1.50000000000000000000e+03) (593, -1.50000000000000000000e+03) (594, -1.50000000000000000000e+03) (595, -1.50000000000000000000e+03) (596, -1.50000000000000000000e+03) (597, -1.50000000000000000000e+03) (598, -1.50000000000000000000e+03) (599, -1.50000000000000000000e+03) (600, -1.50000000000000000000e+03) (601, -1.37299548339843750000e+03) (602, -1.49186975097656250000e+03) (603, -1.29001757812500000000e+03) (604, 5.65310974121093750000e+02) (605, -4.91490966796875000000e+02) (606, 1.43088293457031250000e+03) (607, 1.19808496093750000000e+03) (608, 1.08463720703125000000e+03) (609, 6.10068603515625000000e+02) (610, -5.80664001464843750000e+02) (611, -1.50000000000000000000e+03) (612, -1.50000000000000000000e+03) (613, -1.50000000000000000000e+03) (614, -1.50000000000000000000e+03) (615, 1.29080004882812500000e+03) (616, 1.25546142578125000000e+03) (617, 1.24080004882812500000e+03) (618, -4.11800048828125000000e+02) (619, -1.50000000000000000000e+03) (620, -1.50000000000000000000e+03) (621, -1.50000000000000000000e+03) (622, -1.50000000000000000000e+03) (623, -1.50000000000000000000e+03) (624, -1.50000000000000000000e+03) (625, -1.50000000000000000000e+03) (626, -1.50000000000000000000e+03) (627, 7.76129272460937500000e+02) (628, 3.44340728759765625000e+02) (629, 6.55660644531250000000e+02) (630, -1.08479602050781250000e+03) (631, 6.08986572265625000000e+02) (632, 9.42288085937500000000e+02) (633, 1.49847741699218750000e+03) (634, 1.49566186523437500000e+03) (635, 1.49840356445312500000e+03) (636, 1.50000000000000000000e+03) (637, 1.50000000000000000000e+03) (638, 1.50000000000000000000e+03) (639, 8.21986541748046875000e+01) (640, -1.50000000000000000000e+03) (641, -1.50000000000000000000e+03) (642, 1.50000000000000000000e+03) (643, 1.29080004882812500000e+03) (644, 1.50000000000000000000e+03) (645, 1.50000000000000000000e+03) (646, 4.46571777343750000000e+02) (647, -1.50000000000000000000e+03) (648, -1.50000000000000000000e+03) (649, -1.50000000000000000000e+03) (650, -1.50000000000000000000e+03) (651, -1.50000000000000000000e+03) (652, -1.44745043945312500000e+03) (653, -1.43233276367187500000e+03) (654, -8.62054901123046875000e+01) (655, 1.07532983398437500000e+03) (656, 1.39468481445312500000e+03) (657, 1.46538989257812500000e+03) (658, 1.50000000000000000000e+03) (659, 1.50000000000000000000e+03) (660, 1.50000000000000000000e+03) (661, 1.50000000000000000000e+03) (662, 1.50000000000000000000e+03) (663, 1.50000000000000000000e+03) (664, 1.50000000000000000000e+03) (665, 1.50000000000000000000e+03) (666, 1.50000000000000000000e+03) (667, 1.50000000000000000000e+03) (668, -1.04263635253906250000e+03) (669, 7.49454040527343750000e+02) (670, -5.93738647460937500000e+02) (671, 1.50000000000000000000e+03) (672, 1.50000000000000000000e+03) (673, 1.50000000000000000000e+03) (674, 1.47500000000000000000e+03) (675, -1.50000000000000000000e+03) (676, -1.50000000000000000000e+03) (677, -1.50000000000000000000e+03) (678, -1.50000000000000000000e+03) (679, -1.50000000000000000000e+03) (680, 5.48076171875000000000e+01) (681, 6.47538452148437500000e+02) (682, -6.90621276855468750000e+02) (683, -3.05463653564453125000e+02) (684, -1.49029553222656250000e+03) (685, -1.47965783691406250000e+03) (686, -1.03012866210937500000e+03) (687, -1.53180389404296875000e+02) (688, -1.96772216796875000000e+02) (689, 4.43194732666015625000e+02) (690, 1.50000000000000000000e+03) (691, 1.50000000000000000000e+03) (692, 1.50000000000000000000e+03) (693, 1.50000000000000000000e+03) (694, 1.50000000000000000000e+03) (695, 1.50000000000000000000e+03) (696, -1.50000000000000000000e+03) (697, 1.40800048828125000000e+02) (698, -1.50000000000000000000e+03) (699, 1.50000000000000000000e+03) (700, 1.50000000000000000000e+03) (701, 1.50000000000000000000e+03) (702, 1.50000000000000000000e+03) (703, -1.50000000000000000000e+03) (704, -1.50000000000000000000e+03) (705, -1.50000000000000000000e+03) (706, -1.50000000000000000000e+03) (707, -1.50000000000000000000e+03) (708, -1.50000000000000000000e+03) (709, -1.50000000000000000000e+03) (710, -1.50000000000000000000e+03) (711, -1.50000000000000000000e+03) (712, -1.50000000000000000000e+03) (713, -1.50000000000000000000e+03) (714, -1.50000000000000000000e+03) (715, -1.50000000000000000000e+03) (716, -1.50000000000000000000e+03) (717, -1.50000000000000000000e+03) (718, -1.50000000000000000000e+03) (719, -1.50000000000000000000e+03) (720, -8.48916870117187500000e+02) (721, 1.49951925277709960938e+01) (722, -2.20461303710937500000e+02) (723, 1.50000000000000000000e+03) (724, -1.50000000000000000000e+03) (725, -1.50000000000000000000e+03) (726, -1.50000000000000000000e+03) (727, 1.50000000000000000000e+03) (728, 1.50000000000000000000e+03) (729, 1.50000000000000000000e+03) (730, 1.50000000000000000000e+03) (731, 1.50000000000000000000e+03) (732, -7.28302978515625000000e+02) (733, -1.50000000000000000000e+03) (734, -1.50000000000000000000e+03) (735, -1.50000000000000000000e+03) (736, -1.50000000000000000000e+03) (737, -1.50000000000000000000e+03) (738, -1.50000000000000000000e+03) (739, -1.50000000000000000000e+03) (740, -1.50000000000000000000e+03) (741, -1.50000000000000000000e+03) (742, -1.50000000000000000000e+03) (743, -1.50000000000000000000e+03) (744, -1.50000000000000000000e+03) (745, -1.50000000000000000000e+03) (746, -1.50000000000000000000e+03) (747, -1.50000000000000000000e+03) (748, -8.65800048828125000000e+02) (749, -9.31600036621093750000e+02) (750, -1.50000000000000000000e+03) (751, 3.41394104003906250000e+02) (752, -8.65800048828125000000e+02) (753, -1.50000000000000000000e+03) (754, 1.50000000000000000000e+03) (755, 1.50000000000000000000e+03) (756, 1.50000000000000000000e+03) (757, 1.50000000000000000000e+03) (758, 1.50000000000000000000e+03) (759, 1.50000000000000000000e+03) (760, -1.50000000000000000000e+03) (761, -1.50000000000000000000e+03) (762, -1.50000000000000000000e+03) (763, -1.45863220214843750000e+02) (764, -1.50000000000000000000e+03) (765, -1.50000000000000000000e+03) (766, -1.50000000000000000000e+03) (767, -1.50000000000000000000e+03) (768, -9.80261352539062500000e+02) (769, -1.50000000000000000000e+03) (770, -1.50000000000000000000e+03) (771, -1.50000000000000000000e+03) (772, -1.50000000000000000000e+03) (773, -1.50000000000000000000e+03) (774, -1.50000000000000000000e+03) (775, -1.50000000000000000000e+03) (776, -1.06580004882812500000e+03) (777, -1.50000000000000000000e+03) (778, -1.50000000000000000000e+03) (779, -1.50000000000000000000e+03) (780, 1.50000000000000000000e+03) (781, 1.50000000000000000000e+03) (782, 1.50000000000000000000e+03) (783, 1.50000000000000000000e+03) (784, -1.11077308654785156250e+02) (0, 1.50000000000000000000e+03) (1, 1.50000000000000000000e+03) (2, 1.50000000000000000000e+03) (3, 1.50000000000000000000e+03) (4, 1.50000000000000000000e+03) (5, 1.50000000000000000000e+03) (6, 1.50000000000000000000e+03) (7, 1.50000000000000000000e+03) (8, 1.50000000000000000000e+03) (9, 1.50000000000000000000e+03) (10, 1.50000000000000000000e+03) (11, 1.50000000000000000000e+03) (12, 8.68399902343750000000e+02) (13, -9.36872680664062500000e+02) (14, -1.50000000000000000000e+03) (15, -1.50000000000000000000e+03) (16, 1.50000000000000000000e+03) (17, 1.50000000000000000000e+03) (18, 1.50000000000000000000e+03) (19, 1.50000000000000000000e+03) (20, 1.50000000000000000000e+03) (21, 1.50000000000000000000e+03) (22, 1.50000000000000000000e+03) (23, 1.50000000000000000000e+03) (24, 1.50000000000000000000e+03) (25, 1.50000000000000000000e+03) (26, 1.50000000000000000000e+03) (27, 1.50000000000000000000e+03) (28, 1.50000000000000000000e+03) (29, 1.50000000000000000000e+03) (30, 1.50000000000000000000e+03) (31, 1.50000000000000000000e+03) (32, -6.38948791503906250000e+02) (33, -5.91999511718750000000e+01) (34, 7.60738647460937500000e+02) (35, 7.60738647460937500000e+02) (36, 1.50000000000000000000e+03) (37, 1.50000000000000000000e+03) (38, 1.50000000000000000000e+03) (39, -1.48520739746093750000e+03) (40, -1.50000000000000000000e+03) (41, -1.50000000000000000000e+03) (42, 1.41963073730468750000e+03) (43, -1.50000000000000000000e+03) (44, -1.50000000000000000000e+03) (45, -1.50000000000000000000e+03) (46, 1.50000000000000000000e+03) (47, 1.33419995117187500000e+03) (48, -1.50000000000000000000e+03) (49, -1.09500000000000000000e+03) (50, -1.50000000000000000000e+03) (51, -1.50000000000000000000e+03) (52, 1.50000000000000000000e+03) (53, 1.50000000000000000000e+03) (54, 1.50000000000000000000e+03) (55, 1.50000000000000000000e+03) (56, 1.50000000000000000000e+03) (57, 1.50000000000000000000e+03) (58, 1.50000000000000000000e+03) (59, -1.50000000000000000000e+03) (60, -1.50000000000000000000e+03) (61, 1.50000000000000000000e+03) (62, 1.50000000000000000000e+03) (63, 7.95346069335937500000e+01) (64, 1.50000000000000000000e+03) (65, 1.50000000000000000000e+03) (66, 1.50000000000000000000e+03) (67, 1.50000000000000000000e+03) (68, 1.50000000000000000000e+03) (69, 1.50000000000000000000e+03) (70, 1.50000000000000000000e+03) (71, 1.50000000000000000000e+03) (72, 1.50000000000000000000e+03) (73, 1.50000000000000000000e+03) (74, 1.50000000000000000000e+03) (75, 1.50000000000000000000e+03) (76, 1.50000000000000000000e+03) (77, 1.50000000000000000000e+03) (78, 1.50000000000000000000e+03) (79, 1.44235913085937500000e+03) (80, 1.41017773437500000000e+03) (81, -7.81628173828125000000e+02) (82, 1.50000000000000000000e+03) (83, 1.50000000000000000000e+03) (84, 1.50000000000000000000e+03) (85, 1.50000000000000000000e+03) (86, -1.50000000000000000000e+03) (87, -1.50000000000000000000e+03) (88, 6.86256591796875000000e+02) (89, 1.50000000000000000000e+03) (90, 1.50000000000000000000e+03) (91, 3.40800048828125000000e+02) (92, 1.50000000000000000000e+03) (93, 1.50000000000000000000e+03) (94, 1.50000000000000000000e+03) (95, 1.50000000000000000000e+03) (96, 1.50000000000000000000e+03) (97, 1.50000000000000000000e+03) (98, 1.50000000000000000000e+03) (99, 1.50000000000000000000e+03) (100, 1.50000000000000000000e+03) (101, 1.50000000000000000000e+03) (102, 1.50000000000000000000e+03) (103, 1.50000000000000000000e+03) (104, 1.50000000000000000000e+03) (105, 1.49626855468750000000e+03) (106, 1.48364660644531250000e+03) (107, 7.91775512695312500000e+02) (108, 3.13890380859375000000e+02) (109, -1.50000000000000000000e+03) (110, -1.27380004882812500000e+03) (111, 1.50000000000000000000e+03) (112, 1.50000000000000000000e+03) (113, 1.50000000000000000000e+03) (114, 1.14235119628906250000e+03) (115, 1.23001916503906250000e+03) (116, 1.50000000000000000000e+03) (117, 1.50000000000000000000e+03) (118, 1.50000000000000000000e+03) (119, 1.50000000000000000000e+03) (120, 1.50000000000000000000e+03) (121, 1.50000000000000000000e+03) (122, 1.50000000000000000000e+03) (123, -1.06101953125000000000e+03) (124, -1.03912829589843750000e+03) (125, -1.31204711914062500000e+03) (126, -8.41514099121093750000e+02) (127, -1.43355200195312500000e+03) (128, -1.41185375976562500000e+03) (129, -1.31518884277343750000e+03) (130, -3.19042449951171875000e+02) (131, 1.28943572998046875000e+02) (132, 1.16122973632812500000e+03) (133, 1.35218261718750000000e+02) (134, -5.43514892578125000000e+02) (135, 1.19180004882812500000e+03) (136, 1.50000000000000000000e+03) (137, 1.50000000000000000000e+03) (138, 9.46400512695312500000e+02) (139, 1.14964428710937500000e+03) (140, 1.50000000000000000000e+03) (141, 1.50000000000000000000e+03) (142, 1.50000000000000000000e+03) (143, 1.50000000000000000000e+03) (144, 1.50000000000000000000e+03) (145, 1.50000000000000000000e+03) (146, 1.50000000000000000000e+03) (147, 1.50000000000000000000e+03) (148, 1.50000000000000000000e+03) (149, 1.50000000000000000000e+03) (150, 1.50000000000000000000e+03) (151, 3.21049407958984375000e+02) (152, -1.95512969970703125000e+02) (153, -7.06189758300781250000e+02) (154, -7.79469787597656250000e+02) (155, -9.30803100585937500000e+02) (156, -1.15632727050781250000e+03) (157, -1.15632727050781250000e+03) (158, -7.31221252441406250000e+02) (159, -5.54862915039062500000e+02) (160, 1.46674230957031250000e+03) (161, 7.35171997070312500000e+02) (162, 4.42061401367187500000e+02) (163, 1.50000000000000000000e+03) (164, 1.50000000000000000000e+03) (165, 1.50000000000000000000e+03) (166, 1.50000000000000000000e+03) (167, 1.50000000000000000000e+03) (168, 1.50000000000000000000e+03) (169, 1.50000000000000000000e+03) (170, 4.50725708007812500000e+02) (171, 1.50000000000000000000e+03) (172, 1.50000000000000000000e+03) (173, 1.50000000000000000000e+03) (174, 1.50000000000000000000e+03) (175, 1.50000000000000000000e+03) (176, 1.50000000000000000000e+03) (177, 1.50000000000000000000e+03) (178, 1.50000000000000000000e+03) (179, 1.27866235351562500000e+03) (180, 1.05025524902343750000e+03) (181, -5.64726867675781250000e+02) (182, -1.37109362792968750000e+03) (183, -1.47500000000000000000e+03) (184, -1.47500000000000000000e+03) (185, -1.47500000000000000000e+03) (186, -1.34359436035156250000e+03) (187, -5.56421875000000000000e+02) (188, 2.32212814331054687500e+02) (189, 1.36444067382812500000e+03) (190, 5.19122680664062500000e+02) (191, 1.50000000000000000000e+03) (192, 1.50000000000000000000e+03) (193, 1.50000000000000000000e+03) (194, 1.50000000000000000000e+03) (195, 5.25000061035156250000e+02) (196, -1.50000000000000000000e+03) (197, 1.50000000000000000000e+03) (198, -9.76355895996093750000e+02) (199, 1.50000000000000000000e+03) (200, 1.50000000000000000000e+03) (201, 1.50000000000000000000e+03) (202, 1.50000000000000000000e+03) (203, 1.50000000000000000000e+03) (204, 1.50000000000000000000e+03) (205, -1.02706506347656250000e+03) (206, 1.50000000000000000000e+03) (207, 1.12635742187500000000e+03) (208, -1.30500842285156250000e+03) (209, -1.48667187500000000000e+03) (210, -1.34314868164062500000e+03) (211, -1.47985607910156250000e+03) (212, -1.47985607910156250000e+03) (213, -1.47738610839843750000e+03) (214, -1.41838854980468750000e+03) (215, -1.47500000000000000000e+03) (216, -1.19116259765625000000e+03) (217, 3.95573791503906250000e+02) (218, 1.46474658203125000000e+03) (219, 9.36322692871093750000e+02) (220, 1.50000000000000000000e+03) (221, 1.50000000000000000000e+03) (222, 1.50000000000000000000e+03) (223, -1.46959997558593750000e+03) (224, -1.50000000000000000000e+03) (225, -1.50000000000000000000e+03) (226, -1.50000000000000000000e+03) (227, 1.50000000000000000000e+03) (228, 1.50000000000000000000e+03) (229, 1.50000000000000000000e+03) (230, 1.47120007324218750000e+03) (231, 1.48963208007812500000e+03) (232, 1.18360827636718750000e+03) (233, 2.99674041748046875000e+02) (234, 3.96222686767578125000e+02) (235, -1.11871887207031250000e+03) (236, -1.38088964843750000000e+03) (237, -1.41225085449218750000e+03) (238, -1.50000000000000000000e+03) (239, -1.50000000000000000000e+03) (240, -1.50000000000000000000e+03) (241, -1.50000000000000000000e+03) (242, -1.43579431152343750000e+03) (243, -1.41661010742187500000e+03) (244, -1.44407019042968750000e+03) (245, -1.34359594726562500000e+03) (246, -1.19718518066406250000e+03) (247, 1.10622607421875000000e+03) (248, 1.50000000000000000000e+03) (249, 1.50000000000000000000e+03) (250, 1.50000000000000000000e+03) (251, 1.10623718261718750000e+03) (252, -1.26580004882812500000e+03) (253, -1.50000000000000000000e+03) (254, -1.35131188964843750000e+03) (255, 1.50000000000000000000e+03) (256, 1.50000000000000000000e+03) (257, 1.50000000000000000000e+03) (258, 1.41963073730468750000e+03) (259, 1.49765502929687500000e+03) (260, -1.75341049194335937500e+02) (261, -7.56425537109375000000e+02) (262, -1.49701318359375000000e+03) (263, -1.43069140625000000000e+03) (264, -1.43061010742187500000e+03) (265, -1.50000000000000000000e+03) (266, -1.50000000000000000000e+03) (267, -1.50000000000000000000e+03) (268, -1.50000000000000000000e+03) (269, -1.19768078613281250000e+03) (270, -1.42170520019531250000e+03) (271, -1.40266235351562500000e+03) (272, -1.34505358886718750000e+03) (273, -1.46287487792968750000e+03) (274, -1.48789367675781250000e+03) (275, -1.31828002929687500000e+03) (276, 1.25832446289062500000e+03) (277, 1.50000000000000000000e+03) (278, 1.50000000000000000000e+03) (279, -1.50000000000000000000e+03) (280, -8.65800048828125000000e+02) (281, -1.20000000000000000000e+03) (282, -1.40755480957031250000e+03) (283, 1.50000000000000000000e+03) (284, 1.50000000000000000000e+03) (285, 1.46064501953125000000e+03) (286, 1.42226086425781250000e+03) (287, -1.50000000000000000000e+03) (288, -1.50000000000000000000e+03) (289, -1.38088964843750000000e+03) (290, -1.41022180175781250000e+03) (291, -1.50000000000000000000e+03) (292, -1.50000000000000000000e+03) (293, -1.47985607910156250000e+03) (294, -1.38211145019531250000e+03) (295, 1.50000000000000000000e+03) (296, 1.50000000000000000000e+03) (297, 1.03385681152343750000e+03) (298, -2.36194442749023437500e+02) (299, -1.40266235351562500000e+03) (300, -1.40974584960937500000e+03) (301, -1.40974584960937500000e+03) (302, -1.50000000000000000000e+03) (303, -1.50000000000000000000e+03) (304, 5.94340698242187500000e+02) (305, 1.50000000000000000000e+03) (306, 1.50000000000000000000e+03) (307, -1.50000000000000000000e+03) (308, 1.12259997558593750000e+03) (309, -1.38060095214843750000e+03) (310, -1.34413037109375000000e+03) (311, 1.50000000000000000000e+03) (312, 1.50000000000000000000e+03) (313, 1.17684226989746093750e+02) (314, -1.50000000000000000000e+03) (315, -1.42437121582031250000e+03) (316, -1.50000000000000000000e+03) (317, -7.60775878906250000000e+02) (318, -1.35322180175781250000e+03) (319, -1.43055444335937500000e+03) (320, -5.73302345275878906250e+01) (321, 1.50000000000000000000e+03) (322, 1.50000000000000000000e+03) (323, 1.50000000000000000000e+03) (324, 1.50000000000000000000e+03) (325, 1.50000000000000000000e+03) (326, 1.50000000000000000000e+03) (327, -1.37851306152343750000e+03) (328, -1.40974584960937500000e+03) (329, -1.50000000000000000000e+03) (330, -1.50000000000000000000e+03) (331, -1.50000000000000000000e+03) (332, -1.50000000000000000000e+03) (333, 1.50000000000000000000e+03) (334, 1.50000000000000000000e+03) (335, -1.50000000000000000000e+03) (336, 1.50000000000000000000e+03) (337, -1.50000000000000000000e+03) (338, -1.50000000000000000000e+03) (339, 1.50000000000000000000e+03) (340, 1.50000000000000000000e+03) (341, -1.50000000000000000000e+03) (342, -1.50000000000000000000e+03) (343, -1.42540026855468750000e+03) (344, -1.50000000000000000000e+03) (345, -4.56377075195312500000e+02) (346, -1.29741442871093750000e+03) (347, -9.92425781250000000000e+02) (348, 1.50000000000000000000e+03) (349, 1.50000000000000000000e+03) (350, 1.50000000000000000000e+03) (351, 1.50000000000000000000e+03) (352, 1.50000000000000000000e+03) (353, 1.50000000000000000000e+03) (354, 1.50000000000000000000e+03) (355, -4.06743011474609375000e+02) (356, -1.36150793457031250000e+03) (357, -1.50000000000000000000e+03) (358, -1.50000000000000000000e+03) (359, -1.50000000000000000000e+03) (360, -1.50000000000000000000e+03) (361, 1.05479858398437500000e+03) (362, 1.50000000000000000000e+03) (363, -1.50000000000000000000e+03) (364, 1.08419995117187500000e+03) (365, -1.50000000000000000000e+03) (366, -1.50000000000000000000e+03) (367, 1.50000000000000000000e+03) (368, -8.73748901367187500000e+02) (369, -1.50000000000000000000e+03) (370, -1.50000000000000000000e+03) (371, -1.43061010742187500000e+03) (372, -1.50000000000000000000e+03) (373, -1.33824804687500000000e+03) (374, -1.09089758300781250000e+03) (375, 1.50000000000000000000e+03) (376, 1.50000000000000000000e+03) (377, 1.50000000000000000000e+03) (378, 1.50000000000000000000e+03) (379, 1.50000000000000000000e+03) (380, 1.50000000000000000000e+03) (381, 1.50000000000000000000e+03) (382, 1.50000000000000000000e+03) (383, 1.41629418945312500000e+03) (384, -1.40350341796875000000e+03) (385, -1.36150793457031250000e+03) (386, -1.50000000000000000000e+03) (387, -1.50000000000000000000e+03) (388, -1.50000000000000000000e+03) (389, -4.48012176513671875000e+02) (390, -1.08260131835937500000e+02) (391, -1.50000000000000000000e+03) (392, -1.50000000000000000000e+03) (393, 9.40799987792968750000e+02) (394, -1.25734240722656250000e+03) (395, 1.50000000000000000000e+03) (396, -1.32061389160156250000e+03) (397, -1.50000000000000000000e+03) (398, -1.50000000000000000000e+03) (399, -1.41031237792968750000e+03) (400, -1.33824804687500000000e+03) (401, -1.41022180175781250000e+03) (402, -1.30450793457031250000e+03) (403, 1.50000000000000000000e+03) (404, 1.50000000000000000000e+03) (405, 1.50000000000000000000e+03) (406, 1.50000000000000000000e+03) (407, 1.50000000000000000000e+03) (408, 1.50000000000000000000e+03) (409, 1.50000000000000000000e+03) (410, 1.50000000000000000000e+03) (411, 1.50000000000000000000e+03) (412, -1.43634497070312500000e+03) (413, -1.36711767578125000000e+03) (414, -1.40974584960937500000e+03) (415, -1.50000000000000000000e+03) (416, -1.50000000000000000000e+03) (417, 1.49262817382812500000e+03) (418, -8.09199951171875000000e+02) (419, -1.50000000000000000000e+03) (420, -1.50000000000000000000e+03) (421, 1.50000000000000000000e+03) (422, 1.50000000000000000000e+03) (423, 1.50000000000000000000e+03) (424, -1.45337829589843750000e+03) (425, -1.50000000000000000000e+03) (426, -1.40974584960937500000e+03) (427, -1.41031237792968750000e+03) (428, -1.41022180175781250000e+03) (429, -1.50000000000000000000e+03) (430, -1.41022180175781250000e+03) (431, 1.50000000000000000000e+03) (432, 1.50000000000000000000e+03) (433, 1.50000000000000000000e+03) (434, 1.50000000000000000000e+03) (435, 1.50000000000000000000e+03) (436, 1.50000000000000000000e+03) (437, 1.50000000000000000000e+03) (438, 1.50000000000000000000e+03) (439, 1.50000000000000000000e+03) (440, -1.15591455078125000000e+03) (441, -1.28411999511718750000e+03) (442, -1.50000000000000000000e+03) (443, -1.50000000000000000000e+03) (444, -1.50000000000000000000e+03) (445, 1.41821777343750000000e+03) (446, 5.75000061035156250000e+02) (447, 8.56600097656250000000e+02) (448, -1.00873864746093750000e+03) (449, 1.50000000000000000000e+03) (450, 1.50000000000000000000e+03) (451, 1.50000000000000000000e+03) (452, -1.35227148437500000000e+03) (453, -1.40974584960937500000e+03) (454, -1.40974584960937500000e+03) (455, -1.47120739746093750000e+03) (456, -1.41031237792968750000e+03) (457, -1.50000000000000000000e+03) (458, -1.43061010742187500000e+03) (459, 1.50000000000000000000e+03) (460, 1.50000000000000000000e+03) (461, 1.50000000000000000000e+03) (462, 1.50000000000000000000e+03) (463, 1.50000000000000000000e+03) (464, 1.50000000000000000000e+03) (465, 1.50000000000000000000e+03) (466, 1.50000000000000000000e+03) (467, 1.13407885742187500000e+03) (468, -1.02082769775390625000e+03) (469, -1.13796997070312500000e+03) (470, -1.50000000000000000000e+03) (471, -1.40974584960937500000e+03) (472, -1.50000000000000000000e+03) (473, 1.50000000000000000000e+03) (474, 1.50000000000000000000e+03) (475, 1.50000000000000000000e+03) (476, 1.50000000000000000000e+03) (477, 1.50000000000000000000e+03) (478, 1.50000000000000000000e+03) (479, 1.50000000000000000000e+03) (480, -1.38095227050781250000e+03) (481, -1.46674584960937500000e+03) (482, -1.40266235351562500000e+03) (483, -1.50000000000000000000e+03) (484, -1.40988354492187500000e+03) (485, -1.50000000000000000000e+03) (486, -1.50000000000000000000e+03) (487, 1.50000000000000000000e+03) (488, 1.50000000000000000000e+03) (489, 1.50000000000000000000e+03) (490, 1.50000000000000000000e+03) (491, 1.50000000000000000000e+03) (492, 1.50000000000000000000e+03) (493, 1.48593469238281250000e+03) (494, 1.50000000000000000000e+03) (495, 1.31218041992187500000e+03) (496, -1.02369769287109375000e+03) (497, -1.23836315917968750000e+03) (498, -1.50000000000000000000e+03) (499, -1.40974584960937500000e+03) (500, -1.50000000000000000000e+03) (501, 2.44386276245117187500e+02) (502, 1.50000000000000000000e+03) (503, -1.50000000000000000000e+03) (504, -1.50000000000000000000e+03) (505, 1.50000000000000000000e+03) (506, 1.50000000000000000000e+03) (507, 1.50000000000000000000e+03) (508, 1.50000000000000000000e+03) (509, -1.41027001953125000000e+03) (510, -1.31044934082031250000e+03) (511, -1.50000000000000000000e+03) (512, -1.36276086425781250000e+03) (513, -1.50000000000000000000e+03) (514, -1.50000000000000000000e+03) (515, 8.76038818359375000000e+02) (516, 1.50000000000000000000e+03) (517, 1.50000000000000000000e+03) (518, 1.50000000000000000000e+03) (519, 1.49767687988281250000e+03) (520, 1.49496484375000000000e+03) (521, -3.04725723266601562500e+01) (522, 1.50000000000000000000e+03) (523, 1.12374060058593750000e+03) (524, -1.25013952636718750000e+03) (525, -1.50000000000000000000e+03) (526, -1.31627343750000000000e+03) (527, -1.40736352539062500000e+03) (528, -1.49034106445312500000e+03) (529, 1.62660217285156250000e+02) (530, 1.50000000000000000000e+03) (531, 1.50000000000000000000e+03) (532, -1.06261352539062500000e+02) (533, -1.50000000000000000000e+03) (534, 1.50000000000000000000e+03) (535, 1.50000000000000000000e+03) (536, 1.50000000000000000000e+03) (537, 4.31215240478515625000e+02) (538, -2.94791137695312500000e+02) (539, -5.12477478027343750000e+02) (540, -1.43674780273437500000e+03) (541, -1.50000000000000000000e+03) (542, -1.50000000000000000000e+03) (543, -1.50000000000000000000e+03) (544, 9.10875320434570312500e+01) (545, 1.48251599121093750000e+03) (546, -9.80668945312500000000e+01) (547, -9.97411254882812500000e+02) (548, -1.01958856201171875000e+03) (549, 1.60229583740234375000e+02) (550, 9.08240173339843750000e+02) (551, -1.46663171386718750000e+03) (552, -1.20200561523437500000e+03) (553, -1.39588928222656250000e+03) (554, -4.36116058349609375000e+02) (555, 9.21561706542968750000e+02) (556, 1.48844763183593750000e+03) (557, 1.49966699218750000000e+03) (558, 1.50000000000000000000e+03) (559, 9.99538635253906250000e+02) (560, 1.50000000000000000000e+03) (561, -1.50000000000000000000e+03) (562, 1.50000000000000000000e+03) (563, 1.50000000000000000000e+03) (564, 1.50000000000000000000e+03) (565, 5.21067687988281250000e+02) (566, 8.03068542480468750000e+00) (567, 8.17678161621093750000e+02) (568, -9.30803100585937500000e+02) (569, -1.41031237792968750000e+03) (570, -1.50000000000000000000e+03) (571, -1.50000000000000000000e+03) (572, -1.50000000000000000000e+03) (573, -8.19585754394531250000e+02) (574, -8.61936279296875000000e+02) (575, -1.39185339355468750000e+03) (576, 2.70524597167968750000e+02) (577, 1.53083618164062500000e+02) (578, 1.50000000000000000000e+03) (579, -1.25255932617187500000e+03) (580, -8.24129760742187500000e+02) (581, -4.24484436035156250000e+02) (582, 1.49964648437500000000e+03) (583, 1.50000000000000000000e+03) (584, 1.50000000000000000000e+03) (585, 1.45432788085937500000e+03) (586, 1.50000000000000000000e+03) (587, -1.50000000000000000000e+03) (588, -6.84200073242187500000e+02) (589, 1.50000000000000000000e+03) (590, 1.50000000000000000000e+03) (591, 1.50000000000000000000e+03) (592, 1.50000000000000000000e+03) (593, 9.28750122070312500000e+02) (594, 1.50000000000000000000e+03) (595, -6.50035034179687500000e+02) (596, 1.06038500976562500000e+03) (597, -7.06189758300781250000e+02) (598, -1.34479516601562500000e+03) (599, -1.47239904785156250000e+03) (600, -1.47239904785156250000e+03) (601, -1.24181188964843750000e+03) (602, -6.06390197753906250000e+02) (603, -6.21676879882812500000e+02) (604, -3.93755554199218750000e+02) (605, 6.81374450683593750000e+02) (606, -1.33469323730468750000e+03) (607, 1.89278144836425781250e+01) (608, -9.04171630859375000000e+02) (609, 1.49199572753906250000e+03) (610, 1.50000000000000000000e+03) (611, 1.50000000000000000000e+03) (612, 1.35313720703125000000e+03) (613, -7.84771423339843750000e+02) (614, -1.48553356933593750000e+03) (615, -1.50000000000000000000e+03) (616, -6.84200073242187500000e+02) (617, -6.43399963378906250000e+02) (618, 1.50000000000000000000e+03) (619, 1.50000000000000000000e+03) (620, 1.50000000000000000000e+03) (621, 1.25838183593750000000e+03) (622, 1.44502282714843750000e+03) (623, 6.53532104492187500000e+02) (624, 1.12934716796875000000e+03) (625, -7.35097595214843750000e+02) (626, -7.06189758300781250000e+02) (627, -1.33182922363281250000e+03) (628, -1.42420349121093750000e+03) (629, -1.42420349121093750000e+03) (630, -1.33566418457031250000e+03) (631, -7.79469787597656250000e+02) (632, -7.06189758300781250000e+02) (633, -7.06189758300781250000e+02) (634, 1.50000000000000000000e+03) (635, 1.50000000000000000000e+03) (636, 1.50000000000000000000e+03) (637, 1.50000000000000000000e+03) (638, 1.50000000000000000000e+03) (639, 1.50000000000000000000e+03) (640, 1.49994555664062500000e+03) (641, -1.36580004882812500000e+03) (642, 1.29373864746093750000e+03) (643, -1.50000000000000000000e+03) (644, 1.50000000000000000000e+03) (645, 1.50000000000000000000e+03) (646, 1.50000000000000000000e+03) (647, 1.50000000000000000000e+03) (648, 1.50000000000000000000e+03) (649, 1.50000000000000000000e+03) (650, 1.50000000000000000000e+03) (651, 1.08958569335937500000e+03) (652, 4.94838012695312500000e+02) (653, 2.76460601806640625000e+02) (654, -7.06189758300781250000e+02) (655, -7.06189758300781250000e+02) (656, -9.39864929199218750000e+02) (657, -1.15929809570312500000e+03) (658, -7.63189697265625000000e+02) (659, -6.61189758300781250000e+02) (660, -8.34178161621093750000e+02) (661, 1.50000000000000000000e+03) (662, 1.50000000000000000000e+03) (663, 1.50000000000000000000e+03) (664, 1.50000000000000000000e+03) (665, 1.50000000000000000000e+03) (666, 9.90800048828125000000e+02) (667, 5.58017089843750000000e+02) (668, -1.50000000000000000000e+03) (669, -1.50000000000000000000e+03) (670, 1.50000000000000000000e+03) (671, 1.50000000000000000000e+03) (672, 1.50000000000000000000e+03) (673, 1.50000000000000000000e+03) (674, 1.50000000000000000000e+03) (675, 1.50000000000000000000e+03) (676, 1.50000000000000000000e+03) (677, 1.50000000000000000000e+03) (678, 1.50000000000000000000e+03) (679, 1.50000000000000000000e+03) (680, 1.50000000000000000000e+03) (681, 1.48500000000000000000e+03) (682, 1.10719445800781250000e+03) (683, 2.98693847656250000000e+02) (684, -1.49312866210937500000e+02) (685, 4.12059211730957031250e+00) (686, 1.37664819335937500000e+03) (687, 1.50000000000000000000e+03) (688, 1.41759667968750000000e+03) (689, 1.50000000000000000000e+03) (690, 1.50000000000000000000e+03) (691, 1.50000000000000000000e+03) (692, 1.50000000000000000000e+03) (693, 1.47157482910156250000e+03) (694, 6.46673217773437500000e+02) (695, -6.42654785156250000000e+02) (696, -1.50000000000000000000e+03) (697, -1.20214599609375000000e+03) (698, -1.34470678710937500000e+03) (699, 1.50000000000000000000e+03) (700, 1.50000000000000000000e+03) (701, 1.50000000000000000000e+03) (702, -1.50000000000000000000e+03) (703, -1.50000000000000000000e+03) (704, 8.62023071289062500000e+02) (705, 1.19626135253906250000e+03) (706, 1.24626147460937500000e+03) (707, 7.09889648437500000000e+02) (708, -2.28583160400390625000e+02) (709, -8.52760742187500000000e+02) (710, -3.56981964111328125000e+02) (711, -1.99430572509765625000e+02) (712, -3.10371131896972656250e+01) (713, 6.51518981933593750000e+02) (714, 1.50000000000000000000e+03) (715, 1.50000000000000000000e+03) (716, 2.29117858886718750000e+02) (717, -6.13205688476562500000e+02) (718, -1.50000000000000000000e+03) (719, -1.50000000000000000000e+03) (720, -6.38943359375000000000e+02) (721, -1.50000000000000000000e+03) (722, -4.34721862792968750000e+02) (723, -1.50000000000000000000e+03) (724, -1.50000000000000000000e+03) (725, -1.50000000000000000000e+03) (726, -1.50000000000000000000e+03) (727, 1.50000000000000000000e+03) (728, 1.50000000000000000000e+03) (729, 1.50000000000000000000e+03) (730, 1.50000000000000000000e+03) (731, -1.50000000000000000000e+03) (732, -1.50000000000000000000e+03) (733, 6.33402832031250000000e+02) (734, 3.50941528320312500000e+02) (735, 2.35141601562500000000e+02) (736, 2.28255737304687500000e+02) (737, -7.86135803222656250000e+02) (738, -6.47920288085937500000e+02) (739, -6.39154357910156250000e+01) (740, -1.29117813110351562500e+02) (741, -1.25763076782226562500e+02) (742, -1.09893322753906250000e+03) (743, -1.50000000000000000000e+03) (744, -1.50000000000000000000e+03) (745, -1.50000000000000000000e+03) (746, -1.50000000000000000000e+03) (747, -1.50000000000000000000e+03) (748, -1.50000000000000000000e+03) (749, -1.50000000000000000000e+03) (750, -1.50000000000000000000e+03) (751, -1.50000000000000000000e+03) (752, -1.50000000000000000000e+03) (753, 4.43599975585937500000e+02) (754, 1.50000000000000000000e+03) (755, 1.50000000000000000000e+03) (756, 1.50000000000000000000e+03) (757, 1.50000000000000000000e+03) (758, 1.50000000000000000000e+03) (759, 1.50000000000000000000e+03) (760, 6.84199951171875000000e+02) (761, 9.22938598632812500000e+02) (762, 1.23450817871093750000e+03) (763, 5.28909790039062500000e+02) (764, -1.50000000000000000000e+03) (765, -1.48294775390625000000e+03) (766, -8.70760437011718750000e+02) (767, 1.50000000000000000000e+03) (768, 1.47252209472656250000e+03) (769, 1.50000000000000000000e+03) (770, -4.41748016357421875000e+02) (771, 3.38897003173828125000e+02) (772, -1.67961547851562500000e+02) (773, 1.04357238769531250000e+02) (774, 5.92535888671875000000e+02) (775, -1.50000000000000000000e+03) (776, 1.16208984375000000000e+03) (777, -8.70461791992187500000e+02) (778, -1.11480957031250000000e+03) (779, -1.08019995117187500000e+03) (780, 1.50000000000000000000e+03) (781, 1.50000000000000000000e+03) (782, 1.50000000000000000000e+03) (783, 1.50000000000000000000e+03) (784, -4.95344024658203125000e+02) (0, 1.50000000000000000000e+03) (1, 1.50000000000000000000e+03) (2, 1.50000000000000000000e+03) (3, 1.50000000000000000000e+03) (4, 1.50000000000000000000e+03) (5, 1.50000000000000000000e+03) (6, 1.50000000000000000000e+03) (7, 1.50000000000000000000e+03) (8, 1.50000000000000000000e+03) (9, 1.50000000000000000000e+03) (10, 1.50000000000000000000e+03) (11, 1.50000000000000000000e+03) (12, 1.50000000000000000000e+03) (13, 1.50000000000000000000e+03) (14, -1.50000000000000000000e+03) (15, -1.50000000000000000000e+03) (16, 1.50000000000000000000e+03) (17, 1.50000000000000000000e+03) (18, 1.50000000000000000000e+03) (19, 1.50000000000000000000e+03) (20, 1.50000000000000000000e+03) (21, 1.50000000000000000000e+03) (22, 1.50000000000000000000e+03) (23, 1.50000000000000000000e+03) (24, 1.50000000000000000000e+03) (25, 1.50000000000000000000e+03) (26, 1.50000000000000000000e+03) (27, 1.50000000000000000000e+03) (28, 1.50000000000000000000e+03) (29, 1.50000000000000000000e+03) (30, 1.50000000000000000000e+03) (31, 1.50000000000000000000e+03) (32, 1.50000000000000000000e+03) (33, 1.50000000000000000000e+03) (34, 1.50000000000000000000e+03) (35, 1.50000000000000000000e+03) (36, 1.50000000000000000000e+03) (37, 1.50000000000000000000e+03) (38, 1.50000000000000000000e+03) (39, 1.50000000000000000000e+03) (40, 1.50000000000000000000e+03) (41, 1.50000000000000000000e+03) (42, 1.50000000000000000000e+03) (43, 1.50000000000000000000e+03) (44, -8.49226806640625000000e+02) (45, 1.50000000000000000000e+03) (46, 1.50000000000000000000e+03) (47, 1.50000000000000000000e+03) (48, 1.50000000000000000000e+03) (49, 1.50000000000000000000e+03) (50, 1.50000000000000000000e+03) (51, 1.50000000000000000000e+03) (52, 1.50000000000000000000e+03) (53, 1.50000000000000000000e+03) (54, 1.50000000000000000000e+03) (55, 1.50000000000000000000e+03) (56, 1.50000000000000000000e+03) (57, 1.50000000000000000000e+03) (58, 1.50000000000000000000e+03) (59, 1.50000000000000000000e+03) (60, 1.50000000000000000000e+03) (61, 1.50000000000000000000e+03) (62, 1.50000000000000000000e+03) (63, 1.50000000000000000000e+03) (64, 1.50000000000000000000e+03) (65, 1.50000000000000000000e+03) (66, 1.50000000000000000000e+03) (67, 1.50000000000000000000e+03) (68, 1.50000000000000000000e+03) (69, 1.50000000000000000000e+03) (70, 1.50000000000000000000e+03) (71, 1.50000000000000000000e+03) (72, 1.50000000000000000000e+03) (73, 1.50000000000000000000e+03) (74, 1.50000000000000000000e+03) (75, 1.50000000000000000000e+03) (76, 1.50000000000000000000e+03) (77, 1.50000000000000000000e+03) (78, 1.50000000000000000000e+03) (79, 1.50000000000000000000e+03) (80, 1.50000000000000000000e+03) (81, -1.50000000000000000000e+03) (82, 1.50000000000000000000e+03) (83, 1.50000000000000000000e+03) (84, 1.50000000000000000000e+03) (85, 1.50000000000000000000e+03) (86, -1.50000000000000000000e+03) (87, 1.50000000000000000000e+03) (88, 1.50000000000000000000e+03) (89, 1.02583813476562500000e+03) (90, 1.50000000000000000000e+03) (91, 1.50000000000000000000e+03) (92, 1.50000000000000000000e+03) (93, 1.50000000000000000000e+03) (94, 1.50000000000000000000e+03) (95, 1.48057409667968750000e+03) (96, 6.96550292968750000000e+02) (97, 1.50000000000000000000e+03) (98, 1.50000000000000000000e+03) (99, 1.50000000000000000000e+03) (100, 1.50000000000000000000e+03) (101, 1.50000000000000000000e+03) (102, 1.50000000000000000000e+03) (103, 1.50000000000000000000e+03) (104, 1.50000000000000000000e+03) (105, 1.50000000000000000000e+03) (106, 1.50000000000000000000e+03) (107, 1.50000000000000000000e+03) (108, 1.50000000000000000000e+03) (109, 1.50000000000000000000e+03) (110, 1.50000000000000000000e+03) (111, 1.50000000000000000000e+03) (112, 1.50000000000000000000e+03) (113, 1.50000000000000000000e+03) (114, -1.50000000000000000000e+03) (115, -1.41784960937500000000e+03) (116, -1.50000000000000000000e+03) (117, -1.50000000000000000000e+03) (118, -1.50000000000000000000e+03) (119, -1.50000000000000000000e+03) (120, -1.50000000000000000000e+03) (121, -1.50000000000000000000e+03) (122, -1.50000000000000000000e+03) (123, -1.50000000000000000000e+03) (124, -1.50000000000000000000e+03) (125, -1.50000000000000000000e+03) (126, -1.45247998046875000000e+03) (127, -1.45247998046875000000e+03) (128, -3.27802795410156250000e+02) (129, 1.41701391601562500000e+03) (130, 1.50000000000000000000e+03) (131, 1.50000000000000000000e+03) (132, 1.50000000000000000000e+03) (133, 1.50000000000000000000e+03) (134, 1.50000000000000000000e+03) (135, 1.50000000000000000000e+03) (136, 1.50000000000000000000e+03) (137, 1.50000000000000000000e+03) (138, 9.41843078613281250000e+02) (139, 1.50000000000000000000e+03) (140, 1.50000000000000000000e+03) (141, 1.50000000000000000000e+03) (142, -1.50000000000000000000e+03) (143, -1.50000000000000000000e+03) (144, -1.50000000000000000000e+03) (145, -1.50000000000000000000e+03) (146, -1.50000000000000000000e+03) (147, -1.50000000000000000000e+03) (148, -1.50000000000000000000e+03) (149, -1.50000000000000000000e+03) (150, -1.50000000000000000000e+03) (151, -1.50000000000000000000e+03) (152, -1.50000000000000000000e+03) (153, -1.50000000000000000000e+03) (154, -1.50000000000000000000e+03) (155, -1.50000000000000000000e+03) (156, -1.50000000000000000000e+03) (157, -1.50000000000000000000e+03) (158, -8.67571655273437500000e+02) (159, 1.47878088378906250000e+03) (160, 1.50000000000000000000e+03) (161, 1.50000000000000000000e+03) (162, 1.50000000000000000000e+03) (163, 1.50000000000000000000e+03) (164, 1.50000000000000000000e+03) (165, 1.50000000000000000000e+03) (166, -3.28738647460937500000e+02) (167, 1.50000000000000000000e+03) (168, 1.50000000000000000000e+03) (169, -1.50000000000000000000e+03) (170, 1.50000000000000000000e+03) (171, -1.50000000000000000000e+03) (172, -1.50000000000000000000e+03) (173, -1.50000000000000000000e+03) (174, -1.50000000000000000000e+03) (175, -1.50000000000000000000e+03) (176, -1.50000000000000000000e+03) (177, -1.50000000000000000000e+03) (178, -1.50000000000000000000e+03) (179, -1.50000000000000000000e+03) (180, -1.50000000000000000000e+03) (181, -1.50000000000000000000e+03) (182, -1.50000000000000000000e+03) (183, -1.50000000000000000000e+03) (184, -1.50000000000000000000e+03) (185, -1.50000000000000000000e+03) (186, -1.50000000000000000000e+03) (187, -1.50000000000000000000e+03) (188, -1.50000000000000000000e+03) (189, -1.50000000000000000000e+03) (190, 1.50000000000000000000e+03) (191, 1.50000000000000000000e+03) (192, 1.50000000000000000000e+03) (193, 1.50000000000000000000e+03) (194, -1.50000000000000000000e+03) (195, -1.50000000000000000000e+03) (196, 1.50000000000000000000e+03) (197, -1.50000000000000000000e+03) (198, 1.50000000000000000000e+03) (199, -1.50000000000000000000e+03) (200, -1.50000000000000000000e+03) (201, -1.50000000000000000000e+03) (202, -1.50000000000000000000e+03) (203, -1.50000000000000000000e+03) (204, -1.44980004882812500000e+03) (205, -1.49552001953125000000e+03) (206, -1.50000000000000000000e+03) (207, -1.50000000000000000000e+03) (208, -1.50000000000000000000e+03) (209, -1.50000000000000000000e+03) (210, -1.50000000000000000000e+03) (211, -1.40498767089843750000e+03) (212, -1.21553857421875000000e+03) (213, -1.40811059570312500000e+03) (214, -1.50000000000000000000e+03) (215, -1.50000000000000000000e+03) (216, -1.50000000000000000000e+03) (217, -1.50000000000000000000e+03) (218, -1.50000000000000000000e+03) (219, 1.50000000000000000000e+03) (220, 1.50000000000000000000e+03) (221, 1.50000000000000000000e+03) (222, -1.50000000000000000000e+03) (223, -1.50000000000000000000e+03) (224, 1.50000000000000000000e+03) (225, 1.49335900878906250000e+03) (226, 1.50000000000000000000e+03) (227, -7.84972778320312500000e+02) (228, -1.50000000000000000000e+03) (229, -1.50000000000000000000e+03) (230, -1.50000000000000000000e+03) (231, -1.21553857421875000000e+03) (232, -2.95397796630859375000e+02) (233, 1.33949743652343750000e+03) (234, 1.07496618652343750000e+03) (235, 1.43132165527343750000e+03) (236, -7.06793945312500000000e+02) (237, -1.22084240722656250000e+03) (238, -1.32520776367187500000e+03) (239, -1.32520776367187500000e+03) (240, -1.41681774902343750000e+03) (241, -1.35979382324218750000e+03) (242, -1.50000000000000000000e+03) (243, -1.50000000000000000000e+03) (244, -1.50000000000000000000e+03) (245, -1.50000000000000000000e+03) (246, -1.50000000000000000000e+03) (247, -1.38878845214843750000e+03) (248, 8.27371948242187500000e+02) (249, 1.50000000000000000000e+03) (250, -1.50000000000000000000e+03) (251, -1.50000000000000000000e+03) (252, 1.50000000000000000000e+03) (253, 1.50000000000000000000e+03) (254, 1.50000000000000000000e+03) (255, 1.83999023437500000000e+01) (256, -1.50000000000000000000e+03) (257, -1.50000000000000000000e+03) (258, -7.31977844238281250000e+02) (259, 1.50000000000000000000e+03) (260, 1.50000000000000000000e+03) (261, 1.50000000000000000000e+03) (262, 1.50000000000000000000e+03) (263, 1.50000000000000000000e+03) (264, 1.50000000000000000000e+03) (265, 1.50000000000000000000e+03) (266, 1.50000000000000000000e+03) (267, 1.50000000000000000000e+03) (268, -1.36721508789062500000e+03) (269, -1.50000000000000000000e+03) (270, -1.50000000000000000000e+03) (271, -1.50000000000000000000e+03) (272, -1.50000000000000000000e+03) (273, -1.50000000000000000000e+03) (274, -1.50000000000000000000e+03) (275, -1.39056689453125000000e+03) (276, 5.56600097656250000000e+02) (277, 3.02577880859375000000e+02) (278, -1.50000000000000000000e+03) (279, -1.50000000000000000000e+03) (280, 1.50000000000000000000e+03) (281, 1.50000000000000000000e+03) (282, 1.50000000000000000000e+03) (283, -8.92744140625000000000e+02) (284, -1.50000000000000000000e+03) (285, 4.64258941650390625000e+02) (286, 1.50000000000000000000e+03) (287, 1.50000000000000000000e+03) (288, 1.50000000000000000000e+03) (289, 1.50000000000000000000e+03) (290, 1.50000000000000000000e+03) (291, 1.50000000000000000000e+03) (292, 1.50000000000000000000e+03) (293, 1.50000000000000000000e+03) (294, 1.50000000000000000000e+03) (295, -5.70258178710937500000e+02) (296, -1.42435681152343750000e+03) (297, -1.50000000000000000000e+03) (298, -1.50000000000000000000e+03) (299, -1.50000000000000000000e+03) (300, -1.50000000000000000000e+03) (301, -1.50000000000000000000e+03) (302, -1.50000000000000000000e+03) (303, -1.55298645019531250000e+02) (304, -2.72818023681640625000e+02) (305, -1.50000000000000000000e+03) (306, -1.50000000000000000000e+03) (307, -1.50000000000000000000e+03) (308, 1.50000000000000000000e+03) (309, 1.50000000000000000000e+03) (310, 1.50000000000000000000e+03) (311, -3.16000976562500000000e+01) (312, -6.71459411621093750000e+02) (313, 1.50000000000000000000e+03) (314, 1.50000000000000000000e+03) (315, 1.50000000000000000000e+03) (316, 1.50000000000000000000e+03) (317, 1.50000000000000000000e+03) (318, 1.50000000000000000000e+03) (319, 1.50000000000000000000e+03) (320, 1.50000000000000000000e+03) (321, 1.50000000000000000000e+03) (322, 1.50000000000000000000e+03) (323, -1.47378430175781250000e+03) (324, -1.50000000000000000000e+03) (325, -1.50000000000000000000e+03) (326, -1.50000000000000000000e+03) (327, -1.50000000000000000000e+03) (328, -1.50000000000000000000e+03) (329, -9.52138671875000000000e+02) (330, 1.50000000000000000000e+03) (331, 1.50000000000000000000e+03) (332, 1.50000000000000000000e+03) (333, -1.50000000000000000000e+03) (334, -1.50000000000000000000e+03) (335, -1.50000000000000000000e+03) (336, 1.50000000000000000000e+03) (337, 1.50000000000000000000e+03) (338, 1.50000000000000000000e+03) (339, 1.50000000000000000000e+03) (340, 1.50000000000000000000e+03) (341, 1.50000000000000000000e+03) (342, 1.50000000000000000000e+03) (343, 1.50000000000000000000e+03) (344, 1.50000000000000000000e+03) (345, 1.50000000000000000000e+03) (346, 1.50000000000000000000e+03) (347, 1.50000000000000000000e+03) (348, 1.50000000000000000000e+03) (349, 1.48204760742187500000e+03) (350, -1.43621777343750000000e+03) (351, -1.50000000000000000000e+03) (352, -1.50000000000000000000e+03) (353, -1.50000000000000000000e+03) (354, -1.50000000000000000000e+03) (355, -1.50000000000000000000e+03) (356, -1.34421862792968750000e+03) (357, 1.50000000000000000000e+03) (358, 1.50000000000000000000e+03) (359, 1.50000000000000000000e+03) (360, 1.50000000000000000000e+03) (361, -1.50000000000000000000e+03) (362, -1.50000000000000000000e+03) (363, -1.50000000000000000000e+03) (364, -1.43336743164062500000e+03) (365, 1.36802062988281250000e+03) (366, 1.50000000000000000000e+03) (367, 1.50000000000000000000e+03) (368, 1.50000000000000000000e+03) (369, 1.50000000000000000000e+03) (370, 1.50000000000000000000e+03) (371, 1.50000000000000000000e+03) (372, 1.50000000000000000000e+03) (373, 1.50000000000000000000e+03) (374, 1.50000000000000000000e+03) (375, 1.50000000000000000000e+03) (376, 1.33948193359375000000e+03) (377, -1.50000000000000000000e+03) (378, -1.50000000000000000000e+03) (379, -1.50000000000000000000e+03) (380, -1.50000000000000000000e+03) (381, -1.50000000000000000000e+03) (382, -1.50000000000000000000e+03) (383, 4.89520141601562500000e+02) (384, 1.50000000000000000000e+03) (385, 1.50000000000000000000e+03) (386, 1.50000000000000000000e+03) (387, 1.50000000000000000000e+03) (388, 1.50000000000000000000e+03) (389, 1.50000000000000000000e+03) (390, -1.50000000000000000000e+03) (391, -1.50000000000000000000e+03) (392, 1.50000000000000000000e+03) (393, 1.18399902343750000000e+02) (394, 1.50000000000000000000e+03) (395, -2.22061340332031250000e+02) (396, 1.50000000000000000000e+03) (397, 1.50000000000000000000e+03) (398, 1.50000000000000000000e+03) (399, 1.50000000000000000000e+03) (400, 1.50000000000000000000e+03) (401, 1.50000000000000000000e+03) (402, 1.50000000000000000000e+03) (403, 1.50000000000000000000e+03) (404, -1.50000000000000000000e+03) (405, -1.50000000000000000000e+03) (406, -1.50000000000000000000e+03) (407, -1.50000000000000000000e+03) (408, -1.50000000000000000000e+03) (409, -2.30048866271972656250e+01) (410, 1.50000000000000000000e+03) (411, 1.50000000000000000000e+03) (412, 1.50000000000000000000e+03) (413, 1.50000000000000000000e+03) (414, 1.50000000000000000000e+03) (415, 1.50000000000000000000e+03) (416, 1.50000000000000000000e+03) (417, 1.50000000000000000000e+03) (418, -1.50000000000000000000e+03) (419, -1.50000000000000000000e+03) (420, 1.50000000000000000000e+03) (421, -1.50000000000000000000e+03) (422, -1.21389379882812500000e+03) (423, -1.50000000000000000000e+03) (424, -1.50000000000000000000e+03) (425, 1.50000000000000000000e+03) (426, 1.50000000000000000000e+03) (427, 1.50000000000000000000e+03) (428, 1.50000000000000000000e+03) (429, 1.50000000000000000000e+03) (430, 1.50000000000000000000e+03) (431, -1.50000000000000000000e+03) (432, -1.50000000000000000000e+03) (433, -1.50000000000000000000e+03) (434, -1.50000000000000000000e+03) (435, -1.50000000000000000000e+03) (436, -1.50000000000000000000e+03) (437, 1.50000000000000000000e+03) (438, 1.50000000000000000000e+03) (439, 1.50000000000000000000e+03) (440, 1.50000000000000000000e+03) (441, 1.50000000000000000000e+03) (442, 1.50000000000000000000e+03) (443, 1.50000000000000000000e+03) (444, 1.50000000000000000000e+03) (445, 5.29095458984375000000e+02) (446, -1.50000000000000000000e+03) (447, -1.50000000000000000000e+03) (448, 